0.14470635134844756,0.08210844091275848,0.035931693243450184,0.06094712194369477,0.06950478957367284,-0.019055658015709864,-0.06985578396793422,-0.04535167194287824,0.1281660739285724,0.08316305009596901,0.06209142931847955,0.0377795719494627,-0.036503882563704196,-0.045535417291014096,-0.025680085353482245,0.03863548842039886,0.07030818901897,0.03947904337628473,0.15925285086519014,0.036088619593161196,-0.027261627889799037,-0.042421729825443295,-0.004782634332080585,0.022788251310058398,-0.02183413484658016,0.025364553428190866,0.0727483031471265,0.030823286428394596,0.054361022609521886,0.09152370433659572,0.10161359550185489,0.1475431024767612,-0.0682164103156644,-0.10312465594889932,0.022192581908490192,0.12799175417826153,0.01252206966604391,-0.07595943082442093,-0.13908970722788067,-0.10426007402098897,0.02078243952605945,-0.02519917814891009,0.08742408999988567,0.296026235356959,0.13279834561160686,0.0018863922509323027,-0.1051328857935636,-0.049777289054143296,-0.0019419093055047139,-0.005720615331488417,-0.008991595832084384,0.0679660061897592,0.07514243752692323,-0.010039830254433805,0.004918196482123753,-0.0016522171057995574,0.1112275323895836,0.0373629902273518,0.011079085275119409,0.0076584672001773595,-0.021380611548922453,0.002185192139215224,0.04254619174170538,0.03942234472159984,-0.1643854846815771,-0.1415843333257641,-0.12604879863638146,-0.11532323619949482,-0.18954778311678747,-0.192351685224712,-0.1950276660504225,-0.11827469260267338,-0.1217853929601742,-0.09820444245551589,-0.06856022579284186,-0.1252202524641591,-0.15866139548579256,-0.15352811171345848,-0.14216878359103574,-0.07262366903714568,-0.07427690682923362,-0.04548182981553013,-0.012746110108707923,-0.09652102942918388,-0.07463939485226752,-0.03225588578217783,-0.11130182230977652,-0.08939520260745686,-0.016028225240334485,-0.0021170137398371083,0.029631299387020495,0.0012582529367954724,-0.012758439137438914,-0.09295455890723613,-0.0068247201657088774,0.004027681589264774,-0.05192428932316947,-0.005650486726732408,-0.06579276500398877,-0.0332916634363715,0.0433108297782806,-0.057675993311558184,-0.11824506992247386,-0.16782135336149978,-0.10029100383417137,-0.11301036008766356,-0.07494717170004084,0.02533411600993758,-0.01953480432115544,-0.12676703112603685,-0.08015254016973043,-0.11634518731443928,-0.30387865958764615,-0.11628483800967691,-0.1047053133620131,0.08004054894817185,-0.10558326404007914,-0.11801048330827377,-0.06641648453266252,-0.09199434243520185,-0.17754898438283875,-0.25409521082748243,-0.17547686317134048,-0.10097036029620954,-0.16221454032251517,-0.14313968635045016,-0.12064303637974075,-0.1644479298209705,-0.012799324515555573,-0.03059563416165042,-0.03767912032341024,-0.02430519413996972,-0.09174656694214997,-0.10511548597572197,-0.09617553825164711,-0.040821799355731304,-0.053353398461219004,-0.055747030049441655,-0.033412571427025486,0.053208057728076824,-0.008416788755814999,-0.011107353701907277,-0.08224434818945889,-0.0445798701271596,-0.052988261426527364,-0.0530824344923971,-0.014282385622211746,-0.016458102069556533,-0.0173618555139451,0.07557304867782212,0.040433987525544265,0.04487455514216441,-0.09809997570573468,-0.029207787488613694,0.02740380833000497,0.07580037408656448,0.051579416392947684,0.10340955319966277,0.04845723786082123,0.08529608241661425,0.09366981972063573,0.16038683860096006,0.20298964044390777,0.2306070768873049,0.138301836222712,0.08623671224852274,0.07056661051465137,-0.00886441635229489,0.0342487306614398,0.15485222647514413,0.25980211594179464,0.3095802942424023,0.09801197633159384,0.029821864544480672,0.004052464915217142,0.05208139778212176,-0.06868366831602195,0.08160905420783215,0.12728128441892278,0.10832365379997665,0.08709405513615304,0.0012943005003302349,0.022605992276544997,0.07971705637680061,-0.015657160107890013,-0.024086033508397112,0.019611978370520432,0.06513268766556136,0.06606061829110042,-0.0009056175995065601,0.0269445547287199,0.004556662309936517,0.06807848275913828,0.058188297602932135,0.030999218459845716,-0.041620638352332893,-0.1314762323244232,-0.06846942434062443,0.0168820935733035,0.07340231669762341,0.051483952332689376,0.055337963671193965,0.007770499838163288,-0.04408150695427176,-0.05828036643073649,-0.06594459061251927,0.02363695591742927,0.018116924296996528,0.054763824179048015,0.05415564038378397,0.09614582756829178,-0.0031306454872817354,0.004335727033039136,0.031736813765734964,0.03416006157614238,0.07900811582778088,0.10371319450562654,0.07309837215864105,0.07352948067518791,0.06803935904418418,0.07359897004313491,0.05525099014458041,0.09572158936653072,0.09204909554711976,-0.06808520251279808,-0.07917760647136751,-0.07613882299237724,0.024043339011978235,0.08024576042707425,0.045774305472970796,0.0303676787008921,0.05066758341714182,-0.09393423281226758,-0.22191473843008747,-0.12580778837535453,0.01983418280797601,0.023722203642516707,-0.04518870799784406,0.00629975288348466,0.07536445081360876,-0.11961170705227517,-0.19020403062116373,-0.1595223384271238,-0.040623207028630405,0.04927882238805485,0.0010437220398283862,0.07413633976313236,0.09027441048446737,-0.08422388437819694,-0.25516690775566253,-0.13225596389344968,-0.04311027211649317,-0.006637119842488298,0.0020074848449865854,0.10550830574636198,0.09429009825840272,-0.057089891802797214,-0.04027404480224722,-0.0051017648865363105,-0.07948491270722169,-0.1005983279573625,-0.08171747913762516,0.006977552416401862,0.07728075281992067,-0.05225643647488961,-0.0018563193241903917,0.012808009412740573,-0.04534965399893045,0.00857835627919514,0.018435801760552577,0.054018102376464254,0.07410105490418949,-0.12690667127710167,-0.030853326104012955,0.0695676776339481,0.06702304497909513,0.10780389731611342,0.13186015107112267,0.1263525453723348,0.09376438433129056,-0.056459601709127595,0.032805386686103374,0.08426612364734277,0.13323303533280415,0.16902728634133612,0.10191027083386396,0.16024597009908242,0.1621651491879613,-0.17192276055448488,-0.20750822396421725,-0.040708916589791644,0.12321493816141497,0.2597935031350931,0.08736247653015179,0.005189489451635901,-0.06666929147324925,-0.16632421009170328,-0.1418672549489262,-0.061354876794340166,0.1296648533974425,0.1545302889892596,0.09051227210935435,-0.03334577315044506,-0.0788021534756561,-0.23989742963839097,-0.20023822793634236,-0.03699799252176516,0.10210858989341322,0.1240274539411293,0.06110312293575892,-0.021734744817296325,-0.09932914573006252,-0.1751300633209675,-0.1522971576592446,-0.09584796012254193,0.037322728877161274,-0.08729835126564865,-0.11097679493387316,-0.09652343456230335,-0.11544998771331769,0.09176459205762831,0.08888472768737057,0.034180074557831,0.0667306005366655,0.09857897152875153,0.09409991884032008,0.12118694519997558,0.13789219767625174,0.15046168275091665,0.12971973314663499,0.10167553118637553,0.09646748421904175,0.13754626594344474,0.1080646264292529,0.08403314802410815,0.11283762560292863,0.15004649467310557,0.14004672154043277,0.14819469387707307,0.1314725170958112,0.0820868972402727,0.11654346273066855,0.08551526113645422,0.10724858820838738,0.16941765376518356,0.12383920670823852,0.10556017543530354,0.09032678853895389,0.13502347788400249,0.16672760770235587,0.18076825624998444,0.20387797810340078,0.04572272367288414,0.01314154109395165,-0.007149611685824477,0.03236827199622911,-0.00412523978881178,0.08601197142407607,0.15426387844787645,0.10388324873432087,-0.02685948985508642,-0.10519615314136052,-0.1572837196495534,-0.3152722882308333,-0.16184304381105347,-0.03227411280204809,0.12576840438013429,0.13205046749685395,-0.13542028732845413,-0.09944295481740864,-0.1384017695285672,-0.14387110710589346,-0.06517073943430694,-0.0017680817649916615,0.08803507604827798,0.03288120334366523,-0.057507887395378,-0.13928444118378655,-0.18484333095918376,-0.1259997849142547,0.016459407004943333,0.023011356532599076,0.055345073195910796,0.08854411143920712,-0.07199856496456501,-0.007238835375635571,-0.03496975818897858,-0.05269209301639902,-0.0987597318704391,-0.0969193187989054,-0.04684966918520938,0.05089678294139067,-0.03288959006621011,-0.010903544313190714,-0.05759687205097387,-0.1287490415400184,-0.14771178273220648,-0.10484167039435403,-0.013468889055527511,0.030816724245643162,-0.0012422332054427998,-0.06875898288772857,-0.09399635867475789,-0.17095201750982286,-0.17079586184574516,-0.13519673285288325,-0.02331737179459343,-0.0732111735896454,-0.10860735759347616,-0.09747265925813135,-0.10638693771716082,-0.19165106809574106,-0.13176880766361734,-0.10358584548293091,-0.06889974325439235,-0.029137837840312257,-0.02596795746189077,0.049445536852323724,0.1255392263396206,0.2351808744144506,0.31394029751670877,0.05141422224289902,-0.07653217865244517,-0.08355928405664849,0.0253482240980412,0.1303896635743808,0.20197931842070257,0.22847874968181817,0.08031142480828139,-0.07097642029115042,-0.11445845486767427,-0.07077822421405407,-0.05109170522393106,0.068372103088506,0.15230608223204825,0.14957913864322447,0.13794961468978967,0.004298929649567092,-0.08778989248876963,-0.13736656726445062,0.0007966208101723971,-0.07793633721413004,-0.132879471840055,-0.07551090130790228,-0.012086236700957948,-0.10744961033687347,-0.08413226934558556,-0.12388181092743933,0.07838334889706969,0.07815331669265958,0.01996763231193036,-0.005112393550722871,-0.07579427882084126,-0.03638717754275647,0.01718612701257763,0.028175068916131498,0.08902126955563734,0.02943277009400052,-0.030403357212924635,0.0034619607591430514,-0.021782944666153332,-0.04160978225902303,0.03836683772512943,0.06832426721023228,0.05724970811709766,-0.014579980414794158,-0.030318606255379063,-0.04441048008710013,-0.006391191533705911,-0.011652555794553715,0.013310623230070017,-0.026814982835443466,-0.10777243370725959,-0.10112080253024422,-0.101775727471317,-0.047431363828324795,-0.04321817350179987,-0.04444978614312883,-0.017737730664215506,0.029210625372838254,0.01302795100648967,-0.07650052943157312,-0.02577719089544553,0.07291057773525818,0.17733203056726887,-0.019141326946319027,-0.09338884782131335,-0.04582728688791881,0.10980793594337626,0.08690082595550551,0.1671769118732876,0.12104037418526269,0.06766581034581994,0.047696286084509834,0.00046128014046412677,-0.0501554409085488,0.007934652311653027,0.02378701099697172,0.06314967019747107,-0.02022927604661523,0.036545017721224184,0.025548608494466045,-0.036276695901302655,-0.1656885932501305,-0.1044096103542319,0.05493768134704107,0.08160649710790083,0.12414870977697741,0.03694269103766146,0.05751030914035316,0.008266253667118183,-0.05996864246715233,0.0073155199980100396,0.0766887915931871,0.11739944582694571,0.16778523513703747,0.2005102901712519,0.24063024200488942,0.3369296377578582,0.30302405250816156,0.02960289675216826,0.022251216230042958,0.025650686859182363,0.13965086060654056,0.14730602617828917,0.21695147223523442,0.3068095239803226,0.3362749027797682,0.02155571327695949,0.035331069325131075,0.056486275116667956,0.055563117419592196,0.0935291846840125,0.1691093868790368,0.23151508256981732,0.25017215357053196,0.06332478436374558,0.04586567054232918,0.043263172286942556,0.06703868921897903,0.10237913509753555,0.1854866464130055,0.2585501106013973,0.19756303404713185,-0.03607407918754232,-0.001578712242850077,-0.024782446928933614,0.04917750316737705,0.0001610131668903427,-0.02228640525169746,-0.025382924565876548,0.08798990691915037,-0.09373228083812216,-0.12250114555594341,-0.13117565190571503,-0.09206248253042108,0.14715016911110881,0.1322593481603888,0.06319093025715788,0.039390943828793525,0.017607478018595947,-0.09819443645824608,-0.27310384996903647,-0.21777740489643363,0.06951625119955494,0.12767712109170443,0.09580974926470555,0.060689341455304774,0.03038753513869715,-0.102270337600241,-0.14848301318717028,-0.03301887794373846,0.17587341025289963,0.13921835480681397,0.11308771697866335,0.12058648500560287,0.03542935862131257,0.02810398583552266,0.026520262248375757,0.04995902826210711,-2.4460649157790978e-05,0.05229538843337151,0.08888149599085626,0.06425057602846215,0.13085757654439342,0.05400091146683655,0.06307642011710538,0.07669605971342278,0.07997083607123992,0.029480516650513183,0.07829908890505449,0.1621981605085245,0.1615710457126958,0.13439119672254699,0.11663292115132846,0.11308861495082134,0.11698941141343094,0.01824515980673924,0.08650137447792462,0.11005892457291874,0.09355561917873138,0.11901978813586797,0.101833056464338,0.1345946393738721,0.09693036670137034,0.047976061689768736,0.12960376602738494,0.1783962418375308,0.059155789104670245,0.1671645072864803,0.25342988456049953,0.025749105274743195,0.013694800766315851,-0.038903798043016594,-0.020442759650442798,-0.0966607277825687,-0.009023964177997636,0.0765663159888686,0.13350914347978343,0.1265062702719278,0.022964860251983767,0.05499880925308074,0.04469344912350072,0.07238147656911526,0.07026641784725132,0.1074329546644097,0.15694992616296483,0.250174646276247,0.3159461282357845,0.27740101714774434,0.22890791194934768,0.1921517897642218,0.1511436189856467,0.15660240866195,0.2522954341601943,0.32395740851529614,0.47695728751897853,0.3896580230899182,0.31884188181871354,0.1944443543312765,-0.1325718158378432,-0.0922163294953087,-0.12517829683076723,-0.1624688547946621,-0.21437587095270905,-0.12654687998665354,-0.07158504924258914,-0.21448570969492758,-0.09044888879325921,-0.05124839092631012,-0.06751507865986091,-0.12080915156876396,-0.08800934980542582,-0.09460615438161568,-0.040288805404035156,-0.004489636232644684,-0.15107525971810534,-0.09480765438117433,-0.07453410244675579,-0.11100530894214257,-0.03559269539887041,-0.06383505082527417,0.01765294005663693,-0.05317111397298233,-0.1821965233940533,-0.10995764164940171,-0.06942629160540918,-0.007012146203423839,-0.015078219676471417,-0.09396787045690197,0.08851053320756404,0.07753623227568031,0.31407720518168775,0.2544334415932139,0.15219854507314554,-0.012335631749993213,-0.025403043885495677,-0.11217289966828796,-0.2020440766629025,-0.28171142097893076,0.4008769760878053,0.2903540005688535,0.1980575925777273,0.08572454413123484,0.03080984619833933,-0.04693294846456253,-0.14874685257988732,-0.10906986645576917,0.35912930102522456,0.27721391152997177,0.21754090736132908,0.05292617384494384,0.0006179747816746224,-0.03137197110652005,-0.018410212384654047,-0.10163986276898568,0.17060754898834837,0.29214170713837057,0.27540666628350374,0.10142534073289966,0.10499143235877602,0.11374936010075,0.09260296203147553,-0.029837377456048492,0.19818635753397218,0.10103529706306727,0.055881642775252705,0.06513921196587127,0.07637458704067647,0.08847169834615484,0.07235404680072412,0.12730320430400288,0.044813093737314375,0.008704771366174433,0.020224491751004117,0.015153488299604568,0.0735095682880513,-0.015385809856615772,0.06573279378819352,0.09876845043951536,-0.02634320031586207,-0.03884029930742393,0.0331314887215933,-0.03726975215853558,-0.08456174382971343,-0.09864416854083247,0.04570191077826866,0.04492226298992935,-0.07381404412079072,-0.02130188659234068,-0.040906439906295146,-0.10214221934649337,-0.07716258418789043,-0.17606444163663726,0.03555640559908895,0.08058245959329943,0.04641862490662172,0.03309767947213411,0.014068708352650961,-0.11747706913920442,-0.0026605685674190335,-0.03174830179193669,-0.035127456001548506,-0.06537976757170268,0.040132934035167205,-0.08138449048933155,0.0018030401777500006,-0.03764169040027431,-0.21623620866911636,-0.13201895184614967,-0.17104005078949305,-0.03553250589156779,0.0906647511502583,0.04338674842290537,-0.07482090542278744,-0.17519342423208975,-0.0932749737502389,-0.023499001951558046,-0.030446214473603406,-0.014344563336467555,0.23226555871238036,0.1521951386874092,0.09400282131014183,0.08788763152078059,0.13854868974099652,0.04159497524364626,0.03132102166155506,0.0009222500242496265,-0.007858551508205323,-0.08171362431389431,-0.12455033722819589,-0.095406931721235,-0.12870190460812106,-0.13714162646703723,-0.08742581727558639,-0.09220034097791166,0.045566019908933976,-0.05767299488594287,-0.0838610706540613,-0.15262944898245806,-0.11062721899903925,-0.12548492422203347,-0.16136777683838316,-0.07101417955019995,0.055689410681056074,-0.11080477239388517,-0.10470488290240276,-0.17025564111572528,-0.12826943635599483,-0.1259126695824013,-0.16875424601884234,-0.128984736482916,-0.048067051021058384,-0.1423239904615827,-0.1522208479538579,-0.17964445534257395,-0.1703349651383684,-0.2872281222847666,-0.2023437783440455,-0.16576917572961072,-0.024287204428034583,0.047418064574228924,0.009546429541899649,0.14399858856727135,0.051589240347151746,0.014315540309375886,-0.036223407590863364,-0.13383654848472845,-0.038691763106853454,-0.006646238636416809,0.11833241287357531,0.15380312747055563,-0.002340090864944329,-0.05800327138984119,-0.09520780946284352,-0.0751260083371625,-0.12105119350927551,0.0313908163146841,0.07416572450682818,0.1577636090696563,0.011969941743622437,0.07666050293939182,-0.06876233392119613,-0.11079755110867542,0.058542105699717115,0.1355156186539523,0.055426613587178396,0.05701317966615513,0.09545108024681193,0.12405786199634604,-0.0030691775452053745,-0.018089885258588376,0.15911627126708044,0.1356667260084693,0.07838244127382114,0.07275718796284736,0.1014314026543053,0.22427036575690565,0.22212517694736772,0.16182779339223743,0.10692506372310621,0.1455772774484836,0.1466853212014177,0.1228698240931087,0.20018681657396625,0.21307103900389565,0.24788424618038887,0.1718460269628881,0.14328806297436392,0.1691725519040995,0.2008849796295957,0.09810521144176784,0.20205406809513282,0.13877551788477557,0.17956527086385027,0.09476516683285084,0.16190705465143787,0.17835785326158154,0.15313804128288605,0.19848621659411053,0.16940495287968996,0.005133786938552776,0.14601532706156406,0.16109032266181011,0.15001513654259976,-0.038897373343207545,-0.24076535240922098,-0.25401187121768276,-0.3149899521344113,-0.26991776974711545,-0.23355688796560253,-0.10725500278357254,0.01678052939097112,-0.01197825397857455,-0.18639246539570312,-0.2838785031405758,-0.27552590025060625,-0.2587392878533711,-0.271261651970985,-0.11731373749992832,-0.09590306782181338,0.009379648812998187,0.09564042261203186,0.02726643678106965,-0.010550474844250547,-0.05596139073070321,-0.13565114900996778,-0.054076845715050385,0.02996433789841669,0.10126415025582282,0.22272913345075965,0.016449791811572127,0.0666985565417549,0.07140191767461063,0.03795187848385244,0.13013035039550014,0.03973488306767576,0.04889063982206235,0.05012855103145566,0.02614839280820588,0.006402039137209981,0.04172978907352964,0.10217614022579502,0.1753644173028449,0.028405477989020513,0.07822035883998744,0.06366979101402585,0.13934607990279443,0.08953087367481957,0.04699264891145812,0.1030231904056871,0.16477523756489754,0.0021493895585053594,0.08187860284447773,0.09758661991978704,0.10672549048412461,0.1110289603222236,0.08658481773456844,0.11498861131557336,0.15479537859240555,0.08904891520840143,0.11997618435224955,0.1499070415907266,0.19998335835825282,0.1922476196131207,0.16366283242083748,0.1794857788612608,0.18409053775623196,0.0803628607127808,0.08379930345810815,0.021760722605350676,0.035242561757762886,0.03342002235913295,0.1428397554186086,0.07430995749023028,0.07062548994824291,0.06974523432858756,-0.03558810369154329,0.08977063190294575,0.0960614046458732,-0.006471813319676577,0.08036374972783397,0.04678925418091416,0.1274361461527934,-0.2134256823099184,0.08037339984553468,0.025914952609599393,0.1263053016705378,0.16202176193263487,0.18115160313377454,0.15439182220371708,0.09377931477875172,0.03428090819069093,0.09200394575071744,0.098141085326948,-0.05345930717501787,-0.0033084404674458847,0.03930245999710002,0.14949492562276184,0.21343419495224933,0.1122512462281351,0.09540466038230339,0.03637906478341245,-0.03609686287082428,-0.06916314152245572,0.0004403764948673195,-0.0064233387125328945,0.10191914272222283,0.0502600971080589,0.010553691561683398,-0.023064766338776254,-0.014624776352824803,0.032940689463830615,0.015722632107419865,0.051512949856840684,0.12527426039031767,0.039843885809116866,-0.0024150036794881847,0.04607552285587536,-0.07620472094536139,0.06083395241310665,0.06768255219203462,0.07130771929535032,0.047678912331865414,0.11129378742214455,0.03845879337459593,0.04691785959626217,0.03644791560117866,-0.0352933103022861,-0.023189851131183412,0.08798077929783372,0.0933182445204505,-0.07886092504193072,0.15764835836750643,0.15861194046571503,0.2220112537365572,0.17909994737391985,0.0647445077182355,0.026035942403940634,-0.08124548143653239,-0.025889227423682153,0.17291608137368222,0.2793760393816114,0.13692133365432183,-0.08969828374019057,-0.025880775225018127,-0.12247194636518323,-0.08910586182550186,-0.38044608652472645,0.05442116421767291,0.15862784280508052,-0.030216029809478302,-0.14507241040662197,-0.10956694042113899,-0.09066579445022008,-0.08368030608063755,-0.3853642600227285,-0.2058542584993788,-0.015143944457240573,-0.05049758677656246,-0.14841116914513988,-0.08977781995806994,-0.03377072950589365,-0.0923153206481636,0.12452839119327214,0.1162851717584607,0.08014194574355461,0.08362860601234709,0.15814245875914792,0.19616765041808218,0.23728762470740594,0.205358748642012,0.02375727662099726,0.05405867344040313,0.000986920413586122,0.0037365202455085468,0.06396244923191945,0.1707504906720486,0.15471648439700866,0.18315225135686145,-0.04248376922773946,-0.036267141532068996,-0.06988525100373963,-0.09976509291141865,-0.0119151572539774,0.06780290737887178,0.06894702974222094,0.19077255027501774,-0.061025089363360645,-0.0943641898242112,-0.17537057991151567,-0.150327986342702,-0.13747932637224605,-0.13498392252612812,-0.035169819262151576,-0.006187107731209733,-0.020031577350123602,0.16046231815975381,0.06856376528393406,-0.07732679784003992,-0.16558568274217314,-0.018981307952029777,0.034010982597894125,0.04764806455723774,0.004811736020340496,-0.09349928689993994,0.03658661340932171,-0.12138755461949667,-0.09320105511157889,-0.0960589426140834,-0.06151832962577526,0.0011290922418777784,-0.3570960595064649,-0.13751064292848125,-0.0964572753820149,0.07152147870779084,-0.030602981289299037,-0.014909711263717044,-0.01311224016588597,0.012294406953229071,-0.2373187133477072,-0.2535639688078024,-0.043569033102671545,0.05024221533330523,-0.06945435455713991,0.025015403350625562,0.02423747627239595,0.011340457881754258,-0.1964035663632645,-0.1854238846671954,-0.13338368371072012,-0.05308615497070182,-0.01622684592951415,-0.04321480928403276,0.005014361691541718,-0.003171064818337787,-0.19617766749482116,-0.17957609579947886,-0.16755663285447214,-0.09402242611267024,-0.1197279113320977,-0.09748190930702008,-0.02059624286953436,0.05584357362414669,-0.09165489176541972,-0.17153113574314777,-0.13488472398530668,-0.12516402403993113,-0.16946487950943612,-0.07937143514478745,-0.09165070987175065,0.037299184753478244,-0.1555421316846487,-0.20469183719271106,-0.1690065034170854,-0.2026361532800996,-0.16061526357673608,-0.08769901208518821,-0.17011064871638254,-0.059898661802233716,-0.11198371533383616,-0.004264078683449923,0.08603881142777361,-0.007886867806105721,0.008797064094779549,-0.1163633179766308,-0.05956946807489921,-0.02979142922286366,-0.0671881727511329,0.05433093158691635,0.09182010332887648,0.017828005857887318,-0.15800660609863665,-0.17781902321024093,-0.1386188412707122,-0.03602591202616535,-0.1583658776970402,0.026974440224984443,0.11299010959231341,-0.00020350908698344464,-0.12804063227719925,-0.10781850940425086,0.002291273162379958,-0.01544020708882399,0.032937560041249564,0.023738041025879886,-0.030112569920831733,-0.05933531162901639,-0.05443836433316281,-0.0444296777960432,0.03807818789949987,-0.026282571994418122,0.004303980599315469,-0.0047951133325302864,-0.013298516721747557,-0.0005712988414249567,0.0483271998338842,-0.0021782738487042767,-0.0091948843894444,-0.062141118887443544,-0.021451440265982707,-0.0007361017017248465,-0.05787359519708951,-0.06992122546202865,-0.07458997752650731,-0.07178082252044009,-0.04638825170264514,-0.049349188989372794,-0.04659458989997966,-0.04798665913459495,-0.040576031680070186,-0.1234895778201683,-0.10292626485986009,-0.06685621312254984,-0.030963027166154695,0.05603118673216229,-0.06181452398486458,-0.08070543787673037,-0.09421232930192575,-0.03801094170432245,-0.03441028006930816,-0.11127834263085411,-0.08686984699741289,-0.10150733643711037,-0.13825538215051292,-0.0933423996183036,-0.06707507587480717,-0.04821645683282584,-0.2530979296887224,-0.10538848055647096,-0.12535746502542344,-0.207746475878612,-0.1743058484808333,-0.1783874613815775,-0.13710693449462744,-0.05642224786673994,-0.19818387793455453,-0.18415864953199004,-0.22461209811516664,-0.23151136181895343,-0.2853032946124492,-0.04523067599828108,-0.06192846913141254,-0.2579417607868955,-0.1556203075982077,-0.13496159776686156,-0.21797944251975096,-0.1596953115389097,-0.05871904915210362,0.0677926691549469,0.048637807642679186,-0.1279198875700557,-0.17373314797393974,-0.08378290780042005,-0.11418212468154702,-0.05942811462908388,0.07058666628581667,0.06100517536841398,0.0843064544378437,0.08539576239748183,0.06694225680957473,0.15387851016944523,0.13598885412175118,0.08734486894599681,0.10628226361870578,0.10549355209057926,0.07876458558597456,0.006029573528645693,0.008201330508209625,0.01338715925422026,0.13572479879860247,0.07849667316423066,0.009968734436364594,0.07807060649205289,0.02875132886451058,-0.05177999354993674,-0.021149654721008937,0.0039836063231835726,0.17935817304909094,0.08020847881663472,0.004552332237832611,0.06107643708485828,0.0374406807609918,-0.014354263807501115,-0.057095552448148824,-0.002641700558095221,0.10475681590338055,0.10837520634418404,0.08919427431169913,0.2110700012560874,0.23284315703697625,0.06963327281689356,0.0894295415607521,0.04138309430725007,0.04013663742626992,0.0559102773134025,-0.015188273022883936,0.0588319307387941,0.11789499703621716,0.20106212487555145,0.072722913446108,-0.07713005568811263,0.0258222958926769,0.019114035340991202,-0.23346316633117997,-0.06487414887979383,0.028833926212324393,0.120495892023778,0.21684184457979358,0.20661802119028808,0.0765302233112811,0.12537527317831856,-0.2431442634090331,-0.2220935856192136,-0.06855939241954787,0.11889848298779196,0.10993357075987548,0.17605495731134171,0.13284130893157728,0.15781508879883532,-0.12731901135159265,-0.08115142337494824,-0.05909164730929001,0.004562888091599909,0.04670112227307608,0.002567246678122893,0.003206603060607272,-0.007679164523867404,-0.15257238836132275,-0.14365903209548203,-0.018672021470541048,0.03103593918007485,0.07932278639620675,0.07699028908739118,0.020849829739406446,-0.000716556791468434,-0.004058220993020849,-0.04539681842526938,0.07204489716761533,0.04387959873619271,0.036684026371660544,0.02316569056163544,0.04432437512587837,-0.023618237337731857,-0.03933606043093328,0.01192475154406125,0.09278453277023972,0.05594675526109397,0.0425496256061068,0.014857828142951328,-0.01690396674877019,-0.0463794344282572,-0.38589958804849295,-0.21510276643843632,-0.05444230622428823,0.0639602934737562,-0.13939533908918075,-0.07811415649634401,-0.05254875500446074,-0.16626302997435902,-0.314373263921924,-0.1921689836086064,-0.014388647087584484,-0.13018854799317867,-0.08329743293139182,-0.15613732394501462,-0.13336886739913928,-0.19433590752175503,-0.3943448778543198,-0.3142972960090211,-0.016738884207338094,0.0954358275524216,-0.1388312521274035,-0.14935164451763144,-0.1783531528502213,-0.21343251715845238,-0.324944078770252,-0.2628335751335026,-0.17382400102585355,0.028803548546749082,-0.19152799189061384,-0.11284984991087209,-0.17631875839678066,-0.22202055931328135,-0.07998168002124252,0.06032024326295244,0.11510178312478322,-0.012278026471737506,0.11287728300814359,0.1925015775315814,0.22669998603426625,0.16457923348448272,-0.0009488143355154158,0.02490315776062176,0.041155152572619036,0.1332456473879104,0.1311791164702959,0.1802034697420833,0.21757356815625908,0.131204229144587,-0.07062962056459261,-0.02206859629370725,-0.01035560877198882,0.056696042513281725,0.13677032756972193,0.1352626304820486,0.1527595649991747,0.13667330603219568,-0.18903996203221773,-0.06127753512367934,0.01813287711136526,0.06697535382507662,0.1103456606130871,0.153883502038451,0.07731535537577883,0.04841365615443855,-0.2550830107621944,-0.24936199229632514,-0.21607451045631143,-0.2645465540626757,-0.18150013158453693,-0.1651594016206419,-0.1340412517568087,-0.16913815614584296,-0.19493372303772594,-0.28597988426026427,-0.32632735302464266,-0.16519329184978487,-0.13055795207132428,-0.17891048392052564,-0.15672220874736073,-0.21637960468968695,-0.31739290714811846,-0.31378394671985604,-0.2599513895400218,-0.023650638666521784,0.03670798361144886,-0.12445796202605561,-0.19694437178015725,-0.1796206951700574,-0.26210869127255687,-0.3617908340811316,-0.1988887459490925,-0.11853305587025864,-0.10225261197300277,-0.033499386793332614,-0.05989939225945948,-0.11680980650935309,0.016380698577635737,-0.07082088314835171,-0.04627369098564766,-0.08322805485640904,-0.05437096764996923,-0.012183869351393383,-0.00856555797435907,0.0269994887022278,-0.04478956083474023,-0.11469815331249564,-0.10020052331568259,-0.06102249935328429,-0.06596195745982245,0.0018112551168991534,0.013389458243773238,0.032650501563118675,-0.05771125215617676,-0.1484094866971703,-0.11655030013036739,-0.1778909944031147,-0.10108259880153019,-0.0903955220996327,-0.003934762739932159,-0.04888925392086675,-0.22027238495607865,-0.23517974111783582,-0.21640135265012325,-0.22145595569659735,-0.1671509699574446,-0.04494054495520816,-0.07765164359870141,-0.02773436853367589,0.11516870913784813,0.21661567127701756,0.21333821586413135,-0.19614933222501574,-0.1479077820018596,-0.25496236501407826,-0.25767507185630845,-0.15578186525544174,0.08208301189318623,0.24226878277521172,0.308938741292065,0.05541177191853551,-0.11905869090332324,-0.16610986273962308,-0.11668567879612605,-0.17155112297896896,0.0707557983613515,0.08967327621507531,0.13549637756357652,0.09607256563050985,-0.13485610638611661,-0.12010063678923825,-0.11180461702370922,-0.14572717167046967,0.2631078270243769,0.2639574070682542,0.22940268913286488,-0.013109504356351602,-0.05032817062295279,-0.11362129217830834,-0.16915883944941437,-0.14079601681052406,-0.14446151591719328,-0.098419598754343,-0.016368404675861228,-0.14017802058193704,-0.13336134783689346,-0.08067706993534451,-0.007010736250361542,-0.23538353326744946,-0.13499613064641658,-0.07787535773142562,0.025359255940129215,-0.05846860215733447,-0.08928585281551527,-0.019174127984108207,0.0692869670228912,0.07749227177212178,-0.07072954383696073,-0.02120107622858663,-0.006427832395077566,-0.03838338120663339,0.04913129181899392,-0.013135643922100952,0.07639964576898087,0.08900288482404954,0.03967102046401695,0.019607895692063945,-0.0007252410310788579,0.006495592362153078,0.07582711791410135,0.05778307845829152,0.14431076357099482,0.04271371198309611,0.1916933029937193,0.35837627388421395,0.42791048613908284,0.241138062566329,0.017742808237564165,0.050667827981382266,0.08101190886134117,0.1424566013580591,0.10492757291639693,0.2762522320386183,0.3711451212840586,0.2802547640478795,0.1260295789519076,0.18398410515325916,0.23917500026361715,0.08296469351388894,0.1812197597710001,0.0848135542807585,0.040171079375989065,0.005949547011549227,0.06975055569719317,0.08538792906540427,0.08581182329824491,-0.019783966923009558,0.18638702323469752,-0.00865749206850204,-0.03710116161679359,-0.19630564768876244,-0.31148922567135745,-0.15036186246760325,-0.05560863479119355,-0.05112044196273481,0.06683096935883145,0.0671322531661319,0.06131291377696069,0.045526537375776575,-0.004399874883992914,-0.030711137430607324,0.011264915288198236,-0.023353827542210756,0.09017745538898304,0.05862051281326885,0.028525907409097,-0.01494274185910368,-0.0025117843323317645,-0.022329638167268892,0.016052754279939595,0.04553401957666684,-0.008944817140945267,0.018663700534557893,0.003160885343115346,0.01750798050177822,0.039850794734135365,-0.042335630835400345,0.004367989195516848,0.030429815328035938,0.007925394500937067,-0.001755405596304613,-0.0024888382543228906,0.05696831404110463,0.05871306505815774,0.03058896505386351,0.030112097099932046,0.024651851410632437,-0.21840141671288965,-0.22762937292359858,-0.12142049066548052,-0.08635010306476112,-0.1872540087399725,-0.24942211645162335,-0.10728156581135007,0.047495201147314994,-0.33778073513317397,-0.21725931082046424,-0.1712543190962937,-0.23606759093066304,-0.16645798050690633,-0.16846221876240208,0.020912083664206497,-0.03517142451153856,0.08251856341942852,-0.23141668036047233,-0.1284184373835232,-0.13344229222277776,-0.11988850487910464,-0.10966221832885202,-0.036701776468470955,-0.1066686802093889,0.17322173302361074,0.06995963662621194,-0.11581392773826257,-0.15684155218227971,-0.16512907712111152,-0.08514001717856585,-0.12625707084826854,-0.12632231874597621,0.01890710772379761,-0.05035751283721937,-0.03533813521640308,-0.0054644715566947045,-0.022129716800637553,-0.049503527413556576,-0.007161560527616344,0.01621789984757899,0.07721804206180417,0.05206756618487404,0.054749740376686125,0.11602793003278401,0.03517928918543285,0.015357236998582414,0.08208503734773266,0.12437192128554975,0.04403043999360266,0.11578495859928263,0.07303727533709796,0.1842072673957575,0.20482525935617715,0.18347280071679395,0.1539527038479842,0.18898680860102068,0.16561044600483069,0.1363280071392297,0.1397040099954152,0.23710955743050627,0.3313984615651466,0.29545962474683124,0.22100507631372873,0.1929688035369528,0.11777739322913,0.12330351150068145,0.1216165771818435,0.05399994794443661,0.009165305252468375,-0.02274627121330821,0.024367666281770547,0.02097218100207388,0.12210934829193332,0.13450001306577808,0.08933325728613233,-0.017951340276707264,0.009604297878679181,0.013276063390026998,0.10188035665566693,-0.022279130998863857,0.24793762066843336,0.02634784730730433,-0.012459469330269052,-0.097475894210825,0.09198971658665127,0.0561708788138726,0.05839139944056721,0.023176480652917105,0.08904874659578843,-0.048190267948907746,0.07241667451502695,-0.01937251169181338,-0.015612305446981412,0.04630323922086713,0.060632946576451074,0.13379762889879693,-0.1165162118554743,-0.03943138157376792,0.006387715806085281,-0.01825230105782182,0.03157249870090862,0.055801781809783374,0.10928200388116996,-0.030462429684618812,-0.15283527477543524,-0.10873296737684196,-0.051300983404238915,-0.01073297880863822,-0.06265587018809549,0.012061988671182352,0.0774575302931447,0.1407248306195453,-0.13055525188657965,-0.12481128926250405,-8.886524467668111e-05,-0.0596856583079765,0.011822132190069015,0.018710346401773305,0.050498369335734115,0.05850190770427157,-0.1656322391223186,-0.1387653061079027,-0.011335370534937791,0.042088319382054346,-0.0005816868224111336,0.014294868065345788,0.003263638634847639,-0.030391446743476675,-0.0859944143581261,-0.1740161702340385,-0.3674557822237249,-0.22372450519868636,-0.027233430486431124,0.09675348182914242,0.06664396732539304,0.08983354863089917,-0.06510169821604789,-0.14292354580087813,-0.2659736438438668,-0.09208309759387738,0.02590132310803156,0.07851837320582253,-0.020743576993307825,0.1380503733566552,-0.10513875244910796,-0.023481777955665063,-0.023706839317301193,0.07521442187007887,0.03249418500043044,0.09727042665048233,0.11488321597512614,0.046959760167449516,0.17011534045664076,0.13226915561751226,0.14806886936151037,0.0491173413903115,0.029150485796528906,-0.07437062370059229,-0.00998258827794623,0.044284630147841814,-0.042722941939183356,-0.10711745612154415,-0.045813588893231026,-0.026772290286802388,-0.03680974464408389,0.009870797089249367,0.07568842167437771,0.09308120367679106,-0.10719575284335241,-0.08826397699638927,-0.08963067137669259,0.027111347159970257,-0.027891379616831916,-0.020785759548526805,0.021256656322316988,0.0065481905363478496,-0.13727971814923753,-0.05830328585527876,-0.06615936486699621,-0.050337209522596536,-0.04996964729570863,-0.020353353777744825,0.02704315352624356,0.04502164751307327,-0.07737898174665671,-0.047275500267937136,-0.06251394342080242,-0.05847798401612066,-0.0505652746870386,-0.061818257793309565,0.017870369673643843,0.043874600893269916,0.050519518864343506,-0.032674990586497234,-0.09687288838217667,-0.09384427266954157,-0.1196272952558359,-0.08409372235107279,-0.045441532200332105,-0.11649461583993219,0.05764036803897974,-0.09895360380062047,-0.20838700631088747,0.032238162741787514,-0.017985412214897828,-0.10684130981670718,-0.08181877046392784,-0.04284040465910161,-0.043368987636561426,-0.10150220213065582,-0.1980250032622998,-0.08769063319447166,-0.0847577369838523,-0.06286708744873785,-0.10747246268149757,-0.06608559855971576,0.09072234400427366,-0.02694864070380475,-0.11790311847323241,-0.07547276605341927,-0.07188283317817601,-0.11280983700464593,-0.11988841814260391,-0.04764715472638441,-0.02223323667814897,-0.05437041050870027,-0.07888551592625716,0.002356021451396037,0.0998913450754682,0.1608794850099211,0.17004589727362965,0.11390771699402796,-0.12022760069938182,-0.14257917583933488,-0.07505080988493153,-0.0637183462948166,0.05782850787034213,0.13231926160683286,0.1693549032612824,0.09592363432445712,-0.1986352395873107,-0.1928776355201382,-0.14664647540785375,0.007437708638228255,0.02143931196241372,0.039880154040555074,0.1457788027470558,0.05588832629964244,-0.2387062130804011,-0.18948871618531082,-0.1755463596442827,-0.11294940923335894,-0.09412289281081748,-0.0897778090743726,0.03334055026722758,0.03755945699530535,-0.16445930274132667,-0.10619211012223868,-0.2110140097028007,0.060053336212339145,-0.08458380901298064,0.015457996717898485,0.12911292515119452,0.17358143737681347,-0.061106038725112666,-0.20007377128587076,-0.19273618635527906,-0.10629621544118918,-0.0844812278445243,-0.08160755326959146,0.062344607081897596,0.2046857298180363,-0.21020360340758562,-0.10472813472252442,-0.20922514682282137,-0.15429932040416403,-0.19149354361337131,0.022461015927942925,0.11682317485066242,0.15523846545932474,0.007284392755932166,-0.17074206598033043,-0.28151991491795336,-0.18823325784145525,-0.2002173581137817,0.018604454629272547,0.07815062667656328,0.08119060358468949,0.010718019622584209,0.09540240067365736,0.09695006573565763,0.09544903640194244,0.1460833710261805,0.07381361296691567,0.10008317857063193,0.18105585034783767,0.0021065759695880243,0.06400415687505234,0.08631766109052168,0.0902925623629683,0.1576771340248755,0.22046121845196096,0.24397811465287006,0.32091596337438116,0.05707101145347428,0.0616244567854445,0.12089375125465283,0.16969174164325757,0.2291858548248601,0.22774951160942136,0.33962228501154035,0.3287660972323497,0.027660346521271556,0.06892139950004442,0.10651474359683036,0.1434009105651776,0.13211926046421293,0.10579333049451546,0.2698963186464726,0.3876836863319841,0.07457873687997242,0.14715826759891884,0.053365215505143206,0.00030981865020076823,-0.1518065813327463,-0.11706490493189249,-0.11534029467094205,-0.11811705225656144,0.04547878601700835,0.035041045650758405,-0.010901496603718882,0.05345891226478278,0.0746340104538446,-0.06395675736576334,-0.15530735052640443,-0.14058159940917642,0.04124425383866766,0.04118723636941305,0.02048219113304347,0.1957710513675511,0.07739256493459071,-0.03436715759021099,-0.0402144124176453,-0.07558176214697442,0.18091546017306903,0.17371119087606054,0.009746243645578826,0.10501666639396567,-0.001769145075687165,-0.020464413862817325,-0.0640636669464644,0.06034855808364641,-0.1499574453407388,-0.12771532646739434,-0.02820338490545215,0.06608023438288671,0.1426981468350562,0.14334913922179954,0.08155521123128401,0.024598648061382615,-0.1501774125315494,-0.10947401711046717,0.043164248181002306,0.08989759576189721,0.15715669486090778,0.14323278918173726,0.08353192531337385,0.025813229771828476,-0.015164789483143142,-0.05987719822980033,-0.08078977167236895,0.10882106827232031,0.14034035822795557,0.09093726179917498,0.016119815552783332,0.020338251820935443,-0.042400139347951414,-0.05551075556325535,0.005180848293250759,0.06677730920593096,0.06621046114267984,0.0260659643469131,0.03777905838156415,0.016769465171168705,0.026704512095539566,0.08323894230162317,0.07094479129086842,0.11094130186807627,0.1454538730319203,0.11602572790564299,0.05393618614086068,-0.08087620320983474,0.013191096407155701,0.05813817767588718,0.09461454804959255,-0.07920287487762714,0.08965600193030358,0.08004592706970684,-3.103741123162051e-05,-0.12404037745242076,-0.13800043837108006,-0.0698838306135868,0.04378258492314255,0.08839320419886257,0.06438629979512649,-0.07184679511573862,-0.047503244549425866,-0.06035409751451112,-0.07913278281275203,-0.003972638831124773,0.09308172350442333,0.19323651400890599,0.07177235126035383,0.04663641943836558,0.023832625861377747,-0.02237591676235766,-0.004365041696724741,-0.007607596223570727,-0.1075382054799329,-0.1183399221917009,-0.015681569470468153,0.021928090560337933,0.012277042957648296,-0.003312085264505055,0.15583018946491778,0.020348056110118903,-0.08704695308493764,-0.04486222056054936,-0.08109207485624613,-0.11246626903342415,-0.034759703246636624,0.03409435703857317,0.13103919014525983,0.003502542572756014,-0.15814787259603758,-0.04381347411261063,-0.04922816574964647,-0.0182102867785017,0.014132316406652346,0.058624746906833815,0.03778692379825295,0.00554438529520749,-0.018946211627095377,0.05609674064461312,0.08184458532468805,0.014762968822558281,0.047577346527462955,0.033737487257988766,-0.31828862672626435,-0.3043948856671717,-0.18701358062487136,0.010361072008001498,-0.17396123890515103,-0.20064064790759237,-0.18442248612098985,-0.21952356036031298,-0.2482185493541665,-0.25792473295434004,-0.05282677233317774,0.2519715818599021,0.0769135796726604,-0.08568651492458576,0.0015494227041463208,-0.09660055154140672,-0.2024334973454248,-0.07000355738134298,-0.004822400194634846,0.28873503731196365,0.22514867605264058,0.06299878532937235,-0.012422458099295338,-0.03688360960268337,0.05302074054945519,0.010214310084496414,0.05722891068774428,0.2661094106495203,0.2872461991330906,0.04983229290936393,-0.0061173731174042215,0.005999244540130045,-0.10897219149720201,-0.08653355276149113,-0.019882352414120938,0.018586438917728126,-0.021350762659823642,0.02740147832002506,0.10710046028903125,0.13299176517788366,-0.16731392748518667,-0.13302558307129544,-0.11510800527719853,0.024644845163072308,0.011399189568036764,0.02244478105948541,0.018577248055658673,-0.0094294257567006,-0.0856853582718232,-0.13964216557002815,-0.15369673868762132,-0.0430591532526365,0.04483281616092947,0.021470716397107983,-0.022968368429914714,-0.06933800879245011,-0.16756227774011304,-0.0864280354500621,-0.10652652999613199,0.03629020268418443,0.13622139381769485,-0.05885991643682995,-0.09241883654179038,-0.10636091539192771,-0.03712757779638717,-0.029292556784180857,-0.030947431298949273,0.06430000689901644,-0.0008724454552586758,-0.09871470823772055,-0.13516094456580482,-0.1096046851514711,-0.12217434512929529,-0.19677814018825324,-0.11315860704615657,-0.05689307929076742,-0.21569490098507557,-0.24305282321976285,-0.31638565318220474,-0.09610662586704413,-0.23947344536786344,-0.24472255442642418,-0.25147432218503185,-0.17150495076613015,-0.2319708942744553,-0.2514131470503366,-0.20858567375737136,-0.01953610047739864,-0.21998723303214127,-0.3799050072655637,-0.46902627862049845,-0.35264158046650074,-0.2792340829525018,-0.2669150807998861,-0.28502981851879644,-0.2255594147914295,-0.10175322284144694,-0.12206486180359571,-0.17143673650267346,-0.17862474098965808,-0.2147521499431406,-0.19690308186476552,-0.13642085749995,-0.0970253151601159,-0.09307088601057875,-0.15361717022016394,-0.15938080759189838,-0.3095627355949597,-0.14696709362140198,-0.17998253966708763,-0.09133882003527286,-0.11286174567429393,-0.09046330013427294,-0.11731874990212944,-0.1499632364300213,-0.20921972797208802,-0.09460687714485608,-0.14161504859546917,-0.14137795594312802,-0.1879167996802395,-0.22724653247018245,-0.12582399174351683,-0.16772507104898385,-0.08861589307514225,-0.0813956812651618,-0.26663635739758634,-0.16260141250819735,-0.22535378405408,0.005734561486757408,0.1278009272751886,0.2870385923097055,0.38959634009103067,0.08486098474416973,-0.006446900063745285,-0.1260015524331763,-0.20428939776293212,0.03214297396821789,0.021151601725995423,0.2670480105858635,0.42774966013486027,0.18817921318331665,-0.06001568202764465,-0.10647092338537512,-0.09327142059391166,-0.04735890727768304,0.0005038105762384836,0.10662653247600481,0.32077460388497425,0.10594302881202378,-0.03033219867358589,-0.06785632347493431,-0.04915536656115715,-0.1648570901679286,-0.07314707321462527,0.0673284563799487,-0.02390925959129108,-0.007143868718325176,-0.061397119650101493,-0.05511339962933548,0.05978620070887574,-0.023705872140468858,-0.06980484182903819,-0.0452396421697302,-0.02997479598935064,-0.02661239677074526,-0.03970635038855247,-0.009236904458476577,-0.032571828754170036,-0.12719536259698913,-0.14113403987266637,-0.061190012495300615,-0.1737278257901974,-0.05335598657508848,-0.026920945483765564,0.02595988427716247,0.012583617941461563,-0.11338434133607835,-0.11580949637653093,-0.22563475587965534,-0.1498901394845538,-0.042203306909090625,-0.018330343446701456,-0.013336476673213733,0.09045815583163548,-0.023763857687327503,-0.07493112914425121,-0.16696167644608512,-0.1280473536477016,-0.04624925890169158,-0.11325531110724575,-0.004896243592620534,0.09714261819603648,0.01671488284433578,0.031623475311924026,-0.041730274513025974,0.08009381571376593,-0.02439702983818963,0.07755089436819709,0.01933822699284071,0.0384296992146786,0.035900297905494684,0.06373284299409147,0.10131838945690569,0.3154723381234912,0.1319324050289418,0.02797410853053773,-0.06233382208969327,0.055424757496675324,-0.035605455456592675,0.24691739187887882,0.22505999649634612,0.317316745000212,0.13961341986365944,0.16397094861054973,0.09957921386204557,0.041157209303447864,-0.04063575926036439,0.20135020532995804,0.0641343955902195,0.11293084496265487,0.2965503625991433,0.05166754235606312,0.08857048914538944,-0.022351047004221945,-0.09490666563850755,-0.15218311753213093,-0.11633633712301743,-0.05175332080745514,-0.06377003254977529,0.004144517756612277,0.07369536100962837,0.12071317547910876,-0.20891570790104708,-0.13155254972759428,-0.09858624275892339,-0.14903947345838092,-0.0001825423814896552,0.05745611617507539,0.03526545555082573,0.12542216279499116,-0.07874156546922537,-0.04942207386988468,-0.03772679270130584,-0.011562627912379383,0.09510214097674613,0.1137309773278185,-0.005128199015381401,0.09459648055678799,-0.030693644451283628,-0.058713835855900405,0.049714369366866795,0.15332189833515014,0.1512640063492034,-0.013452821505528654,0.045868291113075846,-0.006645264704697137,0.03370101913474826,0.1382859384779054,0.18163780575561403,0.07085245319184177,-0.05023202352348183,-0.008073940335498901,0.052234823092750106,0.08875399885304879,0.028578661664108624,0.13891744281326762,0.24374964071513716,0.31418919249371374,0.001187201334511847,-0.12565303963716465,-0.10392187670972174,0.11570158701165248,-0.24325577156711548,0.0759999555610305,0.2766026259821534,0.1854172966818893,0.10493078647974258,0.06324889588870602,0.02388082052475772,0.02760049355526876,-0.12114513611060579,-0.1165292984765088,-0.03400470340360169,0.08331961910843819,-0.0072287408282305475,0.012238689504591008,-0.02003435620440897,-0.05408803955180261,-0.17254196519774256,-0.15968379982050734,-0.19818023408510782,-0.3271963901076996,-0.2559490516362847,-0.09435977807621714,-0.03319516837981133,0.06547106951271801,-0.34904047858912857,-0.25087109777727756,-0.2396868122551839,-0.25105631968430625,-0.23535427993683877,-0.14053281915072288,-0.10138744053174027,-0.03234834430032583,-0.26816308226201147,-0.2550797960759995,-0.20732700208529953,-0.23203823970264734,-0.12219526772140446,-0.2303576567590697,-0.1321746042174168,-0.16336373848804095,-0.3499737262108282,-0.223378677029063,-0.1180807570455233,-0.05893142268198459,-0.0549576254183277,-0.05759152859934624,-0.07449095402086434,-0.1987237198903076,-0.11230085717907265,0.11536437597126956,0.11530541077046394,0.061867126992738684,0.030877096365461928,0.05660094540613588,-0.01487556047107093,0.004739563538714819,-0.008420972551178539,0.13767516919186049,0.20106697283164482,0.12723211003508475,0.03960065941867452,0.07244640231691338,0.00252031960862272,-0.0066765873055682585,-0.34765978932322705,0.06203830248888378,0.026513502144396656,0.061287633340657156,0.044913811366753646,0.12660836095892072,0.0718181062858366,0.006684949495292731,-0.14688965985952085,0.04536618398439804,0.24362119140986047,0.23239338560660316,0.23085865043298567,0.05910731331871735,0.033254402885140304,-0.046215206893138065,-0.04846772604259165,-0.036879316502431835,-0.033110757236492754,-0.03919370106743618,0.12038400432107238,0.0649733081866745,0.034715492570327286,0.04748523492392261,-0.005461446431133522,-0.08945108815035223,-0.08546884033141063,-0.023895041096471645,-0.03426948506618574,0.007312299557584831,0.021013188326279072,-0.019980116693910782,-0.011320331667105332,-0.016250286541602925,0.0024472654540549444,-0.052535912266266936,-0.0593963973869833,-0.11445359191206786,-0.08339956355684447,-0.1160413496487443,-0.12166498544167095,-0.05040129249402602,-0.03743453025715724,0.021614715661011526,0.059567727920983665,-0.09367475151698047,0.011015571673868909,0.007108447359420275,0.0034234241662238233,0.04141849730327144,-0.03756320216015671,0.1250205701237382,0.029209209241743514,0.16677192821161044,0.12833180111882211,0.019331616865217196,-0.0866361751317672,-0.1717707537523016,0.048507456853303405,0.17705229567244166,0.10025059539096402,0.1393777194100764,0.127400255623078,0.049712069579408824,-0.17135260051283793,-0.14235514049198922,-0.04218646970498933,0.2071664693767279,0.22950219628522278,0.10707165017524321,0.014711584733436816,0.07348383187323385,-0.1232212956955298,-0.05509326092043289,-0.007841074936457701,0.21976083590997322,0.21628737186527028,0.10962823549811626,0.0744306151698163,0.06293221298681322,0.14220921509064421,0.17297468796424786,0.12042759986577765,0.09071690272195804,0.006096358446111439,0.01862284840020208,0.07303564747968391,0.15323613762448166,0.04713254643045799,0.11869185992658778,0.18385657580231798,0.0434327500066138,0.25957592499451165,0.13321067038508486,0.12886703339591468,0.2181901135069055,-0.005434399428018506,0.14562649716271872,0.21093270437102718,0.08773037962123395,0.40353249081270337,0.27987158280607716,0.22942610505196248,0.16996483254133934,0.16690567931975947,0.21875798707863486,0.20392367303223452,0.29259460255771447,0.3338890183554824,-0.08610009134954866,0.3058758091913861,0.12900570043975043,-0.07504394441313526,0.11511497295442175,0.09016233517873626,0.22729473159419156,0.22296741719613644,0.17321620326736126,0.12602770928549661,0.0660915678353009,-0.09262523988942747,-0.0706111409587082,-0.050915238503953464,0.337604941998471,0.19774209774740836,0.009972432044739566,-0.14264672983946758,-0.028972599459661155,-0.23436871219658045,-0.03754402666202481,-0.09748680304334995,0.17124529909901298,-0.047431505717968656,-0.13862850158551693,-0.1538226801661371,-0.0912719572041475,0.09643244787574577,0.08679724328452654,0.011748550508020827,0.038052187200632984,-0.08943162995789397,-0.10668610166123527,-0.05639100672209284,-0.010467762729419417,0.116741964193121,-0.0016207554764501486,-0.03588476438939866,-0.0841134369167524,-0.1239549999024189,0.032360700159333004,0.07394991961904365,0.08479626950900339,0.00570384861732495,0.04004357818034429,0.02076654036718137,-0.04204394366980514,0.05105703772997151,-0.03445920539005203,0.042062960080426454,0.17252955285676955,0.025485248033688658,0.054623931983422136,0.2959223458415263,0.1790377942137737,0.18983006629430593,0.14014736254218985,0.13794427342749818,0.10539751946654707,-0.012201554809343132,0.028212851364588915,0.19124835748610272,0.24596648231456103,0.21522032084428505,0.1355853133774846,0.15882428012967006,0.11780158798574655,-0.006515485775705149,0.049652071266281204,0.1798794648117853,0.3107870276480615,0.16913905157005293,-0.04718617315521419,-0.07762600218737047,-0.06790291408236121,-0.011370653344464523,0.05269570600337664,0.1878081147958848,0.16175900448321878,-0.1067657598492491,-0.08995115887922371,-0.05967289698220583,-0.00204761075422958,-0.1702968159263075,-0.06753379282316051,0.01361258157932778,-0.2232598530493623,-0.12951253130938672,-0.1577604625451994,-0.11584815839250748,0.024692289689740854,-0.13047969186728173,0.05423914449832674,-0.08820400250952971,-0.18617726210554522,-0.19164622069377996,-0.17170410303058498,-0.03251860566138478,0.060241588436859284
-0.05325306092809717,-0.040529072814033895,-0.028186600691222613,-0.0186616858007208,-0.034412844124125964,0.02307579870515712,0.06785530265015019,0.07631221806675828,-0.08153527741861652,-0.037396582132701923,-0.03338461466586814,0.006684354514694633,0.0410379248681599,0.09022211408228832,0.11114094954535925,0.049071262277152874,0.00043870579470072657,-0.019129790847786265,-0.03779945289533849,0.025412474898648788,0.05629142998349409,0.1303687063904204,0.13404979995434563,0.07425147584369315,0.03590010885457956,-0.012383980580145663,-0.012318420241724162,0.025293556229987572,0.034007496189867197,0.07006740746215263,0.09952492189310627,0.023543993754949425,0.028373161763056078,0.06561979671894341,0.0196233769102892,-0.022766739705355123,-0.03698269212227504,0.031585660836237116,0.05745354840207063,0.033729354111156774,-0.06382024605138602,0.040946561516932815,-0.016254946617013946,-0.15376616126455128,-0.14632917162049142,-0.04811387433319064,-0.007941395750012322,0.0005144311192809022,-0.09527843783111228,-0.06419543116721645,-0.10395748915203876,-0.1818847407178964,-0.14694955941596305,-0.056178567585399325,-0.0378220116321019,-0.021175405160884515,-0.08594043533293741,-0.07605542109559005,-0.1102540939384625,-0.13875547671350474,-0.1434999257927874,-0.09502500251750316,-0.10690709305935145,-0.11646244648435233,0.1231234849759054,0.0989348900692294,0.10785913635744875,0.06783772681845243,0.10894417034243137,0.1022262135540882,0.13815622144535128,0.08147337596700814,0.10193606426156777,0.09175776111674248,0.11623991258874143,0.12234783125690077,0.1176070941346803,0.10835219194622259,0.11673279117716637,0.09345098338428287,0.054592007028949674,0.05304950576196097,0.037238164928873996,0.06101133146556709,0.05423946933081494,0.040218601471705355,0.13018965794236867,0.12290228941695688,0.1002888325593725,0.047652874262742756,0.03815956628387599,0.0006429060312075471,-0.01591336858768538,0.023797821550338435,0.0170209848869721,0.006515433945113353,0.13876460122634585,0.16447587327075772,0.1976080257850245,0.06866800490859455,-0.021369179942083684,-0.004853736321495034,0.0075987229824568915,0.021372416013820606,0.2377700496925008,0.2870501941097189,0.2555344713851817,0.09335304831947651,0.09965297541311605,0.09062179824768886,0.07643718776214865,0.044894166115950665,0.1625366799184784,0.2684660754879385,0.22794503717166406,0.15480054327342604,0.1379077128702515,0.09478299619789406,0.07343441075248089,0.1306248224449323,0.14739288480313956,0.2198962450887869,0.1844449487735725,0.15888963542257473,0.1881357654365579,0.19797097556422877,0.17470018533106918,0.19541742699221257,0.06920638573165282,0.04518423754146191,0.04414232532492285,-0.003954299682882472,0.006095855477869192,0.06372847285004936,0.07477087552569847,0.10014702108430923,0.01158344102431697,0.013639433180455929,0.03553027358694635,-0.050244318483405756,-0.032126470040021074,-0.003227656705152798,0.08368274903583094,0.0767419017709308,-0.029209700836228238,-0.003865097921751303,-0.005941048661437322,-0.02967149923356285,-0.029547604277931287,-0.08946283993959919,-0.0066599464590731275,-0.008367955279863573,-0.10286793208542577,-0.049273239239154505,-0.06996502867369314,-0.09826375562433329,-0.10673462288139272,-0.14260375471182782,-0.050687278523619775,-0.08262720413980441,0.01577673636743794,0.03625837663187871,0.006681834210007938,-0.018013750144140875,0.03548137022223427,0.08029517270730908,0.061734809811443844,0.07062364483455577,0.021409002152466352,-0.0041283720838653296,-0.1057149249979839,0.006835568945766934,0.10035266073673199,0.08801244815832303,0.08975820475081747,0.07992146324059887,-0.0917933378728331,-0.0303619692063246,-0.04315218906328599,0.009014151858956987,0.055429384859197336,0.10026120959204933,0.10724196869685534,0.09399882746068557,-0.026118516928185762,-0.019979122819908303,0.07283915503510592,0.1044427761821402,0.084373686163387,0.057105145906242674,0.020619371325938166,0.036336878677613094,-0.09917118358301767,-0.14229767723475267,-0.10963493748386964,-0.07022948862811981,-0.05795717822220445,-0.04941625013691969,-0.022949221554024467,0.020579807264407324,-0.13416045183372868,-0.13158396111141668,-0.11194258373407347,-0.12032215269820905,-0.09049611151171744,-0.025348137882673302,-0.021674213417739382,0.034690798803234356,-0.1706173531899989,-0.15671672994592004,-0.1674757183322354,-0.1643332168967497,-0.11069636854393557,-0.04879063820890244,0.021448856961811355,0.022964053430786613,-0.1531408449427775,-0.15422789793523559,-0.16192355485027482,-0.1645747246918269,-0.15581669497036876,-0.09282880952178682,0.026180836738787707,0.08698435525267767,0.0058176445254588165,-0.02283205734952354,0.014568762053113722,0.03231155998032181,0.013581853228159437,0.025599015437948566,0.03949375303751317,0.05921031190047189,0.00918806863428905,0.06668268401527971,0.14413824555450455,0.1010755922125366,0.07595422164954616,0.045730994086972745,0.047241082017718136,0.030299112329292773,-0.025179497741964908,0.03515069721752432,0.15145934498125382,0.2152489642122468,0.0639045214928837,0.08118177829067919,0.02181937654889226,0.02075264783574318,0.020480324272939762,-0.0038846400928600425,0.01724368051087593,0.015494611608036184,0.0658440830996315,0.06264486706646441,0.008489702329587748,0.009482485225409912,-0.14784435687687336,-0.1252844864450461,-0.18339502719134737,-0.12375397217879616,-0.16455317532355213,-0.11448944172015192,-0.07866098110630568,-0.02677518878638033,-0.10447529111719567,-0.13753635765110547,-0.13481018418484841,-0.1422404925047805,-0.11356694943181295,-0.10841299585907492,-0.04430029124568906,-0.01718372045687148,-0.05182214403797065,-0.08713655850525821,-0.12964774184927236,-0.09742049563440126,-0.06568082797015981,-0.006419500680990597,-0.04313156461560831,0.00010155920132075467,-0.022673701884219816,-0.08083780443818728,-0.08509929082254912,-0.09442601773732395,-0.09794524944593429,-0.106564746453317,-0.034750395299868383,-0.07095720242831417,0.052513157445193664,0.04563452187005553,0.014545991888056956,-0.12217927273374989,-0.1319069951704881,-0.1938954429520976,-0.2063759727563285,-0.2009824524161855,0.045945863239942646,0.02447025067331187,-0.009790203057101772,-0.02937660455206047,-0.05917812146732884,-0.18328790012659757,-0.1620988089555196,-0.18205083122203033,0.13431512780093977,-0.03761350745910459,-0.13240157830188193,-0.06607227714880173,0.021448026400505853,-0.07182404200883363,-0.0902247306133802,-0.07198339621041841,0.055331430085355765,0.07366145176627677,0.014514199113273842,0.06776756028914203,0.12105483019419239,0.09914943225752253,0.051022633635074206,0.04510920892149118,-0.10953968408026495,-0.090421313993325,-0.05586827562962819,-0.06236058146386938,-0.055236153789560045,-0.03145663155611741,0.01562769634401097,0.012651333377159974,-0.16664812232763118,-0.10648580104091333,-0.08912346049803221,-0.12667979676334565,-0.1148778635789666,-0.035196459457836504,0.03386385652875922,0.0015638949345177617,-0.19086844564797126,-0.10509431852527094,-0.08088598311759039,-0.11719372527390587,-0.051378253144104706,-0.030126939252962663,0.034484201869642364,-0.020868893441761297,-0.15974855624324166,-0.08452616605527148,-0.070010830694965,-0.06505467606249712,-0.08637869644299785,-0.15115020496466064,-0.03508390672538194,-0.09403566232817495,-0.12128591552767692,-0.08096648888830209,-0.04212894165565478,-0.0869407352536758,-0.04824990866948342,-0.09169109438965045,-0.08860348065798727,-0.07378791689072367,-0.13501452176332332,-0.08569816671909407,0.013950811203896369,0.06839319210540519,0.04256163523312699,0.00017892309445167616,-0.07701427672319736,-0.12744624095510318,-0.13925829529979059,-0.14807751202302916,-0.052484770510379745,-0.044869882373791664,-0.01185110320504673,0.034011135073129535,-0.05571613477870077,-0.14763648796964016,-0.14186322322422992,-0.11243111662552256,0.008635738804592747,-0.04815909974999935,-0.027101596626380946,0.0034514278741976235,-0.0948769201083569,-0.1362658217143538,0.15331793368483806,0.11999268055835215,0.11702838303466388,0.08888771560407474,0.08175804648907324,0.1667098601614794,0.1460757207199014,0.07926643669148778,0.05620595258085063,0.13389558692380973,0.12511557589517933,0.17614382843908882,0.16705376846194506,0.14000658616956466,0.13373988086052846,0.0985229473545868,-0.059458781128451654,0.08149131394532928,0.15303373618755137,0.1250364160929969,0.29891522763277795,0.22855057638094387,0.14523093637094092,0.22246446403910652,0.018965808694538195,0.06628042144460539,0.13313507578309,0.23521856924390844,0.22695207621484487,0.127780083651204,0.17824718243248497,0.06750402123553775,0.07845755235532756,0.009606219231159317,-0.0949921151994195,0.01040853356614275,-0.03349696173741938,0.043380982124990135,0.06240309442147655,0.10215653250114735,0.12016746087442459,-0.07931134799796384,-0.08194755066030285,-0.01776919701881282,-0.0052298815680737335,0.10449399049170596,0.013331465746840052,0.10826317453768693,0.1605870910479501,0.07699759505699255,-0.07655341569457332,-0.10111711774515528,-0.04742693124522096,0.05941676521078543,0.05807913907618583,0.11201833119250625,0.1270090233058536,0.004657109220863286,-0.057156334267471624,-0.05939927723815871,0.0005933136482491704,0.04845135216683275,0.07060352694261421,0.08827927824640261,-0.06967553240204861,-0.06193273977680804,-0.031490387009907486,0.02026300530922688,0.08169610775277182,0.01032797577064365,-0.025221046005438206,0.008432550984395928,-0.13650900119032863,-0.05227685432487054,0.015423519972971549,-0.030695666590267005,0.05291213588889836,0.03408867616658288,-0.045772463313623495,-0.058940473579295834,-0.18810555604121523,-0.08351278677057121,-0.04584741916049038,0.011345219773290581,-0.05175455928318798,-0.07545757440849997,-0.026656577847342385,-0.021336350662808132,-0.06880650624509362,-0.04298417925885323,0.013341107758699709,-0.01592695700168107,0.012331668216732388,-0.029591472642896213,-0.0011398561980082204,-0.03793201832158183,-0.11564571198677835,0.002790469156187075,0.07725359467266485,0.051085743119582847,0.038019333640899475,-0.0023564341594941793,-0.05099430467786467,-0.05965720209114336,-0.2016202679740882,-0.14102333064411815,-0.06726886689962129,-0.041308513382849396,-0.019122964322361824,-0.06904276333636428,-0.12298119517606579,-0.11689406142152349,-0.08390271103615494,-0.14710661062463082,-0.06738373749037471,-0.021723383881314055,-0.06896498607522789,-0.1515576813462157,-0.1685514764524112,-0.07672940899262064,0.025112768931282205,-0.11283127449439019,-0.18283614751921062,-0.15358894511385046,-0.07770416589636785,-0.1444053531258119,-0.16450721383842593,-0.1925222574830122,-0.02969923811468938,-0.10348416547416771,-0.10804276498812448,-0.11663203925329248,-0.07263272458196567,-0.11365824842339192,-0.14051627540894535,-0.09359993234882383,-0.03704560482352202,-0.07852832717167678,-0.03704187453524655,-0.017104928837667416,-0.09490600711104658,-0.11595549738086784,-0.16383010022893715,-0.1655162887315751,-0.08975971275142078,-0.08459172659730506,-0.07690705355709043,-0.0018932150189452347,-0.047805073290331575,-0.04477655392094017,-0.08266091182465576,-0.0867778097693305,-0.08129996199871146,-0.07165450502774294,-0.06111026405268828,-0.06413038323567019,-0.04584113857563353,0.07591963814453176,-0.08551008729056156,-0.08065455781558374,-0.07879690714395425,-0.08822818660721624,-0.09820624171333306,-0.1982663207060774,-0.17458689066172806,-0.13124421483460366,-0.12534004967645396,-0.11133586728967518,-0.011030094451358588,-0.020723044463608776,-0.038104575987070906,-0.20487388625395825,-0.16932080315840656,-0.17324588108212058,-0.07509470807924609,-0.09307373130109031,-0.012684320621699344,0.03857271465125235,0.07470089660725436,-0.16131319918789574,-0.152953455468399,-0.12487883061212848,-0.1435444991862787,-0.10789040662476325,-0.005036712665025482,0.01521557113536355,-0.015947708946494717,-0.06516834364959191,-0.1347207759230771,-0.11002044201521947,-0.11742761208517337,-0.12063255659899375,-0.04890615772405077,-0.06761737756861294,-0.048530264717895746,-0.03534041104781751,-0.013684078974774486,-0.08531764106806672,-0.09191549926779413,0.03960214711939016,-0.19541910834812418,-0.040749115108994954,-0.05102692692877664,0.010698413248567934,-0.07050129819988922,-0.03104950820093394,-0.08395252029736837,-0.09861561756178927,-0.011437677573807523,-0.014282767423772371,-0.00502211155650006,-0.0008817508568775091,-0.050086999743391133,0.05897705169271381,-0.022850575186713178,-0.06471036234277386,0.01424621209860843,0.0244586559893249,0.020212107411344014,-0.00821313054966038,0.02750113442403065,0.1592524062175478,-0.002261117254336929,-0.044039742667764704,-0.21821574500510268,-0.1906988030237821,-0.2123484964077744,-0.15806714130702085,-0.01088305628957397,-0.0374721194170104,-0.0614074973393576,-0.016238190059747706,-0.2344260761831256,-0.19641542996596809,-0.1076672696741494,-0.07690090501284041,0.042689552692204216,-0.08090753540243446,-0.10305124291147687,-0.05011717721345302,-0.1964492266421881,-0.20145370538937912,-0.1187922279255544,-0.13931241958717974,-0.2634877469019056,-0.17949292057088378,-0.12930857467387846,-0.05436356351781118,-0.12764889005055002,-0.14534422025175417,-0.18792440878445277,-0.12982612586014358,-0.2015028664326354,-0.1700062132135172,-0.128049240650605,-0.1494107526414495,0.06160608849640508,0.13211808312376502,0.07100054369849357,0.058803782016760404,0.1354318523795338,0.07848206787535476,0.04136024400413674,0.3526703557028164,0.10678676993718479,0.14795338933277083,0.09318906951641283,0.21607085216216457,0.13586311137352525,0.1530922390606015,0.08859804040027881,-0.0019537851298685118,0.22986405342097446,0.16262516432822477,0.10708233186423965,0.2021291029641005,0.08427430655562665,0.11656879577827313,0.06535542557025227,0.09521786187203835,0.18256018331705265,0.11366115983127738,0.1475451405639478,0.07301273638421597,0.04967411649657239,0.29373254454622394,-0.043771986063412816,-0.07750056509565909,-0.225830616033533,-0.17017202434492554,-0.11663076441329037,-0.10808405360123999,-0.06593148027832042,-0.08108349445018749,-0.05978587975166173,-0.09735763094751679,-0.3062853773546628,-0.2610288304248016,-0.2693556273652207,-0.24586392070261257,-0.11320031958979841,-0.028582216004244588,-0.05314240378026299,-0.13551897225247628,-0.27436973548826393,-0.31510578743342865,-0.2849902410085893,-0.11001441709241506,0.01682133385805535,0.016283212086003095,-0.08217367394091156,-0.09349500513286521,-0.09836805203272704,-0.2735800677886408,-0.2774954445058198,-0.04654368340603529,-0.06399070541839945,-0.04511575427948485,-0.03211485305043165,0.011447534061290177,-0.19930132842113543,-0.10411387631347363,-0.07911299866914952,-0.04905398097992102,0.07606772079618551,0.056944979948041693,0.08614920392608433,-0.013820178437873419,-0.23712888754388706,-0.11714941238403398,-0.06879584595041004,0.0361531247991583,-0.058202341330345256,0.10993383633141197,0.06222578276298633,-0.01316561697060384,-0.20506376170964521,-0.12361054727994995,-0.12116647885079294,0.10291493161783563,0.07440524632363144,0.11033322657987238,0.02630542867581503,0.01624186784735672,-0.19499605198162456,-0.10087366021590465,-0.010808481004382406,0.08129863037461962,0.12153491784217742,0.2320151439676111,0.03265930770951216,-0.0054287805351724595,0.10657824301458978,0.018047268746385892,0.020400306380596103,0.05254486660313894,0.12863627177024073,0.12492556280879519,0.06717359597769945,0.12260215922029011,0.06393011064720742,-0.023553611694045472,0.05017246905279186,-0.07246243023017661,0.12551764134734378,0.14466646931788932,0.16685265066803495,0.0778784589835518,0.08086035177194273,-0.19072432649357857,-0.2343647555851527,-0.1920571796991985,-0.09123967740533083,0.034763007264611054,0.046570504219037925,0.020795450516467605,-0.14123517867404076,-0.17380399146683578,-0.18550511599622294,-0.32217660839950507,-0.27937676955876933,-0.0763043704363104,0.007466853425401024,-0.009775589484636174,-0.029945957348921148,0.05437671420788974,0.09906832604873614,0.13277723335328576,0.17203495477497277,0.1321946448203557,0.1160502316006239,0.1256320998720773,0.024767197253154058,0.06640239577326154,0.07752682645077147,0.21608231907410222,0.10326875463826089,0.140934805872023,0.19961357665240176,0.1316147362512585,-0.01632220193429546,0.12933492423921497,0.10856195856057121,0.1865343045938706,0.09418209701916816,0.19724382821002392,0.15030017465054032,0.21394744814985098,0.07357570938461412,0.15849602735508708,0.1265164899236484,0.14256433109192698,0.16412122318977088,0.33043783754051204,0.161207526242726,0.16393401970245416,-0.10573147128945079,-0.09586112252501859,-0.023476253113390834,-0.05539060614519873,0.05434658005919721,0.030880929397596745,0.0394795102643447,0.11563931068830137,-0.09174294510522156,0.013830869961378205,0.025053096479851975,0.09989672420622416,0.21188986143098856,0.1421217130449553,0.1070432281743534,0.013248610148844151,0.026086261413939944,-0.07718864069051898,-0.0050861499151982174,0.03670131395995098,0.14698206699084398,0.05342474343820332,0.06196783710840279,0.010891403579413886,-0.007768363485171999,0.05516225881757438,-0.03635441749883823,0.01685165556196278,0.01906800114012029,-0.05451831360595677,-0.09454781208537712,-0.08982544503352323,-0.1932373905397558,-0.12535791880379707,-0.09056792519637973,-0.06115277370259314,-0.03246916367835248,-0.12989670165889083,-0.11972729198458734,0.00668823049682041,-0.15605255685578628,-0.10089764188911854,-0.06344740430818128,-0.008599377184039749,-0.08361327769707783,-0.0756534883255354,-0.12619143129756064,-0.030766768781996055,-0.08387172326473163,-0.08987232667045965,-0.09597176663286745,-0.06872999260639372,-0.14205118759049587,-0.09164492657213809,-0.08063355587160853,0.03775212066566993,0.011657415166566723,-0.026761048495188258,-0.06141263680264701,-0.1608882906883399,-0.1334247745334585,0.02348509211824629,-0.07354354006475383,-0.011253855249079993,-0.23611085328614623,-0.12549492006031226,-0.06087815617324856,-0.06529443276850193,-0.12884978009276665,-0.0294960961822862,0.0204373445830796,0.04147183675555854,-0.12386878615108884,-0.04904797219690172,0.07041310870214798,-0.06877372012147925,-0.0644058029329402,-0.10461596230961873,-0.08004034598142654,-0.012026434419628449,0.08689033334208665,-0.05338690403847272,-0.12821503907189757,-0.07073463111803337,-0.09804412770374346,-0.15454086207458334,-0.12415133597085799,-0.09897961485534627,0.056954844629010945,-0.11885222122575902,-0.27422816525871935,-0.24074483813419612,-0.17931657367034748,-0.23209117646985378,-0.26133691612372045,-0.2626053722199062,-0.013698699971048814,-0.05612028864603462,-0.07953449388870698,-0.052797706364781476,0.0508148127713297,0.04301532589133737,0.024856967963701935,0.023329476039006942,-0.06841302286141714,-0.0773463298794352,-0.057511217219120156,-0.09268728123381495,-0.016518309506182514,0.10121905336336108,0.0593479709838368,0.04071429789727085,-0.12343738268825036,-0.10892880988933556,-0.11637693650448229,-0.013842365937699936,-0.009036057407008791,0.05769965391218018,0.06210156220916755,0.10166971560343659,-0.14211502075960206,-0.14191253962309602,-0.07744653372038547,-0.0990925533722004,-0.10982670532438735,0.013220209869221658,0.005897550570862472,0.053751241714459,-0.03474231327776177,0.079712560807583,0.024402395884719975,-0.13021882288232042,-0.1672129034048964,-0.14329664701822184,-0.06453772728736532,-0.05226840114958337,-0.03952546072860154,0.01740495808669677,0.028254255917607867,-0.09410535459526854,-0.10729630267062756,-0.1652310913783246,-0.1416379177920229,-0.07310894614156928,0.04013955362067251,0.03171993300262836,0.07860916955266985,-0.002380499164266675,-0.1628258507456958,-0.23213856007607464,-0.1686852314562531,-0.032039881872944195,0.03196138736473402,-0.027450224483604076,-0.00855963252785711,-0.0789896147491012,-0.1161821417233645,-0.16744821225538123,-0.18104613621901922,-0.0970675198612722,-0.15855261477358978,-0.1326302243169399,-0.11616036678350952,-0.07094955087173142,-0.05058225076663894,-0.04445345515001056,0.04008040948519751,0.023159607831725076,-0.1397517285513719,-0.1329036656252539,-0.13329682796534256,-0.11630829030500328,-0.1407173541699783,-0.09670527721622625,-0.005486011162552132,0.005283647292170189,-0.08210357616909696,-0.05621182536076515,-0.12390456626332977,0.042627696572968984,-0.02473112408603742,-0.010514629212475427,-0.014474306929102468,0.05914883873779683,-0.029341894961259538,-0.023763122067395306,0.027167693651020224,0.06830438352307998,0.09243228289099385,-0.028821652775445523,0.010239464079385283,-0.005939876004104798,0.10736748353220142,-0.1715665490383529,-0.11709583761142156,-0.07991876289201584,0.0124775086092292,-0.09437975358476276,-0.053245259834297176,0.09887175351373027,0.08292545823591853,-0.024456710119044812,-0.24764385252595833,-0.20555449791427585,-0.059549697489122096,-0.13480836214448869,-0.03827350964018021,-0.023580411505384154,0.21553629861652976,-0.12239167188333977,-0.1598128309584024,-0.10582867576247358,0.05398097533171038,-0.09170228534916292,-0.13859600626610094,-0.07115942265823051,0.2564908593093253,0.0920350715989831,-0.04774677266251486,0.002146321261541534,-0.08897572863363636,-0.143327964199113,-0.10150466072353348,0.02346539466659956,-0.1153141671800972,-0.1305700288247403,-0.1331099902693956,-0.1425062088623657,-0.1890636988192545,-0.21367385663452268,-0.1531675133436246,-0.009434372857343217,-0.1837343162215669,-0.17308793699939548,-0.12813637826383995,-0.15245705651242605,-0.12241134506822986,-0.21991132426947443,-0.13670077508821185,-0.010874923868022211,-0.10159382765235657,-0.1605794764938918,-0.07785092820159392,-0.04082298576096334,-0.07271386552906586,-0.11072012877241447,-0.058750126226790746,-0.0226931370765587,-0.1580510228908658,-0.13156346744028682,-0.052855228935837266,-0.045637279991936536,0.006783854347054036,0.13312604981402726,0.05482879833386768,0.030588661067247423,0.11931659750703287,-0.11286307795428595,-0.23131705527243754,-0.16729145605389875,-0.03433865769984252,-0.07566591577778556,-0.04928559003481956,-0.03479913729858621,0.05549284783219144,-0.002131011599934153,-0.17835909595097998,-0.13748799472907297,-0.003972972744253333,0.021070125955876234,-0.008292349393640278,-0.02609255133244837,0.24334569509470524,-0.01013446625170362,-0.07770575987122433,-0.007722049419027124,0.18924193380246182,0.07348681769978407,-0.00226503122762247,-0.05584366931856704,0.27999063451010636,0.18489211062213093,0.09862112777145551,0.08118610744450494,0.09454948798614304,0.06095875568514869,-0.0066803535124700265,-0.034767558968731106,0.05691957985190304,0.07124991503285062,0.06902473619390055,0.12152597794007758,0.16303041352123077,0.18926487031633474,0.21194914333415119,0.22402949159240346,-0.007135264509771761,0.0019026753863989698,0.021641889693309525,0.08132188249197504,0.15250202208759367,0.2259328476831829,0.1679850869705403,0.13615125266136685,-0.05605620228529802,0.0016715263506609486,-0.02077638585315431,0.09208067395743376,0.1637826400044838,0.16941298689145518,0.1842141299951684,0.16663817444901569,-0.06199444112264839,-0.011789707059547311,0.026997874401719888,0.12415123223217282,0.1439654446461976,0.20089816928676402,0.21055953481557263,0.20280403259383184,0.19805410060940282,0.20526529085157444,0.22258038128363744,0.29784943063532343,0.2384859177268125,0.1633271515573918,0.04478422348949176,-0.008503843787668013,0.14223650361209295,0.12351641481835264,0.26849913706940365,0.2038298895798066,0.3144974700857769,0.20754938961015665,0.03231054552843482,-0.0357624192434123,0.2554921323250128,0.09820372589068561,0.11342767256100443,0.10100648216795935,0.1488771507040196,0.08868770593876218,-0.025936907439887854,-0.04956176964549692,0.1329522660280567,0.09816973322760328,-0.02498678829385228,0.02695141311075418,0.08650324982042505,0.022845348194250728,-0.112426277150676,-0.08711892685823586,0.01545067659041445,-0.0030419316444447414,0.0014916601942430126,0.048048870923309395,0.00668211813441755,0.10155993221451708,0.1182894523804173,0.20979945266561237,-0.014928648844147971,-0.02782988814017177,0.05277462684537917,0.17695419972027918,0.17820234507017307,0.1477740217155975,0.10254600943219994,0.11509089448093739,-0.03228679164362214,-0.02267782979955782,0.02236484066594086,0.12233898220122252,0.1284532360673289,0.11624745892281321,0.08273807509882741,0.057664844853362304,-0.07965043539275383,0.014344802749768293,0.055495291811305116,0.031237995674644206,0.06427826883823042,0.09716831849437926,0.09085258822497565,0.10091486179570357,0.00470239918511049,0.0646862897503558,0.06261511551871929,0.17902247831818416,0.3508494327738465,0.2693484245665695,0.1618495213546972,0.25240020841185123,0.10784030477397819,0.050885172333334186,0.09856147088758478,0.09012316133841185,0.191222243721427,0.12446597139045919,0.19403949075604476,0.29182791831661675,0.22423907646866625,0.04977364088841471,0.05212486041102308,0.1419217371660723,0.17746225564440068,0.11358186475838818,0.22149444985803887,0.3361521064764582,0.18290125566067472,0.14349609580006495,0.004073748634267807,0.06965953274301023,0.13708540098299463,0.08435724939773796,0.22655482136670363,0.2666794436914157,-0.006725696194316652,-0.012024746905336479,-0.040716652248944024,-0.056296923833240385,-0.07466817072410559,-0.10157762696816458,-0.07004530127295322,-0.05589530551038103,-0.19945730003537512,-0.08223514315271158,-0.08361338218925117,-0.016651266243174666,-0.036287669172079866,-0.028692693226552594,-0.0630930390268181,-0.013999638040018745,-0.19570447338333058,-0.12852294369269035,-0.1555146049603023,0.039696473920803874,-0.023013996565975327,0.00973050285022854,-0.0960085090582686,0.001135475359107091,-0.17403141906149133,-0.14596401289181324,-0.09008711903455767,-0.04959471413300271,-0.012078411190570394,0.04052452107473665,-0.0608747993355166,-0.03772541456725681,0.024290851596102572,-0.01851150065430972,-0.0777734442321398,-0.012829070092340121,-0.10050174694576815,-0.0034645980597335386,0.020163752168664974,0.004446377569600859,0.21296704958691715,0.06316877035479579,0.05559188345203297,0.029505449757599646,-0.046316874506523095,0.10662422996956925,0.03362222658044366,0.05391199720874469,0.4889814402939577,0.1912349060488269,0.0403753784592622,-0.019608877296285628,-0.024616343266418414,-0.04242814961968364,0.0114363587858081,-0.05171599240339982,0.4284983619351728,0.23384995338907041,0.057191750285504696,0.00982044738134852,-0.053857377070620514,-0.18330246434196373,-0.13696444010684922,-0.14464394096507208,0.003667371970127958,-0.0400036264716662,-0.05217125158237985,-0.0854748815491109,-0.08777947829163556,-0.12505695802989636,-0.13090630989761418,-0.1360703171167106,0.05221797682401867,-0.046712043982229334,-0.10485706925492683,-0.07724465945614713,-0.18562979978789776,-0.1557945674948204,-0.07342203018792104,-0.10216557113431401,-0.05659841950800131,-0.08116747548643304,-0.19465241847093218,0.08596987933304065,0.039027532166539314,0.012518632990600938,-0.03546669969404585,0.028725454977761817,-0.09908076528811179,-0.04775787640709726,-0.034788943285912755,0.09774676296725611,0.17233861330309544,0.13672952757414011,0.08805857695768553,0.07175364433041286,0.09768221581265446,0.11359400939504921,0.23708377159609492,0.15491228921713496,0.09669338238753619,-0.01759849368333586,-0.17792173726225316,-0.07195241965684156,0.09965240824020233,0.18245339658978205,0.26375436677851977,0.34437147488687886,0.12910279550359818,0.0511654483003048,-0.04089308145483152,0.009714356955879595,0.2848539586376467,0.16491799889004974,0.1690639843515761,0.02863711698966794,0.2233407134505085,0.06994756289063059,0.002651589934087233,0.05220188267645912,0.1347105192022406,0.010652224863592252,-0.0412203335605317,-0.06558338664957641,0.0729518455968751,-0.016703529060206262,0.02271743240990916,0.16503120640632205,-0.051421196823079315,-0.07224744574119303,-0.08414198988092388,-0.1267021256738513,-0.023947672114571425,-0.09560563061466743,-0.07253589359983707,-0.030920383190207755,-0.0792760770689163,-0.10397564305761403,-0.056175885279617505,-0.03516424423426469,-0.017214056362742855,-0.07335204212105262,-0.040988011840189305,0.05743167239170138,-0.10345034850099796,-0.03408598090459115,0.049551445228621524,0.08494885996900826,-0.017930033661507624,-0.017380641711643035,0.05460257190093223,0.07582066691057973,-0.042484597309407075,-0.0033569981248966468,-0.025231379813807932,0.09049577759755359,0.12236109733338475,0.05099961726457876,0.11679127695906001,0.1499880212319318,0.07014496908722789,0.0710983930337162,0.02717185374375118,0.2067112075579172,0.2172531101720563,0.15451853167391305,0.07198225733162955,-0.027782120414927378,0.09732562502667046,0.09105629661736295,0.2050295814558976,0.26620915060235223,0.26055089445325996,0.16433888414071163,0.07732488419152116,0.03847498143265202,0.36155699330413754,0.1228861741735851,0.1087056468001049,0.04005234795843563,0.19651823576636818,0.16446024244031143,0.0415228155900391,0.004171421573672109,0.38184847498224084,0.39900809828342526,0.13147191361053057,-0.0015329714974956518,0.15982539227662199,0.1488937406258109,0.06055542062386426,-0.03492387017091153,-0.021470995240072652,-0.021389825116210206,0.012921600469179674,0.062399708010992615,0.14084749518848905,0.0891895213942884,0.10155088199475339,0.05389105394765065,-0.05324480297935778,0.04551579221920032,0.005985095508151612,0.1175419582275007,0.13652529289946158,0.139011544483261,0.08995836990839712,0.0287175619424693,-0.0939910060162513,0.018463338801755453,0.04432564460714387,0.24799526688464812,0.18460855909232157,0.18067747447238258,0.1634374116262018,0.11215240571780287,0.035087082683250614,0.044935561636448546,0.11195095368100674,0.23482288498147139,0.23317586972870954,0.1827517671753214,0.1726390136658835,0.19950046908259467,-0.3347564084703088,-0.49285097789800786,-0.40330048600010415,-0.027048794596988543,-0.06931433794176525,-0.1039297176674876,-0.1462217762394533,-0.16573388479208764,-0.24567396370542133,-0.3926471903996451,-0.29454261668049,-0.03495395645927694,-0.03412010133535283,-0.04152966803223795,-0.159284436101254,-0.18312782037672792,-0.05918988347027291,-0.12717639962012142,-0.25615264971515206,-0.1850737423049233,0.09225949918275049,0.07706977313275579,-0.060337863739734106,-0.1352999856739893,-0.1044591859486537,-0.14183991557876194,-0.1918959871154072,-0.2259155433972267,-0.0413994193313179,0.02279035377732063,-0.012752735458272874,-0.11074337560251635,0.106721022912042,0.15991142916416548,0.13922320265456717,0.13247044827398577,0.12974978879424204,0.12497167684070659,0.09174128405207534,-0.06045268126972662,0.14158350760781663,0.1510537423554232,0.10042646533854004,0.22403665995952396,0.13046402652853992,0.0767710602467461,0.048943785637672696,0.11195285449215352,0.08503759376789415,0.10095514187823217,0.04826585049424735,0.14275256734667455,0.10631053164078598,0.054467581770035904,0.0770213454225827,0.11077720584208102,0.003564988821910034,0.045661322121555804,0.05170059171684024,0.15924037843509345,0.15280450977723167,0.20854652393797,0.12495517991716198,0.21569083465580172,-0.21922711680925117,-0.18716719777366786,-0.3163593314672264,-0.28349186198659465,-0.20781367119315058,-0.12841416024250707,-0.12444393638948305,-0.14001701048760953,-0.14818298135173272,-0.23752406332525938,-0.29825552312702175,-0.14349788838647354,-0.18705203906606224,-0.13196015666222655,-0.0733100793180071,-0.10878181478192545,-0.22122474746047624,-0.10208894900610882,-0.046412788663545805,0.06383340999577604,-0.017968479423756855,-0.07984704471910889,-0.041273199434664135,0.03265264537109889,-0.13693556008098934,-0.08636854627129194,-0.04328336395627382,0.03853519804499399,0.08084051302292256,-0.09046949536830844,-0.050861622767752385,0.058567050528238795,-0.1338478498598146,-0.1569143040546134,-0.1474774871861815,-0.14066128443858192,-0.08702292922509419,-0.06230317755338028,-0.04807994527185625,-0.11383037787425179,-0.1891863015648284,-0.15249125634307759,-0.1483674082821452,-0.034801928380876916,-0.034314407343224995,-0.08564788250716716,-0.05663201102887596,-0.05259979842542447,-0.1275350385955593,-0.10058165057997318,-0.050030359368808563,0.012345383757600463,0.037093607470956504,0.09396127022374898,0.022148403955281067,-0.01523462295815835,-0.07727541052558731,-0.004758286417829466,0.018946094571784672,-0.014809675423196817,0.04487799225747053,0.15085474834194115,0.051398752082010446,0.017340873754953443,0.011267996085796554,0.12404598576698353,0.12274888905213681,-0.023505452147322067,0.11288730554057391,0.09238923385640327,-0.0851209967466693,-0.1881127525375884,0.006415634159367412,0.08846591067516979,0.15549216091317306,0.04663404402420346,0.05283832514827898,-0.03012249191075747,-0.1541122962004162,-0.08211529887288195,-0.22499171553093747,0.06837301903984266,0.021735584233365888,0.11240594737646564,-0.0718044666615287,-0.13462543924621675,-0.15485426069319033,-0.056401702452806325,-0.4277746133214914,-0.14865960099096925,0.045694531680726895,0.12072992482653616,-0.11441879344489782,-0.13304275184080566,-0.007127627111616436,0.07668433660177461,0.04071393490644196,0.07755699088986003,0.0970933505135912,0.09829223340758651,0.20326355101084023,0.12043510779681937,0.10281053142910741,-0.002528110224947012,-0.017669201622978536,-0.0126221226799243,0.006675233271553833,0.011275323486543806,0.04738475060680179,0.07751308168614493,0.05559556843146091,0.01328892686181186,0.05489942079844459,-0.018529421237148853,0.05295635143874818,0.017598467073661975,-0.06831431524585739,0.017680870873857436,0.009823101294903866,0.029673371828404037,-0.06146101619796636,-0.0320611654516215,-0.0014581452228905924,-0.020075103531551532,-0.037909628758401995,0.08460373254095294,-0.008090858382953016,0.03094204090524998,-0.20725380174393493,-0.18770802656068264,-0.10067759826287667,0.061697862328991875,0.1909280330060983,0.044445139871580226,-0.09991651676506252,-0.08367582019857484,-0.14948031097203376,-0.1585259981736115,-0.018079053763421074,0.13918391028779437,0.18094730124896236,0.07401376836506651,-0.08103265176455722,0.004547641156180376,-0.22249906592897928,-0.14587673401331938,0.01659306718212523,0.16420876580041813,0.037128263845032615,-0.030168052746997458,-0.038018380977317356,0.026025412173590046,-0.13568820430006345,-0.12934730836227532,-0.025889252493831998,0.05932452890456644,0.01608521184717699,-0.03944757921394664,-0.04430035969938781,-0.013963749875841565,0.017343763313954715,0.06733828349970099,0.04011547418571319,0.10929861144252467,0.1123632937322337,0.0646922597600053,0.07764150238419497,-0.10561882956218714,-0.035402316108985296,0.10856622540116999,0.10454110903295478,0.1518598161445593,0.24177171937282257,0.09282351239578014,0.07309195987249031,0.016980899668539075,0.10808654397592074,0.1005616961318113,0.018390904592910262,0.10323134965963243,0.03273078424535612,0.04980822306741494,0.04379505841240877,0.05727149941361267,0.10837588171364339,0.09411298120761977,0.08419729544312136,0.04970951478878095,0.062306904394494586,0.07107727884590785,0.005177615311142524,0.04348403594265402,0.05540210413636371,0.02158960946920287,0.11462983990556194,0.09105001139738593,0.13427545398233062,-0.07596941578800985,-0.14073272508017384,-0.13768211145210732,0.006189403838755427,-0.01936243316580169,0.39309612146851186,0.18819524237791188,-0.05086109074058611,-0.053722082078619594,-0.015248702916456316,-0.09466079304930271,0.18216594917758985,-0.028230079531705723,0.24678370845956385,0.187568457299777,0.10286576396820607,-0.028838518182116194,-0.10692631203312247,-0.0656870603606057,0.06826128648903604,0.019642225420852602,0.08511684892355216,0.15087124348145933,0.08380722960619406,0.0570498944441222,0.0321135098290828,-0.10000921246616687,0.021828134798529304,0.06749409028352299,-0.05209362468407099,-0.1584358870832488,-0.04925234674482079,-0.14561143605851393,-0.09645787953212798,-0.0629327292816741,0.05856989356551878,-0.04830391509266917,-0.16537113060927203,-0.15930275920053416,-0.09748559842107678,-0.13547786705736503,-0.11865604704492015,-0.0325294873817548,0.004831777007947565,-0.14933869380547934,-0.21644934892190748,0.014351204375444735,-0.04033475607981501,-0.08914914705388897,-0.11680999250345929,-0.07193598695476082,-0.14861513435307808,-0.19279990384626344,-0.15135796948108707,-0.057186909634077174,0.01931230351504124,0.037220149802888,-0.05105616800247692,0.019818057064531755,-0.1326119724269452,-0.048694504793942266,0.022752962051587472,-0.046260731186120604,0.1557122857544351,0.09507828781370914,0.023213325846864696,0.09165871230404055,-0.08796063683636152,-0.08683535989941535,0.07606696437549663,-0.060620143298017855,-0.014903655538770846,0.03898366876526288,0.034534589084935334,0.04707504552558366,-0.21311296283113532,-0.15465136613196961,-0.10951942489901663,0.06707126240919,0.09428781035937353,0.049067108096805666,-0.019651487730613083,-0.11494824320170832,-0.3085616090912409,-0.22969366440370564,-0.20133550310349657,-0.07449044680647825,-0.0029087601461727616,-0.011247122782436437,-0.03765663614068014,-0.102461313787689,-0.21784352988039052,-0.13734209477594858,-0.025701644050885455,0.06327036642861675,0.09324627570096691,0.0605740388684499,0.07313404803657451,0.07267675392930276,-0.13723694377396325,-0.10460158395818654,-0.020093960132330946,0.09924126262352752,0.0758965761697434,0.0501090157813933,0.05320297835949744,0.10584174815713197,-0.05718802200126964,-0.06839362380478296,0.0262284791404658,0.03606921402442086,0.04974277004609969,0.08782520858168703,0.0151248735532895,0.08428069088645311,-0.10198620618548157,-0.039655747665393266,0.0108151619426657,0.07917395190915383,0.10997435864004348,0.11435388016009228,0.05899414215855037,0.10006777714748816,0.05324499138243004,-0.010120014832699992,0.06808932374898546,0.020839485925223982,0.11673206214572043,0.015984147608580457,-0.1610640593668847,-0.24180700762588458,0.025124265006178474,0.16362576746424176,0.24074564294490539,0.27158114608525963,0.13327192138438418,0.01265076000508386,-0.15684752234390115,-0.29234582491062144,0.2590086191736301,0.11962465482975797,0.24892157372049334,0.2596129216581317,0.25155897116489323,-0.005178000806397385,-0.19752178419503505,-0.17252231974869195,0.1318451143145258,0.1420136438923734,0.06521976282617115,0.1545345815593499,0.22756242874100052,0.02525601330720273,-0.007676574942747533,-0.14589393305986803,0.013276189022128923,-0.029020558696252193,0.00970004927737624,-0.013181332413231137,-0.04665525329316242,0.051585196555765114,0.06137818666497227,0.02384013767914046,-0.03266564824060714,-0.045473889639256145,0.012829840897637456,0.027860426722652244,0.0720894019855259,-0.026745239390313313,-0.011135918805885024,0.006742092526177983,-0.08863884965054601,-0.028398380616383192,-0.04333456067313634,-0.14046451142668304,-0.038019765324666305,-0.02070804030233074,-0.06148733114489894,-0.1565777084658152,-0.12499789537579947,-0.0589142101088318,-0.07397997841378716,-0.057684673879490396,-0.00042268075459458364,-0.09237443099240143,0.017057818063880622,-0.19014097260722992,-0.10632555347067475,-0.09996538661254496,-0.08238687859295689,0.11579601373359541,0.047383312017989905,0.05764588099970873,0.03642130256100496,0.03263891583646183,-0.13040442267031477,-0.21551003101610985,-0.07127550245654926,-0.07011115504658505,-0.03109374322357152,0.007251698526259084,0.07318670832336907,0.11728305643291675,-0.20281056024948838,-0.18203181095736135,0.016712289219477077,0.09627666955578933,0.017374833757041686,0.12544672193817288,0.15717452938026874,0.16987637427382726,-0.2285513302868154,-0.28922434162193844,-0.15321196797984873,-0.03717614776984881,0.054394056858459085,0.09132247063000361,0.07612250263426089,0.015835771658520497,0.18934419414338963,0.13642082380004222,0.05792637486152775,-0.0021185627378124813,0.07120965917745399,-0.04442683015839522,0.06125464151842445,0.09613035655058748,0.16470435993256496,0.08303352436074077,-0.06007554558410924,0.05354086961983565,-0.09970652167073885,0.020634128065996855,0.09405231951415939,0.15667696172432868,-0.004034917623046077,0.09574352986165391,0.04436970591572682,0.09178672819276935,0.11829987716307233,0.06272592396619055,0.16570722612398964,0.16319866968885502,-0.1473232288477791,0.07095371219594764,0.10860454720760601,0.176803973318511,0.21806947638878052,0.20783064495894107,0.14764218667251425,0.13487014215527973,-0.046897467871325066,-0.15882628235763863,-0.2047891333354912,-0.12356302076438827,-0.10047090796226726,-0.0465224029958254,0.02375695131738507,0.12113923321863697,-0.05837191744243796,-0.1367298023903446,-0.14789050406744653,-0.12638618310458988,-0.05772006757217758,-0.054064419009488954,0.07235360407531484,0.17060852486169428,0.08911466785576835,0.030035263877107463,-0.009304425567048606,-0.018453386428062622,0.004740130359216447,0.03248588768128455,0.05091192955424125,0.12417203048714837,0.08790034803250353,0.02581243694033092,-0.03801208260136645,-0.0914619091512342,-0.13505084031493722,0.04388628303932748,0.031246783607961737,0.07437891786768454,-0.026607884585694866,0.005945393551451911,0.046939775078202704,0.04828741972279776,0.10235660613077562,0.10519347528316395,0.13344215914773852,0.07753657979253244,-0.06766372795354128,-0.009682359586937271,-0.006888571051958382,0.12209060155264287,0.0857010395407449,0.13449660581102119,0.07596100333851039,0.05586920547071729,-0.18237757503559832,-0.004333392754316236,-0.045119580818317497,0.13811985271557903,0.1400623161798443,0.03941624145322552,-0.005696845165186186,0.03589678300170716,-0.18705980549767834,-0.0950772052284849,-0.015420256701057827,0.08168661319748237,0.06681875588657904,0.08127624978365294,-0.0053827969084478035,0.04052021907652146,-0.16350673401658122,-0.15193778679424036,-0.16680382216487372,-0.11588410386481707,-0.014161028885830625,-0.114744913660315,-0.08300551568675169,-0.07731630239804031,-0.21320551686746797,-0.16861762715656137,-0.15247236076935622,-0.24311073359980356,-0.15655841606948662,-0.08518503097600877,-0.11277256047535855,-0.09601861084381692,-0.22467265999082536,-0.314679764357786,-0.17898545562931067,-0.15207612139919652,-0.16123555476488374,-0.08744144435773167,-0.023531674024707024,0.02465075080177587,-0.19846614143242775,-0.2812041809888426,-0.15478217651164408,-0.034948032593702966,-0.12541891294733304,-0.02483744636663942,0.034144384679610305,-0.03969848839331734,-0.003959133255413296,0.11437906937374404,0.08705112071357757,0.1298201798793508,0.20767067074278706,0.1601412770486778,0.12305370284216258,0.050742198686440074,0.003617758569410736,0.03455785900154173,0.051564291458446966,0.06781258981312725,0.13053815954333564,0.17973531811433344,0.11549315198633021,0.09726338571685107,-0.07043897213366565,0.018216349753423428,-0.008589479775574492,0.14944109713736367,0.1189218165479254,0.15111713837390295,0.09822035107689941,0.17238043889591304,-0.07244221610228722,-0.04595962160658501,0.03901895051786084,0.07970169182420385,0.034681230621029305,0.14186101379817773,0.08922165188663973,0.11849486023536816,-0.3915558699822597,-0.276376814160386,-0.12296413303807734,0.05799507904386739,-0.02640147285184542,0.11250275236354552,0.1353501901827636,0.10808924748758368,-0.3591207127742411,-0.22265877817097549,-0.1271457124842477,-0.07291403522076596,0.0520207188366766,0.10534595978120931,0.20452379894965317,0.21075139432235745,-0.46159590238966225,-0.18602542980877768,0.029362479489868455,0.13499120257932823,0.13380417749396054,0.12116619001559105,0.1779949841198973,0.07738268985283892,-0.28711597366600433,-0.038885151408385624,0.2583559586742295,0.27400815271775225,0.252693193454769,0.23486210202164706,0.20514619949949273,0.11689897445325101,0.0383583179993954,0.14438555416867585,0.15357026266315016,0.1703700959797959,0.2510657723304887,0.22115092870050948,0.16755307453435242,0.049593643548615035,0.08482838209989413,0.16039663466991377,0.1752169209964392,0.38689764330390747,0.17366893025434152,0.1786572913291868,0.14737943340140883,0.14816575501820753,0.14951651323377396,0.19057235845836487,0.12897817347951282,0.1984786682644339,0.12185341175459825,0.07956183184783892,0.15162871689527146,0.23423452727846308,0.06273673644296066,0.08059510107830639,0.06979233703167356,0.047976574878532935,0.06798219102755346,0.2312926365667439,0.16814454209162571,0.14984397564516277,-0.18199609791034585,-0.18980066703539547,-0.2588340565194744,-0.35087557754384135,0.040233971286323084,0.09784710450174647,0.11936202819146147,0.006548296804780877,-0.24679805284846182,-0.08959147971918541,-0.1341341020620295,-0.35122041529664405,-0.016245183671352782,0.12212998126099796,0.08313102035819495,-0.11536896718723524,-0.18779379256069667,-0.25823754781636393,-0.23344939581338586,-0.1465476167324064,-0.0929487852336298,-0.10048749316562329,-0.034896523238437484,-0.0714008149036782,-0.04429413878743028,-0.1615263845193025,-0.16366933884021187,-0.0699202037939703,-0.2605721167617027,-0.019716471543553195,-8.87090709818053e-05,0.010322563055079139,0.015189715103172888,0.028048007929440105,0.009521420442056068,-0.00439570017391247,0.015332295323796194,0.022074174543846182,0.014682120642839193,0.04600801019283333,0.061853412437636875,0.010637749695793251,-0.05019565539473678,0.13207650766996726,-0.06216778377137317,0.006207096500986268,-0.01188331750456928,0.04634356897729166,-0.033062404308240104,-0.08924517951249723,-0.05206335573648811,0.037610691270119755,-0.022780072106878314,0.009401620844339853,0.04892290676515004,-0.0765908385763986,-0.07465330169913958,-0.11191268263283959,-0.04845564084718169,-0.0234614863251514,-0.057750220715411235,0.02574352783468475,-0.04033490701868881,-0.1243314685679398,-0.1325276155967712,-0.2313990461159621,-0.1376430319794261,-0.025074033837138857,0.18152336336958885,-0.07080569434903096,-0.1161812737295843,-0.18771929388795597,-0.2062723866189754,-0.06988527239435227,0.0016017983582463644,-0.15188732593212517,-0.02385104714873648,0.10478972539603201,0.08254519540615848,-0.27576695142128477,-0.07431389318652805,-0.3763453481332204,-0.2361864475538408,-0.25388342089110366,0.04310552678030475,-0.08301677790722865,-0.10880123274615192,-0.17345592820007708,0.018582318386629635,-0.4243426830484191,-0.2519172794008464,-0.119876824818817,-0.19522329282435932,-0.02988706799216808,-0.1383157516931131,-0.0032873489736261405,0.019100153976363318,-0.012605861565909725,0.030128731704421458,0.04184274715144675,0.03550974455356629,-0.018790526915595906,-0.03366924360670111,-0.07276580195888359,0.008875707723142105,-0.03849066219671415,-0.007989593585195494,0.012500992083688498,-0.04934080056143105,0.009512121581025887,0.04255049648799122,0.023665448367762906,-0.13584348697191695,-0.14166129547391423,-0.14511232384040804,0.06860833605294998,-0.07248688025110084,0.02163552791738966,0.05629395008881509,0.1006161840771228,-0.26122826769021273,-0.1772800039291356,-0.12573955473224535,-0.08884971117318702,-0.0449901611036382,0.016930959030074744,0.09346593963733947,0.16443369138946018,-0.16353630902071217,-0.2059315083495952,-0.11702413671751999,-0.05748042867882934,0.04584721472984495,-0.0035976487051951824,-0.055597535172248816,-0.0945926117812371,-0.1862402488062687,-0.13384679076970749,-0.047326931283649155,-0.08509317114440114,0.07863718700054517,0.18273362462017206,0.12023765027513486,-0.13999433283524243,-0.1544417948114742,-0.30089214742281634,-0.21445305725929137,-0.042718682984054304,0.17303739611215307,0.06866541736036356,0.0004047077060222287,-0.04559866658072671,-0.20757055279586656,-0.3015962038038286,-0.21237273182965014,0.041160405479724355,