0.09591407695965443,0.02944406179047443,0.0034811273602041804,-0.034435548003176705,-0.006424944513684033,-0.0005314329571252348,-0.026464875802057603,-0.03524964383386552,0.013508434283350445,-0.019007277086771603,0.01647917595186938,-0.027100282403428474,-0.013094443477559304,-0.020695127896712722,0.005075608027611497,0.022434276824926803,0.1758726444954112,0.1421682447186072,0.04015505088284693,-0.0008700853365077616,-0.0025364852975354427,-0.012116967642967973,0.031071097141933696,0.1343530785376873,0.29122023259777036,0.1337645142566638,0.05820342552478735,-0.012383427959809502,0.01570746897476377,0.0026088198639187565,0.010543155805166576,0.1085805476276109,-0.0435608882180091,-0.01304213631439554,-0.004952366351933704,0.060369914058796166,-0.00918790300730887,-0.009410939492739934,-0.04387412729392443,-0.07008299071153559,0.007727957013510366,-0.04344202654265058,-0.013681225830485403,-0.16792648113283654,-0.18520688749138203,-0.15251458437976803,-0.13084363929821347,-0.12828848321052827,-0.11251360794671847,0.04951243741882459,-0.006458692998302823,-0.0828783804949971,-0.1496896196387463,-0.18018435191871018,-0.14431060378446928,-0.0999701964488147,-0.009004052240525435,-0.02160251724241381,-0.10003142053139565,-0.11004241836497801,-0.23710903655440216,-0.26638022269458306,-0.04137123936519597,0.07194118787721109,-0.06810856464089869,-0.07027656087641475,-0.0586945409281991,-0.12882091415053767,-0.10197716897546782,-0.13046164627203774,-0.0651639653328444,-0.05034045961090771,-0.04613208478436918,-0.05826340265433309,-0.10586488278540265,-0.1140520135597477,-0.15333544913944064,-0.17668732656621228,-0.09322254412163843,-0.02722654761096204,-0.024641637191714427,-0.05802293966709995,-0.05182214743283499,-0.1352465562465733,-0.15777205478853285,-0.16750535442821643,-0.16950145083374926,-0.08385118133837034,0.08208973524661539,-0.019543146519228557,-0.10301999506656216,-0.1906539613818772,-0.22865568537689326,-0.2524983442762322,-0.1748978190302293,-0.1145757263893197,-0.24122455307614257,-0.11903597566132078,-0.03194103725356692,0.1514248316193691,0.025213729024742018,-0.08595972933391689,-0.2326565787180823,-0.32584312373295365,-0.18919220210989682,-0.22647795399787657,-0.1817862066837755,0.015702477083179765,0.011279129265194802,-0.11116198717377425,-0.21061714250149421,-0.1897313836726844,-0.15482655977006501,-0.14123073237545963,-0.17742749970433344,0.016360159653959216,-0.023240718189849748,-0.10970176835071647,-0.21678834841720188,-0.2064435841507605,0.020797254831949562,-0.11595773368704829,-0.26205461772211874,-0.0778371596136379,-0.15771231769876518,-0.08129254931705703,-0.17523915860505498,-0.15738545026658088,-0.24183790280150738,-0.1162853955521795,-0.09459356591121794,-0.025220223659807972,0.04087346822958555,0.10983549694126152,0.18404679222206582,0.16455509462470247,-0.07702010106485849,-0.16101073277926792,-0.09356123930089663,-0.04911660913697438,0.004064344539214003,0.024723408067825716,0.08187665931092047,0.18742898199586544,-0.20069962793013824,-0.17467862953609378,-0.13511842727836912,-0.04341937169315293,-0.06839516140720099,0.0034706667517036037,0.11694096704793445,0.15911392228900142,-0.16452597064973673,-0.1418660517023653,-0.07832617277211103,-0.04413778223091226,0.023819188469482853,0.07187511989294917,0.11150948788033102,0.1957267122037928,0.08510947287596453,0.14441309348894474,0.2072094741847912,0.30342772166775056,0.27434579062156184,0.0914612055082834,-0.008915251129310272,-0.1413774399654407,0.1686451833194348,0.1995525586664674,0.26783155902434685,0.3541511389522521,0.14728393255244446,-0.0066936545354990854,-0.07330887389806269,-0.18743668986365183,0.1881643709163392,0.3178684282490624,0.42233403253809015,0.4066746117585636,0.2966610084182542,0.044704009843020476,-0.16829176002615964,-0.1787808727649499,0.21100615854200394,0.34148551314888187,0.48024874129488426,0.6379697885564632,0.3220619016955271,0.15028806495110178,-0.14650414752808838,-0.02597846736158764,0.053878801623833926,0.033302301257156525,0.028042702127114717,-0.04347383187011289,-0.015175133392064732,-0.014989943876843614,0.016221391765374543,-0.032273340990370956,0.09713380091384007,0.10205509267298742,0.03567775180292743,-0.0008031033135558237,-0.016405975715368303,0.0005616939848033443,-0.018316348057802717,-0.05886813055792817,0.22769196549990584,0.15949262186918473,0.03654726473629039,0.05291935227817159,-0.02776812835230726,-0.07052265169859223,-0.06428594323886314,-0.03151878087701967,0.2526472177769959,0.16630822835258333,0.10149397073617089,0.0494587848004053,0.03836655910682012,0.10837921206735572,0.035077563463465834,-0.006678010195723109,0.004468658496855472,0.04578352547369624,0.08925672273789861,0.21237533067570996,0.22728995692024875,0.1463020480749378,0.011739289812793163,-0.14026860863766355,-0.04858595290449404,0.062383861091456154,0.13088317526219445,0.3105022295419833,0.2960881625753203,0.16020406685283958,-0.04584309372794328,-0.22226815128161886,-0.011844951896114005,0.06205518615848133,0.06201476472554956,-0.005395156255562572,-0.006243184980000819,-0.012803937195944077,-0.08224349989965424,-0.1802718934883204,0.10886877480631382,0.15299900846168016,0.16033200765230102,0.02774143770486179,-0.17419112932110106,-0.1853856152931782,-0.10477151219153322,0.0896418341827795,-0.04971840448204374,-0.15550359475521258,-0.05003714550430233,0.006185602518121697,0.11111350156127242,0.16418350887572658,0.19931191583832977,0.16146171213727,-0.24566708771427245,-0.1790939148674727,-0.12621299141452996,0.02690937060869851,0.04801729531406724,0.1333443566856041,0.12252339254699353,0.1510430386033221,-0.16637627446507966,-0.19300303382145348,-0.20972090196974816,-0.0562335528753898,-0.02548960065225613,0.0064712305271491565,0.09498395069419971,0.18126769880404633,-0.029944238992840204,-0.1291175458953986,-0.048983560195571346,-0.028739449790221243,-0.008656127502894313,0.06127410801728745,0.16302860729692892,0.21305775311888656,0.1655950246554525,0.06897816646753935,0.0012109180621564786,0.05604037187092497,0.11176952670033713,0.04646440300308436,-0.019103760270784514,-0.03299910512912472,0.20259733613463418,0.05573568118591156,0.03253606653422092,0.05867833314223285,-0.08328753698171071,-0.04321191574134547,0.018834164324122656,0.05671950368344942,0.25507809835752493,0.07728067396288514,0.0021865580905980836,-0.0119607959666074,-0.1166179724829491,-0.047047877421347147,0.04683696272105709,0.09355643604266958,0.20840049984354125,0.053462030667631,-0.026505628165399198,-0.08098730713737126,-0.06262008337623053,0.027566435119439972,0.08547336855009828,0.11760138775025483,-0.09921680534581978,-0.006662697452337558,-0.052447721979909094,-0.036050075563382925,-0.07439981410829864,-0.051416057757443484,0.025739014786423507,0.07731998355423081,-0.1678058147008288,-0.08239569707501149,-0.11753277988988228,-0.03562493685691694,-0.05449019961402697,-0.053078690649902546,0.002888421586454018,0.08528700755306551,-0.20834077152891484,-0.1557042465967291,-0.16344009027987336,-0.12104211355825659,-0.0873304414560657,-0.0748299928102824,0.0431968699182712,0.10807575287933337,-0.26403747716507986,-0.1934288292226567,-0.18501571529356448,-0.11950564185204764,-0.07701744092409443,-0.056305762251064415,0.04222159046605878,0.044991723846341605,-0.00438176960681898,0.015071701149975053,-0.09485004754891993,-0.1357015831034004,0.01198572649706006,0.03531865817698613,0.06378843769268873,-0.055785415349028526,0.13213347076058504,0.08443313289012998,0.12583727688692106,0.16296956062498227,0.24228019383506594,0.09537102306485681,-0.061808838849599645,-0.07267211512500138,0.13579521320205992,0.10692175579947766,0.12181511419070463,0.14545901241631498,0.25131065788733997,0.11335798101401524,0.024580549174529853,-0.015157473984529164,-0.043253649457326994,0.13204343607110502,0.27366666740656814,0.240714168355179,0.18212719290249177,0.22362122388072397,0.026523222692201982,-0.10507265980736952,-0.35842197711575097,-0.3501860222917238,-0.31020558052662667,-0.2613622716749975,-0.20274925111761272,-0.14013056809960714,-0.14514198620208074,-0.24022462792925187,-0.38699551564302537,-0.3208793010735687,-0.27195956116131226,-0.20255918777766801,-0.21178168832520144,-0.14534698370926688,-0.05598781790564731,-0.07680993905801937,-0.3613742861184948,-0.3200140078039093,-0.2934645184843424,-0.22623991201493804,-0.1812074968701743,-0.17587408115958156,-0.18274956574836954,-0.11995125219579116,-0.33968883066900574,-0.2933173451243026,-0.3334764609706892,-0.23072224902100033,-0.19650505494435722,-0.20919496732250192,-0.21382825177437997,-0.19121117649506,-0.04843429869923377,-0.08434382948969688,-0.18220778448542435,-0.21800772049686537,-0.214604443426814,-0.1429701948522118,-0.14657132100864118,-0.20034081894759345,-0.005457384113389836,-0.15498685282775015,-0.16538891881100318,-0.2262133966348904,-0.07064313151961053,-0.13826687694114262,-0.12710336032826808,-0.13509580789284048,0.07148518123880021,-0.038745961277565674,-0.04531312855338099,-0.028736207438237238,-0.0328031415668249,-0.13840549699565127,-0.17037510799284106,-0.22627249340841,-0.003021054835511143,-0.12708820137786042,-0.008097633372947518,-0.09103253990196489,-0.007682548118925703,0.012932785875161034,-0.1194478730262164,-0.23300346147869005,0.2123186298682686,0.1963150017264393,0.21787043026306532,0.02142481687119236,-0.03309344445246875,0.029394858176362188,0.08753354376037419,-0.2194969067669837,0.2816024475290008,0.2776554592135175,0.171219515879112,0.10763774588881671,0.04003042449639805,-0.0021090666680156486,0.03926809264007169,0.05819796170092424,0.10014551984492895,0.17431325128654776,0.11250168118575712,0.02424572017866365,-0.02157095693249549,-0.05818718455499501,-0.09625161413547718,-0.10417855232481746,0.025437891800624873,0.049238569871523516,-0.041167142514879386,-0.03952597069800457,-0.06869997593973534,-0.10560774714370841,-0.08030012306694652,-0.1291094187778464,0.05464924907137606,0.06310250033042841,0.20778970189473264,0.21332997442597673,0.24745911794468461,0.19122300906552642,0.10511901620479833,0.05248185037587742,-0.005444287173149524,0.028057729586880104,0.04277754217353909,0.02893611395648096,0.039428400297803326,0.1267592743487021,-0.006970584159038951,-0.04270409238202497,-0.007325921768611414,-0.08188217590875492,-0.08003057784440895,-0.09060592344453947,-0.01797903678378401,-0.10408881016973101,-0.13730459412556625,-0.12342139528832086,-0.06835554761324737,-0.14722766871646267,-0.018325618555319403,0.07798731632646358,-0.06955933111650586,-0.19281864206308683,-0.18312636367544022,-0.0006271525527379532,0.33724068112418043,0.1874178043016412,0.14159119722960495,0.09476255362398525,0.07308797606459036,0.025470580016738402,0.043319109464735155,-0.05550629464303888,0.19081972490409646,0.10653813702397721,0.05447710332260656,0.039509209992636435,0.03566062726554912,0.0742027831876077,0.037673981201089606,-0.007802884691807523,0.20402139743379394,0.09239011243980565,-0.032828462549271784,-0.009848962687717455,-0.06753952062581725,-0.018595713485566805,-0.03759731401300108,0.004841552759506386,0.12101513859507622,0.007316396076329182,-0.041365101051466034,-0.03280829653394747,-0.018828941184072023,-0.015234808960586075,-0.027235753985661294,0.001106206227110578,-0.060264342976950505,-0.12970607147530985,-0.2532294938861092,-0.16205160608952296,0.011921753869845054,0.09750842973113845,0.03981487918436176,0.05458475982335742,-0.07906527903284626,-0.15548682253027635,-0.037164261846890034,-0.14838530721194323,-0.12356115994887758,-0.02787257699537344,-0.06737408833046765,-0.04498731345468499,-0.07984942079115559,-0.06725761894507806,-0.15280209073656628,-0.15110917379038097,-0.11113464038234148,0.07518852780087867,0.009765241483210918,0.05912603088942988,0.002257564312437537,-0.14749190865762882,-0.2827946400876065,-0.15723717693253375,0.07218760280287896,0.13077629186156742,0.07091596455456073,0.05725201706016784,0.0423556789411103,0.08557019697849663,0.09206150936424999,-0.030600311757717245,0.013887129656536414,-0.007925707958043437,-0.0017007847289120348,0.09043119458445323,0.09795066083365983,-0.011175468518970859,-0.1117332324335881,-0.11979437602785023,-0.06956592685435332,-0.010915813961644958,-0.01374701843255146,0.022790598849249406,-0.14715722349512667,-0.1475973331836417,-0.20948535610890112,-0.10762000275725732,-0.0905561254234538,-0.04321391594670086,-0.020372406851146628,0.04997418163373125,-0.20836747100246228,-0.16801974144086312,-0.19016416357391355,-0.17462945298678983,-0.14845760204302486,-0.0340474408325456,0.01727798106193875,0.05557040600972096,-0.07628675247347609,0.01406545152062384,0.0794306438377515,0.1473147899615016,0.21464108769737797,0.006966048324898686,-0.20612484331365716,-0.3656747664640628,-0.01022056388157623,-0.09305404297835278,-0.11811391377345505,0.08105936036815538,0.04937615716546158,-0.1167055930419788,-0.2095842975328786,-0.37404467483214343,-0.21259398993455364,-0.0838445897553259,-0.034786484061881486,0.0915067865648531,-0.017525106147249676,-0.13457525261972855,-0.21415813571171377,-0.3262640337559969,-0.14472193189744526,0.0030990359360120925,0.05829769822748103,0.17751259797899363,0.06491075869917241,-0.0024483406646936038,-0.13647781862753183,-0.19382095884474948,0.2482641087744653,0.12141075757704219,0.001144979050105923,-0.04085474997203869,-0.04399047680750059,-0.08001725637361022,-0.002794334577917362,0.2962506637411205,0.2627981764369293,0.14324719916570652,-0.03408547384811733,-0.15323875604577988,-0.15856465686006332,-0.14285562345097852,-0.0805718883187954,0.0352509102529782,0.3390119889865572,0.16301040169652087,-0.044875705124175234,-0.09361221915408942,-0.1297027601142396,-0.09878824464683476,-0.09815138461178273,0.043732015630599225,0.15069841842622644,0.020176419334604328,-0.09393662535480417,-0.12359446006999086,-0.10332527169609954,-0.13207706239091005,-0.06726057871329745,0.04796786875311603,0.1926900932269757,0.09482923583697168,-0.1255375811162866,-0.0720665719483794,-0.049050385839919504,-0.06372972326686613,-0.024254599726146003,-0.03051480916760506,0.10949945719206547,0.022118417780593855,-0.02348038427508839,-0.10729456890651935,-0.09112193947765429,-0.033208103389360887,0.0022684468201880524,0.0631875399707434,0.13969244306122836,-0.0048814640083685076,0.0008463963069675723,-0.05281617520488311,0.01184033879587016,0.04665825621631903,0.09834759317620519,0.10169696015871107,0.15991238493752744,-0.02816524036760935,-0.05977151210297528,0.08857959809143168,0.09061998507531166,0.022916096568148494,0.04284375625732188,0.10058977957718106,-0.09350195382814312,-0.03838163299109304,-0.0867241234815966,-0.1535602440156849,-0.11962222675310422,-0.19475662268975652,-0.16518391400771354,0.5367302753901655,0.05712621221878789,0.10735258960327086,0.02796045438167428,-0.05333518908480968,-0.1456693875442787,-0.1462953523005268,-0.16297160111199407,-0.025601555543123707,0.10723087775207349,0.02488263269734637,-0.14588449024762587,-0.08750461328235883,-0.07379552751114593,-0.06559461501962148,-0.009839995964611518,0.12139855292893753,0.10804888280327032,0.004943823345124794,-0.10966894492136672,-0.065358872328987,0.007904170105185062,-0.04939197475344724,-0.01956735578887556,-0.007241335968667369,0.05742354153355348,-0.11545025107783817,-0.09711822382756002,-0.03419613597227976,0.11757399122022219,0.035533632332687075,0.02120939157291928,-0.04862553599089971,0.06414009167200276,0.033163230784021926,0.004093952531890217,0.012708449061391748,0.149683719112135,0.10520722179324203,0.0487035378663105,-0.10792782062196797,0.4512929343902737,0.0020195905801988845,-0.017725869448574374,-0.08942951150183086,0.07624610719690715,0.0737470828075765,0.07826187336546545,-0.044006526100085666,0.24345789577456467,0.0788007381139734,0.10636543560966122,0.14402508537371375,0.19157854394978927,0.2697451797150195,0.16332674376323034,0.12212329855736331,0.40608422713351855,0.21942312322449448,0.1168304480915864,-0.06504980747630003,-0.14559696766009073,-0.10823769458089451,-0.024769666708072024,-0.0756428774124516,0.2487166746553361,0.14354829410951803,0.02562093545281852,-0.023918163397725522,-0.033862143210550096,-0.08342750330328083,-0.04051883653521799,0.08923353689494745,0.11474864209262979,0.1059793060477303,-0.033728185621210584,0.01225313737575147,-0.010381741588791406,-0.09318714338792572,-0.0824895608212949,-0.014015838120408925,-0.1048462502377747,0.0025245448929297628,0.02254743404471033,0.03686331725245003,0.02347357964620105,0.01873977585201344,-0.025933304119048907,0.048614469869028266,0.3059950222812786,0.26982283458408945,0.18209137321128882,0.06028777154341559,-0.04091344646815115,0.005952609320394662,-0.011355301794752262,-0.014211448302867621,0.25514801170689755,0.15463007179935884,0.17673706948851783,0.21380935376987584,0.030014663498998936,0.009790371058523447,0.03700388940367266,0.00406103953276033,0.28196918436028184,0.2041300893398647,0.33716898417328167,0.37668047379622194,0.21738839181924058,0.18415121242419621,0.0428712413841423,-0.019857530972793417,0.2642219691424024,0.29622911201759866,0.42517345569219206,0.44580085370072636,0.27606530818286606,0.12102220871426574,0.08604934625291719,0.04161467915579851,0.12344518447236316,0.18294558845240289,0.10307085394055683,-0.03810891691638736,0.07262180357934339,0.06300199121584715,0.00881605969103318,-0.3590386641850917,0.262831884565457,0.24143200477784776,0.016187112252015586,0.06668135527641954,0.03798842600527558,-0.005600442337584304,-0.057855531672674335,-0.11936291465568914,0.3248932729739714,0.19389582370008548,0.15144046159281774,0.06401509042380617,0.008221091021538212,-0.08229402342971914,-0.11346564414790627,-0.05703757637552551,0.21883318749860498,0.16443178354776555,0.051076361677754555,-0.005165617186521781,-0.04467444202621496,-0.21336802019341625,-0.15031592022951812,-0.08937336832955972,-0.014242879017759065,0.020786651086662458,-0.08195906040672431,-0.10018930198193515,-0.05757965097466779,0.014459027119462831,0.1125653424106686,0.12274156559621105,-0.07243799708095514,0.01202001882402869,0.0979777489305298,-0.03796576359384217,-0.21031700190957842,-0.033225802867029586,0.1058563603747477,0.05676181566408321,-0.0879053737422488,-0.06106623364189643,0.054449495341742316,0.05219123957869994,-0.14949422487805045,-0.08982391510626084,0.005215765101838388,0.01506009030667358,-0.1362176110158172,-0.1390452577588769,0.10738262531194115,0.15000720898117254,0.03448979274913614,-0.057774781040075954,-0.029103540819261718,-0.020166680114386056,0.005900855733443644,0.035309819673448026,0.08101819433360474,0.016801025838835797,0.1374633990862165,0.15232138268193365,0.26713950153652344,0.2319108024660608,-0.027792217150169506,-0.045243223604152345,0.005125195555933931,0.08948501597369739,0.13898400908992348,0.07885309784416732,0.15221418935711173,0.19987902687794445,0.0016006203429125654,0.012927797647130477,0.039200647110050786,0.18390881934108466,0.18608191682066627,0.08480282689281277,0.06947439181292996,0.052888500354441814,0.020444936639704092,0.09193414526003799,0.2214085607568017,0.2555215675582341,0.23205884568106802,0.12534566124287763,0.1584664572824284,0.10831751030253572,0.007575203741340099,-0.06101372807736654,-0.013774696285017696,0.00017622712519997972,-0.128023405415017,-0.09821943259838883,-0.0639949462024919,-0.11654406481429677,0.04415424003764606,-0.03367990275263341,0.04598617975169136,-0.023389214586257822,-0.09013995938751986,-0.08066018292194468,-0.1410434208407553,-0.08208526912383932,0.03205248926048266,-0.029359092328066,0.045857013854152265,-0.05761353381907345,-0.1658301742888377,-0.1515217896201741,-0.1115331963801845,-0.11661071334367315,0.1283358723944015,-0.0736049464029957,-0.33240055542902114,-0.24950202033030297,-0.24337402403307937,-0.1620138353767116,-0.11524903786831331,-0.11994614362322964,-0.08107005907451154,-0.041364822660300345,-0.024945184415885707,-0.023121435545183647,-0.049158583984276714,-0.06894694383968135,0.10954708126389405,0.06883149148474758,0.02300441231955599,-0.01877022621225069,-0.010490996774984204,-0.0453750932053919,-0.05611490520105947,-0.07944812570478116,0.014711597834332416,-0.007306100334016969,0.07137427444049543,0.05974383464124853,0.0024857752223613446,-0.0670012451903742,-0.03762078811120681,-0.07579715763131142,-0.0870040211263921,-0.0807219876265944,-0.02531665393732112,-0.024822571753041076,-0.03181734609405368,-0.037732206901650724,-0.05076305233948258,-0.14094770755582947,-0.05064881963945236,-0.03295081288611098,-0.05029847932280795,-0.022628325274869576,0.0284535113988173,0.06310953112514936,0.03609568264730202,-0.08775824315827736,-0.14402738109021612,-0.2601841926090433,0.015296990709641141,0.11562607455823973,0.43321586454055483,0.35447250978746625,0.12836989622449624,0.1592236014417197,0.054084513166992226,-0.17916674985568848,0.0916816016054168,0.09802755576459316,0.1269663884669587,0.12153451212624322,-0.015262275672729064,-0.038672193507359585,-0.00912392030373207,-0.1193330357693211,0.0685812183672618,0.09084958621962494,-0.01533820670003239,-0.009590995429553707,-0.13183723922085938,-0.12472829851378456,0.011850490259415274,0.044693368213741015,-0.11342925995113334,-0.19340960018300166,-0.08932465365150713,-0.06572530843171485,-0.022410405435061086,-0.11273247607990297,-0.09914472983316593,-0.03245478792062657,-0.020764091707290155,-0.0749824609380668,-0.07764346306381475,-0.10337812257580264,-0.14508131257277174,-0.21162583844862673,-0.16740583372956214,-0.026814652357144874,-0.016043736779236314,-0.039667206529914616,-0.07992796760727905,0.06625350470133837,-0.09448078538904091,-0.17309697141598424,-0.17067220677687037,-0.009056933456047056,0.004761054660300842,-0.006586668238750125,-0.08418902266676616,0.027908170461937564,-0.030589995993430312,-0.03922398199398024,0.01803713641799236,0.11940998550287135,0.04580627793874084,0.0028474140879069564,-0.07726460711410751,-0.05275086260387365,-0.05362656010034442,-0.017957260413593357,-0.14219814103629058,-0.18604400304897942,0.0501400634177892,-0.08015157091985504,-0.0203735278027456,0.046095874180914743,0.07320176729074626,-0.01766497688422692,0.01992613255207691,-0.12793676639161805,-0.05797654792649631,0.05856605688748825,0.09521363428589563,0.022413869595334566,0.013075802442695473,0.06392259402114063,0.01808278883498031,0.003109780373168661,0.0243760662122543,0.02882654400883009,-0.017323507052209322,0.03573863067592553,-0.029650632735035296,0.008892685890699957,0.15034959399044479,0.22454398073594517,0.026169592066234856,0.02120970489297092,0.03717133782693359,0.03590491706589302,0.1517974927888003,0.14116022241692486,0.19693587504076426,0.045010621136118124,0.018621036584215708,-0.0980690009709963,0.10665065294757968,0.22176726484648082,0.16597693713945447,0.20626048211363399,0.14956753619950675,0.07077016271006031,-0.052191364447565725,-0.06933425141877711,0.20964912953781703,0.20769538846615185,0.1825679461144716,0.13024010235095063,0.1223724685041614,0.12543730473152037,0.05462112358761533,0.09426821796014842,0.20229509541019172,0.247825231661297,0.13276674579296024,0.09150360939784107,-0.0004788513208562338,-0.010453615580875866,0.13712145573815496,0.037731821910069116,0.008454025621804221,-0.009345468118966182,0.08087372238920516,0.08223867606527582,0.051200924041141384,0.04054119474718533,0.14503586010767258,0.2059866001128616,0.23718826218383682,0.29746509117532544,-0.0019852394145373313,-0.03609532329115932,-0.09148818481316794,-0.0522318133456591,0.1709039249549122,0.21240846856346618,0.12081569793836468,0.09352766591701828,0.02856767827268311,-0.06930245345501121,-0.13184138464150552,-0.06136481305145509,0.09163512516234809,0.16028433289575975,0.021560325339051372,-0.118320496018468,-0.18906124746608394,-0.13843767755144826,-0.14595624942443464,0.1022532157468042,0.1502409330297929,0.0656975383512515,0.030448482818497047,0.07021106987999698,0.17482287732112636,0.0947963207007452,0.12349090979863848,0.14573321384200819,0.22304252626648238,0.1228495300739465,0.03944167581851422,0.1631455382355998,0.1933026765042185,0.1473997152942838,0.11960556331813356,0.1249362051371138,0.1226065147681374,0.05243458945275343,0.13842658292009058,0.20536088356112636,0.12513792949041322,0.07736507477508958,0.06421131918259769,0.18908102957465045,0.12487842027681453,0.073710310824204,0.06776628239884007,0.17625278414739232,0.23465399994462088,0.16454329388323627,0.13812629447117972,0.26640544941990496,0.10584976477756038,0.002393504482601388,-0.0616017494872224,-0.09400304422763128,-0.16740180471463326,-0.1469045955544606,-0.13112396288243183,-0.03982463256998658,0.16783912850430385,-0.03856606669040851,-0.3003066137964772,-0.2191973531466853,-0.14819378670103978,-0.13279882229641635,-0.16791126700837933,-0.08199205171688023,0.1510290904045692,-0.0852360404365073,-0.32083173469949605,-0.21694633790062587,-0.04684998540652831,-0.04320273954121971,-0.07841840465556717,-0.07715896468116404,0.20009867863563255,-0.09331669450172243,-0.12214421428796964,-0.10486090808867506,-0.2250163213009863,-0.042988548632646534,0.05398487130029804,0.14178498059582306,0.1355826843210851,0.1526806094107557,0.06882396492424217,0.0006765247417819131,-0.0676114747781867,-0.14461933885015343,-0.14022887275699716,-0.16052352666791744,0.1322355367525138,0.06529355874933415,0.021983750820658704,0.064293626973865,-0.043012405200321284,-0.08602966716096767,-0.10963282621952782,-0.2310146729377597,-0.09184954428719362,-0.042888940890325584,-0.02020673316732275,0.012631708888630277,0.05209411173057218,-0.07256810603605517,-0.1423525154697039,-0.1630637052686001,-0.014323065688284453,-0.012006300744347106,-0.06915235244908197,-0.021821942333875955,0.008461829594636905,-0.08051107046410108,-0.08351383903526514,-0.18900946764476864,0.005045328605633093,-0.08689505353053399,-0.2547770110889224,-0.1776617020298292,-0.004830891997059554,-0.0777627192149864,-0.11137713643297954,-0.23453057764784307,0.02184612436544596,-0.06244984738682633,-0.17625405799755806,-0.27535993526143543,-0.04891037628829254,-0.05035842370282782,-0.08801151063371404,-0.14754884752428968,0.14350550965057496,-0.06177645709261838,-0.3364153507660746,-0.30968697832913517,-0.1802979014489114,0.06706698412459608,0.01956268841165157,-0.004429449941026907,0.048797339617907734,0.012941957208468228,-0.24529507109719942,-0.22769078045866725,-0.0009198621157627661,0.28296850527811296,0.35536600835741766,0.3321986996931621,-0.18704636108414707,-0.08072673935520387,-0.11314231407457732,-0.014303813447015541,-0.015791620269159947,-0.15771342986752013,-0.17632675588706734,-0.20512854928147364,-0.09978115127292479,-0.12825873854619702,0.036510061704547805,0.0180466777736437,0.006459927869053788,-0.14063027073041995,-0.17275672079165927,-0.1766349804271517,-0.14947380159233292,-0.17945697036052127,-0.03988038404675412,-0.0019335420035830769,-0.043017642240528384,-0.0179538085714892,-0.09735071784544264,-0.024044979792485276,-0.2005854434026321,-0.1174372709717348,0.017959702314613232,0.016193033126897766,-0.06008486072951839,-0.11875196900140493,-0.031201956739416035,0.011316093807673221,0.00024627606376492663,-0.07808448728199358,-0.23209968741332954,-0.24674751223744837,-0.24707539831695727,-0.1977681200554615,-0.18568600878559247,-0.20314318789198316,0.040562055399645074,-0.07436890510844724,-0.2804362466944962,-0.3619694722074083,-0.32431038012739055,-0.3691403907758511,-0.17211822706656113,-0.16172649622399426,0.0008282692432575577,-0.00025758619044793446,-0.15910778077876728,-0.2590603741139796,-0.4078423028104832,-0.3679993090745427,-0.20438319805163643,-0.00816310665296621,-0.024419160459647687,-0.13767386121875733,-0.2893730608921386,-0.40561980007874,-0.44669949784180274,-0.3884675148685418,-0.2517742593896392,-0.058298407630357194,0.09993627345269979,0.07043273166427572,0.003426239576836971,-0.045105958374167594,-0.003698022346255045,-0.0030689129374252768,0.005061113801974895,-0.08541008859879755,0.11829961335100261,0.13884947374214063,0.2047887313630656,0.041083264524714364,0.03782261703713644,0.06257693901618054,-0.042039667591043994,-0.01581628331672284,0.1302374721366088,0.18455833342139802,0.24993336212220943,0.11548255902985327,-0.0043862113305108445,-0.04308253013366511,-0.07397485979952635,0.04923243849618092,0.09022173788026208,0.11139955414753794,0.1905073786618602,0.047668885828970914,0.014981946357508682,-0.02671284259075666,-0.07987466289958275,-0.07431884201684459,-0.027513249263675196,0.15299580591991496,0.14501653550821994,0.005206364361433501,0.050929222413101195,-0.1692948516607038,-0.18025524700977244,-0.14405861483275387,-0.04723552681917993,0.18494387813491706,0.08743990534986086,0.11201120739371595,0.16230569298356737,0.018282910547041165,-0.08704266278271654,-0.06734467236687898,-0.024739861154903512,-0.014317609259734219,-0.04299370305515614,-0.09922713902088275,-0.034152122263158016,-0.026723863380943666,-0.12797568117734487,-0.13371617065514008,-0.06474438907407597,0.15132074727864733,0.012089222279358493,-0.16435229233003185,-0.1762497471319424,-0.16346814055929018,-0.08060357804160365,0.044247596704963844,-4.270765592177386e-05,-0.03848643884683811,0.0005820329808335824,0.005620967000509929,0.0183972175238104,-0.02972880658017252,-0.07231964692284623,-0.04159783633247537,0.03779814935504718,-0.005523678610981312,-0.01467442053216569,-0.016797943173851523,0.04492305017889556,-0.003204110321722711,-0.0572601729552964,0.04506715882939038,0.03714340607444083,0.024250277420943767,0.05789907936413783,0.02950216272099902,0.028072317653314086,0.044944373728321316,-0.03613430903902329,0.07438278639989007,0.07817954321216727,0.04126281575835021,0.015231746705961445,0.06763274809241827,0.07811759715021681,0.04326472964037711,-0.0062883730741101155,0.05942980052183866,0.2245065110752292,0.1861484874129934,0.17895205071419526,0.15048682269118244,0.22265423333227596,0.2779305405517236,0.20404291247556475,0.13125840680542547,0.22635427161699864,0.18223742551971295,0.154328693177029,0.3568454111652566,0.2578820053630199,0.33269643132256244,0.15191004507060632,0.009315749974594206,0.17271646907120086,0.14145992636181115,0.2248701816933738,0.3012254729559659,0.2895352196135725,0.24980205813312809,0.08622225293281395,-0.019443069221882405,0.009561444201916288,-0.016459756649756546,0.24377075844297913,0.3589062978198764,0.13082817950340375,0.10523578940504477,0.157239310449636,0.14915994991793333,-0.09826646179522058,-0.056134483642218964,-0.035103396030423555,-0.04757529532333408,0.14388396631490563,0.0724724978643497,0.08190356105479314,0.041838497894049656,0.1216727795999388,0.04624590287467356,-0.009826222050801367,-0.06654926255808143,-0.02860224365906319,-0.0001945508676957913,0.02251862834993695,0.08021178241760987,0.07666480984012573,0.017203484699810357,0.029217152598317843,0.026108014926886594,-0.12160716344496957,0.027321308224757097,-0.05231039626586217,0.13120293279470108,0.08459890404092316,-0.0734594456824322,-0.06996839988909703,-0.04775313665686627,-0.006594993544955555,0.010410552387776608,-0.04253485087536202,-0.03541113179896738,-0.02110224048856228,-0.07725614282109575,-0.16676112803827609,-0.3102428238211404,-0.20160393424247525,-0.12297001727169565,-0.14071798129437604,-0.2155689307768006,-0.060363775868418186,-0.06762382359948993,-0.1607302124290558,-0.15131619557236406,-0.32841179113917984,-0.27138117481976276,-0.268969987070184,-0.331883051494092,-0.13221894531350356,-0.1782717602580032,-0.19161855916738588,-0.2440389699808205,-0.2877998377597071,-0.24225919870427912,-0.3151346958223797,-0.37209684620251626,-0.20533727450906963,-0.21611828774121092,-0.17138657388348502,-0.24865602850539634,-0.1885748902360462,-0.20259701283683954,-0.28397770364915653,-0.3582337291645822,0.17133556325379654,0.09139921753727677,0.06936645771789886,0.09906852766582493,0.042164051639803135,-0.06904465617266924,-0.052317218016752154,-0.028265275950958926,0.12190126217895707,0.0654491640835498,0.07822760400003913,0.048157594920300514,0.1285348050862416,-0.055117683489431545,-0.05389011008235714,0.0439293268082965,0.10154444828590775,-0.03165457116418044,0.12668612561450454,0.039014891428621405,-0.09940884915060032,-0.034442494509019005,0.007601024141528963,0.08492970555488855,0.061093233590519734,-0.04697614180507981,-0.03963930955971336,-0.1837312109262515,-0.1365419676631741,-0.17451972687536094,-0.09579276361282035,0.043036682906641116,0.10728679459187969,0.12284471281542002,0.20446720511769897,0.1463460294684883,0.0561642809990949,0.064852072529441,-0.0010293005596960806,-0.10685671643856712,0.10756433011014925,0.07456406364893728,0.050819779839708416,0.06599491427897189,0.06792085095382758,0.08568446537369886,0.12297416648305394,0.12828355862981594,0.016156943732493313,0.023966324657753914,0.03043950023378334,-0.004944787660876831,0.11841521193174132,0.05746841414904255,0.039587819293225295,0.09502506337038454,0.1257152448683154,0.12816898497535478,-0.03946044376949397,0.020648613696781122,-0.08804721198639041,0.010667371609253483,0.14558923087267517,0.18679977753453703,-0.015885256158007347,-0.06982759587626104,-0.18373296261010652,-0.05672995144381842,0.1392555225029147,0.06971764627107455,-0.0012877889383437731,0.04748414786716825,0.03485956874253272,0.04664691299208756,0.025519922755099077,0.061308712328252746,0.03518699431512379,0.026801047544874886,-0.11726096104541914,-0.024064909916731252,-0.03097396583183625,-0.019913925190941477,0.28822303189984005,0.17542133203705776,0.14386300913532443,0.19140889089162186,-0.0092560548186192,-0.02697155801056158,-0.10411433048213889,-0.01262779431248909,0.12665530818805407,0.11733560511435988,0.20921251748056227,0.11701109795878413,0.06656897515062221,0.0519813573737711,-0.10541442032612208,-0.15733659882880754,-0.09871697889182032,-0.061367149186521516,0.2108270478892225,0.05526467147267941,-0.034413663149582545,-0.11384226785100052,-0.03463858275761952,-0.09303012649161328,-0.08354895666611353,0.1634950239563906,0.32350022239171006,0.07827385540047456,-0.1183514597656434,-0.23192582117786736,-0.02003526800310221,-0.03565693475459905,-0.05735155340533279,0.15183182593360178,0.315896916093193,-0.06207341594674433,-0.2020419212786141,-0.27262527626239713,0.06842177471039591,0.30095439282195546,0.2441381750040556,-0.0632047357086823,0.0020300366667976117,0.05402320945957232,0.08468730144314511,-0.13252368932181482,0.11995580450935371,0.20523315752013768,0.12757600863980542,0.2656670132199955,0.2468831453072268,0.16158301872263844,0.08579105217318575,0.1872336925286174,0.29822563303145816,0.13311414251234865,0.10193034494195594,0.1510120139293283,0.11019126416485495,0.10492341644477897,0.0535157789416992,0.17687491326378701,0.2517736116872534,0.13829907789264653,0.2041051785793285,0.1613427241971099,0.07117779016539895,0.07900703170542545,0.08192764178990479,0.2491100365573828,0.11173026757460056,0.03107206256538877,0.03794880220225614,0.0567618150708952,0.18147604914995188,0.2981460676751601,0.24308175830721132,0.2780662638107401,0.3182134513663839,0.2206981407732046,0.05970535354918725,-0.09733884028370952,0.025117348924185497,0.1160099915836765,0.14688604360514265,0.13364963544901498,0.30047201826413866,0.2419626425564631,0.011078793116352561,0.19134291631495287,0.16238500913052467,0.31697246620660835,0.3015524632935501,0.11699833897221562,0.32907494348997507,0.3665318690119852,0.1908996221574917,0.037745194239109575,0.2523750334349089,0.20821626086559916,0.1965308323718168,0.16449946344963517,0.3602758762214767,0.3876420198726214,0.18785503600820264,0.09390337171950397,0.10300695597755212,0.14064516131644528,0.18942676442406825,0.09387029277215639,-0.11155539644543068,-0.061124569226707684,-0.15800735830739218,-0.14776882867901647,-0.20759265755846915,-0.17829282218518624,-0.1460270531108163,-0.08103626853058137,-0.04550760705568881,-0.037709660610393325,-0.02540598580499337,-0.05908018744412521,-0.18742329532552146,-0.14396827531515116,-0.1132415226718638,-0.038159025274217974,0.13559463831492774,0.019907369580468105,0.0713836846676786,0.09955435309743808,-0.018613120312572284,-0.08237741819433325,-0.032753331547616296,0.0011901619238834128,0.14296599183123018,0.09085123454110677,0.12317933915351717,0.08360002656670414,0.06019386010110056,-0.16643485873681038,0.05668926989413483,0.07220387060942411,0.2579655736210402,0.11968444311920905,-0.02379955450742111,-0.011720634329662662,-0.04875563148509225,-0.07453296242095361,-0.16576409772418849,-0.26395948450670037,0.14811442254804,0.1546285582968488,0.0815317915563937,0.1318481516301523,0.10569764944776285,-0.07680766588104332,-0.19902077815481972,-0.4269648318276201,0.1784947838247386,0.11185202986614586,0.07344013451205751,0.04117607726585121,0.048857372083183206,-0.17759055703582433,-0.2296628808792451,-0.3216024222642323,0.16578189076529432,0.41648534251436353,0.325219694791406,0.4148371277004656,0.011890227400455585,-0.11388542450112593,-0.21090062150994132,-0.06546250264629296,0.1369677901905477,0.047467138145438036,-0.004953437226864054,-0.01930190569449788,-0.07814532377198463,-0.1199715151110186,-0.043168612752676895,0.07584890948783812,0.06142204033702901,0.036954955153690836,0.009183128806561386,-0.01988040806813951,-0.01838328325940901,-0.09902373512129245,-0.09352023000069681,0.0119987532682489,-0.014226366716265938,-0.0439466942436896,-0.049415427224961374,-0.02756322994244005,-0.10005690751807898,-0.08318121193273559,-0.11243423081909186,-0.19760514304110374,-0.301818538485008,-0.2156483313372345,-0.14869986378318745,-0.09832239940400424,-0.009079555549920888,-0.06645263553713754,0.012174840329006347,-0.02842163441858652,0.004901131306901828,0.012236503618064902,-0.14361649393602405,-0.272170716135489,-0.24460451914636122,-0.05237620673247862,0.01814547432884999,0.06973872059002958,0.06328236507245304,0.20976128334117397,-0.03826488323596754,-0.1361903051249494,-0.13511438675047432,-0.022972172346247256,0.10361103298500283,0.04423045470658819,0.11054084562013543,0.1630448291951508,0.22681687339040768,0.044034908687449636,-0.08392634932524023,0.10764758634724138,0.26297947130262234,0.21632471464788966,0.20034886707285895,0.14327331642209182,0.26151051805067677,0.06019121358960696,0.04135317457406639,0.0426432976815919,0.21442840660015638,0.2781531120238804,0.029206789939229295,-0.0393538679337923,-0.05428180524624215,0.03828320905662465,0.13061032526233823,0.12166185417984776,0.07472730490055286,0.033054438888218914,0.05943999737659701,-0.05979776743278845,-0.05277316443568637,-0.08786042639308696,-0.09986473417319394,-0.02007862548897675,-0.07380696008299951,-0.12613637363270364,-0.03300748009533149,-0.15364459858615526,-0.10956867443126751,-0.053407793826444325,-0.04646751281278198,-0.05266057075482442,-0.18005413026354028,-0.1526757737497186,-0.1486520373747245,-0.21810289449456177,-0.12211908134180488,-0.14821878970748545,-0.03773501963710793,-0.07525099985803305,-0.14958025676089184,-0.19063917483098877,-0.003590058503004728,-0.06638886284147684,-0.1209655767893311,-0.04682971162771177,0.06944713666562213,0.2596204642621628,0.1843594114476651,0.16111972277868816,0.019386723416059497,-0.027277984810470498,0.08529683833533434,-0.15169614655067085,-0.07832858192057351,0.03344263453710071,0.299723444943568,0.17266181394137,-0.013659041391066747,-0.012186792999180794,-0.02745524772869155,-0.05061193609749545,-0.16714654530952913,0.025736370343717587,0.0896089440484707,0.03470749194500949,0.011734573635608859,0.14202861485530477,-0.022305281626892114,-2.8941543761483783e-05,0.025201421215083886,0.08040057139135809,0.14477283655343337,0.12865895296520247,0.0018174375959200328,0.0823252790026267,-0.008071148871085187,0.03152044357805717,0.08526843788900546,0.0688805150716438,0.20731555528838289,0.24817147961711195,0.05172461321723191,-0.012327823576985995,-0.0787147510907392,-0.017853267909491828,-0.06036297737125945,0.003994336368926672,0.038541013622685534,0.14292864420802928,-0.07285206669396434,-0.10328393609314933,-0.2851613849158074,-0.0049813045750714555,-0.010019160462978498,0.05819863955045504,-0.019306419958017348,0.21058401973484503,-0.10084680881702447,-0.21824854938020796,-0.19098348010137142,-0.08278164030423657,-0.05522882714971337,-0.05001946939003853,0.010997396160633006,0.05594398806686411,0.1544344140065859,0.1290592456552454,0.028167309368677902,0.03565721219672739,0.062453906675701894,0.21970565906919975,0.2504893114908841,-0.010413158640470254,0.20220652473488473,0.08879638807634407,-0.2271772812742799,-0.19672513553661056,-0.04972946954856674,0.17888451042266273,0.3015163839718828,0.1726005702118443,0.19358688554364145,-0.0016556024885438626,-0.10914206704009884,-0.24979678757654292,-0.012698073262229244,0.22810913131115584,0.24215450321458137,0.1394063193700056,0.08253918393949128,-0.11695241180535172,-0.034475390421688394,-0.05821193138160481,0.14878337625524657,0.21174532670856355,0.1512570604309712,0.17431311579720873,-0.2212033268985447,-0.15961681418680898,-0.1425962414159688,-0.07961583362310898,-0.10112584431703087,-0.007750713921745935,-0.11105979688330825,-0.092811535939159,-0.28498281981938683,-0.16410426276516962,-0.04073291894298836,-0.01094265533089904,0.03793829622711775,0.04802418027392643,-0.0627725847206472,-0.13141570049655668,-0.17129556582762342,-0.13022316520650934,0.010636348492990038,-0.06292908634021697,-0.035118384230140465,-0.10840214141818694,-0.14263778496078072,-0.23934875931262733,-0.2413586589349593,-0.19280204064010537,-0.07077759572804505,-0.004679074231419591,-0.047632073565640115,-0.11739177588727426,-0.14949392389477884,-0.3529766796761376,0.0010029503538869504,0.08143619289716533,0.13881830369178047,0.003956886892368593,0.045555883074882335,-0.1333632697705311,-0.24861946184065276,-0.32535013326219653,0.03730775807714687,0.13062852377574363,0.1850595541125442,0.10795480472954565,0.0947847049422012,-0.04662777493524938,-0.11312082560316618,-0.25513211440717454,0.07359116677063844,0.05001880202391134,0.03262652325389366,-0.04167131883259582,0.08336647176734571,0.10317445773098599,0.028102311597331165,-0.0792932814809593,0.0039037323430350258,-0.07534768527982187,-0.21247086292498807,-0.12950926743084193,0.138669626122375,0.05060516608290208,0.1076648554358931,0.08151587666658223,0.02916751071801377,0.01504938945732998,0.04014864655828454,-0.009757715276184104,-0.06448749563272531,-0.06432246575300193,0.05575671361020829,0.11639650730373902,-0.09539143591562685,0.00031493278094535,-0.04005084444196703,0.014895200138698172,0.004941166747698368,0.10588656187672471,0.2090321277052539,0.18032647665275406,-0.07803193566038909,-0.02937284387239465,-7.792287688660883e-05,0.13181199850400593,0.20588644078219784,0.21197209994862487,0.3140575086260095,0.1899389624047048,0.11636706872171483,0.05533519726828717,-0.009759590262880757,0.1016993365019287,0.2100412451939636,0.24612461834706234,0.22041358353205828,0.13405032768299563,-0.09303773369712423,-0.03433308800263197,-6.928135300916673e-05,-0.1685922333524852,0.0038881073943673357,0.029141254148945,0.07532288500227308,0.01731650961713262,-0.06258222331047888,-0.10065679917982794,-0.05475154145009932,0.04861778446658955,0.07395681051480457,0.08355680310519412,0.1398435161114551,0.022287195040691883,0.14993198008538375,0.07390035499736154,0.15073524861352472,0.10973117463562398,0.1443554398769115,0.15011347889145002,0.176016582447688,0.07488638153650315,0.17418251122639566,0.3062032570940931,0.3802548548631261,0.3890939672494448,0.2526862102077681,0.25958664000799836,0.21153605612995519,0.11930026087086129,0.038854505013409035,-0.057227704982645046,0.020132784597341576,0.1621838818808086,0.07694676178272014,0.11913178748423223,0.06633156991293182,0.02652642584051207,-0.11998979102500731,-0.02091104532723138,-0.02692025334591758,-0.010233531857697167,0.052486487588349985,0.060180756632670654,-0.006294257491913346,-0.005495388351317391,-0.0458987403710509,-0.035070142876574735,0.02764617063559469,-0.03462015133146387,0.05384159653911337,0.00202179547866758,0.028633071854113915,0.014989778307128077,-0.1204941963436976,-0.01285963757829252,0.05478041634635741,0.010091288196246,0.058451014014180604,0.059508217925400106,0.06278896040701096,0.02500176017335074,0.08110190810516248,0.03789931268674507,-0.005344223996790385,-0.18460303146133067,-0.20310101672365155,-0.09775797414696347,-0.22086515779822605,-0.37156006798723396,0.08639514706153757,0.20889527656100787,-0.006527500430483297,-0.18895628872858714,-0.34956137180745456,-0.1653090610537269,-0.17286809722676327,-0.2073395579196526,0.04006715687271021,0.06118292301019449,0.03600131851887837,-0.2567043684349629,-0.2732990574399075,-0.04479113491806553,-0.02389916387577247,-0.10352684841539551,-0.08707529858827455,-0.008138403845197815,-0.21874147323112106,-0.3446913346986534,-0.09374264159836446,-0.11067461988212417,0.05699782195024089,0.07761406074197817,-0.0923090360630697,-0.19371455157918802,-0.09222488743160355,-0.0713034946061135,0.057086794272605386,0.03514984493761566,0.10872606725229501,0.10817807620920193,-0.14625040086535698,-0.20879150012420689,-0.03366870959386601,0.049058005155611865,0.12568842524049056,0.15733185220687332,0.029379204945485324,0.029560622555095638,-0.07947598735987792,-0.08181061197094194,-0.007493423702647683,0.06287976687511426,0.036665901575269805,-0.008965342670126613,-0.09897957853830959,-0.072017673462613,0.1261779178018689,0.09563017887408608,0.09270448502768877,-0.008765900433431718,-0.062438465300986346,-0.027545872759316328,-0.10504401417915776,-0.07082415651141435,-0.039136780016540376,-0.04911469587470247,-0.26852897888461835,-0.2657902836383311,-0.15597780116128254,-0.15505936774589568,-0.11307238012492457,0.039187617224537875,0.0072217213886695795,-0.026539592421907465,-0.23910887727209204,-0.325364548665863,-0.2831678209708065,-0.1434413092857772,-0.11709519124487629,-0.03628074805491958,-0.19804670986883227,-0.06769817212753314,-0.13656412623862682,-0.35313730660838033,-0.2221156329562259,-0.050278010334381396,-0.09532101709531356,-0.055497694210173934,-0.11159312279387644,-0.15990305339252492,-0.1950841862903048,-0.22596694936230616,0.149571889142226,0.11682122957832858,0.1339426318665927,-0.032773951642394446,0.26189305217706677,0.09426304510987102,0.02508478566723738,-0.0012125357001519263,-0.061443890568161845,-0.14176402607757252,-0.10839820775786445,-0.06168173055533365,0.34058920080149524,0.1543935482764896,0.0237960195299013,0.13836293935954988,0.04879521026688326,-0.024648595991861037,-0.1128032545114399,-0.06855692718328463,0.08968803488207243,0.014565230507005134,-0.04941621225653172,0.1637292616556915,0.1293262647482045,0.06129848031552967,-0.019113879646200066,-0.0069442506864336095,0.1644602195918965,0.15596268686989176,0.06163055168281186,0.14960249984720952,0.24016501754713235,0.17648077161994813,0.04036189065659334,0.030076927410151003,-0.16110157016196155,-0.21117725167206083,-0.30634462119627465,-0.23586421667267055,-0.14244672059849195,-0.15511979322346794,-0.019848027536259406,-0.09398600525964347,-0.14424583732758064,-0.17298430941143914,-0.25664916567876495,-0.2489315777252695,0.04680806343716142,-0.1360251221494159,-0.01524878655345659,0.017175391831621586,-0.0687972347247661,-0.11961772072997631,-0.10350380775758965,-0.08991269539228429,-0.052946511351362975,-0.05109644023206423,-0.029619868340088406,0.14126694011874852,-0.17396988606676458,0.0492076160495043,0.07306185950535184,0.0940749205223229,0.0665073935589788,0.02998906146259951,0.007755344882257064,0.04049664098445289,0.22474427527844926,0.20471722034621814,0.16477427479225576,0.09548166582792049,0.15216727167323826,0.1039624809103232,-0.01719010414271649,0.06415603268859246,0.1990203634046721,0.09470571887915838,0.05759873446224559,0.0629898144864631,0.11237320648363149,0.047286995092251205,-0.00893054411887095,0.10059355759239551,0.07702511164199377,0.0774996075668688,0.0449908411394931,0.06820995738297778,0.0024981448766640863,0.016656021817357734,-0.0430627639160524,0.08852814886547296,0.16314748854486055,0.12815591007409594,0.07885332009413668,-0.021995762244760287,-0.08368651710110989,-0.014876344606056982,0.0075911523437794575,0.1474277695375466,0.08062320548261409,0.035921895988708624,0.06699418690058657,0.029844329006431556,0.15751756482809537,0.1752975976044739,0.3024474756381005,0.20879069151506444,0.0737696339456445,-0.018593517666792913,-0.0782297364385105,-0.10253463546042203,0.17516533389533018,0.11342508617618965,0.15820431485688768,0.2534758049865328,0.1438969620912699,0.01688609066913289,-0.034426750882909196,-0.0820052285913533,0.12576038455184477,0.22881841799037078,0.18670552617887234,0.22510786054052254,0.058516099926064186,-0.035650581274629445,-0.0332605779593855,-0.16465860409680935,0.05641017493392976,0.18634703421928728,0.2271585818274272,0.4153202885283746,0.013488312791652305,-0.04057806386353716,-0.03489644995609949,-0.08439515623733233,-0.09348925363216105,-0.07189911494487736,-0.07080617608237826,-0.030999968392329616,-0.009617636602948287,-0.09454999150305031,-0.09909651233753432,-0.2012640792027188,-0.10859455392592471,-0.09211880474206355,-0.09302141477214433,-0.044785353894103666,0.014145477697230761,-0.0747545387577905,-0.08660383660837852,-0.005365767116891271,-0.13683151428444015,-0.1275351692638792,-0.064184222913635,0.015807633205111752,0.0892911320318623,0.04352310301861845,0.06522182463549231,-0.1001139249197267,-0.26485262678452154,-0.16602479883680527,-0.10155075475400069,0.005638427746491351,-0.02151505751318663,-0.06902905991242546,-0.10644291344018052,0.10327261279517197,0.12023275024435377,-0.024687221669061,-0.06641503041274907,-0.05533335316263047,-0.09554245317756091,-0.1198555325785378,-0.06710117823673291,0.35807558236845544,0.1637325225028378,0.02738682458757028,-0.1329594881808891,-0.09319809023351197,-0.08855401038774965,-0.04153801928814722,0.0942366845194768,0.14369423410766952,0.1239706171275441,0.017766670851590446,-0.057090579226193094,0.00015178242426568795,0.06740092197142644,0.01728186760573608,0.050789220922148715,0.09070171763902463,0.12746139455653135,-0.009776111549821281,0.014117057118223527,0.01777265205557822,0.03842181905609519,0.02539260348580742,-0.05799364939337429,-0.20369923719246427,-0.29354289921488746,-0.2663343375759802,-0.15096103321417384,-0.05027340867269035,-0.16460070687820302,-0.1956853112917364,-0.1321759731154895,-0.21681388895719056,-0.19314155032673966,-0.2533138830565738,-0.24159643263340272,-0.13987573110825333,-0.28171567395983954,-0.22457374830195687,-0.2218270589139713,-0.1393908713759415,-0.12223683084422605,-0.2192252198037597,-0.2615425416543295,-0.20645730984882102,-0.02398204554076257,-0.1896463595156768,-0.16760971578799394,-0.1902960442730233,-0.13201746809500325,-0.36348330399725187,-0.27712754087403285,-0.26306950760429115,0.00759896224976625,0.00021609888152077696,0.029768878869918546,0.1335967695867836,0.11481758781829839,0.14512656004391566,0.11888424675704894,0.08089375951360485,-0.1389117678071117,-0.11845723089158026,0.015442003434189472,0.11032274245991344,0.21344952650851035,0.1163334667257804,0.16214453494482692,0.0950269254163895,-0.17365367188906222,-0.2236227963477508,-0.12180431004422128,-0.08781265130037684,0.11557737157820006,0.06347538700230868,0.12356096946511352,0.11317480653694224,-0.3995119368462054,-0.327446427346675,-0.26551129458617095,-0.1607457478343586,0.06370329355220904,0.14475028548941637,0.15929233171123486,0.20787711541937237,0.3304534296279963,0.2545832094190715,0.15775421465588157,0.03843275961640598,0.08297316333986908,0.0018795430355884588,0.09030560280849562,0.07078849494266086,0.3876385071146368,0.21780072400675204,0.038413894103796135,0.0417325324926464,0.03173696451786063,0.09317331371895336,0.17794385380188646,0.1258162518582361,0.11188779863576745,0.019349777766485145,-0.03824387052469188,0.13055291689059384,0.015444134467081264,0.024133533730158467,0.004013193348650489,0.04707322931475764,0.19130298499952902,0.047134063020991816,0.007195961113335375,0.035319599287362606,0.1255082636392526,0.023280961928406514,-0.03378094957182492,0.020966509370135302,-0.192101950923637,-0.3267624192776203,-0.4230309411640016,-0.2777011247536687,-0.16573420381426426,-0.12317272222857582,-0.06274693463039568,0.0008847742109018261,-0.15975964363300316,-0.27213801521791897,-0.040646135669085356,0.031008698855648883,-0.12966629138538233,-0.1365886681434435,-0.045833286956700345,-0.06841723352971452,-0.13905113887652512,-0.0854269552231874,-0.1515316083911341,0.03679442961556669,0.09265672824366641,0.0519978999407805,-0.0195811368419145,-0.10974832458519447,-0.06968655395437522,-0.06961770821124356,-0.12671177515243828,-0.15732005101440252,0.21797199685002883,0.27253785683784254,0.12167078146167733,0.018356690904653084
-0.08816450759459367,-0.018548853666292456,-0.01855208048936304,0.03667117465095202,0.052239112666820076,0.13111409372986615,0.2002978808510688,0.05156137327440562,0.012801452330526668,0.01889501723903409,-0.02902996977143341,-0.005921485472229565,-0.021050364055706035,0.03133461686371262,0.04513273541390283,-0.01956682309059701,-0.1833431086531137,-0.17620865562448268,-0.0492094077923486,-0.04877490792401043,-0.0974581837537051,-0.08493587938975107,0.006922321670602782,-0.008380506493535519,-0.2208303411540743,-0.14432621728732967,-0.03695224755881438,-0.03265693536287217,-0.12485001174652112,-0.1174905155549001,-0.0511508108577473,0.017224788286264073,-0.03116322665592028,0.0001929719727492112,0.18887401363147288,0.13291894814551194,0.13642328669189804,0.04253500063941876,0.07099811561444755,0.11157795643716961,-0.0280633636154526,0.17209974068639072,0.19770718196482195,0.38082407715341954,0.2692957042287699,0.13271005382901083,0.178690726010976,0.10713843980400742,0.12466596701341039,0.018747383650950605,0.16151608585619723,0.1820248482779118,0.17178104115028917,0.2172757443761361,0.19001467699062793,0.10116651392644191,-0.09918586232092085,-0.09611184582044369,0.07904128017592923,0.012320932177739228,0.1627929696341605,0.22114164021059776,0.09324761620127697,0.03309708735401548,0.16594238010522644,0.1817244603909272,0.1189609469298857,0.16027573881670257,0.20184907931197504,0.20232951083130107,0.13152372832704814,-0.008489555818645127,0.17543606430249784,0.14778080021807272,0.13978976698342993,0.15648607412310112,0.1337867285181735,0.143489809674267,0.08785818307785542,0.06371152015831301,0.26087374408990466,0.14582267785809366,0.0830954393146527,0.10519254881584511,0.07955622476404739,0.06705909970163357,0.09114477651044062,0.09188771110904398,0.17133644924446617,0.1448401627968367,0.12096834857179449,0.11352662146989427,0.05314532478622718,0.063312004950744,0.09314483426639077,0.13743870622000795,-0.012372845694928022,-0.23433115234367746,-0.2645043558170892,-0.20525916998483254,-0.06975990039874658,0.021691149368985713,0.23709795434224853,0.3361060620738935,-0.08662452633116309,-0.1543422298741842,-0.09376793869563815,-0.1268849010783288,-0.1081349544232179,0.07979867046635031,0.21616762729310976,0.20840090423367477,-0.0058513977854672905,-0.07461411043737742,0.04847874999133638,-0.01790400631208439,0.04915011147662593,0.11086371433596401,0.22702477463168994,0.2703223297455989,-0.0063201264728543986,0.0026954491950507025,0.21461406558883755,0.25696521702024155,0.33891645036981377,0.20042968076695236,0.20986134106841953,0.23471259399646985,-0.10821191676718946,-0.17757526049820418,-0.16978161101800723,-0.12187023543335386,-0.06821040487736074,-0.034552632650000775,-0.07008839889839806,-0.05216513030163336,-0.1855625407652021,-0.11979199767397417,-0.15706737528760012,-0.10435342864980117,-0.06769622061810987,-0.01993643279458434,-0.01854732380439939,-0.10704074253712965,-0.17776048485985907,-0.12419223578076044,-0.06314989985470504,-0.15986616286812647,-0.13918518919143252,-0.08173460631439462,-0.0855664086477336,-0.12178270655722019,-0.05903940803806773,-0.047885486264179426,-0.100401639956156,-0.14775214510188153,-0.21408480985945033,-0.18511694879035956,-0.1415905133135996,-0.13863840785622858,-0.17002164726575208,-0.22277141284139815,-0.07533433612235688,-0.02965082744089021,-0.045064171627818894,-0.025882545285180695,0.0174485694304649,0.1906059279494679,-0.18272392258214215,-0.18146943940077515,-0.1940826966409823,-0.1223355885830664,-0.03587179562966738,0.04575548915285071,0.09374482360423135,0.2230846037165453,-0.14144384091956186,-0.30878373422850397,-0.3757744670605619,-0.23538219509377728,-0.011175917713120348,0.044492320015545615,0.13623140784077853,0.066935875220434,-0.19007042880385303,-0.24512696186248054,-0.2580287401212129,-0.41975212612818635,-0.009648325909128305,0.022167480870908658,0.14909579695541936,0.10095456763545047,-0.2046584488386881,-0.09336620999860223,-0.038098967860171216,0.04379963700792881,0.11167701947584763,0.1810015419763217,0.1645418158066766,0.1229399259039432,-0.1925132035080719,-0.19628293274133213,-0.044448039049976025,0.07066048875038984,0.08677738032931662,0.16806713263665798,0.2129112663650595,0.21528217553845347,-0.2687469537070446,-0.1983183767073898,0.016075550138981574,0.09524431956012887,0.1026260974810381,0.10781111472510864,0.19129501607326937,0.19585355193626502,-0.2917755839856974,-0.21521305878396982,-0.10666304337581797,0.009599487512863086,-0.046035466350123254,-0.05972752757350388,0.11261398293997292,0.1447076305501268,-0.07122583231579897,-0.10388826717367425,-0.08682120951629681,-0.17325444432298262,-0.2056469387313509,-0.052159637781656575,0.12490003513950573,0.23299424459626514,-0.059658610062243995,-0.08839000475448584,-0.07372711637945456,-0.26662033583710043,-0.19092923313897475,-0.005683071713221384,0.164607656797576,0.2769905426124399,-0.06383208539050127,-0.022039201723348282,-0.004596123262877103,-0.08090757146988935,-0.09092438516729216,0.07368206857176636,0.20194043087546124,0.2449055260838601,-0.010739524563007129,0.0339691355307977,0.11151462003983874,0.01958163013309475,0.05122111926108085,0.11509767392208212,0.12907301387087675,-0.05866281448112973,-0.10682727125220161,-0.030776887774563753,-0.03431653568974568,0.03115339701338093,0.027569044234421306,0.029979163815322587,0.0009454946091771388,-0.06438805359328607,0.05422205253271562,-0.013033320720614005,0.047118302754982355,0.024200636896537776,0.04406938874210124,0.05992647559787912,0.020211024455182854,-0.030084313684051456,-0.03142793536578435,0.04880500299966884,0.11589550871317265,0.05311247498537944,0.037699486152382604,0.0364859189654698,0.014915147467781203,-0.031428458459965454,-0.03788116733970419,0.0589635708917053,0.06393331953212278,0.04912379092339438,-0.008838687211123629,-0.054211020787953854,-0.0056086196634589445,-0.06596572313286075,-0.11775310151645148,-0.045858968680683,0.07630915968111357,0.11762364674602356,0.01601851439894969,-0.001519502765010269,0.1086987355590465,0.22761370559418964,-0.1850095651387025,-0.08104767999349656,-0.0401198389212283,-0.056622308311181896,-0.018093679838694022,0.03469969906560833,0.07951169510636172,0.09682012898244213,-0.26347583683143805,-0.15964912488038044,-0.06299633146559076,-0.23104480786262704,-0.20573306249193588,-0.11382201302794225,-0.01530937517965559,-0.08093299693827231,-0.23513858721133582,-0.1319332739303386,-0.043449973611368674,-0.05556115518722704,-0.17470352231939246,-0.20101894247692986,-0.10039475219900713,-0.17427668667974489,0.16236015583697191,-0.03975677085003661,0.008013604268798883,-0.05556676986506989,-0.030591547612105672,-0.038152906406330046,-0.05052249175360686,-0.08398927019172252,0.1517691695322539,-0.01954764339911149,0.06843224164599375,-0.028725476080202914,-0.09278270198557269,-0.06328056474795869,-0.04395954032855384,-0.12959123530736152,0.13428955506997964,0.09455263136993926,0.07411935727093445,0.017518478013320696,-0.09033948643606741,-0.11166239527665485,-0.1694233392297889,-0.119273914308472,0.24743383002100863,0.18083759398474863,0.12392615094284974,-0.008371130223503562,-0.11542105935992071,-0.17262439363626986,-0.1644600332984027,-0.06519841536721997,0.0862036750839202,0.08820142625189943,0.08229578028035643,0.10523911609543335,-0.04552602132878707,-0.13870013540448894,-0.0935694926509894,0.07093830894307154,-0.01516293443136603,0.011258088036458083,-0.03186120238868079,0.03813540898171774,-0.13491939857142143,-0.18313851912648127,-0.0226315272502068,0.06569973804061074,-0.050134662492378426,-0.070787908465334,-0.08293627560949537,-0.05412206215784863,-0.2149415483049451,-0.11132821502288781,0.029786257496293652,0.19761088353263667,0.02403599780003141,-0.14418007076154996,-0.0921226973597186,-0.11000126142825503,-0.178484908318515,-0.117601255080441,0.13589071245535547,0.27311867877953677,0.11587335794679941,0.09799397750053374,0.059503024841893876,-0.018631276015448464,-0.004623312104934083,0.07602394105153182,0.1668946191126762,-0.13469869068285006,0.009199985365533429,0.01037580130727807,0.027648167811999462,-0.019661185697442355,-0.02561216501474284,0.024990761425894546,0.03015065085811151,0.016744218251694275,-0.16309758935630306,-0.002126244835901892,0.0527959024796996,0.0351414515057047,0.03050382465923135,0.01984235557830064,0.1382808262768887,0.13136553429113698,-0.04317075501801958,0.02545321035283005,0.04441511698082896,0.04235427755593683,0.03831588221783842,0.010467421870539157,0.18234641077660577,0.1946381085976299,-0.09197647382522739,0.03226042380592376,0.18385315137644626,0.12499657529662497,0.0015107670455567074,-0.05322124521451006,-0.06430736578683922,0.01812940426198129,-0.10725160032991382,0.0965568568700606,0.17176727190527835,0.11489870253622247,-0.009492826460328757,0.022720778187819653,0.02096856947275725,0.019773585284461343,-0.24987600341243146,-0.01957331613983464,0.08139557475260704,-0.008826457382769345,-0.033766223549696966,-0.04590356844170451,0.08461769692466246,0.05304429977017423,-0.0791063016966412,0.025623521505530284,0.1348699002372798,0.060731188664419115,-0.17349602754828825,-0.1620363513286636,-0.027536760627407824,0.06155626955517,-0.10764811547442224,-0.05270040809175927,-0.15009185361110064,-0.03680456599115683,-0.04535873974451719,-0.11374976074456837,-0.15814209301082918,-0.5845596147411248,-0.05973601115587581,-0.11419831378655268,-0.10018473590633714,-0.07608227269581917,-0.09486959324443911,-0.14835373867781879,-0.207977663261774,-0.06353360438928601,0.0743753361075634,-0.0039045156583448967,-0.021737821100046233,0.018805103554297074,-0.011224022275960326,-0.10511734451043774,-0.04243285630415194,0.0572171533366556,0.19572320727071008,0.13779087533789974,0.12331769640065787,0.15915376171430834,0.17715993510654396,0.1003986001560279,0.07143616947927878,0.15393900565904314,-0.09751355930542852,-0.029441161882816876,-0.11198085975678317,-0.15153559571903805,-0.2302360723617144,-0.1429625864000283,-0.11565378839927616,-0.002522835760604229,-0.05585083521970628,-0.02797910285000751,0.027963894996471315,-0.0587087765666857,-0.20234366984754598,-0.10292821329172329,0.029690145365228942,0.12495797408523593,-0.11993663600149305,-0.00017532637095507577,0.11940792400757759,0.06779651911791366,-0.012680470658622212,-0.016495115338000632,0.005766763343213948,0.056917513219645,-0.05180012940623819,-0.0006501779016300582,-0.050229638909882475,0.012327257623626579,0.09365097071033593,0.06758521736957436,0.09201689898619955,-0.025266155110017473,-0.15236036275510556,-0.014006219988585984,0.029286799804031233,0.11248729174200793,0.033218699994186154,0.06568748584358151,0.0835023971496465,0.02549916121226637,-0.1243887804089404,-0.04348485816644716,0.041110574009139235,0.09702426290561593,0.12008782498943761,0.06180571892940841,0.12556990787799502,0.09302113348715253,-0.09476758449375616,-0.01535847177850155,0.16197966418061113,0.07007903987113617,0.19302127628200696,0.14827337157462545,0.24136672590895075,0.047491866244563946,-0.05168962481713873,0.02713482855678341,0.07671389469681819,0.13636188919911105,0.19075231065073125,0.19946353627172392,0.19156920083586568,0.08832100473591115,0.10478103680330239,0.12569663353261004,0.22189785863553615,0.22709422153200873,0.03691292773381883,-0.10314196755882857,-0.002643032597827091,0.009752912212477052,0.12477668539274361,0.1964282967241794,0.08823731222330158,0.13374772288667372,0.13194887501193997,-0.04711472816297356,0.015272537224580647,0.07227054662135052,0.20089131966767002,0.055332786063707416,0.17336964227050664,0.11777449358082755,0.0356891351299988,-0.011042821518671005,0.07756741877832395,0.09551392559501054,0.059237810473375396,0.02072976508291123,0.043514283576013064,-0.07780244394500964,-0.08169490249117733,0.008365059116314875,0.09667774247876923,0.08886366276346896,0.0591660470129338,-0.0743933291175821,-0.08883344475946017,0.037353996989865045,0.028986923358439134,0.09116846036852441,0.12965745115089997,0.0313752048908417,-0.09778943422291021,-0.04820196070075992,0.057382002204660776,0.09636549709256115,0.08629993244052253,0.0953457472425875,0.09546795929219813,0.043410814138273864,0.03831783762164442,-0.005746707964337874,0.15036572802131626,0.0624513608406178,0.052303958935796604,0.0365500536338253,-0.007124733390359604,-0.025464430398149027,0.034127058072066445,-0.01018116417842932,0.03847209277892767,0.034521463147358676,-0.034550330145396754,-0.0324370104142232,0.004529887741896582,0.002868302823391169,0.05328814227779524,0.10299104975202866,0.24082634850594936,0.020129984388444922,-0.027692572359853077,-0.0434668582020131,-0.027588669310467204,0.0015975547173294434,-0.01422705971065984,0.09245108496658222,0.05044405860977749,-0.07401688324591083,0.06823563367190275,-0.034109723290407075,0.03225690201391435,0.031124856415624222,0.27530930335494197,-0.011459823812276906,-0.06601442733975244,-0.051332404423665476,0.05663594928221006,-0.012323062732781593,-0.05045295857445362,0.04060215487658456,0.018817519017718807,-0.030527999942269173,-0.0368176101533699,0.009516323026298554,-0.08142087822659276,-0.1460427342637817,-0.10660530448721858,-0.1035582023890127,-0.09143298499152731,-0.03327011079608218,0.0778475009914915,0.13633817272223414,0.07400259173719764,0.11162882647226334,0.02555117378938434,-0.08232294061336752,-0.044520324171347804,-0.04382161012260397,0.07392384672344253,0.1079379847244785,0.09737896888356816,0.06620887700348906,0.07244012540630512,0.005848368451973836,-0.10612233210869325,-0.06644912754517637,0.13188513829752932,0.05716724647546872,0.026626294345138208,-0.006374077593557864,-0.01629443181495264,-0.1097492237340667,0.018305310517214544,0.02042909487622463,0.06041194068793039,-0.027334535234015925,-0.09017989786665544,-0.0023561314957214257,-0.06473944427404214,-0.09631627368601767,-0.14016836931720963,-0.1761834453707668,-0.10468814818588669,-0.11389165416549053,-0.05924055361833372,-0.003756384737175604,0.023823508904751173,0.04608896822511122,-0.15136286389657458,-0.24331527602663355,-0.1989207019317232,-0.12393349996266606,0.030386395934972096,0.021838188058227563,0.02245225507848144,0.0101835029223601,-0.278032596651718,-0.19647372025827198,-0.04142247196053248,0.14557874967276904,0.01483404023170146,-0.07405542994352843,-0.0636416339459091,-0.03307696869454692,-0.2841355127704881,-0.2277562757844063,-0.10528160012948706,0.10532103976521584,-0.06054523542220587,-0.11308939487050722,-0.0031912662699018065,-0.027414863595996385,0.24819486094652593,0.16381217538327314,0.15933831985745056,0.2128313324144227,0.23992096758388778,0.22758790157723602,0.2176128578412042,-0.2573940744670981,0.22176189942824975,0.09112473426567756,0.06646584868194788,0.15997442782147644,0.11871669963200192,0.1884999706983052,0.238196880338467,0.0943308629701668,0.1586123768717865,0.10210193299858092,0.20323607298806326,0.022888029779557995,0.02384333402527519,0.0616015464431637,0.059516380193597104,-0.07706424127326886,0.18177204224873483,0.1174485117344997,0.13540800934553818,0.07157733977335155,-0.04491096254143898,-0.01420716329254413,0.03112337565574907,-0.07047182351111718,-0.0067965517996037665,-0.04034841728699063,-0.1255618811018815,-0.10544010352569941,-0.13588644002149805,-0.08502981203700287,-0.03787346085989594,0.054640347398431766,-0.077624380640289,-0.13574030437703227,-0.1736060260281178,-0.06226776373862396,-0.09431186581458127,-0.03318453511570975,-0.010476646378938305,0.05138265093122118,-0.3448137569492088,-0.18813692611926303,-0.053803673138862695,0.0022346396172155474,-0.051288787782932936,-0.08488618581884144,-0.07396198710959,0.019837846590220552,-0.25215316662984155,-0.1775737496085453,0.003525252964504988,0.14125110925770085,-0.09938712333083963,-0.2738200516501747,-0.151394505257554,-0.09497751926608074,-0.028583154445113595,-0.022938101827567333,-0.008426031070111755,0.006932400625629202,0.04103031837617716,0.015324456219409806,0.08569696566282368,-0.29498863194537095,0.06934948665934415,-0.01905909303565047,-0.021891799792018385,0.04292546482864267,0.05466210370099767,0.07317506454069851,0.15365543490200537,0.03699148185038414,0.09103603089436009,-0.12901915821880672,-0.013877747705187293,-0.021219737007014586,0.012353877676815258,0.011456030658217091,0.11058672490555063,0.05098804207058618,0.03368335676826924,-0.056704812898288263,-0.04769673332161228,0.012487413495765194,-0.06387493620477945,-0.1460846513927172,0.004643697233196407,0.022587722685070272,-0.25985302431429186,-0.25948012038803503,-0.22036114362923698,-0.06018688272152229,0.03852729285752782,0.0917195160812972,0.15707675521751588,0.1737898150263856,-0.2223249637981964,-0.3312209741476589,-0.1782469878905711,-0.09569710837175785,0.01084445190550634,0.013465903569380334,0.06934308764840084,0.11028819373328412,-0.2714746977868655,-0.2539690679571054,-0.2532709592809607,-0.0864590344671278,0.013539125598776547,-0.06065596190018996,0.02686120918893147,0.04344899468115589,-0.28183374044994997,-0.2729559096390299,-0.19305065592304535,-0.08782074546918074,-0.042165790086941615,0.01020313270769586,-0.0934803804242561,-0.0930690983900499,0.20704161490554995,0.06607688932407824,0.08432735273221605,0.17972264168864666,0.1474435466644614,0.1253053739306113,0.07013188644044854,-0.2786461133228179,0.07518757285636676,0.018665265867423897,0.12325458438519557,0.17454498857074968,0.10583540135669757,0.05701315530324582,0.1009155709688408,0.15472036977769335,-0.05283510333897094,0.048596415324237245,-0.006089134285917633,-0.01077592636563415,0.038560795432432106,0.04510091476273434,0.0965225270626208,0.07198201734580474,-0.10126461853662129,-0.0011440106674400485,0.06903102261131984,0.06592147278911412,0.052637731035693004,0.10590657843756024,0.06437715521566885,0.029163216940471595,0.06611082522109925,-0.01660634787646672,0.09031983092112358,0.20920253737500888,0.084834531869723,0.13695344011033808,0.11748039932176423,0.16760586023680127,0.06408540000937317,0.031024443286566252,0.10770267895751384,0.2712074279872386,0.37086713361496354,0.24366005310329777,0.19958031856085826,0.26969874399323857,0.0745778586166801,-0.02022676803397223,0.012953832342316021,-0.13143158251746834,0.24584225749325947,0.2302820600498525,0.23354256132078524,0.2725160063547357,-0.0064121105471881025,-0.2347347504770305,-0.31626449243312804,-0.19904572438034387,-0.0024973133877076296,0.12413852617990187,0.16576481345981833,0.18865340689077842,-0.025526462950130942,-0.02920371404614283,0.010588982818823332,0.06933915623669182,-0.007354910362171384,-0.10501991823322332,-0.13192429149514037,-0.2651816347361475,0.009232996404489097,0.029598514520286317,0.025702988795155396,-0.007818325324265825,-0.05134601430585097,-0.06362443324322645,0.02237105308956796,-0.0663989875854163,-0.040039178538795024,-0.00581837590533078,0.047203989805182714,-0.0782037293775761,-0.11243088738650481,-0.06828177270989212,0.051375039969779324,0.09665784557080213,-0.036388245000039766,-0.04899989020967243,-0.12348292743365277,-0.17511318695803932,-0.2605384768192649,-0.2162119053285734,-0.10837329419330068,-0.03176579085953658,0.044439841551615726,0.12807853716531115,0.13231772687148172,-0.052133031156872255,-0.06679413817086363,0.006363845684145056,0.1379223134049257,0.2853764792498837,0.02232827809437592,0.16831242976616131,0.17816846751669754,0.11755640558068034,0.04321303133329925,0.039490040185680565,0.2128218464992566,0.07638895913911532,-0.07027065384579838,0.009472762785943745,0.03218953367263929,0.10836668683129808,0.15412481571848582,0.11467011065900315,0.08001750155616999,0.07009882893451966,-0.19159798865259697,0.023743040266227915,0.20542782980145632,0.336290253080068,0.3391821733427614,0.1639285012453874,0.1269821744844594,0.09889477036430835,-0.09825711932098377,-0.030705230267877155,0.03478114063821897,0.10345257684185266,0.041282034495479944,0.06518796341031732,0.04453431895111358,-0.003530275214281395,-0.1464014528956806,-0.07733900344365971,0.01186698611614723,0.04895650535326734,0.083331607463856,0.15314337225603195,0.07888166319520887,0.08783677954372288,-0.1746262476697027,-0.1298615407921219,-0.029320452873079283,-0.027556123530721666,0.04648792513833519,0.08485043764027908,0.08113157192976193,0.02642163556023225,-0.08403124221804055,-0.10613452772468411,-0.06738261256088966,-0.11322518488856231,-0.11533136345313483,-0.1052102143476474,-0.0681594235675886,-0.0666089183594939,0.0353996421632396,0.0161975498580533,-0.013623481531130337,-0.05523977961901349,-0.05243589243795384,0.10992879946590468,0.16660064463330293,0.34723391261763015,0.03442843549105994,-0.12371161750074458,-0.23848519586121686,-0.07291215776576027,-0.016990364096259758,-0.035274606507539656,0.10586139190535414,0.3023504614774152,-0.1202997254515028,-0.16177598943951316,-0.13701415958990387,-0.024699116948278074,-0.023599913064394854,-0.06152949750261744,0.04225338095289575,0.10132603446152669,-0.20013476959200033,-0.2676692779365083,-0.28219874959309776,-0.20864958734146968,0.0186143900442724,0.0786189900628264,-0.0267112698474297,-0.1785759305929624,0.16458427428333933,0.15131879022025543,0.11473849758164914,0.08117748536540849,-0.004057722272602518,0.08689572727597739,0.13773863493056865,0.06733096182177147,-0.03453517782239775,0.09683278393228782,0.09960065101102021,0.08487945799526575,0.05199054195619514,0.07157317469694693,0.0893168584768684,0.044932870250239836,0.05008594171672489,-0.0039020009535604212,0.16222064451956514,0.016228138778860385,0.11950389120629028,0.10451866269362674,0.034400847866299926,-0.06494114786185963,0.015495153091215194,0.012421581481127104,0.111707295296306,-0.008318534039599573,0.10787217451958157,0.0804057676653493,0.0684541547031603,0.05373907373293412,-0.15495939146499954,-0.08787058926058139,-0.02984473741070569,-0.09936691629073643,-0.10455612618641934,0.011432501557709687,0.07908490392033111,0.0882929193140378,-0.0306920274918132,0.07758337762884555,0.020383751775292315,0.012234498439196908,-0.06502275114603881,-0.05724099078479288,-0.03176128426379572,-0.027166762356462898,0.10148382057866445,-0.03861270996500753,0.04508090672166573,0.06209396173958621,-0.013645318702612041,-0.0998822535791009,-0.10258746074528305,-0.10511419267615689,0.01589018739324835,-0.11892249474614713,-0.005336188248504099,-0.0597461223560975,-0.0036101229800221154,-0.004984349422411705,-0.1530322496195918,-0.2402347644952967,0.009446686112828704,0.03436579911325959,-0.0032397770596575425,0.00582869333546131,-0.08697297694029701,-0.17442656903704462,-0.21746088316805298,-0.15194069765978255,-0.016160415804204988,0.08387014641927981,-0.011328358474154449,-0.07723245141350889,-0.05829199971613244,-0.19338584987360288,-0.2230543549760817,-0.18341818144521402,0.03499622390885089,0.09937685022329039,-0.056217364092662044,-0.10561208073957451,-0.1677547356792378,-0.15935103081749988,-0.176217167826834,-0.09877722675457175,0.07733235357671343,0.042178751669389884,-0.08499035274727283,-0.1940205208595007,-0.1954656347668942,-0.11335523612992186,-0.12265943537768796,-0.0402227001474067,-0.029018157248869476,0.0024278111573208566,0.08591701544920664,-0.028637694359674944,-0.04326104262777842,0.0025493753856299494,0.08551298041359433,-0.023081071662158004,-0.08522407090605084,-0.11489028224347322,-0.0596206373788864,-0.06888715394789544,-0.07166681891345843,0.05119089266683157,0.12408171250825034,0.030176398876064523,0.03165229748905054,-0.1210256229840803,0.000148354348415401,-0.02705385234641376,0.02340940819396589,0.05014116158779337,0.06154732910573372,0.017002814388522948,0.03357927409193544,0.012351091346601385,0.12228800643698762,0.10655956225168534,0.11764242988175343,0.073421215866123,-0.02803651752210395,-0.1578677799709038,-0.1870289154631766,-0.14761311801774335,-0.04132231849460572,-0.010699798209965016,-0.09676123767926913,-0.11464544628006514,-0.14229896017000432,-0.17088637515679325,-0.19370083865156512,-0.026929900536660643,0.08048725271006013,-0.04693963398172719,-0.0844168221435748,-0.09314994236236906,-0.13495986528329992,-0.025625744656899815,-0.14020766415867122,-0.039005096882008004,-0.0273029988145425,-0.07210743020114085,-0.10491773565297492,-0.083275627236681,-0.03605646766749003,-0.05669402278430141,-0.17742392425489975,-0.06319647187977945,-0.03505484195115163,-0.16018871416816965,-0.14495636506855458,-0.1068093537625281,-0.1430562694266373,-0.1646249179729746,0.02737063153863377,-0.024438186085644544,0.10322484888717703,-0.03807396879560629,-0.09803951978265749,0.10428732106162444,0.20617762108075854,0.20205990151038633,-0.037281159383397974,0.03479304067055204,-0.013734963294546654,-0.040063131436179775,-0.08121566860328712,-0.021938285426647185,0.16650498433995106,0.2658404585501401,0.02953802637091792,0.055995009162093407,0.13789383458779073,-0.04286291961446876,-0.015370142630861167,0.008071236856468576,0.05427158028446507,0.1617674826440565,-0.017441476508832158,-0.11402954774192761,0.03221572555482659,-0.0720528191462544,0.10401585001297742,-0.006221180664793811,-0.0706080091473161,-0.15616171108936935,-0.06868013491430712,-0.12119285025361347,-0.10470068225495956,-0.06066842773207758,0.0889229487518424,0.020992647021987117,-0.028520722856146197,-0.06964917992257222,-0.059970672593703984,-0.04901227408138902,-0.10444126395181991,-0.06978824116099132,-0.006796443435756809,-0.03802658383459307,-0.06084718928792618,-0.006528664906049023,-0.04632416269502184,-0.032508216185240336,-0.030260695725927357,0.018020343624919315,-0.06021079515356534,0.010076864521632499,0.0020885440627684726,0.08400937284058622,-0.025128436649806275,-0.05820914472659482,-0.12085371929659247,-0.08576926600183281,-0.00972458308172924,0.09288674836738439,-0.018783234216289683,0.04158687285067917,-0.019361385621364625,0.020699771877752748,0.045478551778263904,-0.10582119649757658,-0.13242251105343533,-0.14911101621309145,-0.24853039577085068,-0.19629734731058118,0.03381807241352018,0.08394311423383387,0.09410158589062273,0.08072578458400806,-0.09825391161921974,-0.17136214070730202,-0.1822681407244247,-0.1680481212206636,0.06897784172312754,0.027070861820899433,0.11940524427406986,-0.03912435070266317,-0.0831645362377839,-0.1875077310145298,-0.08878116480569236,-0.07810374441687046,-0.09824718320676713,-0.16874295575389958,-0.07049710880454137,-0.18522248697786375,-0.2672749519471264,-0.26291381413833353,-0.18960227540510632,-0.12728339202368547,0.052661730587901856,0.10806374849505537,0.19599348295956248,0.1431070447369181,0.09494050716464482,0.12176605476402577,0.13706334213918026,0.22120422860087574,0.012591712073831722,0.1036018379645332,0.07883087445014426,0.13421294235589984,0.08730433816398793,0.1244345502244828,0.012866765725236986,0.0804932631136867,-0.0338358221238034,0.05697482636901714,0.04753812522336524,0.052703203612238854,0.03489789764576701,0.10068529539554082,0.019147047450352155,0.07143969851264596,0.2131437190102651,0.05481160182769078,0.005830216855425087,0.04024971744700455,0.10388839230904862,0.16371827452149934,0.023058540295362268,-0.007273053945394963,-0.09859951014684296,-0.0022128101674842634,0.1216976195597073,0.08191012368543209,-0.0682948360703283,-0.07370030116683246,-0.09604942959895191,0.004007895493333339,-0.2213325987368194,-0.12140982680265676,0.04257168098602806,0.17268567756847059,0.10978055789127665,0.056935322427282935,0.010422882392851034,-0.011208886497347305,-0.26003898135805975,-0.19124238979499555,-0.057666777701555684,0.010254392629138567,0.06175301290923569,0.05902916829698273,0.0619972490769483,-0.07293262529032117,-0.17798397053450304,-0.04306667677937481,0.09592386331072011,0.041868914129044685,0.140706733975559,0.11304826826005641,0.17388037856264968,-0.013052375805529372,-0.11046231429473355,-0.07578295045313055,-0.053312082448251606,0.018970664329028955,0.02232761170204221,0.04068405042097144,0.12475493899123999,0.18517389434489304,-0.08995343673785125,-0.09560031067799654,-0.13518171945606783,-0.043985635932572785,-0.05829995855886048,-0.01065428032000015,0.12236580728825637,0.13992848212983547,-0.16415440265578757,-0.17518472438387384,-0.21588397234525056,-0.24263153151649777,-0.1335975697583004,-0.014854240635267668,0.08771471270720993,0.08666752065558889,-0.21874241435611788,-0.21933832265188793,-0.20391753437287918,-0.14506104519654192,-0.11784227813552606,-0.15691951661872117,-0.08720423505896453,-0.024116902051525613,-0.12764936163416238,-0.23413823479058324,-0.25535296961114784,-0.18414249142029826,-0.04263791015750158,0.10442948887378013,0.11427384758549251,0.12018835225372951,-0.10923274492382375,-0.1301616416857839,-0.0429921706868228,-0.20744902801246898,0.009638422271190814,0.06908500241309908,0.08477681060948791,0.07128103701801573,0.003342952758274305,0.08147442177993706,0.1307629116707019,0.011498697847894805,0.05501016787472963,0.03451705680045263,0.14230061361009608,0.1154974249182788,0.1323212350356383,0.1728028197661575,0.11348368947941143,0.030600439437468596,0.09830561942533537,0.1363825802071177,0.09052365305411475,-0.12533894700689777,-0.11039401129445406,-0.016860725969387154,0.02372784605663843,0.038479929496520265,0.008158542626137098,-0.00293755240251137,0.07355249664624751,0.07946197024554019,-0.005705716341497725,-0.033206639150554475,-0.027805277130629625,0.06189861265612173,0.06958343529397248,0.031390343372103634,0.04615556853694471,0.01977204600113899,-0.02784465940647178,-0.06906439448874446,-0.037813798405750124,0.029369040895727457,0.05200093655487752,0.01943832708850185,0.09527953365372385,0.014758877195943484,-0.09009946525332523,-0.11278023400511519,-0.08560291123357622,-0.012691242425757171,-0.031634571210918526,-0.0548638404106339,-0.022546074051864925,-0.07248399669243596,-0.234468999104448,-0.20485496043142523,-0.17101294422916496,-0.24910145260769964,-0.323065135897429,-0.2397074273620525,-0.20701691705438965,-0.2833458874662154,-0.2641155567356979,-0.1703007467702798,0.033388034124996656,-0.0301347554507194,-0.1269162773972627,-0.11117751329757701,-0.02957782770803546,-0.06182153567473815,-0.3405401154662118,-0.19104459053528172,-0.0977955762823973,-0.12756593280884057,-0.09043640559123159,-0.10122971915687667,0.027221691741026052,0.027952308323012775,-0.2599003577896035,-0.03573763180396304,-0.05962671554044732,-0.13730217760707494,-0.05101959417120555,-0.06208040008474981,-0.11298214200872254,-0.1490632725938645,0.09783919675789368,0.010998787178222912,0.019285869284420838,0.11014117362413108,0.08131460117317729,0.07750681392891799,0.09880610987266437,0.09575715828913015,-0.2391280896711952,-0.13329796020089146,-0.037668957746199216,0.1529667329451334,0.15666339171896118,0.13929951845260463,0.10227795867836662,0.09419886544307499,-0.25932380400753297,-0.18562065877304645,-0.06848912346707849,-0.06322903247193178,0.1306774607198064,0.1183355137818439,0.11213220988922573,0.10763808898664848,-0.20176386773316426,-0.12717631147638558,-0.03882786306308138,-0.024198939285602666,-0.0064011881694746855,0.02065812456624055,0.10806753451528464,0.10614243538464854,0.2603009970794401,0.2204392229240449,0.19972850765639713,0.15597573783905067,0.0732219483570701,-0.022408413028163942,0.010266694661851362,0.14501207727262816,0.30520349861610757,0.3204542819765635,0.3303340966880649,0.3117667478091075,0.3914762660262039,0.19353287252316823,0.27617234601198404,0.40123201863572666,0.30764187709567764,0.4123170689909941,0.3964606559449071,0.4843077971024513,0.3341024641609606,0.22194738738232755,0.32524811220993016,0.47577621957014715,0.4066629766020297,0.4528183565064281,0.3552724497058032,0.3240804965557951,0.27812574519067657,0.24736623161098611,0.3417464453239885,0.3602069753816287,-0.14651100810549506,-0.1413248973561472,-0.0947217014149923,-0.06599579460306462,-0.02700263200300276,0.06395702425893526,0.15015770440354895,0.07918199428992287,-0.1511318795578255,-0.18284077068866525,-0.13906079254648385,-0.07862462174448112,-0.05374164004136458,0.061471505667612406,0.1519872095465722,0.0576138537115618,-0.20553575859833162,-0.16973943540633082,-0.12228050426876638,-0.05254060570005327,0.07148020794825594,0.08656892200360439,0.11362482813602041,0.05076166576615303,-0.31473227553702493,-0.17418875873205733,-0.07582344743687797,0.02014180121465465,0.06959260063304115,-0.032735745579990136,0.18965739834820286,0.11973148119104624,-0.0068620503855295455,0.07488871391627967,-0.033071243424420735,0.041170021996490586,0.0992554153877862,0.056745578562400145,0.13408479599658985,0.35443009484433957,-0.05791666592373647,-0.03357878750255081,0.006235161377788774,0.039954525380879305,-0.0031187290924554237,-0.03468959175748117,0.019285514525008818,0.08084514557647568,-0.16456355947976126,-0.08170251250006504,-0.06533027180402734,0.056771443460186186,-0.06397909885364843,-0.08289501590349999,0.03696640023492866,0.035086838781701574,-0.2063345439866056,-0.0890195811953726,0.05778866911786085,-0.026485650769551537,0.0036354511714078858,-0.03576406348922659,0.004015977604115301,0.049531321478347955,-0.14984239284667908,-0.22779730912312138,-0.09944462023964228,-0.1132128300214601,-0.1327082214264773,-0.0447657946800544,-0.04753667316404167,-0.07805656812044079,-0.11578822254595694,-0.19136842589892794,-0.1882003752214041,-0.12182361820840913,-0.08351535405618869,-0.04841805122032624,0.02548203594286206,-0.039813325539172446,-0.04341760336279703,-0.07598523495711311,-0.25034113827346643,-0.18436061104715792,-0.1403758405358925,-0.12257529426063482,-0.08222860280140255,-0.0627679259892748,-0.08609582028904961,-0.1120813931872622,-0.1495857543498365,-0.19390370632230366,-0.14008220218834125,-0.3578194405694139,-0.1238318365627276,-0.13371064326023893,-0.131464111297855,0.05935996763021218,0.06950207854472656,0.00119935837470114,-0.14636958154050714,-0.04062971783599677,0.07541478631809449,0.1324012140118377,-0.19458209959545938,-0.09523047555606184,0.1254737881016661,-0.09500643625851342,-0.22584511814905506,-0.03393412825588371,0.13411630086190596,0.2939598522839063,-0.2603334747708844,-0.16060982413707295,-0.03173503739009263,-0.07365422197994494,-0.1207973652913016,0.10670975462836432,0.15592342247129787,0.2912601731499542,-0.358090582506204,-0.40612428376104137,-0.26878018311015206,-0.053037150269244396,0.028581312356490977,0.065345142832919,0.0369526717893756,0.21960350808195112,-0.015314552204131845,-0.047107958735744984,-0.05385777596804139,-0.08360308238846648,-0.07821551106709825,-0.030081547066250425,0.037836639540084455,-0.011724085010992974,-0.33925664477143797,-0.14119074315477323,-0.07856901463550577,-0.08982130024988416,-0.09651108328798916,-0.06944023683904749,-0.03472474462178971,-0.07162248562099838,-0.3641545091875232,-0.19335181221464878,-0.17904207093331345,-0.14901384513334598,-0.11074747089364947,-0.1443404110427591,-0.13393148590446083,-0.17113089181258567,-0.30759206087425983,-0.19045956251649704,-0.16469108321474282,-0.15328862484084835,-0.17677563861665524,-0.20337376679034935,-0.15684651416549772,-0.18798354578741835,-0.07193976630126135,-0.002899655757406662,0.10927624596750003,0.06352545279859735,-0.11229631296257611,-0.0957472651551793,-0.08725195262943736,-0.01273361894931092,-0.07082885455620459,-0.08719862723080783,-0.057480882380966915,-0.12086677349074199,-0.13545035764262978,-0.15183331797547023,-0.14965458006870103,-0.0014343413277767975,-0.09293444235690111,-0.1112443618446224,-0.06272666267942173,-0.006562962738615658,-0.1760774102243781,-0.06636364130589342,-0.08605303384436343,-0.10373613531665737,-0.08123101058231275,-0.09860328129087238,0.05073511202945417,0.0076005278727777105,0.0831317037997903,0.07826718133993582,-0.049197649618295924,-0.05792870031451359,0.16218946610871302,0.1713513754909671,0.15583258188961494,0.07518016907754897,0.11487729955036922,0.14324185694022437,0.1913703857774362,0.11267945551782839,0.23706210622341878,0.19151442737019803,0.17378979167276812,0.1765468322197873,0.22754731961843944,0.19548967900702174,0.1318872637245065,0.010713679618289675,0.1337452027305039,0.18636653404559567,0.15164175166715074,0.1098224462800077,0.14199238087770816,0.15964909248235962,0.13085374839972583,0.07540434642704504,0.08482305195861249,0.1517908650653931,0.12832507332623025,0.08894985855407556,0.057229417516522475,-0.2003614763808528,0.011515713539646671,0.08421095711183707,-0.09858798310987561,0.05677602827350709,0.14727107402177453,0.11480574512999103,0.08501341588950659,0.0799785170481704,0.07876794559270242,0.10308291956508707,-0.06209019908517174,-0.09599095767706566,-0.01663028598363275,-0.04407203127295275,-0.022248057682306244,0.09812303574936335,0.12465266797085364,0.2880086094325752,-0.17767754661179486,-0.22999168446461996,-0.23201921122993238,-0.12691625663374223,-0.03304315371119551,0.21772425459149264,0.2731031571482791,0.3129221871278025,-0.26903755675294566,-0.3188129367551918,-0.15083846231306566,0.051248023986807965,0.18263740739626186,0.22706610416873735,0.33483444408795987,0.17045544640001267,0.05394155645105969,0.09363181112856747,0.12912580003204144,0.0630176470472903,0.08049998710080822,0.04202364367828283,-0.020927158198107778,-0.0724362234204349,0.10284338261642997,0.07895602535642018,0.09350789016644852,0.040733064728863885,0.0032509102919456028,0.004668266491549194,0.034035888282278985,0.01247038284305528,-0.018491185253527144,0.11699724909599397,0.19833733525762265,0.09761525857944514,0.05033272216135092,-0.004391781042774302,0.12256343560254433,0.25137079734771434,0.10347528301696517,0.19221391080320702,0.18319667025679048,0.1284491810198525,0.04132548549489952,-0.12617640357323937,-0.07445791628917586,-0.0185724113455037,0.0625711818284634,0.06944161382836936,0.17541316727865483,0.1690987079652466,0.1834703495135309,0.0672083635690393,0.03092810444985799,0.03563479810578994,0.03233432297725335,-0.036589736890172996,-0.012127217443885252,0.12119539658455836,0.15590082271336614,0.006214845741156323,-0.013399209338340767,0.04590379079227247,-0.04575323802620672,-0.07499706244257992,-0.061406187255826354,-0.04773700470847871,0.021381739097676596,-0.06872824306356581,-0.05117665795908169,0.03066303770780758,-0.16121794200216252,-0.0976017965840905,-0.06442913128283759,-0.03307425353473558,-0.033008486974401494,0.004293904319887894,-0.022951473908353146,-0.12011034143700111,-0.01804698785891019,0.10935443132066486,0.08899611333194249,0.1251481896049743,0.08590398531745311,0.054581551710092296,0.07029188597914406,0.04330264056824602,-0.004681632802450836,0.06885883445689941,0.13574765007835096,0.15791694044681437,0.17884518264307653,0.15755802948615097,0.19196307947931432,0.16102391888874137,0.07802477804594238,0.2040281999258461,0.23914046253270976,0.16187604871522482,0.09879918437021551,0.20234092540987014,0.23038432990966784,0.18311447708216244,0.1983012156714029,0.24703511028249237,0.1763393274473342,0.11897614734802454,0.12161563471857299,0.15691515375301457,0.22674182534230344,0.19782330814870716,-0.12368453931456927,-0.0623548265789705,0.2529480804124374,0.22580726359386855,0.0989359261715413,-0.1598903257985459,-0.2706223756299876,-0.3275025155451348,-0.22861411033389106,-0.019127697862746235,0.09252562972655297,0.19829764768861888,0.19858211374434098,0.013036274530242925,-0.22867031699661416,-0.28903570621887453,-0.14592081785878028,-0.24471280004651125,-0.21027199550048506,-0.03864382330915825,0.16295759450052055,0.051310107146999136,-0.052167374178795585,-0.12203512685854566,-0.2409035318204873,-0.22421455362714443,0.10731976908323493,0.275319295385645,0.0843842800613756,-0.014637762152180295,-0.052509601838547096,-0.10318211622380534,0.26865624444150926,0.11645920466029236,0.15646562998427663,0.07288127868828338,-0.004965226225292351,-0.08674251994102192,-0.17034063125294535,-0.1841763330492656,0.30452596751734423,0.2541077017398901,0.29935195004959664,0.08027850470447882,0.08407075119734414,-0.0524918846529921,-0.07824470748372447,-0.020895131251597216,0.36500420740941497,0.337186390855749,0.6881404278121424,0.10890830158958285,0.10757987476474525,0.08289381532757861,0.03761109480220492,-0.08939023307219633,0.26416648981067303,0.3391548550451173,0.39124893661348475,0.22411103032847593,0.21477648554171283,0.2026663657842601,0.07797128502077919,0.11565777972033134,-0.1093279770977812,-0.16945648868481017,-0.15517489372873686,0.003486479752729308,0.05939120335889548,-0.09695763887190068,-0.1678971952723806,0.03969589395060746,-0.14842299584599336,-0.12499782396124356,-0.0033650175717850695,0.1099808568137599,0.15734215901807744,0.02665689291579905,-0.07500702982848692,-0.07872939705498684,-0.17465815038838978,-0.13330967229495633,0.12052190932807796,0.279735162714056,0.14721872948646172,0.005755040972855799,-0.011633092500495225,-0.02822473745826982,-0.1802411760953291,-0.13734177691452348,-0.07006350477979437,0.170835465964055,-0.007736294590001863,0.07121262364848656,0.09324257283444494,0.03279405426258773,0.4137042208887646,0.25827533127325475,0.06806172506077382,-0.050355361935998336,-0.048223728869508035,-0.12099193146833016,-0.05380642146964402,0.004017034715438539,0.24359805442716037,0.11244347200900473,-0.06389668215328471,-0.12561987138639025,-0.08139962979168035,-0.14930511159396148,-0.16575874708789884,0.04119661007471723,0.16116608402025512,0.07387478515800111,0.0443053736461461,-0.0664336605065252,-0.07133776871860012,-0.07732315879284823,-0.1446985665554336,0.05547674949573665,0.18269077408919207,0.09677604381988048,0.00820812711962534,-0.07573721469264037,-0.06990452703156187,-0.1680094613293283,-0.0498686259582537,0.032450769814778305,0.1421897886019836,0.106733309631105,-0.0012686369003567979,0.13742852733029973,0.058135510170814496,0.2062872105613102,0.16423233745934154,0.06337951973377837,0.13336436685387154,-0.03936135774401524,-0.18470106973344627,-0.013413806465188945,0.04571784820717901,0.1170530189317164,0.1233922054770093,0.1028797109640014,0.037063760984397884,-0.06405251745259585,-0.11999267573439047,0.049607717134280895,0.026388274022093906,-0.036215572740292946,0.06861694973433749,0.11345243221523144,-0.0008602103939501639,-0.0030883581533250417,0.09935166158993168,0.18019420184982812,0.029571083077558746,0.02880062838608379,0.025716371507863007,0.06465019947451241,0.02725066234849186,0.06706277818464318,-0.030538453442955634,-0.01242507007659374,0.020997721417281755,0.012580842152809869,-0.05582677738762965,-0.06798415012816271,0.1343389847323873,0.03521223290599139,0.011550878281295949,-0.0074608324123782346,0.007983112122478578,-0.07017053912291227,-0.1292099110401161,-0.1462694828296374,0.10046768983923313,-0.034658816619986085,-0.05787576437540006,-0.11903577770532384,-0.10886692216562462,-0.10276675670705136,-0.25279379756639425,-0.20947639545222504,-0.12116120534131485,-0.15310030068328584,-0.11020595356809033,-0.10284133345734763,-0.140474105749409,-0.20980269838900198,-0.217551551933958,-0.1150540239017425,-0.051468825003497386,-0.12849810990931887,-0.09148860118911449,-0.17898020085373412,-0.10878261577102621,-0.0913572495055946,-0.06634487006960696,-0.01708268141396128,-0.10590677745467343,-0.23580875233702372,-0.277765882959068,-0.2705976799664045,-0.07730382688936906,-0.03230435101909014,-0.084338313507596,0.07874078414529424,-0.19837547807933611,-0.3320016745025532,-0.45615570027105584,-0.2240574826737646,-0.07671642885574737,-0.08945669936785097,-0.027129546333217718,0.08939077190419513,-0.21245378019597708,-0.3558569364014259,-0.36339881892210796,-0.271684259799607,-0.07733558567920297,-0.08359452335762838,0.044560557965998386,0.14280617530866388,-0.019076863589601846,-0.005038428697637443,-0.040470312508858707,-0.1619068260432828,-0.2294938275125785,-0.14952741052385402,-0.005727111000254271,0.06940315082359239,0.048646002970167836,-0.10499054771324468,-0.1407062631573893,-0.10397323932761195,-0.1796609238271098,-0.15128504482287977,-0.030527475490598574,-0.012038769059812254,-0.20761545453464134,-0.18803144942434388,-0.16835822298486666,-0.2515081853333835,-0.17860238460416558,-0.05264233108221622,-0.04100314545242929,-0.012702305160863878,-0.11188012388058771,-0.1535073848004141,-0.26084445464929834,-0.2076223071927172,-0.22251261908573133,-0.10193173443891858,-0.048488167945537446,-0.017915790011162076,-0.05844800754962251,-0.05177319577861424,-0.030311506080990307,0.19441016746102666,0.07205790896646162,-0.04214395427720208,-0.11382773608194122,-0.11994806442091434,-0.003962342598183741,-0.10685873481891148,0.039092427736262376,0.357580650662808,0.36292336693628785,0.07618203878524352,-0.05620489840015416,-0.0027806117767671013,-0.1211608720278001,-0.09859151667691962,-0.024365568865148964,0.3311815711089605,0.30952188831485616,0.033705392576670996,-0.08261723535847343,-0.10035575048424737,-0.02380395996055059,-0.10087833938102286,0.11685693663694134,0.16041223890595627,0.13291463318392424,0.07648895775051151,-0.007263673839648437,-0.08901349116880541,0.3519117604060535,0.28771170963004783,0.11005422440725723,0.050193536893421035,-0.06882871082915937,-0.061609273663634646,-0.08729997262104955,-0.11903951649992078,0.17261624165180414,0.1856890440710849,0.02590886884548295,-0.05157137982215838,-0.14307306807044382,-0.09224332686181871,-0.05535754919811398,-0.01885451983368221,0.0553244789716525,-0.01560209885837354,-0.03498537329809409,-0.16159671810355486,-0.14321716011468025,-0.007816099193313431,-0.04807119495251341,-0.0007282158522932988,-0.13458552839793597,-0.13330083817674784,-0.08021840989374074,-0.05611989409900559,-0.11684450763838966,-0.10384628869318957,-0.059726903427227564,-0.045923041700207036,-0.09055794110915646,-0.018254741509674717,0.24873565299894218,0.06942237468869455,-0.046887532910810666,0.07014040093224592,0.14395964667463912,0.2117404908767534,-0.09654179912776836,-0.06443232768908312,0.2575040267630074,0.33204015185297076,0.2336242884263741,0.10604058573461005,0.14306037936536536,0.21443954602086732,-0.02195898037580189,-0.16469269650272483,0.13855328856935323,0.5176319404869079,0.28356701760672315,0.09932375623976165,0.13516865027427563,0.25571912054111,0.03187636590232692,0.04327818013059085,0.1322915565417644,0.5164771515932165,0.13018293560149233,0.018160798890343298,0.018180208848239225,0.2788926430782157,-0.06794305417404269,-0.005100279817071581,0.0008508590424927719,0.04619418655362024,0.1499667789605318,0.1857594850004185,0.197943063789736,0.026450006074147287,-0.16055358907198664,-0.025439012480296667,0.1491818831245535,-0.0026404645696720074,0.06479905849412478,0.05849905371177357,0.20336987559742525,0.21572020238317635,-0.0462061305128699,0.03635130031571776,0.44954467979547086,-0.029229716593493826,-0.050213587143110305,0.04893482421291336,0.15840384512682457,0.1132759991608698,-0.03910397765380181,-0.03387345799854557,0.10047750825271815,-0.07779794276324223,-0.1717494282876229,-0.13960145200313887,-0.015835108286545656,0.01079980091495998,-0.06183279001364931,0.037883992432329434,0.20324971859973354,0.06804594687540877,0.03270201907508228,-0.06787643976273341,-0.08853642355038158,-0.08772817687217176,-0.1513122970365802,-0.042923586649019144,0.15759482969783212,0.22396168787296877,-0.029374410461685624,0.05917740165057729,0.061959127451321754,0.07598321121912603,-0.0846356905831682,-0.001825900581384617,0.1291748340028152,-0.011561066993595184,-0.022602472807458956,0.06702097936795517,0.17635408369253044,0.15410256437964875,-0.042239454178170655,-0.21556715124853043,-0.06289482301715753,0.00022119590071280912,-0.03598266486586038,0.05928394313568237,0.19459225491577586,0.20574220407793917,0.1107234745864781,0.13489439192567895,0.0570698161325116,-0.06431210149282385,-0.11338034954268705,0.0068084866500838555,