-0.038800046078275426,-0.005544190128527496,0.03908782430376546,0.049638333465576466,0.05870286826318987,0.0965838844428683,0.09030058619600435,0.11057911124771089,-0.024119911402268185,-0.011403208707614612,0.02228057155168394,0.04844832699450647,0.030981960259585137,0.07573749809488646,0.09268661892009739,0.06625984189535593,0.014905690820130392,0.027214748826482553,-0.02243329013385844,0.028893141800800014,0.03209809738237353,0.025432467451582168,0.060131482811157835,0.0359617083875843,0.00220419131493347,0.0601098744196939,0.0520543310070221,0.04164959178251881,0.022414976145787368,0.06181311020793102,0.05917624844736861,0.04961848273009841,-0.016664006496181643,-0.006698120807481512,-0.021725606183150815,0.05221815910612145,0.14908413333560613,0.028315878438693185,-0.05549052722539571,-0.06109853774212922,0.0289208520499241,-0.03865734810663775,-0.03027429354428046,0.0486197708729699,0.03621261400722497,0.03047792196285419,0.03269884146852976,0.0004155207956016961,0.06666754963003967,0.07442633338033325,0.12934683426939497,0.18414603093227278,0.0625845963333774,0.11154017666865657,0.11825240999935761,0.04195405235438763,0.07993121877263241,0.13700186088072272,0.17626932561052788,0.16756642359598017,0.2119702505202283,0.2020123767297252,0.133346888908142,0.06830829100212173,0.03499165738151488,0.039336815748054574,0.01814318639547609,-0.014362032961688387,-0.012146436114220994,0.07298434971230242,0.11309076103031082,0.10275566705134774,-0.03791248229882501,0.04176559790851286,-0.014014377666750384,-0.0782708381186931,-0.05737132228414672,0.03178352454898998,0.07229862448165182,0.04852541892032805,-0.02012876238148965,0.030475977244197715,-0.13232584451144863,-0.07398416964409556,-0.07293852135513484,-0.03465630482472949,-0.007034289178036963,-0.05397211368950572,0.020578872918626527,0.06864964618871944,0.023923207889575346,-0.024176587936855388,-0.09454574664663093,-0.05088188343134109,-0.04850163968727635,-0.06230295981380714,0.014443140817631383,-0.004425413579274595,0.048022335212926905,0.04859230737798055,0.008319421914005929,-0.013070158991892254,-0.07609248970315433,0.04579663866684107,0.02645915124021848,0.03531830925461345,0.06024762369446852,0.025569852665071807,0.01879944315668994,0.013533381355122604,0.004958280850584864,0.051345420671462874,0.11493493138807877,0.09155249768382305,0.0946116990431737,0.099895252869241,0.17609114829074032,0.14881288493908318,0.10890933002744453,0.11254215509509531,0.07095491954080582,0.07018719436774921,0.060485820913740905,-0.11288836950856065,0.03203128585727473,0.028439706371851923,0.012234500356821167,0.039023673512855246,-0.13285897169621447,-0.11165168116833316,-0.06620833315579389,-0.00774121492823511,0.005286689007358231,0.002469212013815376,-0.007812523874321896,-0.09222675458782827,-0.13143251975947495,-0.09724780099407876,-0.07676715247707375,-0.03292254189725275,-0.03352111967311149,-0.030016079689178462,-0.04481424439515372,-0.04787819036560024,-0.08823160146345875,-0.0515644130937583,-0.07349343702438864,-0.08614807374495129,-0.06623448902042492,-0.08572206462381608,-0.0775988437838389,-0.05905476898871395,-0.06418054090042857,-0.08111646247229722,-0.06276174501085281,-0.08550073202043473,-0.07988122036694308,0.007684688676793388,-0.04063281902131097,-0.04124313871364214,-0.27673662676511884,-0.24847053311485717,-0.19969051414325747,-0.17881684525839708,-0.14953783792835423,-0.14367454074858318,-0.15527277974998094,-0.1325438551339775,-0.19731368391911872,-0.2311630220700698,-0.2129301338858831,-0.17404755534623695,-0.1988292207478708,-0.1450484875557191,-0.06103970236384232,-0.0403581452813456,-0.16631950729223527,-0.24948773833520133,-0.2437463741077272,-0.15342233993286658,0.02299966207298543,0.0020253601375759688,0.0007504614145428583,-0.009188722981175394,-0.11246892548670172,-0.19561607210228643,-0.1397474337303691,-0.08313497376790464,0.16807873026424935,0.11393981191514133,-0.002997342002280203,-0.060627660607636746,-0.14442350295651368,-0.17029628595929888,-0.13412538353942569,-0.02521943189495729,-0.017786379213253396,0.05448841013248734,0.02949092937157925,-0.024391802018894074,-0.17114348835422985,-0.16989353538870416,-0.08106964792996775,-0.06647000469117688,0.0026319447274290755,0.0005788546491378063,-0.030905653318308808,0.006258233143253815,-0.1343333723826363,-0.1528749863544412,-0.1320546378307993,-0.13182440914971258,-0.06744684686736017,-0.09898690500432432,-0.03514125022452022,-0.03474249509304613,-0.1241281935608292,-0.11529422714182762,-0.10452890841132784,-0.05798023052584576,-0.0639298321537146,-0.06329399672620939,-0.0037210586611043867,0.013752263412848697,0.03400432613038243,0.055432838714172886,-0.01360055365459861,-0.11322674385986237,-0.2019698926619272,-0.16720207616579827,-0.14317229852815588,-0.14380433064537443,0.10440264052330012,0.06632043166909714,0.016831535260860953,0.06744462222286773,-0.008051561433325628,-0.12702297079159142,-0.12907906382008785,-0.09890140713344679,0.12658815609162272,0.04571815424865204,-0.015999061021571732,-0.02796846826365685,-0.021261506595166804,-0.044201611849541786,-0.06757180921586642,-0.09974408601030522,0.09699223497692613,0.11109476492006316,0.14026791023984242,0.026342852605542928,-0.005040559427037772,0.04685408224000631,-0.016019857669894912,-0.10637668312539783,-0.15310151682131742,-0.17804826432584198,-0.16531653252235967,-0.1796277260446535,-0.21490178578804076,-0.11211127831648889,-0.046280308857412765,-0.0105588173623709,-0.17808359733356913,-0.12149409676053365,-0.1332561579039203,-0.14193520735264809,-0.15019481708041185,-0.08176231023441022,-0.0637499617695815,-0.044333352713456335,-0.1443444460294456,-0.13435261293403372,-0.1766162038314547,-0.10701418774023806,-0.07244270408135223,-0.10594450764849993,-0.07028712902401098,-0.08639483203383976,-0.19788073021690306,-0.1421153374753278,-0.1199763792635566,-0.04364822398795222,-0.057947357745090376,-0.12969938103179918,-0.11093875419036049,-0.12906022164272335,-0.15293097553434432,-0.15475847303037185,-0.056041754062515915,-0.2063113028882446,-0.17610797959401775,-0.20195658193953298,-0.19561365046103926,-0.16794722863972722,-0.07950338905425981,-0.05538903453461124,0.04672957277430183,-0.09212693209491328,-0.1453577115308917,-0.16200592224025245,-0.18034114651892083,-0.15972086936426824,-0.005685041221302065,-0.05220948921436959,0.07796538498989236,-0.06262674840145709,-0.09475158035901797,-0.11534952743338218,-0.15157391738943338,-0.17007343788332943,0.00464850937874347,-0.06610862315074705,0.06480745668878865,0.048270273358624764,-0.053630113750768635,-0.06916555443113209,-0.10116862744224908,-0.12692405229777054,0.014175118543150022,0.01508113827958562,0.022959114732004578,0.05479691531088999,0.03562160449815788,0.05055543463274454,-0.009125075290502386,-0.042934393306323086,0.024635526984936533,0.00019448692103432992,0.02032922000004069,0.028914529493479297,0.0412068216262225,-0.012377220228153981,-0.009615979694658782,-0.009688908678490132,-0.03919337066758842,0.00618128639636135,-0.03730434331280062,0.08482409154740334,0.08047876109632932,0.031294778308258574,0.06758578445457875,-0.007502960202211885,-0.025735798337774164,0.021144868056680338,0.04940333785099693,0.1271495199331992,0.1586003229735701,0.14452949246228336,0.09330026787741481,0.080379082993755,-0.04103025982955168,-0.0343632004392006,-0.0104778957098269,0.04352058230567772,-0.04035649570286638,-0.046101417633915474,-0.015735161294994224,-0.01809688605752534,-0.013348952276685214,-0.10888773042473027,-0.21578313852530162,-0.14257927797835773,-0.057253426505579935,-0.0332716481933159,-0.03277810590100579,-0.01581796490840897,0.11945546048091808,-0.052758915178934045,-0.1830445942286452,-0.2663229034562187,-0.11286748551690912,-0.04261606219476796,0.0010272169759743832,0.03564322992084377,0.15623433934525618,-0.001998816939802881,-0.0580164600205666,-0.180632342036306,-0.007652382553760204,0.0197091577767596,0.0679475891062792,0.09332462989934162,-0.0041310626784196655,-0.0431411468304268,-0.04536496110713796,0.0022913507284227507,-0.06309375009852591,0.038726357928461706,0.025678109587960386,0.08102452307361192,0.014999934153464555,-0.04359515948988324,-0.048992939953092916,-0.08007204071824268,-0.07506567731205586,-0.04326053299314515,0.0005479872400856582,0.03728169524518984,0.008011304292582335,-0.03322110953821678,-0.05416218686665409,-0.05725768655479128,-0.04397834970440892,-0.0471376846412686,-0.04515071091124406,-0.0315832859102634,-0.022588109540373498,-0.017096761391631913,-0.029548218985719465,0.012592433052108745,-0.004083631527729863,-0.04155928655623631,-0.033885340178367127,-0.012858327910400102,0.07942047882700182,0.028388070343323718,0.015194422173890706,-0.003268381075555408,0.039638346156575334,0.011869502744237117,0.08842176396626338,0.0793055304193597,0.07020150159674071,-0.031580788870694085,-0.05806954644125602,-0.06395922968350452,-0.08840981836940247,0.023341478159983213,0.13883083593433007,0.08424631670081006,0.12484346311810461,0.0014179595943571662,0.06977480727516351,-0.08159017059594978,-0.010956406592404702,0.084888845324306,0.10340235505165758,0.17437308186912942,0.222750970563957,0.27324098654299983,0.24802972369890391,0.2502583482028517,0.24439554306576616,0.24346839124851333,0.16256506635903933,0.1680735345554042,-0.16016234407697297,-0.1345732763296057,-0.10669471157259318,-0.05961738853334412,0.0015521282084337935,0.05059454229744355,0.014324060419027012,-0.296256354072948,-0.1041662788008172,-0.11840718094465685,-0.0948722775303023,-0.04081334037628278,-0.06872334702041348,-0.018559893894572476,0.02443825025733924,-0.1366318324868759,-0.14998887354286308,-0.126363752985106,-0.1381791783669437,-0.083827773314164,-0.06697382607079554,-0.07658649427064916,-0.05578364114179097,-0.21445315184399177,-0.17394541421242588,-0.09109624677600053,-0.12147677017305325,-0.08888223179505372,-0.1024055595480457,-0.17104327184978527,-0.15483137842018097,-0.20494815971390645,0.02014171512667357,-0.006024243319894338,0.05279091339329685,0.023532696939753663,-0.14150049926349914,-0.121151781321984,-0.023566996486891055,0.0876856745553793,0.014193309088430254,-0.08378800870696686,-0.1244312246927636,-0.11066530914152511,-0.1689449141448458,-0.06501158845027166,-0.011958202529888077,0.00952177410340249,0.055727179950030147,-0.14091596062453168,-0.13623147204932695,-0.22064463114856328,-0.09710968281756563,-0.07215928957458782,-0.09669309798463036,-0.09812694980799055,0.0193038909190974,-0.11211980700270664,-0.11269348532295231,-0.016106626973858593,-0.04926806885960205,-0.10847337668713564,-0.1384792128638613,-0.13995386158212367,0.08724624914628826,0.14559122359004736,0.1487679689205193,0.11363284044709275,0.16556602201677525,0.20602195462040246,0.19589380284232336,0.14293980010417037,0.06312164453381736,0.0865844073506992,0.11436021308928396,0.14115673418433547,0.13953604162261216,0.06221315411470443,0.16493640823683123,0.13885100146182192,-0.00971978398294927,0.09184847448963167,-0.003859822362346265,0.042366900892464136,0.07267611369613959,0.061676071332826043,0.05987394449245981,0.06342493244244117,-0.0058471146566247125,0.08281526568576197,0.1132899391803745,-0.006410498189423923,-0.008562396686601526,-0.012675084630722724,0.039927706824650064,0.043127314980949835,0.025166522059295992,0.10329497710558412,0.2325987956615422,0.22481630267511374,0.22125114475939778,0.1860801249428027,0.12383520652676677,0.17637915642857527,0.09948046598149303,0.15887036106603303,0.20169651807151343,0.24197192056205594,0.20472066472714248,0.16031637252311345,0.12397472972433421,0.11407356689401371,0.1950809966898597,0.14726579388347383,0.15696760658646725,0.10688998459718393,0.04842405943955482,-0.013765731348616436,0.023383242472245807,0.056287644750569056,0.24455996062495325,0.279627917251533,0.13550529791945926,0.12399044309843418,0.08133605446669029,0.0062917089185916915,0.011470112986860131,0.06945429064787206,-0.019584251397174453,0.030234738854348794,0.0620646650119277,0.09207277010582607,0.00999585588070383,0.020638589739501716,0.014144563106370994,-0.0028227124327513255,0.02985817224037749,0.02136905783613456,0.09164421235971881,0.1385897804010038,0.11680019651879278,0.07996845138484401,0.07396002964731208,0.05388286736217536,0.07414231030736611,0.0474283869489933,0.013643884140318802,0.07760303770920465,0.13224109515994154,0.12154618434235112,0.04462245696249554,0.030781080122751443,0.13077545824969555,0.09063700496321839,0.07162388055182352,0.06365395029902607,0.09162941925895994,0.12641449210433833,0.06108612313346291,0.03183023306032431,0.08644978296182625,0.05922099049503295,0.1795976037316928,0.17728503180737692,0.022148042184801053,-0.012272965320658462,0.028551989597954186,0.033937940632079035,0.09262328904927136,0.03016926918462497,0.0535143574627848,0.0841801514786932,-0.008344689580196435,0.005417073612183361,0.02094875868182581,0.05340392261748605,0.12245548205843584,0.039230487455041894,-0.00417092053467877,-0.08379056685353778,0.0014660064350746928,0.01661127753209447,0.013741954591614931,0.10505132843087957,0.09888140878485074,0.042655173875429234,-0.05282910564529637,-0.06702027174910083,-0.08946407604555398,-0.07340724399363627,0.02887643146339606,0.0926915166310881,0.05335454770340733,0.01681932778049212,0.051330506816016724,0.09424345206083498,0.13519154504003952,0.03683561003637442,0.03029658510673412,0.022492752911799214,0.011759928991129669,0.03547276900027625,0.06084776426326914,0.11043775129087169,0.05167341365067339,0.0312253108951691,0.01402347006662579,0.05342544853139281,0.12546093038661094,0.1323947452485577,0.13399696714059725,0.14006324497704578,0.13606092453362809,0.0924984553261179,0.06831660948444258,0.027625976073099537,0.14212615201585932,0.14894626938331884,0.16221485799748514,0.20250734515137953,0.19336412785900503,0.17986874456293683,0.034033363555275066,0.024466401911724917,0.04631662849380288,-0.03419000732745342,-0.04057816904870842,-0.14440937444298538,-0.15838323675908988,-0.1509301898103193,-0.17447533980585123,0.042659498519087194,-0.0269326463379949,0.01406246297394219,-0.022848621573017248,0.07654769010488936,-0.06940670252519762,0.060749341795552365,-0.029890801510186936,-0.011468595003865939,0.4228187974799839,0.0510251526728447,0.050905410871604655,0.04245747758357437,0.17385667751670145,0.0908639164510802,-0.027060486618124522,-0.014254554981396963,0.28520597910670026,0.10400773469964487,0.12720672174764705,0.06931076761687979,0.09944867115390257,0.10123095570694692,0.058036166959032166,0.027767906797505428,0.022130025321633124,0.0011532592385408034,0.009023400822184236,0.08730362271777509,0.09758883167911624,0.15242253750577217,0.11882606492078808,0.06191212916975993,0.008222176983007614,-0.03923854399014884,0.03371301864334352,0.0687670386237951,0.11770715860960713,0.1003767978246659,0.0863532353610215,0.08094522874582859,-0.04067227432104734,-0.05677557307438181,0.03930246127230922,0.06840089366213746,0.03791138631269632,0.050261766942003815,0.053142073021112464,0.03530902916684013,-0.12288226390837946,-0.04501323120704598,0.02086867307281029,0.036636064028008924,0.021088247002644035,0.013298279073329604,0.04658836556403546,0.01576828279534445,0.13837549426392454,0.11183757267386032,0.07156674325673028,0.07927564277339887,0.008807820892597221,0.006685908587965623,-0.017088222822001693,0.07508832009233837,0.1904212387398585,0.2069525614678404,0.12035584332498185,0.01075271076818792,-0.07010730608268415,0.08993952515422768,0.09520863503778168,0.0685469844010594,0.4772843636017461,0.2613029452372955,0.13832540050710804,-0.018892630074294314,0.060282177117518945,0.09933581276287023,0.05263681922067932,0.0683626331980925,0.3624163401701237,0.21460395654906636,0.17180500938230234,0.2319773009397442,0.22162605510662142,0.1830398702350899,0.06380201332752154,0.0447109681231944,0.2371475535621116,0.24207043760914543,0.25717390765174225,0.21486347879754886,0.21478128231441468,0.31786549858486157,0.3034071528666908,0.23814392113733027,0.1337627813777164,0.1484564337300709,0.2636485222775773,0.2712391700576519,0.2447939542177382,0.28259921442598424,0.284407287156284,0.2829826605762345,0.14551173500515863,0.18057922245609323,0.25143053593156656,0.1781981257845831,0.21325968987994426,0.2139854032099216,0.2747633892173492,0.2696209522436162,0.1651536961865994,0.21365654725515515,0.2168247524088931,0.20032832124720215,0.20683814471439077,0.1938929663904465,0.24854790741777436,0.2570452546739392,0.1427941384043902,0.03770794234644869,0.01743320994376916,0.04232250305295458,0.13345695497495338,0.07458971709866516,0.07528462692539295,0.14325316167189758,0.11003824556290534,0.052406222005732764,0.10451070673204875,0.033759343370561815,0.019529658198952016,0.04030540578444081,0.060427391594889066,0.15946554385650924,0.17808879305213668,0.09395147906021077,0.10367593898861495,0.11866524306132335,0.1313597965942718,0.19684965251819947,0.1859568353114294,0.2663834119357377,0.1520754954040218,0.11467238816047547,0.12636370302193384,0.0512749862737934,0.23675050595350103,0.30262690719040625,0.3094575299532549,0.23277008555305043,0.0020688212390299185,0.03534014299977351,0.025723678292658078,0.012624927309972283,-0.021318653915437746,0.04197940874079348,0.04014134104766739,0.06812862862234506,0.03629764373873151,0.056903948915402486,0.011571425805465196,0.03389177278374361,-0.010795495940581332,-0.010071516243271652,0.0034874296598135573,0.032055793159766824,-0.00937390735638523,0.06630004770728458,0.07953858370535537,0.12262552707862805,0.03776248955704129,0.00665429466454999,-0.026555627282462885,-0.06261024511655408,0.013909062098884395,0.11431718778496798,0.13584494043030268,0.11476405898008982,0.050558567727817055,0.0010314997285271455,-0.042221848775338494,-0.02625542031434431,0.05536084270340358,-0.08728267061128554,-0.12402791062188338,-0.13574820700282156,-0.040412696584115816,0.01089101362884962,0.10760553070619427,0.20223640292768078,0.1285329050213406,-0.0014413695768335237,-0.19561322990191446,-0.06288491841286181,-0.10501878528768814,-0.0025788686626230816,0.12513662183430047,0.20087312501118856,0.2573181522808247,0.059181915705499244,-0.12194627146254078,-0.039597174453691,0.04055335424179638,0.1004849980842604,0.16813314855586733,0.169820668097454,0.2901803545480333,0.27270298693742223,0.03530101910384557,-0.03976124327925233,0.033875191696105936,0.156097590289128,0.14576088838703552,0.17649075268743633,-0.001241378700717819,0.048714997026410196,0.0858406498150078,0.0963747042160384,0.07421322108369936,0.11776594938640998,0.06346626009926985,0.04611470888074449,-0.02504153900185009,0.06796084021191753,0.06526785209800003,0.04379509941262002,0.047756169528556505,0.05551404018085249,0.060661691456760126,0.09334579230502983,0.02525624062010001,0.01279327124602244,0.03331508703544019,0.004202245931530739,0.10433312897755932,0.0648920447405075,0.060874648524702236,0.021518133121866064,0.07403787547675708,0.0670050519506357,0.053367267690930975,0.13326575236740534,0.12958222048531667,0.09137885498809101,0.09593883511557276,-0.01356156691702191,0.062491968053696736,0.05124578287030324,-0.16334428538286483,-0.3414538701309632,-0.3793451540439877,-0.23800842063446273,-0.19228309575322283,-0.10141138412274804,0.030002762829762008,-0.029994944991494413,-0.23810860291331168,-0.23178257393521393,-0.219888901350921,-0.15174255033999964,-0.10728816472654788,-0.044047066792206616,0.018131444854757994,-0.04192587909228984,-0.01244952480954675,0.07640790439627089,0.025383787678608848,0.05464898771425453,-0.027121317486301207,0.03949203793107753,-0.04781921445385996,-0.10260960116128635,0.020446470098296695,0.09838611864590584,0.07640321676457251,0.08686255852652433,0.10107974707901378,0.10858913058018736,-0.06390881183925846,-0.012202445633065917,-0.008037459032049702,-0.0024715516413001057,-0.07884552919933775,-0.05361684287850926,-0.054388377256439205,-0.015139208260219009,-0.047649065867547705,-0.048193437744606084,-0.037947809065204195,-0.0008749312639865586,-0.05674143541260794,0.05718087355221572,0.0427549016128999,0.022081518822786823,-0.005990011118258265,-0.043458260217015376,-0.07238889397716508,0.004046395915937733,0.006812182818607836,0.026061094550166364,0.09843609101394127,0.05422890542039168,0.05137703597362995,-0.011723613140311312,-0.037234301978339476,-0.032538409028376555,-0.01161935727277943,-0.025714780751965604,0.040137324676011325,0.05802697569600923,-0.01055013544178799,0.04710123513440446,0.14423883204341847,0.08169658324923484,-0.04727159029452643,-0.030392258035088153,0.03924636554519179,0.13491648712998947,0.14838380814286142,0.20278078200042166,0.14623869152735544,0.029824451158551597,-0.20910433035062603,-0.14912062664720638,-0.04133309633929039,0.04359227575856216,0.3115262285165831,0.29234288399225095,0.20813734025875832,0.01842203308367902,-0.06181365233345517,-0.07770085312041451,-0.05949057559703832,-0.0006534151559823207,0.2877813493350786,0.27966762075347124,0.17420001938496685,-0.026732621760043564,-0.05317366786043306,-0.12904670328087953,-0.07834896123406501,-0.04185626162795976,-0.14642258092763807,-0.12805438216397053,-0.06481541553222703,-0.04531982889396646,-0.06169408322954294,-0.05444956123263396,-0.08603490368713322,-0.06987895266496288,-0.2052572510037064,-0.1451931511352868,-0.06865786610269413,0.02683423825469702,-0.007142212814351034,-0.030672920748998498,-0.024445171896984863,-0.047595156587357995,-0.16631328984926688,-0.09404408216666588,-0.11272230324581282,-0.0008364298328525773,-0.01101224736550784,-0.014825683688320771,-0.0632781230095689,-0.07343991545003865,-0.03244259503347216,-0.043209063096048266,-0.014486148756101182,0.017520425987410042,0.011840313823082404,-0.014151879189031916,-0.004933566902646361,-0.0689453347443256,-0.03798450767667267,0.04610261784867057,-0.04169874118338004,0.02008043227464384,0.10059440478875573,-0.057304366508856466,-0.14247282662421662,-0.21676297019803922,-0.031788067830462036,0.11860712669785421,0.0630250371688051,-0.03987430337710129,-0.07889717890344769,-0.07868432258769037,-0.07430178519771385,-0.19425080169138148,0.09436596764900361,0.06128028582534412,0.07902390313190286,0.07194375038509486,0.0023125889958758336,-0.060379041020114474,-0.10027595581698796,-0.07818453097657156,0.19307806486550597,0.022908926951552194,0.028943368751023893,0.008194743603167446,-0.14656027585161757,-0.13063624368619697,-0.12680564852753687,-0.06587830663677986,0.017228685191143227,0.10225757998965099,0.13583663301051085,0.11119745327944307,-0.013841737469978955,0.04329876563948197,-0.008975322981130972,-0.021083925368168645,0.12987603284203367,0.13615631836436168,0.10594539509162373,0.01825921991424703,-0.04044044421955469,-0.008250502763870423,-0.05112300706153919,-0.06658582810622087,0.139079536061473,0.1343180207776367,0.16122184620626576,0.05076832814351036,0.06853789663910784,-0.004085171951414254,-0.04661464451951892,-0.11631264398296695,0.038231930392748914,0.11275685441006081,0.12694767447454552,0.13377436473991283,0.07717894723061246,0.02514261649081449,-0.02305718998741789,-0.020701723957788312,0.18132324316287063,0.12007558130536948,-0.1001989379673014,-0.1322988764713259,-0.225269404779882,-0.111793595203735,-0.09866485056525306,-0.06849944765169054,0.21678503279855232,0.29016089757639246,0.1627696318117219,-0.05516075049658294,-0.06635729043196373,-0.05445522845424579,0.018376799985167978,0.009012124004402175,0.29106071526023486,0.3344162448910679,0.09319960954258365,-0.1290080786971204,-0.004092986993909473,0.15128569456934834,0.1536746829185888,0.13096525681614832,0.32155887329395133,0.22093026763661905,0.18022479871650207,0.14909460332019903,0.230599253983159,0.27714517064100064,0.2467659810889926,0.22075662824197143,-0.011712198328679426,-0.011310355325156266,-0.05519915097938053,0.06711429663973599,0.19393219797526798,0.130306023861445,0.074435608102214,0.06405372331259576,-0.007529448440351314,-0.02341848826615883,-0.05090500982437233,0.020124776411873154,0.06918067784775002,-0.01634856145603154,-0.013935761212577525,-0.006465864965011372,-0.05285503868506392,-0.0564008018806133,-0.05094514957389054,-0.06018330372079449,-0.06856208433683462,-0.043529629715900436,-0.0630872900810619,-0.027733373962288733,-0.0932684622734559,-0.055547553011225645,-0.06780424616232571,-0.030434903462780438,-0.06734017933897911,-0.03254079335621843,-0.04970816442932288,0.04671369200932088,0.11294658299234979,0.18578782053711562,0.051024338014819294,0.0006210881838199118,-0.06579353086372143,-0.0251559308919923,0.02403316659272716,0.09154134913580274,0.07061424634200196,0.10286404845736186,0.1582271128136639,0.12061586325851777,0.04708648181942258,-0.04601836639961201,0.05053883444114213,0.12328076847078716,0.07070354621637423,-0.0184006199183265,-0.004728955854105118,-0.012534785185626621,0.00040128989729562494,0.14851745059536114,0.1397359563098409,0.08308108254161746,-0.025081397082152193,-0.02663843094270123,0.09992958069944156,0.09321439042862245,0.26957289527782796,0.3369536240089104,0.14018740671281377,0.06976470942908058,-0.05178530649027431,-0.020065207698854965,-0.006669863815203045,-0.04865392579499224,-0.06648918033872214,-0.15567809278275224,-0.1898375834009467,-0.11716890788459292,-0.00800036397334256,0.013572849759645664,0.0602385889349296,0.1033544184533764,-0.08656457046858224,-0.11142665448743401,-0.1244716303188108,-0.09135211014224842,-0.07775334661622019,-0.013882575367653551,0.09433619902924713,0.03439779757445545,-0.02434450780588467,-0.06740407816438342,-0.02707032285851111,-0.04215336801568904,-0.1391831684560814,-0.057457130393304384,0.0072972395976625155,0.006156032587993703,0.05693409639253429,0.06927692008041278,-0.00034597668691796306,-0.07842472525586522,0.00048226979254981057,-0.1003493310253995,-0.17775619669864343,-0.030435173477979808,-0.0411914659524973,-0.2117204279563564,-0.23344182761980178,-0.12176493331504737,0.043634223893964555,0.07458742705067782,-0.07093545919949576,-0.060451974029659995,-0.017997125185330226,-0.10144282224518465,-0.09026598242834871,-0.08376045657358273,0.034453838364109736,0.04028837217883871,0.06626326592588007,0.045650205603738336,-0.043886281205142326,-0.032747414292576715,-0.10164522621758831,-0.07896971510706384,0.12768877128552725,0.15096102526047323,0.014857936182867884,0.07875445859075883,0.01932036402405797,-0.05180870138467866,-0.12511840086300002,-0.05005435262758663,-0.0790026626809619,0.01620959552067458,0.08404393551913318,0.03851232029618251,0.0408182480469054,0.03348271992487271,-0.04047822456832435,-0.0959418612856576,-0.10661897158348095,-0.0018109794025795865,0.1095801237525558,0.06641035172157127,-0.026553417983926214,0.09977580398727388,0.015015712951270082,0.01429089908347384,-0.06359747051114416,-0.04149622299701764,0.02395359108169418,0.06666057084660738,-0.0137693323230633,-0.0020877865299293702,-0.004037923036136338,0.07598087643166845,0.00962085105596635,-0.01031429248551794,0.04497474806145235,0.017775677386095545,-0.0007200175965437632,0.02169861238775896,-0.005906473296174708,-0.0028869993815550986,-0.1891047869366605,-0.2945847344010761,-0.34060727130257723,-0.0867912275891487,-0.06991932449740737,-0.09733907430147204,-0.10808003383870368,-0.02620685770465072,-0.08452440493215481,-0.1214752219063349,-0.1530241980636874,-0.06602616004699374,-0.15107639185873165,-0.06125403655972578,0.02367600176084061,0.06332356174198303,-0.06670068527597717,0.06489424667449198,-0.017569761204861624,-0.006388991607058993,-0.047330039969405116,0.06273010342967168,0.03194787207808693,0.07584369960568042,0.08043306683222964,0.05535700300112412,-0.027871055926480804,-0.18380543260535553,-0.10515961599926738,-0.020113752328382695,-0.024562190087239963,0.006240164398439217,-0.18631939569776912,-0.1754960413267723,-0.1645932350751874,-0.1548138323746193,-0.19558396473888007,-0.24983731080644253,-0.23446547529551506,-0.26764027492589737,-0.17082601584311619,-0.1486777808436001,-0.10439598190419554,-0.12748639079390725,-0.15696183838493977,-0.190004954999337,-0.2430077971789608,-0.2449080748934064,0.018159716852565046,-0.12258499398074307,-0.05737514137732743,-0.07384989073125771,-0.15764744641402384,-0.1113848138401419,-0.23334441784273915,-0.18879395261428836,-0.03850145926638849,-0.0574692219815204,-0.008981287168545623,-0.0850707712488858,-0.0687791272035842,-0.08765103442410019,-0.22476979460204763,-0.2299383740004479,-0.18395315464902637,-0.21125420222422245,-0.3015461297520081,-0.3059239117599893,-0.19316985540831344,-0.22664814923477394,-0.28572788258647336,-0.23837509130604273,-0.14214254404169294,-0.1521494593987126,-0.10864785539490822,-0.07100910713140333,-0.012075042330042298,-0.07225221361763687,-0.2483515969093448,-0.2950309894247066,-0.11132905650129678,-0.18104768971895777,-0.25747813303561945,-0.2627073051174661,0.006925011823280768,-0.0022827278421523258,-0.2646587932495211,-0.2210598331728255,-0.059764259645498544,-0.15690500345655053,-0.2775666045242676,-0.24008636678154446,-0.08293516025469652,-0.10772611397161419,-0.14340695431220662,-0.09299845938289578,-0.07471683015599333,-0.10702058642574697,-0.11358744226290265,-0.08547895023412955,-0.08868087945170923,-0.06469899184600823,-0.0667233885885233,-0.09285130475266286,-0.040749392219592576,-0.01933036828098104,-0.05447032555498965,-0.045309735378552374,-0.08236286362943233,-0.10325462401987232,-0.0975044002634019,-0.1130784835759964,0.009261882925664912,0.02449934495710239,-0.03016700084551358,0.026633023921467484,-0.044619941402063996,-0.038324671577555355,-0.08626075446893958,-0.08951201053813719,0.07110822197427229,0.0451837212647335,0.008976609301375107,-0.018367808727745478,-0.0706112013167808,-0.017893867563040455,-0.06220150916114328,-0.12054789801703346,0.16453034954453297,0.10716115692120554,0.08809801270071473,0.08556879962585613,0.04987196707356088,0.031276263658650556,-0.0021855823817227985,-0.06102856455249416,0.12457561723570336,0.11409091577155243,0.10855879122087074,0.10363917453601074,0.131102916688819,0.07120616042005297,0.038203893087859035,0.004509466370882522,0.04922128285206221,0.0632434653226234,0.08794237272245248,0.03300344575343191,-0.012897045896277808,-0.10531072177914359,-0.13119566615530726,-0.08511182597070917,0.044445918551165906,-0.002564896722144095,-0.09070916145497092,-0.11501315429467887,-0.10175721267760247,-0.05809030268534356,-0.0150688352364272,-0.015025891881475892,0.11755563390617371,0.05908833623568969,-0.00815617444726042,-0.08949392550739055,-0.1274615715806827,-0.08012792023626032,-0.09066318098654848,-0.07775847067664239,0.07299223895937215,0.07784830903005478,-0.06523821694318059,0.044712275119758775,-0.1388376598664047,-0.12560819036683635,-0.036847134612621325,-0.0527159281338349,0.07717598775599853,0.008546372900758418,-0.008740238760690298,0.009514331328055275,-0.04357781448032562,-0.06543995668105781,-0.0036493513602820255,0.030763377648280663,-0.018580383359637184,0.004410459213151906,-0.034510192307873694,-0.04662645383109783,-0.0655904987358788,0.07230345869292182,0.0398021248251552,0.08646038605108657,-0.16572939781476884,-0.26600210601839036,-0.3224278288923078,-0.3833314430065563,-0.2130596090728674,-0.14178313611141155,-0.18007091497405764,-0.05984078369343175,-0.0935891886569044,-0.23378954813187594,-0.3003923655524882,-0.15541274441414812,-0.04305609880627185,0.002540100955892993,-0.12315155501985572,-0.06510700803505413,0.03688347441067598,0.003221904308225847,-0.17257561644137537,-0.07160771336479395,0.05768020504288699,0.04718114928176288,-0.06603074081661352,-0.031222060314971014,0.020061052685360257,0.04225531694435175,-0.07853230931159179,-0.14842052459339658,0.04435632689060251,0.06668162735880523,0.023686014361410924,-0.025661329494144212,-0.1886239043399993,-0.11536144408071151,-0.1133773764593242,0.029112559977972362,0.07235269663811329,0.004213113657413653,-0.045154739355901564,-0.060843444019965116,-0.05609113505434497,-0.012620705438919397,0.09263321241029335,0.208866846197226,0.12215591110525731,0.053114161375078704,-0.07169974542485785,-0.08026815873295245,0.1668127450051938,0.05100092020008315,0.08621008045926337,0.17227235627247683,0.05758395034412034,0.021165086310139476,-0.01326640534716328,-0.03370634817772701,0.10181223142786654,0.10036579713081023,0.14624217016337845,0.1078652827872822,0.04477796220398001,0.11952446570508235,-0.07613094658204314,-0.019933028129083288,-0.2812941696359401,-0.3635071521072709,-0.32875100853626443,-0.08694808746495447,-0.016989536142232697,0.06748801137450665,0.05242497614716228,-0.0720347839472494,-0.2943371262919399,-0.24127955129140066,-0.06508626315525723,-0.040249407369468755,0.008491760699389188,0.016499516066699967,0.038883464961670625,0.04172584473573079,-0.17497890468138236,-0.19477638760349253,-0.01238056712310742,0.03920793249178549,0.16339747091403883,0.06988880622760844,-0.007166590371046883,0.026239393817248716,-0.28666985710955406,-0.17435121893640118,-0.10981897006971966,-0.07409659377060344,0.0662910080867526,-0.05160226412176221,-0.05902044738538705,-0.01313495821748878,-0.11060924159014315,-0.10364627766475007,-0.06254353898164305,0.329824557667482,0.06956198943312653,-0.034538739488202304,-0.03088428366714327,-0.0707549743426155,-0.0755898621130946,-0.13800271515689913,0.11085218083185151,0.004077749881592765,0.19498990528664897,0.06722768435235973,-0.08403975706451065,-0.05711653413291177,-0.1102768102603259,-0.12539447905277662,-0.07202464812024151,-0.005834736397592166,-0.14366780907207521,0.00812020407211785,-0.12682476505896217,0.07027336188840336,-0.19115554840688598,-0.1487132323240614,0.03858339139361171,-0.13144490151005442,-0.15587732953037045,0.05138180820331937,-0.09401742313332259,0.025117290638520758,-0.23112128350188776,-0.1376306567293846,-0.10568792026327527,-0.04134293118105239,0.08628665739222362,0.12771114583471355,0.20925211760921913,0.1545231330565058,-0.14182784266310264,-0.13040216928520698,0.045850060451225194,0.01906339911179509,0.2294430367274955,0.263064103868189,0.21440299883346123,0.1386069367972178,-0.10804516615050931,-0.03568252754034608,-0.08998042358708634,0.1525158781149825,0.29021073701912464,0.3002449923305722,0.24872210771686917,0.128716322958659,0.07794726086621105,0.05822026699700539,-0.04037849549055252,0.049896659787071446,0.30158979203784525,0.2641014210240612,0.13324532525886176,0.10912526545414088,-0.1084835005377128,-0.12230026305739337,-0.11361506352130181,-0.028004997877813975,0.05873787374125622,0.0285741376631443,-0.0672327454439702,-0.12121292698752835,-0.12684583696857454,-0.16186202844063108,-0.009026586673659137,-0.06635873811350988,-0.00497329511565249,0.03354599880721393,-0.02618545572326474,-0.05973519157024096,-0.1204069506805245,-0.15962892931300887,-0.09976381723770725,-0.1468479892965092,-0.16784853065343092,-0.14025764351451145,-0.0980653132518971,-0.06611720111795158,-0.20728202488491462,-0.17077362793126646,-0.17142505054964502,-0.2229320153459657,-0.24729435284213364,-0.2086164411870544,-0.20063204981479743,-0.13601823321096743,0.10547553802553983,-0.06007656700303588,-0.11629866363003516,0.048252607439090364,0.1942008492370696,0.07310084158128798,0.01286054538437446,0.04922053047829944,0.07701961996248706,-0.06684370755237894,-0.13903480479235245,-0.0683172994231399,0.13718924085265796,0.22273049401564426,0.10789705846087365,0.010914251563831176,0.14776719029044755,0.14150834768495635,0.1147050366741218,0.25147297102623384,0.17116029822863765,0.1637532271491477,0.15114992666188642,0.09005090300616311,0.11266299923504673,0.22422187196569143,0.15092886947773843,0.14061228611185975,0.17605061012992793,0.11632997818705076,0.12810383079634868,0.09423681849824256,0.008804418692862238,-0.07684452672142876,-0.0499973908386695,-0.010173439548262782,-0.0005249452525276237,0.008254479379928053,-0.08935567381068668,-0.22145322472825413,0.012202338228273312,-0.10086659252153346,-0.060760338229110165,-0.09645508924307827,-0.05573098230526508,-0.04412880076394667,-0.12255265104741137,-0.12062193915009618,0.005218124575286109,-0.12316164812731825,-0.002080825454713731,-0.19368731882513718,-0.21795883573167182,-0.16567179831271112,-0.18335951597177216,-0.18759395348620012,-0.11346682739269896,-0.15582800689800494,-0.16313912419095755,-0.1994360651383813,-0.19820016343126962,-0.048267406815036815,-0.19118226702545602,-0.17281842686431445,0.05436824391942315,-0.08381501656272083,-0.14261300607546426,-0.08911132808827987,-0.1547995662960176,0.031460731738817214,0.030536068390248527,0.10807355495635834,-0.1223346354515965,-0.0874990741097138,-0.031459020469680826,0.04946251884712545,-0.07059661205939877,0.08575951650053318,0.07998037325670665,0.09870575457707084,-0.03969802784938201,-0.02241833951644232,0.001123531560894774,-0.12195189029524568,0.10781641592704488,0.07688721962606199,0.09557155853183874,0.18592866158781224,-0.037342155658662855,0.042297040148112725,-0.07736839426773882,-0.20853210632155433,-0.13491242671642958,0.016026434791698886,0.13163266329952716,0.2132159188968253,-0.0903463276621451,-0.05348887369228674,-0.08548828655231669,-0.12210646322549307,-0.06673376096023857,-0.045248020894529166,0.015190868635399056,-0.009204812487395433,-0.0708657293205346,-0.1054503865276138,-0.13573484643004022,-0.07242059549138513,-0.04831811766286348,-0.087760380352187,-0.05086158711720184,-0.039124083551706226,0.026083040521402975,-0.029986916997563322,-0.08533176030946107,-0.06255793127305016,-0.05903161159577903,-0.043367877345417014,-0.014299884942669887,-0.004476808570931806,-0.00010454103406864286,0.0037424655453044725,-0.07620632078976783,-0.049496602530912905,0.014454673199686416,0.06566098999328232,-0.0057142199734629045,-0.04580199890454439,0.00792087711219141,-0.035622818961980295,-0.06955846470752151,-0.11372422401036746,-0.051827172963446855,-0.12796175239323246,-0.13289986001083912,-0.05541914857748646,0.035679530458584345,-0.0535852865445855,-0.1437927677488682,-0.024661582706568284,0.013595055870067438,-0.0035476779701581647,-0.1169682990028688,-0.14156820518023144,-0.06638863750092294,-0.07112588513759838,-0.11621492995055813,0.021419836404384242,0.018730894089272348,-0.03561858191852137,-0.10107751233859257,-0.1469573569012442,0.01360135588333619,-0.06348326845086526,0.10000788908250424,0.1214332093848134,-0.012929396214443315,-0.1002205754606998,-0.12368026930925237,-0.1974294161485856,0.06304838693285843,0.06264783358967697,0.04202689392641971,0.13131679545620456,0.15773208110130515,0.08965099989196011,0.06404735271581935,0.024805538246699003,0.061458347101722356,0.0047849451627934095,0.032459768425688956,0.10672412045946988,0.09483962886886242,0.06431187831381396,0.09052518860330155,0.1478244088868637,-0.10205922348549795,-0.07366503628197692,-0.013504285228133055,0.14709126927384117,0.14209098222273303,0.2621589843039821,0.12138351456735014,0.24025458537322425,-0.11124674247538555,-0.08614393428406139,0.004743885407561147,0.10108744323234639,0.23200872695556127,0.30135711466821313,0.19296292010252447,0.1596645971265747,-0.13667198215807427,-0.232547274909837,-0.22735723486139994,-0.07613780872248407,0.0855566958448097,0.08255435704757609,0.05665764851160371,0.11081449262638511,-0.21599531551733644,-0.3827723954422413,-0.4494503429886425,-0.06564876271672508,0.07503938568110914,-0.06948663543693606,-0.016667093435148602,0.16027298332115675,-0.3014950506689472,-0.29681265847591215,-0.2581279415660144,-0.10145367481620646,0.009894040116394864,0.11084039708658695,0.12558781991353157,0.1801710636326254,-0.12927441783277693,-0.17966663769389035,-0.052559998896624445,-0.2621450827628352,0.01688178394181544,-0.0027892012135575326,0.04257387194103301,0.030799445411611066,0.07911602614438752,0.07962469276649933,-0.009604141005532802,-0.0017642259718457477,-0.009319517686979556,0.017860829945836258,-0.033563769772044665,-0.15019741215721163,-0.05886689630174669,0.08733786428969241,0.07124641516834615,0.04912896330647044,0.05131215295925394,0.025113046377701415,-0.054200595757756195,-0.13183269846609696,-0.052371699269056035,0.025059634255572647,0.11033455808795019,0.0067648248490435135,-0.032205770257153446,-0.0626207577668579,-0.08244068002551976,-0.0030914939384076236,-0.01850246600462537,-0.022917769195610074,-0.006050040662225266,0.00450447482039057,-0.03465817247721593,0.026059829361596985,-0.08538414307910637,-0.1011487421694374,-0.2349697832398786,-0.31690909373481074,-0.3617211553065544,-0.17938283280916983,0.20745347389110083,0.24775461309991825,0.24303019311871255,0.18054760731660133,-0.2813658199548666,-0.2556672592717885,-0.2370819836119062,-0.14833726984166085,0.03786913086524334,0.16864312596781916,0.26762244078539865,0.08907459192902921,-0.1682418267201361,-0.1734013614514794,-0.2277195392206456,-0.15711377156988957,-0.02653567478002836,0.14584155785263905,0.17179466273501767,0.01697132849802686,-0.12330708704575954,-0.07168034021330354,-0.14864526012026177,0.01689480475798057,0.1937776531190541,0.18267139402164415,0.08338471174366188,-0.10228783897161872,0.09351222049340345,-0.04193569873120604,-0.08523292476818635,-0.02688420099991021,-0.01424225676423729,-0.019917293421318625,-0.030053240580102655,-0.056539942870815284,-0.019632212886225665,-0.15273015332788234,-0.061384154305784464,-0.04694142633535303,-0.023939239696782223,-0.00530532233438191,0.005514766613886693,-0.01960312582785397,0.036957506316568925,-0.10561365828347673,-0.0871112812480769,-0.07113336697533564,-0.07390094652363263,-0.059031306125073055,-0.05927698354515483,-0.05246244996578703,-0.023319161821029315,-0.11341232187601771,-0.1195171870463244,-0.12436783520196232,-0.11281532077850984,-0.07462900602475617,-0.11893549909770733,-0.11849712522102152,0.01997196933666399,-0.011462420111985696,-0.032453052746165535,0.010053204082411218,-0.04207852279152946,-0.007047546457459581,-0.007020959582184346,-0.1288494372338906,-0.12365767941589015,-0.14725213567719467,-0.1419805838961826,-0.30329938826373903,-0.27447059440952964,-0.14266981626523068,-0.06646571434849302,-0.11274806724455841,-0.12281301729065623,-0.23197529147437232,-0.12168281299015415,-0.24608091902336696,-0.17776292509057515,-0.13464997970252937,-0.1331926425408717,-0.09928999728050238,-0.22411352845472352,-0.13918694367287093,-0.11295559708585744,0.04031871246396465,-0.09791484378603087,-0.15506126933429343,-0.07245924438871457,-0.010337603965719488,0.044717325542082964,0.06843897753567212,0.07458674356773957,0.08292493534198948,0.15095945493752705,0.14143491999139965,0.10006884089901341,0.014688283627790616,-0.04011712375218097,0.06519389965504467,0.06606328684111716,0.14905148189427572,0.18259709120618148,0.11795526983093241,0.07570761618436535,0.02310250226124784,0.01787832151570954,0.0794991355037119,0.05057306341404952,0.12611440372201163,0.13445087221262475,0.05014437990937379,0.0010651428707360647,0.005225949698417356,-0.050068938302588156,-0.007405523845255474,0.027053645783720416,0.12885775352591855,0.08449020493941325,-0.010452522083785915,-0.10168162617660152,-0.059522777433873165,-0.11164614677919554,-0.057198365701735164,0.05629919061460907,-0.024620804822450902,-0.13323752178307036,-0.0328043448089555,-0.06252407653660937,-0.05727478942197745,-0.027307998087454193,0.08726273524129985,0.025192015451915923,-0.05810460081283822,0.004435014059276575,0.021910375480400132,-0.006080673109563665,0.026248786943913895,-0.04411102679827672,0.014154845670701917,-0.14085329550830922,-0.1558328798902724,0.025526912567009778,0.047243575742104436,0.12917472016799905,0.1844312229529831,-0.053766778642309665,-0.27212260010531,-0.2840444754892599,-0.05139222208503216,0.08234525461664338,0.027997310193862254,0.11827892634618653,0.12446722311292262,-0.264701323325569,-0.2971875238997625,-0.2903882860980328,-0.24249466148096185,-0.14473340716251334,-0.2196171775960358,-0.250873636723528,-0.19741445704771854,-0.17959570315403361,-0.19606388768169328,-0.26263922170839316,-0.20277274728929903,-0.30688933962149845,-0.2994440526037187,-0.23793340182817915,-0.18107903511370704,-0.13225934286949415,-0.15063216715606834,-0.1718944799634662,-0.23455156106001884,-0.21714964419415214,-0.30818028934413694,-0.24686353709017284,-0.1267412300854686,-0.18598970534132592,-0.09954640804565225,-0.10889618984818819,-0.16607252168162054,-0.16072740907841782,-0.13321243635548052,-0.1659928718500365,-0.16654866055260967,0.09848999667712378,0.16778464061364828,0.058531522495284975,0.009189780924831447,0.03186695140448583,0.04293838009673748,-0.0272470650232572,-0.08281360558530233,-0.0014535864751923774,-0.10365958171515592,-0.09680589655881969,-0.03548559050028518,0.02888277372670426,0.04241758322890281,0.00019288000254295446,-0.055337665696923506,0.13872924789763533,0.009672917371305599,0.028875494613366963,0.21067065144672661,0.2625541573811776,0.11261182867192625,-0.0214175005317013,-0.04573005337322588,0.23478678707603312,0.14479728153242719,0.18011788774303766,0.2801883226942376,0.3475500561644603,0.1686658531266222,-0.013693941051283588,-0.006104250395547083,-0.037954048179747873,-0.08250821558055925,-0.10047501841550553,-0.05991921403734473,-0.05042188009207554,-0.13618483514079985,-0.16219011615133758,-0.13068915095348338,-0.08547467699932719,-0.08245317452536845,-0.12866214972765336,-0.025570011335356434,-0.04938669168433433,-0.06983366887343744,-0.14583653592506077,-0.15409457410890545,0.008557051095017011,-0.04406118038479732,-0.08913634234136075,0.03040536251422381,-0.03802951658732073,-0.03807685937894671,-0.09279391660601548,-0.08529618141030008,-0.0329698270571397,-0.06798420504446842,-0.06100469791287662,-0.04189869574033149,-0.0357006398492871,-0.007009722315440896,-0.09827614505648512,-0.029619139044583465,-0.19689749273676438,-0.14149432170543683,-0.13884798188962288,-0.15997667377490307,-0.10078501995289847,-0.031020470405427446,-0.05421165135030838,-0.15114411650794224,-0.08377181553889634,-0.03430979990450232,0.07687849979826122,0.013127403893028933,0.05084852238135538,0.10000396564635708,0.1593887816571444,0.09197846187836134,0.12011750633902654,0.16235929171429464,0.1779761246096879,0.07960197400171756,0.11529233196103854,0.2029715180097431,0.27631863278696667,0.15399065262095646,0.17068616349308258,0.10988833243702179,0.23809243791459136,0.17270927086369206,0.08078384262310402,0.27962049765107433,0.24913275932791273,0.05930113159894677,0.24994613458062734,0.059934070621858855,0.05864957695728779,0.14277882048440554,0.11708345602252349,0.16121662284435928,0.19518302526784226,0.2934128004422266,0.21787380293594477,0.14789839255108633,0.13761028857203036,0.1388085249737481,0.10206799500131958,0.07910863064636423,0.10630231116864552,0.1656065205103462,0.23935804069676628,0.2264492442727418,0.25863868997171785,0.27318447896446835,0.15877412338414798,0.10615042964869874,0.15038821780293185,0.13289609115164513,0.25495015419100303,0.22296210719663634,0.2701300868807391,0.2512601709587616,0.27328826825737007,0.3005925830571908,0.24968379060233065,0.2199675690027741,-0.12820238690048671,-0.006001556392218436,0.07830440048121176,0.2578327364172355,0.3177226927670269,0.2299424374981842,0.19134458737368826,0.20928768642398768,-0.03688422282434259,0.010076916375361488,0.10798712965088132,0.3964708945098662,0.3542575849833392,0.22446619822265246,0.15613090517272157,0.1730017423790699,0.11922536781994623,-0.06911989297148897,-0.06656294333510065,-0.06664899962953698,0.04605971470460962,0.1271552611063867,0.20393858304674067,0.15984745401140815,-0.09706091542329102,-0.18740299802779325,-0.14187366095557286,0.05270914922413594,0.09749101161485718,0.0461045182444336,0.091786203983025,0.1005502153469457,-0.04951631518297458,0.004632044191757961,-0.09435900388683852,-0.09145993104611837,-0.15695217980133105,-0.08100653126464594,-0.17465226669216968,-0.19538969206150042,0.06381811532837837,-0.06259599853227718,-0.0004912855511053974,-0.07643976310151383,-0.054912958639467185,-0.04250212038660048,-0.15062948060934386,-0.1035987318620557,-0.10855509888923323,-0.08420548779737322,-0.014541242461808363,-0.029094992420661575,0.040933799656986146,0.012294634387158667,-0.019122243965900274,-0.05149888161254605,-0.14138179261002898,-0.05511005812576702,0.0554511199706822,0.04275974577686265,0.1550795323831821,0.11123167998274197,0.0542229717121001,-0.01805523571399377,-0.027938054009219115,-0.14557219856254736,-0.03193457217155871,0.038429093750944825,0.07559132629509122,-0.03898751793319266,-0.020942281994902293,0.019063907043864146,-0.13899407226936367,-0.11671404720100854,-0.024285059404238134,0.15888554650881861,0.09481400346730838,0.20497920823122992,0.09088566133753731,0.08030043923462848,0.10285300022291431,-0.17574183778028063,-0.03430775011783344,-0.07791546452328281,0.0958396483701471,0.11393740635702829,0.12076296698112343,0.052379318542867856,-0.08017112502255913,-0.006260741480766793,-0.0007396948099259717,0.1634527746297381,-0.02326110146811132,0.051910944338307966,0.07818155846521772,0.04764463460112456,0.069025591647955,0.05231581481957556,-0.06012631684986434,-0.06005408396969131,0.06227548619600803,0.021514732079618664,-0.0437592541109507,0.03616270634699873,0.04999239325401169,0.04807351970214566,-0.08522018045827062,-0.012062508788748082,-0.04126556842515463,0.07393989785882295,-0.01914139903502551,-0.03187805203993675,0.08962253983952687,-0.006213970185619748,0.0026450597955721632,-0.009319072785475049,-0.032787590775967296,0.021583375050020774,0.00895634583653273,0.009908491715970068,0.0713381492383949,0.016759303275188944,-0.06327956652303178,-0.06372382743827745,-0.06313084615224629,0.020933346630677693,-0.006249245031403018,0.01998766226626216,-0.015961057755020214,0.014082717997328334,0.18246823159893344,0.20247194248298594,0.4826021108160143,0.2868277545289132,0.23866015918595085,0.286444827533756,-0.053010144290061345,0.03508733109144186,0.2559775455193983,0.3650545709511621,0.28710887222059683,0.30729107501536695,0.268355641666265,0.29419947598926005,0.04773585630540069,-0.06504548124825524,0.12803104855248007,0.203955241388211,0.2541942767226416,0.1938868536146804,0.12416555864878098,0.18086300165800281,-0.08964176975872194,0.16321874726154792,0.1583697970373193,0.4270855779019607,0.38621662762456055,0.3075018724883072,0.19358413084860968,0.17431002286939012,0.07998355557286477,0.06477245823110767,-0.06001204977628996,0.21438683550401819,0.19649674071961934,0.09905322211674916,0.13593795153455415,-0.004115327519439012,-0.024360221297653046,-0.10671284559280685,0.06384750719332036,0.06866818909226599,0.12113161609803398,0.08857519533070118,0.0762925440443662,0.17412725704964305,0.0936398080137089,-0.10454317264756487,-0.15038884118925896,-0.0065015488702907815,-0.1490643132074642,0.09017174332452887,0.0014208338753692723,0.3145384422198025,0.19720143996978212,-0.1995018787187632,-0.09867296978454002,-0.1831222346162541,-0.20286062033004854,-0.06039833148096986,-0.11472383437156362,0.0923936989347541,-0.0583055111640368,-0.051705231865691294,0.002671587699830677,-0.04855575948091066,-0.02932231058443218,-0.08971812922478711,-0.08365224089953878,0.022723691856175128,0.016519135962446415,0.12402503605594908,0.23195912071148064,0.03515670706904614,-0.05581600436245868,0.07609501032318534,0.022183626527077033,-0.03747287058155659,0.30554116170019735,0.21502209420121607,0.35785065179846326,0.472262411961188,0.2152611701401874,0.13793165570271185,0.08031605231712925,0.03415598904972372,0.11150647514258454,0.23434757501004985,0.30112876728296856,0.3209172300178048,0.15457362769713243,0.22766505488584934,0.15172699787067528,0.1168331262038578,0.1784050067902943,0.1670308624196719,0.2219476427508776,0.14161630311498233,0.0842839008243503,0.03836372622432686,-0.12260008064399337,-0.20865700130412465,0.24315431377144667,0.1810424773471591,0.05095913331353668,0.19099259295216872,0.08438523068151291,-0.050241921603762056,-0.06660480600022585,-0.12343799179205565,0.22093251506482411,0.11299027872997568,0.07927127804517281,-0.0773804022196341,-0.11790248582949696,-0.17152889268714977,-0.1355707833474557,0.000374764770830061,-0.07182176354778626,-0.0005202795525018604,-0.1325757008523653,-0.16473846281439114,-0.18401125412966943,-0.16582219347536942,-0.11957125966287627,-0.10512771011112822,0.07923247759231551,0.0019445542712615337,0.16301935991963248,-0.02407692854732917,0.10202310901955235,0.038366722944023525,0.011987979049674054,-0.03519615523011696,-0.10093709169454769,-0.12985194906028766,-0.10053634939288403,-0.020437015048398167,-0.043079179791290535,0.11198982557198149,0.049239736420155736,0.01540770824774012,0.06162194145617714,-0.1885571976238407,-0.09154777720307238,0.07648273548313374,0.15427480609019883,-0.104299669400396,-0.07568923996608029,0.024916430332575956,0.0051621643300039394,-0.1129325541458923,-0.1079328811154143,-0.20065563141522175,-0.22034867098143687,-0.10970076137596062,0.033648852149663705,0.09556500531731997
-0.020698765985027713,-0.04136765342114981,-0.03762856303547851,-0.07745135811482617,-0.13679177127769937,-0.13819557927031975,-0.0914438151669974,-0.11718442329625937,-0.04794584761065695,-0.037031495412687736,-0.010511903875313651,-0.05631441806780605,-0.07983340762042077,-0.11145339843964935,-0.1021412608559411,-0.08793056867139049,-0.047247110951625676,-0.04056353253701408,0.0065952820730076165,-0.04352270449912127,-0.10282441489188539,-0.11453692774808003,-0.09991994495210527,-0.10879598665699589,-0.03261660710065115,-0.07130111783591153,-0.0806606142006416,-0.09707259236996295,-0.10556177598349469,-0.170856261837842,-0.12586170291943918,-0.06738436649962772,-0.05212842185057985,-0.07123875310364429,-0.019965713879965232,0.05000079701288745,-0.09361529084380976,-0.120129984895257,-0.08354884854447168,-0.0564928045799392,-0.07454528015159191,0.024856527706214188,0.05051547411242683,0.05384236573291451,0.036849222668705155,-0.027840935965456247,-0.07840272341803536,-0.10911606998938231,-0.09172052902174818,-0.16330393338006616,-0.18166724474352805,-0.10884265992043785,0.04202775450827053,-0.05381542391569793,-0.13502948640332482,-0.12768507819910113,-0.11689735307404403,-0.20599434026834038,-0.2438244551326204,-0.14520608997947457,-0.1231541308298085,-0.13690122787737885,-0.10710871769201939,-0.1579476584699648,0.029897502146151375,-0.0208221960912913,-0.01508574438723679,-0.008360651641478777,-0.06236335575788081,-0.05614545363936049,-0.06371786751724665,-0.017629854052806183,0.06825441495593786,0.006442301159147599,-0.02571497230860428,0.06059669917170735,-0.020924349065357756,0.010226894635322198,0.043365394539887324,-0.012502032220181118,0.05922980902716386,0.008241354933875652,0.047766514892170514,0.0672391155927647,0.042498905488024194,0.03368863582493313,0.009395231440284263,-0.08682118138290235,0.010196760416515472,0.01754221900258291,0.041692387355927694,0.03033708265438037,0.05513316715851219,0.02144176949077746,-0.032812373859937544,-0.027243096031826106,-0.11343761025937099,-0.1084245623425571,-0.049703832357372954,0.08688663220882337,0.09799462354500534,0.11333289135659164,0.12994971325363971,0.024590612443220212,-0.1030151618644615,-0.08126080855295806,-0.02376891851063331,0.08399523870091151,0.019020098993257368,-0.008489316475191203,0.056175318729529335,-0.02843619213468268,-0.1647825625434295,-0.17026517489121415,-0.19189706732084974,-0.07271927554853751,-0.05719829673666669,-0.046481471913286616,-0.03990311919167098,-0.07209846406435673,-0.10257054487945971,-0.09293481943659537,-0.059608235724686064,0.11210591860661474,-0.04599306881051693,-0.012555161430966452,0.03583116838304128,0.006894445102899097,-0.028689880957545426,8.448394762866193e-05,5.254277537390141e-05,-0.007078984696166832,-0.03666343058271421,-0.006208944106000124,-0.010621618138966104,0.005146200806976729,-0.0757210980971423,-0.020759484987125404,-0.02331802752166993,0.022662707235073333,0.04251650519593301,0.061551033891678146,0.05962658191662777,0.029230707332308287,-0.06254792356409293,-0.03061591660078348,0.009987066841359131,0.03506571789895574,0.07805725825567451,0.0866363031493351,0.05019990616022565,0.02806490667052271,-0.025569374662690644,0.003096330479829156,-0.011826209016003895,0.042655283114744355,0.04610158340133278,-0.02745379504425892,0.027133140024758272,-0.02090245814490501,0.18387060889188228,0.2678972705764708,0.34937509523164334,0.4472306990837448,0.3609075331534894,0.2892020593477076,0.18170090560359764,0.13447413774674605,0.15341091850613586,0.2547536850030736,0.2991295339602579,0.2907408056022219,0.3736078507834634,0.21709239986142218,0.08992670730534483,0.050688357108677314,0.07196838315697646,0.25136999071997773,0.29811779148959594,0.32169464848729723,0.14798802496503155,0.15495094164150133,0.07381877838429629,-0.01203863145227721,0.03294263209278213,0.09967413367311942,0.1562085087717129,0.12288423942991261,-0.05325835257134855,0.025461155848013197,0.07451991859088697,0.0717683710488547,-0.006701374859247828,0.06236534854064355,0.07716174584480878,-0.010743999680817096,-0.034998989256761856,-0.0990508612310647,-0.09366633392536122,-0.0699904832072004,0.026037066107473642,0.08068088328200386,0.04465531943737499,0.040785383690605415,-0.01090481487863637,-0.03926882925097733,-0.05214444867332161,-0.05058473319257524,0.04653174549319354,0.08010283855725406,0.01953131710682209,0.013136827195507924,-0.05626675249980153,-0.053599007184830266,-0.0470935486145375,-0.04860715856492965,0.06133359012392689,0.0673869989528626,0.033886163312621356,-0.020755219720060385,-0.05593843218435253,-0.04781557228690332,-0.03268808636241157,-0.060555959804420335,-0.07403983598461958,-0.14625008329311073,-0.0962685511522836,0.08724556224780435,0.19488102455271678,0.2042073505183007,0.13026603377118406,0.06212322869530619,-0.07978727031108998,-0.040666488762988555,-0.024887716763625955,0.034580459038456454,0.017562312368769383,0.09243656282623265,0.11154693129425632,0.013332584305191743,-0.03373899738558966,0.050404587276585214,0.1703331151484453,0.16769950601593556,0.015732272939917028,0.013759840238854603,-0.005942234014692599,-0.03969314036298792,-0.036073388059660254,0.12733509057332912,0.17015374116439438,0.2353546888427484,0.13648177018964008,0.0023000531104304146,0.004246497263704322,-0.07323927682947398,0.04583741228468166,0.05495046563051844,0.036574698060431766,0.018708293428528897,0.05749049500862126,-0.018492570094200564,-0.07000580041659848,-0.11086896638550499,0.043831084591226484,0.0014166970028453491,-0.01245919563997188,0.03994009329993738,0.04564961623375187,0.01969601607443839,0.001032335776358544,-0.02388127700796944,0.02744618056913239,0.035522441101453035,-0.046152543112641095,-0.03321546540981728,-0.10133728380320321,-0.034878466473758994,-0.025806041122235678,0.01372147313418103,0.07147436802043262,0.04874560691720425,-0.016358431862708817,-0.12369756866933031,-0.17475970577671696,-0.1072392675911965,-0.08021368884543682,-0.058524627945633755,0.16137492171817852,0.1040942951726794,0.08367509654691409,0.10273713820362458,0.04842462776925905,0.11935622117748053,0.17745164998030927,0.04395201758772022,0.1039702120131721,0.050163101600561685,-0.14290318271919072,0.02126585728124394,0.012523076293438577,0.08391099624951734,0.137677813271488,0.0949115878944332,0.044762590912831565,-0.04245446322937206,-0.11969559057464721,-0.01602935631806914,0.02171835562245768,0.06725487930753365,0.0969662321801455,0.09217118844672328,-0.04538165409947735,-0.026720707148670995,-0.0751141122403048,0.03191190224001262,-0.08721926950976641,0.020067560663922766,-0.017577464738308294,-0.006901129831891292,0.019263266595696844,0.024599572980365258,-0.008145066945775334,-0.09905116639489885,-0.0392090219342645,-0.050316849863241656,0.007765061531256301,0.0037367851584993138,-0.001984893804342755,-0.0007764343049292041,0.020168248779015838,0.01744063394107019,-0.02426657333792681,0.0027732901669560274,0.04033908541305658,0.017167434187633404,0.07597385715172393,0.017284350003063092,0.07033143525168736,-0.0135078637599232,-0.06259619076494402,0.0076441545734859595,0.0009808619980048027,0.1572672749329745,0.1405938057613337,0.006324962890075982,-0.0032134507079884587,-0.07331643981536289,-0.094726753996292,-0.05715429313699244,-0.02011714741171635,-0.03022050501511894,-0.04274417590013896,-0.002166554279651219,-0.017582554310814118,-0.03011041546978879,-0.0450142979357229,-0.02341286951597154,-0.0350962721743396,0.01803506831724117,-0.03144493271241132,0.014416276127181065,0.0174681191478375,-0.05750877173952589,-0.05908464663690229,-0.0538972103142579,-0.048770113630846885,-0.006835495298736325,-0.07818135016961174,-0.0676614562830498,-0.08930521633810085,0.17220365986033057,0.059563981538337155,-0.00047606019696460217,-0.058523361649233954,-0.055687841945791614,-0.1336055177095443,-0.1677733896649559,-0.18956380976239023,-0.011301134152961712,0.02660236439081176,-0.04380422199872322,-0.06736711255946401,-0.07045317994363547,-0.11766852394129212,-0.11575264980787996,-0.11351877088473653,-0.11053027677677389,-0.003216749566682079,-0.09076397549716272,-0.046389975743179025,-0.07847358588008974,-0.13320604825327706,-0.12405468839002114,-0.07653999114832682,-0.11422163445470523,-0.1035004684223569,-0.0657812793950621,-0.07088997925386734,-0.061479729702409294,-0.12271709792015124,-0.12052437539441113,-0.06574921307896478,-0.04877096924828294,-0.11059242456089989,-0.08250153525589442,-0.07160178242325138,0.0273197932622524,-0.03776416121902274,-0.12994524016466336,-0.09082675115980579,-0.061610939395964015,-0.10530038344174045,-0.07815003746550737,-0.0656153254382934,-0.016983232080721836,-0.0378363815335971,-0.018610817970788045,-0.045235569054959665,-0.11751762527260141,-0.038578885972098624,0.0958910988110674,0.0749437836844806,-0.017271341312065255,-0.022184987096362612,-0.03683504519150431,-0.03838431126004526,-0.027209289971882367,-0.06513379322067181,-0.040327273884570795,-0.009908274183817506,0.002773655172565269,-0.1233129390506992,0.026892078713879358,0.09039666683862083,0.1229771706560856,-0.08609264717183343,-0.09030470553942013,-0.09455124295066074,-0.08611177142571698,-0.16025185079812895,-0.17253584673399563,-0.07417054140451025,-0.11835650154950773,-0.18856965201306178,-0.1608519143812215,-0.15761957003890625,-0.12168589707716622,0.1511115602491526,0.13548836899613367,0.13455332938211556,0.10814797370571928,0.07805264447820749,0.03590990395683227,0.032389806361773105,-0.022590410159907398,0.1305244258408597,0.13990360272292662,0.18309367428169027,0.11497903239993602,0.11926076958715033,0.12374017444889518,0.06279520463142751,0.13376973093332717,0.140184100088587,0.1350916684427992,0.2019495738128933,0.14684565333715605,0.13154029835413997,0.13850199489271042,0.07141907204659112,0.2983150665933682,0.18075571806993027,0.10614917455939525,0.14424200062068818,0.12633768378613222,0.09636199392867859,0.16383740184065912,0.09594569287745779,0.10911635045878476,-0.004459715028960251,-0.023310310017521464,-0.07323701454758641,0.1342321734625997,0.30805525660575395,0.20280824886207563,0.068696581939628,-0.02499986085963869,-0.044314868417917416,-0.029477392418509708,0.05549319077028161,0.24807327690677874,0.18586523648824035,0.1297296900268708,0.024333675297462866,-0.01635919772784662,-0.1141811893839343,-0.03411024871951563,0.10896505718351313,0.24906762711752403,0.1844639676114299,0.11567774977040236,0.05772634789145532,0.05519256780219305,-0.16625553918875585,-0.12881825588652848,0.06188881321226078,0.12724767663362746,0.06527549174867658,0.15598249029503247,0.11694997650523235,0.09361045392023654,0.05542191286622374,0.011387198383205472,-0.013168777174166478,-0.012328538759769388,-0.10126906958273216,-0.11686407880829695,-0.08967442564382,-0.12913682877952323,0.0012577429997528101,0.010703283903333213,-0.03938582460459223,-0.08494064212152988,-0.046797881888412475,0.07198462583903158,-0.06817130355763708,-0.08965274554534194,0.11148347002800622,0.0262818344804091,0.005197606311318042,-0.05982603405712387,-0.011495577413723448,0.01985432816942527,0.058208668786190174,0.08838204804352617,0.11989509834322261,0.028805502086505074,-0.08463779664414521,-0.02189429785354001,0.020247622877089262,0.10799251210506855,0.09012251461818589,0.021693498848851918,-0.10887363207856549,-0.20970692059624058,-0.23766200522624134,-0.16944036190850023,-0.19564525166154506,-0.038262525175777724,0.0252981181216534,-0.0885832914529061,-0.10644889519489174,-0.16487149296999867,-0.13657240474064766,-0.17235333733595834,-0.04341507998978915,0.016454922550394234,-0.053127854652598214,-0.023137231262311826,-0.16180105042093396,-0.11015789773120388,-0.11034121317654622,-0.039980437057276844,0.04093476413240263,0.057682324621201896,-0.01373086142576796,-0.003422814425434022,-0.18981143329956576,-0.20260170293200166,-0.06706015425066436,-0.05128537861936621,-0.029399914778784605,-0.014174800709504231,0.034608314781534276,0.008422213471674576,0.24165944631188754,0.18010179453277705,0.11170964123911829,0.012561190798428013,0.05804006300668784,0.0031811025416511106,0.0197975337757578,0.015028907390464367,0.19580413631057159,0.17730759897181747,0.11600360944147133,0.07222652162160945,-0.006601015195454,-0.014980951830421738,-0.017755298780125127,0.008055949749211276,0.13539947857111995,0.14228715542301998,0.13471414460588035,0.07888288971072499,0.006793975109747974,-0.051043872059771615,-0.036534892211473144,0.04440051762010567,0.08818267865192982,0.06549911922647442,0.08186575631053877,0.054693002094212795,0.011975594314765454,-0.05890170694969456,-0.096848593013129,0.02010504563690065,0.07924708947414513,0.08702774950558899,-0.05526246466124569,-0.05084073509397543,0.037402989051454276,0.03952089390594303,0.020392563358272685,0.002909500040264783,0.10574583993728635,0.0845661326746393,-0.04701091993412902,-0.013531405343171985,0.02856553494826443,0.02046772011373976,0.06966615355188592,0.05706401040111168,0.1504375302947007,0.07461587242387596,-0.060146304166012986,-0.06984306267174703,0.0053758903702707745,-0.06168829333481919,-0.0181859969692935,3.553078150639947e-05,0.03140672411403921,0.030181384094705825,0.023103057819174093,0.046368913350235505,0.03002751170347747,0.03444080887725706,-0.036010476389339276,0.008981974400621907,-0.04027741895505439,-0.055329339653450126,-0.07449133631689771,-0.014404846447279764,-0.11736345135799833,-0.07951362169577045,-0.0734987356210127,-0.049268588068283777,0.043503225735432915,-0.07342237984120557,-0.04978117130381854,-0.0789664425880487,-0.027338771351339677,-0.06732987598942364,-0.06528249909627927,-0.05162895452703614,-0.05485407378044021,-0.12940962738795467,-0.12009327541418682,-0.1418639977246572,-0.11432833860933068,-0.06815595205691401,-0.04972349413626338,-0.07036612861206906,-0.06943576893318772,-0.14655963775113742,-0.18078354914422984,-0.17809218117630682,-0.14375978544866663,-0.08923139623931423,-0.029267758908277684,-0.048169955466498375,-0.004803447943451568,-0.06433599422288754,-0.12203947567850237,0.04944931604000226,0.22192205762492187,0.15201113490924806,0.13780957692982604,0.058921108267419635,-0.01101720745546925,-0.10125785230656952,-0.18059176969931068,-0.20918352294531886,0.01546233696100999,0.020731407322135003,0.061789178246439494,0.058438293134297166,-0.22431530567992689,-0.09407291190026894,-0.17912348971662345,-0.07099737590647087,-0.18356005813534215,-0.066857805760652,0.06753615770248006,0.09148846507468562,-0.2178566637650005,-0.15387577193867225,-0.14654417500655764,-0.04625880036587608,-0.050141502491275844,-0.03013321181045628,0.006943814360939259,0.06347148896156066,-0.06030473365172804,-0.048783824988312054,-0.03195422256102291,0.0016447374417876037,-0.05261971523606848,-0.12441934983527039,-0.09251067123825413,0.0032772555692502743,-0.07158131378388806,-0.012702101762963592,-0.04205365721558742,-0.06078101362897256,-0.06140820469254576,-0.11873228782578538,-0.08219287301097492,-0.08958231004578986,-0.031139730911676496,-0.012674237386519394,-0.06436916411041892,-0.04046735579905779,-0.04870368035200087,-0.056974741161941025,-0.07520058025317802,-0.10388357474227336,0.11379375690536914,0.01759502754415166,-0.0068738185136515756,-0.019054163656812693,0.01346391542853647,-0.013173987436150907,-0.030370687018944582,0.048878300194655326,-0.08656233918466501,-0.14725196860215894,-0.20032660589974088,-0.06169527322085727,0.00017383551951447737,-0.0009551025464028687,-0.02890567385330129,-0.08992613230802081,-0.10101088606326858,-0.20918427054472535,-0.12174119821355815,0.009641376619204766,0.12002133217061886,-0.023510423303111153,-0.040083322898116176,-0.01723486653168513,-0.26642374351527004,-0.12093660575026967,-0.019206668685469757,0.2786680636322241,0.09891991895715299,-0.017707673076732787,-0.06373701793582487,-0.05636471072161861,-0.16437736791110996,-0.22118409999241265,-0.20132139611359362,-0.22422011866111083,-0.10984782311023905,-0.16751682007231145,-0.10636062846009592,-0.07541162350421184,-0.19162728124130474,-0.16458614433972443,-0.20560917974800652,-0.20714501607024707,-0.20074715201914928,-0.24725202603379817,-0.18988432161680188,-0.14451176228378604,-0.16298843287965947,-0.13125438005589185,-0.23653615354252805,-0.25118555975405993,-0.21803550609628522,-0.20568321344285562,-0.20741038938962822,-0.14007154424368218,-0.1281716332015817,-0.12020991448932834,-0.18176783700606866,-0.1385827001556516,-0.1571724036989598,-0.12230839131868684,-0.16349094146760162,-0.07435159248564789,-0.03851995276054874,-0.11669192206429828,-0.1782451255876548,-0.2122973376566057,-0.2076509318057463,-0.13273565565858791,-0.12367819261848784,-0.09918700922177973,-0.15752675171358418,-0.05375635718410636,0.07047296844904435,0.08959491406202644,0.04232572490815321,0.02535165807471675,0.05710974753908802,-0.007760346268768997,-0.06146619061915137,-0.03927852616682054,-0.013577719717934932,0.14183651321929053,0.1868181974280525,0.007894288928266734,0.004890838194558831,-0.02956649504742638,-0.11463854163261585,-0.09299666635240722,-0.08272359640992888,0.1109171144027702,0.10874080671159955,0.0051692318260378985,-0.0133548883515567,-0.09040344007953864,-0.16576607321566222,-0.20802374868985823,-0.13874733316179325,-0.012721554372200707,0.019521534467118035,-0.0009955109635489054,-0.04377401081738401,-0.05864257828651195,0.11410711303188527,0.044514549533009005,0.016566472752833527,0.013856090422599722,0.07183114040279488,0.0058790532903259425,0.008452747495511935,-0.011810143177795367,0.08414080586433224,0.013327111237573842,0.03625881179787634,0.03671016234855718,0.05034521414329321,0.008448388537534325,0.015274043029233754,-0.0020758651028599125,0.05226804477351203,-0.03819014122143642,-0.028443248563910187,-0.048495304570248025,-0.060541156460839324,-0.003817861526928009,-0.013850568178557857,0.12898146534577498,0.04604975534891297,-0.12194216678325688,-0.09901682329263224,-0.13433739893791663,-0.12297535873707435,-0.07410003256703111,0.03148799027975253,0.06376515559387755,-0.0747458814071632,-0.04578819334587094,-0.09831044256622203,-0.040988009409394004,-0.028837682053034882,0.0472133955719504,0.05309235843541787,0.01257088593136961,-0.14842794858755856,-0.03302781298653626,0.0976239425836063,0.02495179349164033,-0.05032063617825969,-0.009082509609586368,0.0803676089534512,-0.01065166762908991,-0.19078831850975964,-0.10460490920041421,0.07459442472918049,0.1030410779433558,-0.026137542180588943,-0.06516474100280124,-0.015530323862608265,0.01865093673558235,-0.17029540354216766,-0.12802073161502217,0.025286147139698057,0.11417088038637492,0.004708540152952708,-0.021720407383919504,-0.04294868727195805,0.0026211142989290693,0.05930925187297018,-0.0002357023476907715,-0.03695259368227082,0.05626825193403562,0.026508868612287528,-0.010505978028685208,0.017098717611092856,-0.004259824607762543,0.09604994847038625,0.015663052837802262,0.028422481231990687,-0.040426947973216935,-0.013366672747051049,-0.022637692279578108,-0.04484408833964275,-0.07613406695797348,-0.0368889068088759,-0.04053798277166614,-0.006703026797606232,-0.038759232032103304,-0.17382732921110736,-0.10998732135042921,-0.14714479531142902,-0.08957097294284962,-0.1089026216770639,-0.1068082548977116,-0.07498045273208549,-0.17349449670030256,-0.2524055946350584,-0.204577678820597,-0.21471030304623825,-0.11228902306269482,-0.08362605495494067,-0.16582791555045828,-0.04689456846697246,0.11321645276496263,0.11492668626310903,0.05389004027445483,-0.0022562575293629612,-0.05394157736878687,-0.09802189794517452,-0.12217600775991733,0.009199905753316024,0.11632289826138158,0.07174527519411776,-0.0026524259425431324,-0.03902237951200757,-0.05639165835926637,-0.10945244891878463,-0.06709860386113295,-0.07134931625172769,-0.024223449049370002,-0.058099509162022805,-0.077304443772285,-0.07464458150847778,-0.06694141511295891,-0.02095940883978147,-0.026292021187678562,-0.0045056496653139875,0.006198175431409644,0.06376266428904218,0.01869919650236616,-0.044210456138086114,-0.04978784866615956,0.10475910367814888,0.06795911388691078,0.034571740010847354,0.07317320940548065,0.05596644204755254,-0.010872006625604825,0.03051555514388789,0.015853840292244178,0.06734444108979448,0.08801970247185718,0.07495480004154735,-0.0037910297299558835,0.0664216672087339,0.0209394203620139,-0.01066394650709419,0.006819589805213443,0.02592861114483106,0.04405293850671936,-0.018009643257827748,0.02672935146180116,-0.07301664280544234,-0.002204841046400933,-0.07072730256594648,0.004019024139672509,-0.08685864282222999,-0.020776168087970334,0.00020322934653456453,-0.0634221319246548,-0.1163358260260018,-0.06606726023191757,-0.09684511081098264,-0.0322998299690164,0.08869258819420994,0.05783295934840971,-0.12142634945151781,-0.08775350558904987,-0.051880678472723964,-0.13981071500668701,-0.1508899873642504,-0.15302210374847666,0.016293973269030544,-0.08585651712788123,-0.15320137695886643,-0.09374792655092361,0.04927437058577506,0.02255675843658839,-0.03193918627844236,-0.10073406199016414,0.002402351120672933,-0.05481612358837418,-0.17774219206409483,-0.047169597632558166,0.050416339865457634,0.06128995556580684,-0.05654535362874659,-0.06068205410433187,0.03255584788486343,-0.06093066627352056,-0.048087837527174375,0.1446827022583739,0.14095996473754116,0.14412952705016766,0.11011410814948339,0.12573943837272636,0.16378956552505733,0.13512805688371932,0.0841164223333312,0.10064698957046314,0.09301177473280227,0.09014198285012308,0.052843230567180766,0.03859427949481889,0.26524155654652143,0.16137214876401107,0.09922282729964946,0.01086556982107383,0.033998039403631976,0.07603159514142396,0.03591924052864647,-0.0035237433957371334,0.316510182296039,0.16327650942796745,0.0006927741138523034,0.0747803542697769,-0.02089480599634189,-0.030409131002140186,-0.020394202408719066,0.022541166882366872,0.17866180191531428,0.13729218328345008,0.05059599930658927,-0.025251829838049127,-0.06006327102369365,0.003686590524394821,-0.013444108897136613,0.028332973391880137,-0.18108999798123526,-0.25520567974755437,-0.16389431624303746,-0.15877312649259007,-0.001301379876477228,0.06581639221568011,0.07297463747492854,-0.002117256887188368,-0.22817646525111224,-0.33349120464060883,-0.20904653306553142,-0.12476963296683823,0.010731403123893167,0.08952954930138059,0.07954812870442915,0.1726479814636611,-0.33929643200556625,-0.3169834998115061,-0.26283939330343636,0.021189308529955302,0.039202525864875507,0.133212447103095,0.18251126887323763,0.2247419834678349,-0.36406877388959485,-0.3038490565479283,-0.1345141247068429,0.05168860985177306,0.18491884444612536,0.20440359628814278,0.1519063886283115,0.08788421463216853,0.00969395272474615,-0.10016714613133867,-0.14066758004165297,-0.13751099899780372,-0.11548220526860414,-0.14266549072914322,-0.06409069291298035,-0.12277740564447136,-0.10682386916480936,-0.10376165331068234,-0.1272471857599792,-0.11335259168301282,-0.03952741938126427,-0.024919566630389692,-0.09728857905560134,-0.19078737877086055,-0.12512932165619928,-0.09453450093380882,-0.1447827581057674,-0.07281692238118867,-0.09427200413413266,-0.016807186498384395,-0.10947480928238255,-0.15646658796353502,-0.0831221042883903,-0.1053184052155493,-0.14529156296283074,-0.09345085529939708,-0.04230497940925015,-0.06531759270346428,-0.053800488372329154,-0.13659478254543908,-0.15351092676692374,-0.1352737302074245,-0.017820697286077103,0.14173929076858852,0.12988429857496198,0.056244143637790005,0.04682779131926997,0.057773369401062466,-0.18778205573925036,-0.23389190364508158,-0.10412092379101515,0.0525909319958984,0.15426655442851703,0.03938340830112177,0.007117290105188557,0.0262082085210312,-0.20820859963871363,-0.254400122959057,-0.21540650827678495,-0.07541717703589368,0.0192488309566638,-0.012866719277775322,-0.010102679792157052,-0.032323269447590744,-0.15436681792289603,-0.1821307997681566,-0.18133160030815468,-0.14478826378085202,-0.12938562191268776,-0.119923203655321,-0.05832003584013774,-0.1196784464385046,0.12545039789536805,0.12054432816948714,0.17731078285082702,0.130845831314105,-0.04566980632895826,-0.01744788552085714,0.008042957291645876,-0.023717194702901394,-0.016066864465013597,0.12149514278275554,0.17914868037672932,0.07135435266534672,0.04629377409809183,0.057695304389099984,0.041345779699763066,-0.06588485491999437,0.13486114082695833,0.1831039233789643,0.1123623559650939,0.07568379078782946,0.127291803437593,0.12248389042110583,0.05445598436418663,0.024688228933374357,0.29015222482724706,0.15641119415423516,0.1703016097342782,0.14977604308407028,0.15606658182329894,0.006922487491141582,0.017256603246386497,-0.011989797799648838,0.04051074400572625,-0.0728236252743408,-0.10323207236333551,0.10276706422215366,-0.032157476968213035,0.1215780712256662,0.11854331823260393,0.04764057567960748,0.05259783086101217,-0.13834208471576134,-0.23026178395017782,-0.1662978746142355,-0.037822218490410627,0.04964486510844895,0.11500843071119801,0.052044840194506205,-0.09745843924239209,-0.08449622797359393,-0.13131967494614208,0.042957644626428336,-0.11976406137186192,0.054127011489792765,0.15046763558733395,0.09453605932051012,-0.06883713427199463,-0.024253192391107604,-0.034066823524103985,0.16698430494974237,0.1387595882018074,0.06865868839401174,0.14225415147670012,0.10982135541933262,-0.004813589870168238,-0.11963805136655598,-0.14575267930400476,-0.06430623241220612,-0.1398444516216479,-0.2022944612168592,-0.2299645318158181,-0.21838863876939385,-0.05831861345126172,-0.12784751385251106,-0.14693606165466186,-0.15950969119725517,-0.07354220386981511,-0.11343476723106315,-0.16076776357221312,-0.21739447256544814,0.002521969159812743,-0.03943976017543557,-0.1913807441890928,-0.08747688078884687,-0.08445614670155915,0.006802148312621568,-0.1392767408285986,-0.07439671659125581,0.10554062439232768,-0.018993940389823386,-0.03550173474503011,-0.028854986200098874,-0.0768312382160021,-0.0954713210106227,-0.1249921910428441,-0.0948075635586885,-0.1178482413112706,-0.20324721514542596,-0.2236324516904572,-0.26945743042985454,-0.23158950607056553,-0.12131275663563158,-0.0645134421014008,0.023872622332033182,-0.09897040448574974,-0.21247169810952082,-0.14876265480428635,-0.12457022884466304,-0.12869703618846987,-0.12834381467550812,-0.12752696863805424,-0.0026961369365299534,-0.18819701956666493,-0.19963708985841563,-0.13236543295499456,-0.15057729405015916,-0.11124431892656847,-0.09888657260242174,-0.14509163347676415,-0.08247565201706965,-0.2576328641709637,-0.26364613900002093,-0.15868701143176397,0.08426144823216662,0.075542362089565,-0.10883223630981205,-0.10236823129214496,-0.20613621567797313,0.20574004370101573,0.08277847717797121,-0.005964128260108732,-0.04894464396240295,-0.06596738341220834,-0.09190377184872046,-0.0074222861934264495,0.02442236530780473,0.16527530918870995,0.07068878292506642,0.03845758058198499,0.039523504525143666,0.07755768043263798,-0.0025420410635793146,0.006631064846120579,0.0685253865634698,0.16729090592348717,0.16232778868572584,0.09654182787507182,0.09492928078711732,0.09598926843385285,0.09096415879988845,0.0369224840589569,0.09868583777609402,0.19526196364032494,0.1384677091259184,0.14200477795722702,0.12180022095511048,0.09014421643844975,0.07162085805214445,0.09105064430660402,0.05646141130541387,0.070812752798222,0.0849213558775265,0.07960488993402554,-0.017113798189146743,-0.03137612706531163,0.06710944425488441,0.18494177457899721,0.08568402973691423,0.05431893559976783,0.1220120230899277,0.050726175377523185,0.07205802760334476,0.18850575625727897,0.041816762856977684,0.053014948409420316,0.016118450294764865,0.0640902258332531,0.12836559209898196,0.12204285494534022,0.08057963273515234,0.09663713564112195,-0.01327967688020622,0.014977939423349119,0.04854261574243308,0.12529084966794873,0.18747422068015282,0.1562142903910222,0.21733671491558226,0.294165364181336,0.13114559752884908,0.04806387632141474,0.10749283678736929,0.09568273695032137,0.020641712036066472,0.05178512847533082,0.025222880028474455,-0.019333766885813324,0.05989823364445919,0.1317027486500404,0.1785791569561994,0.11573819119165547,0.0807975889822548,0.1079785656821444,0.05633130743893494,0.05675191922873974,0.03366316419160454,0.11032004530563679,0.15017144031261,0.011933587955261412,0.11041438866833186,0.13628334050250537,0.1459832108303689,0.10634071425321454,0.07886062184822584,0.12984813552687777,0.08568946918103393,0.01695451298852738,0.11343275861603845,0.13260762509948198,0.20971531445373842,0.1824819893089099,0.12553035708748592,0.19946946173327162,0.213547583819804,0.22129385755171055,0.16650245516350012,0.0726216502281472,-0.027782468473391508,0.030046426314637255,0.04375490254634258,0.0913258652558662,0.04097219580421233,0.3001629566219474,0.2512482758705179,0.11872168354405284,-0.00022483516981150302,-0.004908570835328233,0.08278579541590834,0.052255885096117505,-0.07010539539540575,0.31522983677110444,0.2634312083158182,0.1157920702098799,0.18813311466915777,0.12403020130097943,0.05384202950989845,0.0693650040335835,-0.054671319509165144,0.1678294182468986,0.168067628885356,0.06823990398364776,0.028953460898361958,0.08318651204821892,0.05093463902218357,-0.03212637970183918,-0.1086277378254048,0.04197317930904835,0.0024814261318829227,-0.034658405907233576,-0.09085352639383187,-0.1237785161078324,-0.0774214645117105,-0.024208388727773568,0.016725872433456575,-0.025232435294728413,-0.06539742895093074,-0.07637908383332088,-0.12090481548781372,-0.1491942193568279,-0.12658205862683497,-0.05222642868665591,-0.004313404834682372,-0.04304288572018032,-0.07458049584985835,-0.15587288375828945,-0.11918733938719507,-0.16174860977446545,-0.19559285408548063,-0.10686255838720118,-0.015203109230620352,0.025162060465179926,-0.02486995612853958,-0.0887814776318946,-0.10017150167172024,-0.09400502854243463,-0.1835426858093955,-0.12864524120331974,-0.03948329406531314,-0.11671751929539728,-0.12296549917737373,-0.1729906557867971,-0.1557810122436816,-0.1292096909649733,-0.030248743810852297,0.01951515928014321,0.050965420388964434,-0.11165769517697807,-0.12476781340695282,-0.07261143236005836,-0.29122751979171363,-0.20131573027511393,0.0005603099968353357,0.04348730318301137,0.02454636240341269,0.0013992608847332333,-0.06855439763368053,-0.1713468754924289,-0.18502481665626344,-0.051031468337349936,0.03499406969765232,0.03888826389885787,0.022356894150836935,0.08709301601374707,-0.015743076521905906,0.0016422960968842085,-0.1056037428887798,-0.03598512790045284,-0.047199746325994586,-0.09372936325295418,-0.11136542171573642,-0.01759023648797176,0.05739685514138998,0.17663148955370306,0.2291087143158221,0.17656813547271527,0.034249790503849256,0.03500484527505686,0.12588621341390913,0.14420303052941497,0.1634191002978138,0.2652931577821984,0.05949079333348508,0.2245804868006833,0.2078678033705241,0.07884226319855092,0.15196627000176427,0.3282553448323738,0.2556046279597824,0.1338439706218,0.12572123649306438,0.036360514416094857,0.10139812825021446,0.10572738824241414,0.16402914172193075,0.3997511324432795,0.2384635701377094,0.22855108319107478,0.11023423008457826,0.1137367865468419,0.055494460936841544,-0.011238090083820004,0.099426728509271,0.1953770825655209,0.18977611720440166,0.2450881376643168,0.15055140422714075,0.06761513762205097,-0.061955049919705095,0.010984436886069883,0.21466653536345895,0.18604785352743974,0.32401078885719947,0.1689818882003106,0.07171760363695365,-0.006726659139721352,0.029621951004612478,0.1633437422940832,0.06851196667718602,0.3102680265357162,0.16030942715890747,0.047852765567519925,0.0761285333623524,0.12951970482940597,0.011657957230103027,0.040904186540062476,0.03861880027196292,0.21131988543385977,0.09914673648151448,0.06363636860613821,0.168182530136162,0.10635630932211491,0.13511393744254016,0.08082913002862929,0.18506477602754537,0.31837953945877784,0.15710237366914723,0.10774268676523126,0.006783175125599803,-0.029824973859657548,-0.051441570193518395,-0.04138991211837886,-0.023037124790235553,0.16342630670086222,0.10408323786200896,0.0381600721889461,-0.04168782406880239,0.012005065676226464,-0.05041902117650437,0.026356660277029053,0.04218298150953026,0.11403283462716186,0.14383036736113994,0.054969528416418494,0.03906244421151319,0.05412560860770911,0.06476394245207553,0.08118276665064825,0.07761472687585325,0.2048193655164739,0.10266727096256592,0.03714067835439807,0.0693469434874451,0.09509529054819388,-0.02509265118575054,0.09910552475961895,0.060388315928090554,0.13267561899969424,0.06331900842733476,0.0772843971598596,0.06954749583603319,0.13113709531424853,0.007961373239287117,-0.03943493740165171,0.005821049009715264,0.136469117727975,0.16466432092023578,-0.06447049495611884,0.07874390148152069,0.04194469696780133,0.005995710291521552,0.030424341348441273,-0.06695928152569289,0.25206987254300167,0.09551070540909505,-0.11668301227893008,-0.01635608576448932,-0.14676506840693151,-0.11309350904153218,-0.08462458993817926,-0.09006814602379022,0.1940818462004939,0.07386307148866983,0.07135161692319049,0.026108991998779005,-0.1452267516299282,0.04200419455215862,0.06512568987989877,0.10483783757719856,0.0653309918753646,0.006967817695720185,-0.015752784961595268,-0.2607434570575391,-0.17443283975256843,-0.12052840502685787,-0.11103922580277302,-0.06558109639315061,-0.03118244246944904,0.009016744103744534,-0.12399570218320817,-0.12166373608153914,-0.14417250991569333,-0.09008501378488407,-0.022491795367200116,-0.08791996402515935,0.014318253609826113,-0.001655710035137045,-0.10850748092546442,-0.0837210399258245,-0.021815958872624597,-0.06528279734670187,0.0076109433959671595,-0.05489609936865923,0.09951490450672344,0.010921872812049671,-0.09924449438797685,-0.03340714283230177,-0.035662096242706644,-0.11412524330608254,0.011511367669716324,-0.04877033454934407,0.21459524746597425,0.07875209956141949,0.08977242294980442,0.0986409820046627,-0.04118866604492282,-0.1289556455038006,-0.15923538322368233,-0.09357725500627424,0.046859835035644615,0.12604878437559738,-0.04433945257534747,-0.0005916147094621011,-0.04192972309522812,-0.10834499148903168,-0.17246722604377135,-0.0338879571827989,0.304157897329032,0.034990451749422696,-0.10039596997009324,-0.3061252839478905,-0.13944458381295138,-0.20274303203235955,-0.20975285777566754,-0.01072675157264445,-0.06204993068072388,-0.012307630366622834,-0.14123785641716627,-0.19861433364899075,-0.16655582709064845,-0.2027115512245105,-0.15561721684051996,0.018185550422997503,0.019457809059376493,-0.018091996815622405,-0.014175751242878782,-0.10266798988093205,-0.10288368119633999,-0.12184813775392385,-0.07987586844650928,-0.08507325047333296,0.04194354691762758,0.012065813691591237,-0.09607939435840109,-0.08174640197323106,-0.09423842441246143,-0.08784834786072206,-0.09545965907399949,-0.12825026822383562,0.0006911247258416743,-0.008586797110340152,-0.10494501642558654,0.028843105086616357,0.043851453277132676,0.05223464169953746,-0.037408371050256836,-0.03361096394241187,0.010298253467908185,0.0009403862550954027,-0.026249204025835245,0.02170578588635852,0.09302860697482725,0.025607765463082084,0.08017026237211759,-0.0218095072781939,-0.156174386244632,-0.007638043723847993,0.16300901602797696,0.08031699989514414,0.022865839264748222,0.02513890485574738,-0.0030964483606866545,-0.018035042871545275,-0.20841083940782787,-0.10177143978616421,0.05023466817294012,0.14928729020406847,0.039485412472503076,-0.052789107268732594,-0.10908085885013102,-0.13339560527914546,-0.04128490774359566,-0.21053023773324217,-0.055242497761496506,0.011994149775374724,0.09790585871707431,-0.012101172691501407,-0.1618146200550616,-0.21723655095648425,-0.03157623659038469,-0.1582528559293535,-0.007762483018789406,0.0026080437447223905,0.07235699691763946,-0.0488594319881234,-0.16635717855679893,-0.1942377669721791,0.11748216911729786,0.1002132395590614,0.12777338239601457,0.15691039332031925,0.2041743548896787,0.18222568883924087,0.2608048879627752,0.5144875234212803,0.04854696807533251,0.11332812561073229,0.08529867937289781,0.23816449393478606,0.25597937841789475,0.2272036087381906,0.2519802739267651,0.16981079803598365,0.05666502150144387,0.10831194447647549,-0.01323564357830134,0.27535093820347595,0.30424450405766584,0.28676098682889645,0.261087810618827,0.2702437924498417,0.14977206663077872,0.19886364694533643,0.13915498900398057,0.2760670399493088,0.284048644122005,0.24532634165451392,0.3541453323455454,0.30969223532285256,-0.12334526036705218,-0.09506127592873462,-0.072116236682062,-0.008779027617267118,0.2099992024634553,0.11757416580771349,0.14119519893082805,0.1543128760573616,-0.013544300133212948,-0.013422237471569879,-0.19235478770918282,-0.15745885511535457,0.04816312208346514,0.01884914435133858,0.04831126342349348,0.07130988844544937,-0.031232455372587963,-0.1991278677403201,-0.15666732785487653,0.042930069937481864,-0.06902890344767859,-0.09799342878444678,-0.07585990607466875,-0.11146735428468746,-0.08985478308911017,-0.18908338037147698,-0.1484979252169783,0.04106514256517445,0.027209948166776115,-0.05297390474591163,-0.06341754577154149,-0.10387509824570544,0.16514251712439765,0.0922055034549027,0.05601169505196236,0.04612456983404914,0.033340138879604964,0.055945477562166765,0.08289978526166235,0.20485626805149057,0.1706278552940884,0.12277435205158749,0.08337125724785051,0.06624073681533796,0.05196981143026091,0.09176004772979388,0.10195299176735548,0.10275401672098144,0.1023222430518535,0.023970851003589772,0.03238993503765367,0.05453287693095113,0.04591616580444081,0.0315051847908709,0.019620437816246103,0.09286619565465491,0.016738489180668645,0.007124577594199779,0.08005464613693752,0.051392840751465385,-0.0484482120630636,-0.015750661638911076,0.011983289382648962,0.0451644619868735,-0.0675964804348027,-0.08422668760490815,0.013412393975293244,0.02354777705752829,-0.04359954976290391,-0.010462110582960852,8.207583199147942e-05,0.0559019913084575,-0.16562251160398353,-0.10447235601947695,0.04961795496045372,-0.012217031698731767,-0.1729464796781152,-0.11423907360732373,0.03941657019859482,-0.014537823882388298,0.019648851169506806,-0.03130828374411195,-0.02712177467753029,-0.21074279204181887,-0.20457810750919475,-0.1464790575612034,-0.072918985466137,0.04655159002173724,-0.032936505830889334,-0.023073130281488913,-0.17712755889923065,-0.21481532104157997,-0.13122164863734,-0.10292455888936838,-0.04408540766808248,0.09317981057310126,0.029259506505934105,-0.012098841909144547,-0.049702531257738776,-0.05689140878988321,-0.06232767312004284,-0.029817079788262507,-0.006512946582359232,-0.04104815704899519,0.10496888919326239,0.056251226913193494,0.016564105556041615,-0.03139402153018277,0.02076928055180181,-0.01389240824337192,-0.03433013474695507,-0.12272767684378547,0.19142428874790943,0.09038098979587941,-0.026212077068050024,-0.11016178943887307,-0.11706852805944037,-0.14999145443743372,-0.1553553733839509,-0.14264004839453356,0.1497233015986707,0.07544961530449859,-0.07525424564325661,-0.11653433643936979,-0.15664445065224658,-0.25084880091175316,-0.1462001246811977,-0.14161385603407164,-0.012634644799839136,-0.07174759227595974,-0.1312021804170639,-0.14897788363580972,-0.0008740279942626516,-0.03773059939873544,0.005052006517647388,-0.08266029694711106,0.08231629355985651,0.07059514393879761,-0.018978491857603398,-0.22875604453743761,-0.12258676355988782,0.06687183947426453,0.01524681630978446,-0.15478650478870057,0.23119303290189214,0.2313470535622922,0.09201291723117128,0.10001721522742262,0.018910560685438678,-0.08846071346132528,-0.14142949358689874,-0.18313641194244173,0.12915552079466222,0.151476137352375,0.1374627961138243,0.2526332198799491,0.06619077554151817,-0.040208555161728825,-0.08865068403980844,-0.02261982858024886,0.09373574137362077,0.002068933828863889,0.04309067009572996,-0.04693871466273391,-0.15059016914048678,-0.051235141453400294,0.02063490153762155,0.11182201304722406,0.1534408519979997,0.06971758136437463,0.11934440243729656,-0.007119579985429695,0.0069511543708997,-0.04521056998296692,-0.016382793210799367,-0.006451599783052514,0.1260701403614325,0.07394049857580617,0.0722129322116472,0.11868901647819638,0.1348102472791186,0.08324519840719574,-0.012784684395977386,-0.06970509388601222,0.16177522226428964,0.1109697410138388,0.0885527205259775,0.13957415524540717,0.14278612863637186,-0.057831458924436766,-0.01488371115568798,-0.06470677567635884,0.08586251544638203,0.12810791775159822,0.09200527265239121,0.2507752999708319,0.07110333162919798,-0.05020241613599274,-0.09078622876752226,-0.05920797613979709,0.13879171752735742,0.12871960205758426,0.15184093284629663,0.13222715599239507,0.31233369259131494,0.16639276767076458,0.01760760667808298,0.04857502668134665,0.15338685810372982,0.04384961404428928,0.19674200539404546,0.292137746625406,0.25547573639496085,0.11369017120811283,-0.053130571088155505,0.09634736386996764,0.10427350830967713,0.09136585558525888,0.20957506113204988,0.2128358690388738,0.08182518184475945,0.029167074831962948,0.0300086035916187,0.14065105549150342,0.05172077619149781,0.07981245979446162,0.15216432118392226,0.055232050745276866,0.03518609903283378,0.07225442180917364,0.08963577749688467,0.0721555967144028,0.06475394876854935,0.08853885954593732,0.12072681061059982,0.09542357852717284,0.10538517760848015,0.05872982543754901,0.01121480046312462,0.018704530366846835,0.005381763009025891,0.04209982522392589,0.07675307140153981,0.11716161926925268,0.1374154942620312,0.1198271531778137,0.047282666124802336,-0.007872567079544283,0.04832107017766584,0.042152762579307564,0.06184921116162193,0.09762604026984706,0.11807296908886171,0.021344337137178294,0.08633780786674225,0.06563463037252705,0.10656712099333962,0.0727188764531986,0.07898554099219693,0.13406470505849744,0.2032388760183415,0.07761647203087171,0.09210960083545117,0.17162499161471736,0.18454719718616006,0.266208463245519,0.33913983085848104,0.4034920444423199,0.3329255357039318,0.24588260846782545,0.25273922791758896,0.1553985569780792,0.17782556961447227,0.18062558242279653,0.20502867253008014,0.26493123356971765,0.2962151160529819,0.26001270134022303,0.22794513189173782,0.08760021260471511,0.21507877446414014,0.20676188808804374,0.1921727096895937,0.3191864693177568,0.24191800538519243,0.2919120214042086,0.08635602446106731,-0.018039808221894243,-0.060041936944402366,-0.1080935028673547,-0.06322950553429728,-0.038512319428878596,-0.10047553821736079,-0.09759011208562769,-0.05836925098114563,-0.023058867392526345,0.01645074343371569,-0.08547776446199547,-0.06606868314337538,-0.1448628465478662,-0.1905154690753982,-0.18389228621351025,-0.05565732737724123,0.005552177189930315,-0.11214027392576394,-0.04334466267063504,-0.055682383301776404,-0.13793969547000204,-0.14704311581623933,-0.07796766533822523,-0.09364282352426846,-0.009953585029955114,0.022760755660009867,0.013279422943062695,-0.007318195622857604,-0.06420379251309818,-0.06147960586098578,-0.09968795192814454,0.017922905384399362,0.04678758744081801,-0.04930962131391195,-0.15226516475526858,-0.13786537180344852,-0.12874107377933722,0.03393960559339859,-0.05103811360099103,-0.09933428395028701,-0.12744697980544897,-0.11142646800037258,-0.3060976109321264,-0.08381180713371039,0.03748678574895707,0.002397847262752301,-0.02495157954142935,-0.04011097197040445,-0.1327334695985611,0.13101679574562985,-0.07211632461793428,-0.0689305695676347,-0.041473354371337395,-0.06783482483577297,-0.04708170149841694,-0.07287115504536615,-0.10212516454988094,0.09307884367890612,0.11365332323700429,0.1342599550378574,0.04202190487841991,-0.12477608444663421,-0.09456341172311677,-0.14669207875751253,-0.16098603613538143,0.1369613913120523,0.16532027790222034,0.09564018669113787,0.08146596996438918,-0.03390064350195157,0.11061263794880567,0.1340515211305691,0.1443697042398937,0.027081953710302004,-0.023086250407755506,0.0008378331606381099,-0.06903968945701866,0.08568373112294396,0.07227215155142115,0.10123688485585129,0.11239255786697429,-0.1336604172120008,-0.13656580797128962,-0.1042265564141162,-0.04635444825310795,-0.00422623219190526,0.0960355703452352,0.05712792006710814,0.04182090623479218,-0.04500446039429634,-0.12448434203986126,-0.12106746342293576,-0.0647642653418809,-0.02635095437815896,-0.09995457255499947,0.043233806636125444,0.09574980687113337,-0.14110413261668628,-0.13890242177602752,-0.00032409527610723955,0.16612716097565813,0.05875509145675769,-0.06596484931073812,-0.01946223270012773,0.03454418702870954,-0.08004181693526273,-0.04525651197817108,0.005069790087728719,0.2820736206658175,0.11594843326009252,0.0532706035586745,0.023732806756706852,0.023635840302092495,-0.03391683585821407,-0.05020219765975014,0.001661825929530993,0.03994925228515843,-0.062489956842833934,-0.04611583589806656,-0.0005566140544642652,0.0021700925057730816,-0.18887727777807195,-0.0024459562776408673,-0.012599068557902002,-0.010359771466982885,-0.16507566404385082,-0.06913809687388396,-0.09620519837173289,-0.06393882577346731,0.045171686478478246,-0.01116555560051986,-0.03198837442075529,-0.08794585036017581,-0.019643690584709883,-0.03700250925330149,0.011258879101029367,0.04093307108566551,0.10168116459618319,-0.04415891611549849,-0.0008433793193065861,-0.09037302775462157,-0.0466790846662301,-0.019443105748878926,0.028413151140499752,0.06038459105389749,-0.0721334556242072,-0.12766228939650015,-0.15457881110294697,-0.13914642604563204,-0.11398727648135469,-0.0880410599224015,0.0033255411581488066,0.16623185822192774,-0.01205515300018792,-0.10873342759861983,-0.13959637514336504,-0.16897375090343658,-0.14442095350301665,-0.11691931316024612,0.03249404250536504,-0.058375762898190235,0.10211503809621486,0.07116603565741263,0.12462790188468628,0.18432436068397268,0.08654598499549694,0.05724311936457948,-0.08091981494007416,-0.004936868906084159,0.04049946315223596,0.032406854428613484,0.06647556382392956,0.05577424440317684,-0.02280203811465258,-0.13482562279467952,-0.18653608536674388,-0.0874056899903425,-0.029655614382139754,-0.043809604582184906,0.053953944289814496,0.13812800755222618,0.024140472092858023,-0.17881477783425515,-0.27523459745235596,-0.14705931414983142,-0.049441836753109564,-0.04690158987128677,-0.10693336587697984,0.10721125006421714,0.20000753803327972,-0.053829292427905524,-0.12030215988551914,-0.03657177370123197,-0.08015364015669342,-0.009320087134432218,-0.0037996503119752645,-0.02941090819161235,-0.05935429639882442,-0.050180917713822944,-0.04925217694276021,-0.1048163427224387,-0.12269845170456294,-0.03650790906130595,-0.06400043261946863,-0.03403941758720669,-0.011850523226212509,0.01954589419748026,-0.00582125154675128,-0.07846150046595635,0.024171195973937312,0.00315468241473782,-0.030222547139843254,-0.13716123344421238,-0.09028014211796578,-0.09817024376179768,-0.14619007052551097,-0.13724478787592254,0.045521744410272895,-0.0022938017631022626,-0.04696560226564529,-0.08857504717659573,-0.20396821039942786,-0.34139931943541046,-0.276478987482024,-0.18174606562221918,0.08776332644253917,-0.05356486374672897,-0.10501201941099238,-0.23427206902160957,-0.24536903738012603,-0.21941148825348436,-0.11649932653142892,-0.08138949077716415,0.09879704719934664,0.04687749993385526,-0.014222792421578607,-0.2567007740463113,-0.3132370978780118,-0.23225123524516417,-0.11254811663968764,-0.06367780245387725,0.07435576849182239,-0.021191302216387833,-0.16674171597215645,-0.03263355279305984,-0.00037442613051522024,