-0.11821504580297403,-0.05563313098375194,-0.059815512476090196,-0.03909478593215792,-0.07524099312897618,-0.01763553303021533,-0.030633590585312637,-7.544779669996396e-05,-0.2206685040003319,-0.13722442712345126,-0.1372380461942502,-0.12615936820303464,0.021259391934896798,-0.06727007903410946,-0.06796195293770065,0.03679696198081352,-0.1878841038817764,-0.19475199164282067,-0.1639755516825032,-0.11043119739475782,-0.08677322015964495,-0.1220492464110265,-0.07910146960035418,-0.023813964203939872,-0.2627583674510432,-0.2730134803021208,-0.26983209173054573,-0.17890661188083823,-0.09427128522847081,-0.12108045120576492,-0.11182617478423953,0.00895534758337927,0.24712118812454076,0.24083569067378874,0.162899685002091,-0.07431808155023044,-0.21365682419072418,-0.10219386837905452,-0.10944792076731753,-0.07375663447373441,0.20473312290270007,0.19810587147457154,0.07000958446943097,-0.07948523324687976,-0.1130073244799613,-0.0681268875762566,-0.08591882320866509,-0.02663561948193344,0.12489718917210571,0.09776036526914902,-0.049079991726533004,-0.08842803713963836,-0.15327652759381394,-0.07509817853429326,-0.08408908643281057,-0.06562941470338116,0.059740913753762316,-0.03387551446322136,-0.16327970173584178,-0.2126529351940924,-0.17641985378193298,-0.1532742285865982,-0.08240590627785521,-0.09461353304321866,-0.17786922134209224,-0.07762437444569396,-0.03915822372244242,-0.056671050818555516,-0.007485865937819444,0.0337352759471132,-0.004613175745953757,-0.04976351649067514,-0.20434417178686573,-0.028038479261316897,0.013414544034958323,-0.05754783580689285,0.014780394289687665,0.06535165245215808,-0.0329975348007947,-0.06075043977135062,-0.1338997061608183,-0.09758804781798588,-0.04439767200147185,-0.09077900369496751,-0.07995795681183944,-0.08785225115341032,-0.06404331519381869,-0.08880537446482814,-0.16836008347999315,-0.1599138901970391,-0.07663021907063375,-0.05852962669530718,-0.08140110764484144,-0.10545848870292028,-0.09032423072042911,-0.0884061878338147,-0.04766226118209745,0.05951786040633804,0.12916078243189774,0.13053104126610982,0.1001746836504611,0.07296429582419517,0.10397192514755715,0.08959735555039439,0.029106813697379372,0.17959383633364367,0.2132278846051587,0.021414888087233096,-0.04160754137415797,-0.08091725521932455,-0.022979228482992362,-0.010240595615406809,-0.04970830981844909,0.060478612378931526,0.10264385538035577,0.011385238017598881,-0.049263501072412896,-0.0856354457378453,-0.03865278358093618,0.001646492038325807,-0.016551474500195944,-0.022769533597988677,-0.031968499028487904,-0.013421089289552865,0.0119810793314199,-0.07269760931813753,-0.051062695973735535,-0.047480732632473745,-0.048907194685744365,0.05957591883267156,0.08486944281237337,0.14033831370737848,0.16042598994198679,0.18797406193693983,0.1988306198943873,0.08976404983723933,-0.059429857433962695,0.05146512635659471,0.10520598075958493,-0.004116567242595157,0.07779481080611654,0.12408815609026828,0.17073949594550766,0.1937088296076483,-0.12452258866792879,0.0027445258799207633,0.03833447169699251,-0.054969233668420915,-0.012254122412941219,0.10429834200899138,0.20939742292417446,0.2229492292472321,-0.07427219119782905,-0.011257534671673779,0.02790336145221084,-0.031264413188880416,0.00924895421215118,0.09745769472098506,0.1858727849858538,0.21035947901201282,0.05898740425470577,0.027346838304057677,-0.0045508510457688885,0.034050532011623266,-0.030275871341375746,-0.012630756178417944,-0.055792406996984165,0.0065883460552065435,0.024994273104206554,0.047985257417857835,0.12632259239744428,0.13876230689444832,0.0787150946317317,-0.04823330659220362,-0.15341460125820558,-0.17057185566550556,0.09790082396118122,0.1534243849027263,0.1820138011689847,0.2173101373184386,0.21480035996862243,-0.0014156625222823713,-0.12038801090429403,-0.20353631138894118,0.12863092261386788,0.09130158283578048,0.1952983068722633,0.2806546548308089,0.16541437261379488,0.05925336764445059,-0.12174447593652613,-0.175854631976845,-0.06380528255288187,-0.002771958107986877,-0.0028534093214283595,0.010682437163828235,0.02995200802559641,-0.09070089138415795,-0.05374595667657406,0.02405613244216973,-0.03301443313434297,-0.02810007532549687,-0.00653408820263152,0.06995281351468455,-0.02753487269325237,-0.13042937320257855,-0.07246371512050377,-0.0034639473113239902,-0.0858470770172891,-0.06751926538557981,-0.06064954870370415,0.07935947997221135,-0.11167310007333162,-0.10436667139334203,-0.07472362084021285,-0.05789953542729662,-0.054807179755675776,-0.08743963768308102,-0.06429599941579907,-0.12227809297006527,-0.1276006216278525,-0.08534146149211286,-0.1039451428638809,-0.10151118107649823,0.0565403169552084,-0.02089736265424621,-0.1281790535128833,-0.08804706805631503,0.09966349385078765,0.03400690519117194,0.11828046815640625,0.05082527712556356,0.0993321368995752,0.04440199808067472,-0.2168433660855023,-0.16557510425301414,0.0026960356583558545,-0.011289941766246578,0.00951041987369693,0.06412395719761284,0.1812452561302123,-0.01300706102657767,-0.13257723083882814,-0.08888257723549989,0.04374825584322084,0.06835818644344394,-0.0253963012961567,0.028882003395322594,0.1834539212614167,-0.07397820816976097,-0.25351091173715845,-0.1687122674149281,0.003910108869928942,0.050379617711319366,0.019391932433437134,0.021981570261137878,-0.01193253209187392,-0.056939748385568985,-0.06597482339001769,-0.07220759905520124,-0.12156717309815022,-0.13244786543168144,-0.18456003510887076,-0.18068798849078507,-0.127312295853715,-0.11860395165140787,-0.1202718216818141,-0.10288507110609525,-0.08240128155913955,-0.16028559490607455,-0.16539557499800286,-0.15117057606044432,-0.19099790883889575,-0.17630509298397024,-0.19691940235405594,-0.1458490347330273,-0.12967919852562163,-0.07817249650202754,-0.16544486162415473,-0.18020322865060975,-0.18012784201933332,-0.1771300189369599,-0.20637264088770058,-0.14127942946433933,-0.12096890445084747,-0.16516020625726802,-0.07304282673238584,-0.02620491054014204,0.1408460777722985,0.21409325443386265,0.16813483371708043,0.03318266447407936,0.010010507590093233,-0.10906489608090118,-0.11252028206020744,-0.08616021927873553,0.18388211245659392,0.2818586193162828,0.347952350970823,0.10016382013312951,0.11959416077364134,0.004320739068958082,-0.10140991164678681,-0.21524341167126634,0.05977315052838607,0.14267846409743679,0.2378558234957449,0.2768966559429003,0.20831761439061666,-0.008529873889658042,-0.1744245718478165,-0.27137256847105196,0.07148952030762437,0.08781480964122118,0.14952805597045615,0.1047336469856542,0.060902009506816214,-0.07703495912603728,-0.16850048956580102,-0.10540012446036234,-0.07552705595635831,-0.08992112643729039,-0.024641554177721924,0.04782681132233923,-0.07552585021869483,-0.054624023341877034,-0.09996140729556231,-0.08634599762800804,-0.03739360544384816,-0.075922810373131,0.064847042231542,0.10922221672528884,0.05232311546012204,-0.018110829829113276,-0.08096056440256842,-0.07221201135260724,-0.15003605648997453,-0.038392327159896496,0.008956919875979697,-0.0003460140828715304,0.04874955810514599,-0.06692961877049222,-0.07919623455979374,-0.26218066281635016,-0.07751361049546479,0.024861340001042433,0.0015272283768093847,-0.028264076150267124,-0.009108257911512043,-0.05057989023718436,-0.07067512129386462,-0.1552525196265305,0.2880634796507938,0.1938784159688495,0.1343763605818984,0.1517475917471736,0.038291013343406434,0.009072245926086592,-0.07504390535903034,-0.1315132379266726,0.2536911403595836,0.21642653415424423,0.1521938078430655,0.0007533653839743292,-0.0635361923950056,-0.032284359537167136,-0.1384434630707926,-0.12661089389158117,0.24340223765924954,0.2159714455635185,0.00837701684969504,0.11150137769726064,0.04258212795697573,-0.07132012802151735,-0.1561983302949389,-0.07231909476990825,0.24080504533478853,0.16864939063552628,0.09730739383301952,0.133186236883878,0.04172911732868901,-0.05708536284338255,-0.07039143114834234,0.011455500342933442,0.10618573214288066,0.018388467683704977,0.0010283103152967754,0.023354542331856114,-0.11120829950893117,-0.0499804252326097,-0.06452514788681482,0.006225763623349171,0.08696528865469581,0.09156089975308078,0.07205247258355338,0.02300915731950561,0.008688762369719534,-0.05538332591227314,-0.07695616889370678,-0.0025766682830815377,0.0921511094377558,0.06643409223262578,0.08372235876057696,0.038743915192672035,0.0984529064667549,0.04462931494014335,-0.010279668947479082,-0.03284260883754531,0.09479460549844446,0.13274455799783716,0.16002541811599794,0.16916719411724318,0.17721889716984365,0.07699253118278618,0.09012815142038436,0.1398999353992223,0.05046600051552451,-0.02759298669378152,-0.10089200353590207,-0.1707302303564182,-0.04835026878130623,0.020048064803703292,0.07268165722993443,0.028923337106116855,0.050341838961904105,-0.09971234152956343,-0.27398405005624843,-0.3553824850027327,-0.24401343773432949,-0.06416116978113998,0.057618751102906776,0.019958916533642172,-0.018365615880848327,-0.10397654961468995,-0.20976033653905862,-0.09242276907180343,-0.06251022423623441,-0.018284749560914127,-0.01620162346931847,0.020924726119858062,-0.07445594692951744,-0.09307203438856582,-0.16736846843966946,-0.15563376627609898,-0.05548123093996949,-0.12330248174725167,-0.016000049672696054,-0.022397175892173406,0.0018164116466618955,-0.0315734249200469,0.008946014561615628,-0.04836297176219186,-0.0403826271538779,-0.0817621378624639,-0.13914662503464545,-0.07315675140896523,-0.13666173170499682,-0.08301677373545586,-0.061204809611801136,-0.08263409872334912,-0.04610927091670027,0.01517829383715051,-0.05300155846100295,-0.08821924106123777,-0.14892728962237753,-0.0520652035393947,-0.031523305647025865,0.02318911863213774,0.01499374545587338,-0.02632998087514753,-0.08783098042675833,-0.0869505740691698,-0.08385965273034798,0.05121895909357438,0.01078470988339869,-0.004798713101085893,-0.0038474685478948165,-0.07215427935136788,-0.11047130946924222,-0.03965349985831671,-0.13693076126129078,-0.2269560033771657,-0.28236075920892323,-0.19328807010629126,-0.10535594357634759,-0.13117602531976613,-0.04447574799947706,-0.05354055274662645,-0.21759685035788331,-0.3703556453071725,-0.21341045938146408,-0.1337215470075931,-0.0688406799907246,-0.12077311525872364,-0.027623634632585128,-0.06892234557276217,-0.30160965235082793,-0.30217920420717825,-0.16194059340676376,0.010672554285246008,0.06736582673701318,0.009090118832935114,0.0011926219952763985,0.018834844214915106,-0.20922592046684244,-0.2312784283083368,-0.13854839709906733,0.12961701330030925,0.0955741759356044,0.04867945548992493,0.1067048712664862,0.0057541273320362305,0.07800718688746999,-0.019334968044047003,-0.049043442774485205,-0.013991136191936747,-0.021040679137361,-0.011597501102823848,-0.03604272983003871,-0.03276053877664401,0.015193591043173993,-0.04951981832660191,-0.006826946710849065,0.01898939241331815,0.05641385290561591,0.06850838553473174,-0.010399421069107939,-0.03226286375321964,0.019888659722506724,-0.0003013810610756291,-0.02412508008007833,0.09482943338627478,0.0956103587665294,0.09213922962020026,0.055176419745750806,-0.017566142123816273,0.06813284593169207,0.057798022239132475,0.0856389471378879,0.14693821937502838,0.21262471118777462,0.14422358106487843,0.04781046458116681,0.014522146198644734,0.03390383274099419,-0.023304062106578025,-0.02257777820190566,-0.06806795336785243,0.018474505252484202,0.06888463701721613,0.09303662121153665,0.25933413786047094,-0.08212830998222306,-0.18019321803774038,-0.16024804317370767,-0.12172676477948194,-0.0245635901373822,-0.03508260451144445,0.04953818704182559,0.13484286666998763,-0.08071710799355263,-0.07890532107599449,0.02468197979557815,-0.132347595997474,-0.060357880545179654,-0.11565184369713216,-0.04428773240314139,0.06554633466708341,0.04583643087499923,0.030657397226671667,0.03766478664774994,-0.06688651439919684,-0.11213664088909778,-0.17283114812114247,-0.1435239558934965,-0.0190458713107793,0.08463498904706093,0.01714331139809089,-0.0047134598991414875,-0.0022128998070965046,-0.04016090373494477,-0.04920118448765259,-0.03718100028557122,0.01055023567258794,0.06108699763416118,0.03092492869027485,0.02665385916145874,-0.025049422619838935,-0.009788749424537505,-0.03163302969479941,-0.027651312431975848,0.0800963099616819,0.1409457416981703,0.0649763933931612,0.07110649297263205,0.05872648509987277,0.023058915797976254,0.05431628937648824,0.05077605789257158,0.06420773611739727,0.18873247071888974,0.07985769726444691,0.03673582894171362,0.08598175968490902,0.1293303136091413,0.11901101515067247,0.07296839332505665,0.08208920933087117,0.21015981755101323,0.07768940911528231,-0.06257224000398418,0.040007281797541136,0.17638056825994292,0.17807687110511813,0.1504175175765506,0.14763671799904224,0.16795486754377548,-0.0114198894083936,-0.1193756572718424,-0.003113597354253598,0.07827284225607416,0.1641344722297271,0.16296726254374896,0.18337386259074273,0.07515797750268022,-0.03373583273554845,-0.03302452510875076,0.13524659672119552,0.20066692402031153,0.2119117736554826,0.19292488914429382,0.19990685611778353,0.13360906783961665,0.05472826031239914,-0.0030086049978191,0.03963142080653361,0.21996541483636012,0.2062545219187479,0.2699909768829886,0.26007264252276185,0.06151997023330727,-0.0157728216662194,0.05961189289617239,0.03437570715426598,0.04981257538071686,-0.01278712958565733,-0.055082207228805025,-0.014178904319601225,-0.10852544598361863,-0.0035595727759085145,0.07564127523212431,0.11683011381809166,0.05912843786385186,-0.014554472851292402,-0.029593388591635142,-0.04106893597611444,0.044109104111722426,0.08825697090868545,0.09143431200673359,0.12120071040464896,0.05559178788453048,-0.0029018283516001114,-0.08652901414587316,-0.13475987009285853,0.05825150885639664,0.11066649866118738,0.14916655879770138,0.0857159609427635,0.06676906149110144,-0.046979994638960014,-0.11200199862171124,-0.12555596359096463,-0.16272336071369214,-0.14892091385587014,-0.04446681954250511,-0.14412720476089597,-0.11691139017562246,-0.15958889702257312,-0.052007730743075,-0.001140429877522171,-0.11175917635244412,-0.11960874418158934,-0.08306328085268831,-0.0717872825352154,-0.0815699969705353,-0.13242084214034766,-0.10555098682466756,-0.05509149660333021,-0.17369555611006957,-0.136081441033388,-0.14500034332916353,-0.1538132760007279,-0.060808671262530235,-0.08846510452369427,-0.061338726657389445,-0.05776602595706287,-0.0075165606102566155,-0.06550620809317531,-0.12140222546802293,-0.04133937568424887,0.12056857409286914,0.1642997246583494,0.17376110003142844,0.13855802063033895,0.023102618482020814,0.06289297368178039,0.10075303679072878,0.18204540710663522,0.04395254272257802,-0.06761186918928104,-0.08149703599929486,-0.14510919676319872,-0.02121822996334061,0.07285420530518032,0.15247031770488353,0.17799695497440435,0.13728609227492547,0.029978794084434383,-0.0183833527779593,-0.04468065411879439,0.037915134209987655,0.065910730020656,0.00806890178791601,0.023875643548041572,0.046363651219886504,-0.05953904726896264,-0.06902968646305994,-0.17396813174393802,-0.15101837147152467,0.0156902864689616,0.00232974455329908,0.006372189363656378,0.02740213649417954,0.04588397110636921,-8.911677532357253e-05,-0.07938197932169845,-0.12853854845897553,-0.2699626602526523,-0.24791826189460248,-0.24917539816186543,-0.10309658458462619,-0.06346691003112445,-0.006281073078222668,0.04212274153306142,-0.01336187761006435,-0.23658963717706338,-0.40612107627587735,-0.17876049974450892,-0.08014817397581592,0.00736488912730591,0.04585663265339539,0.019639289126882575,-0.06981542748112508,-0.1701585513123638,-0.20022402963689034,-0.016958642694975313,-0.06457617966525835,0.04912421416514857,0.04263285953522617,0.054419337212267035,0.15134385631642663,0.048048352677632196,-0.0324817626128866,-0.03322799697099383,-0.0027366450760449436,0.04701242384572772,0.05341593870680928,-0.045425047765440235,-0.08099216566369837,-0.19069331217683283,-0.21789594735368512,-0.20377993350403759,-0.11387868421642641,-0.0861120303576545,-0.10815459780469223,-0.11128823687483481,-0.08914411875855838,-0.15691350242523816,-0.11959269515341449,-0.08380004710563861,-0.08298874463569947,-0.03854059694880014,-0.12354291174728328,-0.0927186788659913,-0.15938712325845603,-0.15299480554521422,-0.12491817816305066,-0.049402514213401784,-0.07080268604228428,-0.08504811597038943,-0.07882552319376161,-0.1348209936680246,-0.3311129287759412,-0.15575993316706815,-0.11726609038034642,-0.1342110561990752,-0.0607334762929461,-0.02105104322680677,-0.05114760321213065,-0.04316399394502676,0.22332399701343425,0.13782889478796306,0.15062374105653448,0.15006790750481475,0.1301885278813324,0.06815376704261723,0.041297860265140665,0.02294783575770358,0.12314286205275478,0.1859107314610439,0.04508575544355014,0.12191141379079742,0.2753937334180034,0.17649343104023477,0.0798140513315965,-0.0649321417452472,0.05961352648371637,0.012240628833154164,0.04890987297958136,0.10174319164569798,0.12788692046540756,0.08990998271305554,0.02244602629363418,-0.06608792871729122,0.16112525040887563,0.21011635593890549,-0.008823446940060922,0.1277738832611797,0.015207394363419332,0.011421220054492597,0.06674999407296141,-0.08392963590519488,0.09693295756122854,0.15020735762002785,0.16144285227432847,0.1685659561530076,0.26572160893809715,0.07253619727349858,0.06342402900397269,0.06692574374331071,0.11142271426170415,0.14243443868093308,0.1187872864228128,0.20145194646678768,0.12121405051483237,0.18133517511718472,0.09659746706037681,0.11911284550531873,0.10425313132503573,0.1519966468174064,0.16818722099653907,0.21534714005333513,0.15295144385562323,0.05904163687931778,0.058367452354924354,0.1278489176828544,0.10479477462857516,0.16460521938361697,0.11749364819063704,0.12435890163152256,0.10098029260218284,0.1306319022574698,0.04405097781921665,0.05562269392142279,0.1548684455236055,0.07661719550136731,0.025336104832547796,0.06676116162560382,0.18461794248629507,0.2011751268683164,0.17283089449650868,0.17630371254406088,0.026998280454921603,-0.08106145964351301,-0.11714404321328377,-0.0964477852184954,-0.002946935928866371,0.13247924821380402,0.14601053523786592,0.19739328772203607,-0.08774456211381403,-0.08758906111923509,0.01537884858551142,0.010459948593144103,0.03926976756044289,0.08355865988801206,0.23908594762699353,0.236195930203752,0.058085595549172954,0.026281129506698513,0.011484466290640788,0.0700560280835254,0.22332540614873714,0.23348645496927523,0.35346541609723875,0.26701368743735826,-0.03667667671698924,-0.17300410507078415,-0.19865138076817887,-0.13980339231815234,-0.20841070728293584,-0.26770196630440135,-0.2863722306870773,-0.2810874703068294,-0.08135479336086177,-0.10613787528473427,-0.055760415026563835,-0.07665598692287791,-0.055669075725331384,-0.18704289417990014,-0.3029118098596676,-0.3060068164017767,-0.15400662118222117,-0.052604200626335834,-0.11145100773004818,-0.03671730550982044,-0.06484886295159613,-0.22041669508745457,-0.20910411843393348,-0.25395364370813633,0.008540472579217903,-0.09065481700544684,-0.1575001548939926,-0.031385252530386126,-0.07782460075798552,-0.19746284189218302,-0.18827218556508427,-0.2722232063589272,-0.02510125048852789,-0.1413111488351663,-0.058509651717625955,0.16518057743567793,0.22286344786091358,0.12438863662182127,0.09050876589037374,0.029924165682942396,0.0581293117616233,-0.13687798156102624,-0.17709200770142328,0.13091191067912133,0.2319332400598447,0.27277001372994525,0.11188376699000922,0.004544877677265856,0.06880297199969612,-0.08042517944233056,-0.24814560108209308,-0.03739886763955257,0.11874086651704467,0.18615665806940188,0.09115072562446967,-0.059815801465457785,0.17839627522772,0.024302887399105837,-0.14154972773774188,-0.14670720807619858,-0.07947989023839025,0.02496131100857064,0.03051365589994763,-0.012950015935509524,0.30500845813224853,0.22728030098619167,0.11577830224426378,-0.07106627130147321,-0.0693797185576084,0.05143135908759421,0.07603730571038775,0.08367106573063979,0.18052354999916997,0.16486226915044455,0.06956834628910034,-0.18743459219714553,-0.12658202453891562,-0.0656930509688942,0.03361731057716937,0.04992355453734781,0.22125504794591205,0.14986456596555417,0.007604957921699043,-0.06262325612150997,0.020670994861871645,-0.08253983645587787,-0.0004170717896976852,-0.10383013102932982,0.14847977456481953,0.09647708509057018,-0.015915319047084594,0.014450436119495869,-0.03837745131072021,-0.24725572342519736,-0.057750643591855375,-0.039153759762002555,-0.061264608671720976,-0.017251140540131524,-0.018782564369124472,-0.12114575718574064,-0.1288224654737059,-0.18304342186711356,-0.1902436350662199,-0.07822952437493846,-0.15024961022826328,-0.014565775808387676,0.01579571156930621,0.03524812490862844,-0.0073290940210286514,-0.07145263689275785,0.019878710000776886,0.07529985330950484,-0.048467127418456234,0.006797821582434964,-0.06314428840419245,0.07668316791144489,0.06695048058986398,0.05526354641789524,0.10805247151839642,0.1650228569199842,0.03190466185752534,0.15939566054364704,0.12847159494521115,0.03247705910024822,-0.031304560824056256,0.016493865053435496,-0.010271013430532064,0.09115558184033094,0.0003960384615731232,-0.01901712457213261,-0.052216679259691756,-0.10040636517957846,-0.08066493526001431,0.013868130334899299,0.026317045629897538,0.015150497053918334,-0.0449257129117558,-0.11255149677623803,-0.014291650083126392,-0.00041332713489292746,0.005540616924946449,-0.016118730476746494,0.016596989912286128,-0.0249532583265438,-0.07865410184648437,-0.04154094214641734,-0.014159776369785456,-0.08070428991649406,-0.050991941308360586,-0.1912728692232682,-0.04562790230471832,-0.05871471092052256,-0.09516811444177493,-0.03855344846611133,0.046350378578690246,-0.00512447970114111,-0.04577955803127915,-0.11878545091259247,-0.128773816215581,-0.12251492730840428,-0.24948125538037222,-0.44366802127295835,-0.3070977601658847,-0.2146215697544875,-0.21838004996944896,-0.1589283058936117,-0.20592968485532093,-0.1739959977335133,-0.07537356064148194,-0.16504037749669223,-0.355408815564175,-0.17736367170078127,-0.05849358257548652,-0.06986789601843497,-0.22106263294777515,-0.27854484426330917,-0.1843694984476237,-0.3032339852544118,-0.2834769048957185,-0.024194023140336217,-0.007386576482333718,-0.06960321223638025,-0.18619709506695634,-0.1854172584992475,-0.08581895935505172,-0.15082872042923978,0.003772354980894506,-0.055461582067031,-0.07482666901981166,-0.09004238141563485,-0.10386272463976692,-0.06275936170609023,0.00403819452866574,-0.0428585471544018,-0.06464409790199735,-0.045435560741376314,-0.13185140823444852,-0.09934148607579579,-0.17570991438781225,-0.16656817048785746,0.022066533473813044,-0.019985308945424312,-0.06634193872252457,-0.12601267650641407,-0.015441404125500284,-0.08719210013892902,-0.07817807154815458,-0.0959880415290458,-0.03170607355313155,-0.021593890923347472,-0.049421347570463174,-0.02958705895426074,0.0629407211919457,0.06744224063514088,-0.009461805631313004,0.03788987940912354,0.07189714515276108,0.006415262324454834,-0.03913059789021363,0.04178490424474495,0.1359490083714017,-0.06688705945393926,-0.004953750865595667,-0.08008383229692137,-0.07127874164242232,-0.06921394200083532,-0.06523504524774891,0.1185291324897427,-0.03102414624106123,-0.186597717064802,-0.33661492088744266,-0.14438321762217265,-0.06036229889465386,-0.12489946488298169,-0.13486472741552127,-0.11990927612791236,0.10989687451065636,-0.08012345399145801,-0.21216286534448953,-0.15857478700054742,-0.1604901959843629,-0.1708859425221448,-0.16163153132097516,-0.043237331504700875,-0.027741281166287397,-0.20865975470294834,-0.2317060183215436,-0.16890491726489093,-0.007239917402717019,0.03151353870071087,-0.016547036991376364,-0.0312684936655162,-0.23169069831862363,-0.18823919928378488,-0.2541540101983608,-0.11945862266424552,0.14746308962359414,0.1478661274588548,0.0752539537196565,0.07258120240288853,0.010216489435134908,0.029890146771786082,0.0027657149491591556,0.016273200056867786,0.21410373295405685,0.17127223421138085,0.07296168287134139,0.1703780398384241,0.14342751957506011,0.07678651858752074,0.0734064519024702,0.06847232832408266,0.19749973397643997,0.2027699378073183,0.08192872745686076,0.1777353166938494,0.21125912215230755,0.1551727929818923,0.25385876367953836,0.09064437991068022,0.08665131741084808,0.15569074412686892,0.07407895901123164,0.1358752145996825,0.15118061594846505,0.21365835688006196,0.26810752680289907,0.25678186735663716,0.1431279506635,0.1160758433831125,0.10521064201742365,0.003974421426930817,-0.12361985238550167,-0.061655089163136244,-0.017012868917884127,-0.0017342529182954433,0.3041463509145831,0.14274239140175168,0.034710181198690314,-0.11494235440957516,-0.007228415633902783,-0.009916559594737867,-0.012111101336139908,-0.06454469804527878,0.46981203986774406,0.2195093166725494,-0.20226059134541036,-0.18152470452434533,0.11936119482946352,0.05979312484703732,-0.022093033788183218,0.012930859041704055,0.43818860129779325,0.06634623544102068,-0.10081706502721213,0.15876968299654334,0.1333746702964846,0.08268166844055018,0.01077547390104161,0.20043021365361427,0.061913750700345584,0.10105911273606827,-0.0058887605317992035,-0.039761044312877095,-0.03031070665570208,-0.034360871269044295,-0.0181955344830913,-0.026803526351007346,0.08584715729860154,0.12044920226002272,0.02055969507993426,0.09523346406159236,0.04935191639667691,-0.004763163380610317,-0.03174007466483495,-0.011754469544824534,0.13474867071039098,0.12280081460960798,0.10053178252787111,0.025551678726619387,-0.009289298856310626,0.017207816184220466,-0.009554673709251229,-0.021713936954437185,0.04338439858633819,0.09117784140990906,0.024197883598445852,-0.06087709915708972,-0.08426037582041818,-0.025210038957724574,0.054757899224140975,0.021885131919670373,0.06836390793250971,-0.04122778291996188,0.04356859529292741,0.013894361394263628,-0.06660034379967376,-0.12828770378222246,-0.0031925577432880964,0.09154484862779337,0.1769182107100827,0.12184004398213538,0.08081505185487221,-0.002308869233399219,-0.11782530544006842,-0.17171965231436045,-0.03188056656149221,0.04905354411778026,0.38005223341967614,0.17728748072135098,0.0425679957819639,-0.05415325725798014,-0.15826430826214916,-0.2752438444440857,-0.14039675267555507,-0.02561465312864446,0.17688216817151228,0.12350307865031421,0.06182858575955224,-0.009674529830052965,0.008322395859152282,-0.11382274864114048,-0.10305577751399284,0.05103110544004988,0.2736216570603512,0.16367754345441082,0.12599237985638553,0.11551068567684054,-0.04012144461065602,-0.060366328908489336,-0.024869698971290027,0.002501877564540414,0.2669661174957963,0.18388615505789777,0.14905812375695954,-0.02949896896765553,0.02163188349005557,0.017079105574514898,0.01276885815403421,0.006906125711924405,0.17493096500792082,0.17532414374206715,0.25121377519072036,-0.0012775450602670294,0.09577356606988885,-0.07458875614432231,0.07535655252559845,0.02528479073398194,0.22112855535739004,0.2552042233954112,0.2979003366745115,0.2161600392267966,0.16201729650860425,-0.056511537397515764,-0.02697872532426858,-0.0034264776598344968,0.056732810660420734,0.061357678502943463,0.12046449349390995,0.20660280092461963,0.26838786555958455,0.3438377637469249,0.3691404493930752,0.20159623502923743,-0.12128930722428267,0.012030357979680075,0.10737124433267259,0.2596830954448769,0.2783756924330268,0.25935561963072773,0.21393512547735757,0.20056339297884512,0.00039586987120636993,0.06655144227982047,0.10788055730617782,0.18607214453842735,0.1386506219876383,0.15343371983378815,0.23707300273289167,0.1835432178548624,-0.049960732451176736,0.12275676840429073,0.17809116632695862,0.03345462117180432,0.12058472893510803,0.2399243717647345,0.18023723255783303,0.0652372316188738,0.10638827323791537,0.0015391076834044648,-0.0716621990313889,-0.17353644253003334,-0.17284307049331712,-0.19406941886674048,-0.1568226668015352,-0.10413700248982562,0.018836448083558388,-0.10260625941377277,-0.1116679103879753,-0.1518015364942256,-0.18185252088044992,-0.16197657732827578,-0.11200879840308374,-0.09617634346812501,-0.056605458549952394,-0.09588032521209061,-0.13691521930771075,-0.08424923256385089,0.019432890735210973,0.0182133962136161,-0.04380746836803043,-0.09693124895539072,-0.08421258744852284,-0.09761210167396613,-0.08365638133526147,0.008696057678565204,0.0885706527748721,0.010429051806238404,0.06593931089057789,0.04866264779320981,-0.10439343486492224,-0.0752644301116704,0.2125815187191231,0.17098340491960354,0.2048783885960934,0.10007890867434246,0.04005976953419952,0.04573405211385469,-0.12712128487289598,-0.10654663364691165,0.0325241913197101,0.18777277410433543,0.15187997429941402,-0.014716086042347084,-0.06412333728289413,0.04065833032114264,-0.1098443437395969,-0.23752678446237718,-0.2534561543661588,-0.06439273528078074,0.03782209919177117,0.07916498938351928,0.06088628965608381,0.050879962161830175,-0.3545993747230423,-0.35997062278596126,-0.36173581501938046,-0.2945011151679177,-0.09242223585182191,0.037189577413835426,0.012385720107043875,0.02048015648681683,0.11976208923930366,0.0886884367637521,0.05849559140785888,0.16964448934455717,0.03994060987294219,-0.03817742870526734,-0.06329481350129128,-0.046312098767884696,0.2188440878602473,0.10340386459230283,0.06379474958484996,0.11279777251518194,0.1357751332503981,0.06353565380392455,-0.012170268766969281,-0.03454366704087877,0.1605863614126145,0.08275960188793312,0.10908523929300366,0.03277141370262415,0.06980828203506714,0.17068181517903652,0.05460084032481308,-0.07217257811748615,0.2012537398684558,0.09490200593416177,0.05444173430112683,0.03934886379285343,0.02072008394955099,-0.056162433085008026,0.05483009556987748,0.025350040326920897,-0.26414413115104024,-0.32689288028465824,-0.14610328749188758,-0.15750946737956095,-0.001223353276642354,-0.13447199331581147,-0.2228200764272829,-0.09868052983571847,-0.24137232066190342,-0.12961685635843706,0.022326325574351,0.09613829839329095,-0.04428286579229279,-0.14776626195634893,-0.18361907454217244,-0.16171637004633965,-0.29909682629513634,-0.14640260729242313,-0.15264138755520387,-0.04201014385744898,-0.06757137565472883,-0.11045132010400385,-0.16102188115445804,-0.15806231621553096,0.015973218073450934,0.07876873122726288,0.1321843781695914,-0.0894947317923644,-0.21398050106644373,-0.19169774766196246,-0.09184596023150278,-0.12495544192892898,0.3437954186447362,0.23664024368218697,0.10163929539781333,0.10664433547757737,0.03792710532073834,0.029988379957950333,-0.04716926452003196,-0.06241151277822027,0.2843032210308069,0.20607533150998944,0.18218539093120265,0.10600745922832988,0.18234049099823052,0.13559101324520256,0.10901727500203336,0.049313449298516186,0.15600879773752208,0.2095984134215694,0.1754151400669852,0.18165096052022298,0.15809632979612348,0.20495789655084248,0.1760249044152853,0.010851520873932322,0.11484256562979539,0.18798478965711768,0.24348139637273405,0.17270595147755388,0.135125151678178,0.10000235436230338,0.10666337069428658,0.08393196063670891,0.01106101466337659,-0.17043129897323392,-0.2189893729973013,-0.007931886344300814,0.09286809725049036,0.014731230693627636,0.09774347209640986,0.11101453696621162,-0.07307447308880226,-0.1987649647619465,-0.128994298371161,0.04274548972956127,0.2933579281317817,0.24023721387551894,0.20384358428721042,0.07997620097824656,0.01858783267340927,-0.21207137687001787,-0.15863903814905897,0.06785938174974315,0.29317230921324006,0.22058395549176796,0.15236784824274602,0.13718050590652123,0.13133928640000128,-0.07532545335991449,0.058181985340271636,0.09500364916029276,-0.025166213871082505,0.19016889246113866,0.0414827567669732,0.18689218898567952,-0.02903535946836272,-0.054818582855599554,-0.005541213459275427,0.1037907919125192,0.05442149017388452,0.04875955772122292,0.01751210802793862,0.0174810090878549,-0.02088380627669646,-0.03365715867868342,0.018092080116864293,-0.016566189189931208,0.05897181030202542,0.03546136670937389,0.04189146758183411,-0.0038027265238510747,-0.06413437346520055,0.0033363670715588142,-0.10567965907837813,-0.058377323605699805,0.0540632765944276,0.08763164575349407,0.11447426239228742,0.030212006562955685,-0.024081359510779648,-0.05902372348035667,-0.0971497503021157,-0.03563562244026644,0.01055726780510688,-0.021088616213593807,0.04547112918709409,-0.05246535267823014,-0.03280251337097767,-0.09689902044148709,0.15653962297901927,0.10305154425441439,0.24017607571533453,0.2614368056183316,0.2071603726534773,0.24987560749138904,0.025345845825093555,0.12692547168380489,0.09886247098727126,0.04873127032607538,0.12101238798569601,0.2861117325163807,0.25574936706117646,0.15781366091893415,0.020201823149102353,-0.19677648452023497,-0.07556946677513197,0.17335693922917927,0.22890432731713184,0.0665037095538009,0.08897144310484924,0.02270881939094527,0.011713300752380975,-0.13641779602367637,0.03102994257896457,0.21073750771580504,-0.06736115484020738,-0.0562833040129629,-0.005085570998428701,-0.03916933045720058,-0.07647144654154402,0.039553310556990864,0.09592229847376949,-0.041833855628986644,-0.1302439743237664,-0.08430458225488666,-0.06136553027648046,-0.05991195438327264,0.03152252068894993,0.09061812049454229,0.08224283251675142,0.003918536213895675,-0.0460674346695556,-0.008647851920838199,-0.01856606121490012,-0.03748520607336235,-0.051029362929280744,0.08049307115999046,0.06077324404025918,-0.028779319074039245,0.01202082423755792,0.08029218140297661,0.0592160714959167,-0.04058616203800545,-0.09651593074276206,0.035535136612736745,0.058572399449506665,-0.0034121751469071582,0.025258587162680906,0.09765382251976987,0.017250274094816432,-0.02232886272970018,-0.08927964634284628,-0.17618886907310827,-0.11634411541007741,-0.3273576108686891,-0.3746499355366791,-0.30544772594908237,-0.2016442174455166,0.023633557079147913,-0.0861322733838303,0.025518771732416887,-0.19984867448512422,-0.10011826248570845,-0.1646511619744229,-0.18462042330633316,-0.11787221220367904,-0.009485919800333243,-0.1455147654458319,-0.27346131918682265,-0.23057387821723768,-0.08711376142541677,-0.1369521305933432,-0.12705384323990818,-0.049707516243701726,-0.11441311679337035,-0.16342849633804746,-0.2391648060510099,-0.3410187855403997,-0.3270633404209326,-0.15211958393406924,-0.09287839249428903,-0.09557393271921741,-0.1106370132483077,-0.13031053428189515,-0.041327160096091664,0.018427232328774995,0.00804567655569859,0.13336605699713952,0.1617700109677899,0.13032381764286322,0.03754464357056838,-0.1524962213763546,-0.019920846090477232,0.03699197492214258,0.07414213284849912,0.1257017661750433,0.0997508056641152,0.16714865252522657,0.09675882611138482,-0.10548889474443522,-0.006782862024923324,0.023635075810796827,0.13821253172650413,0.11176364249758296,0.14782999127491794,0.19130055704784873,0.23279736325192968,-0.08244443316856838,-0.05387144466862733,-0.08817003871673836,0.089897072116281,0.10303123389799532,0.058290724105841615,0.17160590524315458,0.17910960559639622,0.04276754763800098,0.09553173550026699,0.2893230766614869,0.13330063135670248,0.06185293453846381,-0.11381819591845581,-0.14210278183105485,-0.17248514954881478,0.24340550252006887,0.2776621964206804,0.11236818778208366,0.1486911757640818,-0.08715141628900863,-0.16720439004872995,-0.15826702686816532,-0.13676643049701245,0.24026867633959803,0.2994544734121516,0.12992961467522318,-0.04751344326340116,-0.17553555292005057,-0.11748326814096595,-0.12727142080452106,-0.15373001290394578,0.301182396125735,0.05253212505908027,-0.12699446656785332,-0.18279452445467034,-0.09380555062760602,-0.05975904228898403,-0.048362976799336634,-0.16503235051783624,0.1809697317622878,0.10267023836687283,-0.054505882590932454,-0.03380100709194981,-0.015116024560855706,-0.023262713549101317,-0.08597360395131633,-0.19724628821865448,0.21860000157945692,0.10107569255329539,-0.020486392998657666,0.03154649182468616,0.0778177397921726,0.035489630478178866,-0.0457850801075163,-0.08311527320160397,0.11206071908975164,0.06550398112153398,0.01296877880053696,0.024427962597501716,0.10746348009637419,0.20438867132937835,-0.0844715553359261,-0.1637462416934224,0.07182302432395264,0.0763229085199516,0.02817588940693388,0.1462416648828364,0.11498053297661354,0.02137448058223653,-0.0709300741515395,-0.04272916075399575,-0.28939609971349106,-0.2643241194683154,-0.16525908650991372,-0.13031101706036669,-0.18190380545862436,-0.1688938830095486,-0.26049678045977115,-0.2984614262579351,-0.22285766584336453,-0.2852362075229202,-0.19154765550028835,-0.0878841698950052,-0.23169750218305948,-0.2863159418053046,-0.2951572854951194,-0.190622772681868,-0.36752616844867736,-0.1844781320908172,-0.11299570952443785,0.0190759799338705,-0.16927744370393072,-0.2262276452874101,-0.21502068376645786,-0.1685940279447039,-0.04339505124048162,-0.15481015162925812,-0.06891448772630543,-0.2970541939136277,-0.09793516998416431,-0.06199482366875686,-0.1700953482954125,-0.13600080069738762,-0.17659977084046008,-0.2659361774156082,-0.26046836663848966,-0.20279653785861557,-0.19111098774942928,-0.1322880945951433,-0.25010515396111255,-0.30719877212695174,-0.19467986542493115,-0.16879373211047477,-0.2252553691450596,-0.07424459766292656,-0.06213725447595589,-0.05844766582661786,-0.17642885216020163,-0.20340563338795312,-0.23658733937591123,-0.09904451013163887,-0.08924156549935248,-0.09862474600346308,-0.06882100748574593,-0.08350844441522104,-0.12934372410249342,-0.18575223168374222,-0.1812163317467829,-0.1698264267713563,-0.12226705335020771,-0.023693138238083982,-0.05169637881798959,-0.1696775369405065,-0.1292321778188671,-0.16273353681440916,0.05032978671174543,0.01200589791765204,-0.22560704423564287,0.0010191646166095825,0.021945177081590793,-0.023380966665037667,-0.03699001981527134,0.0038682186288948052,-0.02967221167930386,-0.009410725961574495,-0.009522383024814838,0.03942194741410587,0.11088152077166265,0.009191424762928677,-0.09631361088141918,0.013705357698612051,-0.25066438550634423,0.022929619198359983,0.053729292512673325,0.07592435137467851,0.06611614697543652,-0.04771525999875568,-0.08865247540867478,-0.1241408502159398,0.015550615409560658,-0.0603821061445451,0.027935302734506593,-0.012034953643965868,-0.09872881914149888,-0.1936196147134947,-0.21904166897112434,-0.24903301648228546,0.006817234461120374,-0.04841805735798634,-0.015147578652790143,-0.0071786294189003065,-0.08340213066082106,-0.17380568345178962,-0.12497530313779029,-0.12143698930591645,-0.08990626327095075,-0.013224109562782102,0.04115190354385638,-0.04278438975843934,-0.02501356484309836,-0.05336143792774121,-0.11076985898239446,-0.05637913968288724,-0.07289000568792992,-0.07084965944252773,0.021702961233152518,0.009401729975334552,0.034802324952131626,-0.06376368356751594,-0.049618024664871405,-0.03836363803892199,-0.025579271106456775,0.014057047268293502,0.09723331683278834,0.08522391344256466,0.08769688605546631,0.1687324056719284,0.11784246699080955,0.044412934301083506,-0.1243665286854741,-0.015623442995428886,0.1359009179501482,0.14246744900444977,0.1563661876286659,0.17852423026439318,0.06020502843017807,-0.015889399825488783,-0.15111149065731805,-0.05953132585852887,0.002260465365682856,0.1408630161625859,0.16938587061644753,0.07101135569471693,-0.038482700234699616,-0.13924216967716826,-0.2371902268841439,-0.07903473316917158,0.08257067904882746,0.32813735700188135,0.26270834045537117,0.059344973825391126,-0.031539494091359116,-0.13892118548973315,0.04869483461895562,-0.08267605099136979,0.06150656073771566,0.3152497065437648,0.2673671264122121,0.09944451912044894,-0.0010114754270359758,-0.08143645454730251,-0.08622753813438169,0.06919511161741394,0.10476548788959686,0.12042787219903463,0.08452839434454879,0.05077352494488877,0.05177935703461402,0.012436601814043179,-0.1227858766526453,-0.02681081892802412,0.05479511748060001,0.06406101711485149,0.0865873084836307,0.049225725954522515,0.01815373458391775,-0.003651418750999783,-0.032209226227523514,0.06838029757761872,0.06220611210556186,0.047962097943154314,0.07536181792791612,0.062194927979440845,-0.02651702823912454,-0.08509414628549843,-0.1645906127027683,-0.023030244807557988,-0.0030176332138063685,0.04329459214900482,0.08873137451835529,0.126436236700543,0.08636551182598172,-0.02522715182656681,-0.13298997385310493,-0.17497254580082336,0.15071424426146102,0.2780147989841731,0.1849228300503143,-0.007944188765900735,-0.03174950947006537,0.07594284653977408,-0.23393455420077952,-0.2232374812436786,0.009631703290146235,0.055700150258934295,0.06945008536013628,0.06451140455850124,0.0870299649304723,-0.17293036812325716,-0.2379798152124624,-0.3254115855770169,-0.12592409637361876,-0.2679696345580817,-0.03338952596275319,-0.17430729728577252,-0.17116747743887364,-0.2955773510510067,-0.02525279219308797,-0.21946065336095455,-0.18054677207631173,-0.14634357972119125,-0.17772635883879292,-0.23365717077808038,-0.3520062358871323,-0.3577088215017,0.10321971958554359,0.0411954426121058,0.1901360852248471,0.13577607742089223,0.06900255733990351,0.08607463879677604,0.13062278313424383,0.07810616453800198,-0.025836570502376543,0.03634393642069061,0.04470919670601591,0.15278688778464874,0.1458536097874057,0.1501059035871719,0.1117872190309263,0.14470044199016502,-0.018444148135629904,0.06273568278695289,0.16149806590061958,0.21609987297207858,0.21142018958588651,0.07652669564543567,0.14151906409258286,0.11273510712658316,0.0518387936817648,0.15282570519507122,0.1872645300579206,0.1573211745009118,0.14752403557047686,0.13719764494210004,0.2093524156336341,0.09161486020635243,-0.014764983375108334,-0.09303484677804885,0.06865903618487972,0.058410087576283576,0.007934061294247738,-0.037110494422051464,0.020553815136143707,0.236299445653416,-0.03349955957442758,-0.05043390793370706,-0.05425863533985403,-0.029731429547620047,0.09971760336115595,0.03912788793048557,0.15380400696047747,0.34666895455998514,0.03937012546272615,0.0010775410071069992,0.08255058622437603,0.3002963146451658,0.3591903247778117,0.23346309097324727,0.19579923069282393,0.30829341597952553,0.2519092119629243,0.004935332584393205,0.07993213474489358,0.23137737572061318,0.22550219883647077,0.2675906375777074,0.13961580110863206,0.14889979309227996,0.02385987399607307,-0.05490433919986856,-0.08308412776454156,-0.12913186204530075,-0.19425753790584063,-0.1494576081227415,-0.1114907333177593,-0.09088106846661367,0.09738543811921646,-0.035899046886359844,-0.14250873950634185,-0.12875423284813345,-0.14572707686515943,-0.13738474634383557,-0.09572390233326393,-0.08583911324303288,0.18686229596007603,0.01791807423781654,-0.11602393471111452,-0.06502877628895361,-0.08780611659158,-0.14550699758230137,-0.11013865550812409,-0.12378197515967185,0.11005438516527023,0.02056980855360764,-0.016250317489903916,0.029329331010675513,-0.011279968729015223,-0.06693497397356797,-0.05872456953749126,-0.04401596077997599,-0.003828950075364487,0.05366754075713131,0.1057074828629748,-0.040905539981134845,-0.0106282139456634,-0.08242014160916662,0.025187746594803755,-0.08880182924525412,-0.14004190909952663,-0.1609450219281009,-0.130665392827616,-0.08722151117481924,-0.11682293941278445,-0.08433130614782286,-0.08520794454845601,-0.19644173165922807,-0.3525304523357458,-0.3211768993367121,-0.5567701939985963,-0.5002244430695382,-0.231381691312242,-0.20533752801887106,-0.1671630933984229,-0.155945305613114,-0.2736914069896271,-0.41719508836113367,-0.4533676252118333,-0.34600652139273824,-0.2679643408338328,-0.2034544433881318,-0.19219094612416504,-0.1678128160624782,0.12570626985833178,0.0950260084101773,0.12668977971960363,0.19167558214172334,0.19721587705426047,0.18152189348054928,0.10592415584091176,0.08110972791749838,0.32566110403679427,0.273541307801224,0.1405299507947191,0.09694255607928748,0.10694070125500087,0.024369507804463172,0.015887195791651633,0.015329112214492865,0.2302255035646029,0.26725009892280904,0.1567532280170211,0.0904617025838018,-0.004639838263419324,-0.01575832343929521,-0.03804512322208807,0.009294225215220758,0.15614399156497102,0.18637036484401528,0.16553489381414496,0.07653042775820902,-0.03109480190612211,-0.06817661398918204,-0.03526350914532488,-0.03756641823132556,-0.22733035941227747,-0.42661865528811305,-0.5808229989439447,-0.3051126511590804,-0.06962343793602022,-0.1137743270272414,0.008380700759839911,0.2865145814998976,-0.07218795234926345,-0.32150954412392935,-0.32681505496325136,-0.2642526325135175,-0.04758521122304857,-0.06224245104328645,-0.008253228270889494,0.021020218976101266,-0.2804580582574876,-0.21512966551981774,-0.48827206814101826,-0.32671547930513817,-0.1372518809690264,-0.03213964878259984,-0.06246675628941705,-0.012313224353077792,-0.07359366181504436,-0.03660182603712986,-0.36690477554099804,-0.35719618593397706,-0.11905726994147868,-0.01266907166570431,0.018223416243129165,0.07672930220166936,0.03128237452193682,0.08747220524364557,0.023665720564470194,0.018757028514117015,0.067950523056814,0.054193250075626684,0.0348113505935169,0.007984838993237103,0.005639477487238698,0.04981657433769266,-0.02137353716823631,-0.011493753207405038,0.1268104593500461,0.14465175889669904,0.05246206034222092,0.08806626332360695,0.09996227215812623,0.11125280648671175,-0.03313144481598041,-0.022779442908239866,0.03800108908026281,0.041753037745723844,0.024004031400545113,0.008207809169120363,0.03751397193316237,0.03039974974937248,-0.005831356989035783,-0.024281551492020204,0.04237628707962633,-0.07689301280680272,-0.05598773384034854,-0.029417731747903776,0.3964852379989584,0.22478500357926304,0.1080139423698391,0.21875567058443807,0.31011926839773185,0.10120578221663817,0.09544233221140812,0.17234050517577926,0.48452925724558177,0.4212319773174021,0.33516125059678836,0.12812136076885397,0.1188255383669594,0.14716394106716144,0.14320290854055573,0.04620150080098966,0.44037355140159146,0.3281769617636297,0.21229937471640306,0.22834541395096333,0.17649935308497786,0.05696663130022159,0.010196764170291816,0.0024317871067212177,0.5399571161248791,0.45718715109379593,0.22700864780048657,0.06683405631943844,0.18856932896204062,0.1040307231319077,-0.015502019272271293,-0.11190227990673762,-0.06431658174823308,0.013519735615705816,0.023085751629460916,-0.10527784883339776,-0.0012815562610629173,0.04122205276704805,0.14604140021255851,0.18121537959908193,-0.025184900215474457,0.07821678119337475,-0.043535089944623635,-0.056770289641033575,-0.031962115925101696,-0.051574596244218944,0.16026319171352202,0.1138798563255379,-0.039753298798935015,0.036589445173033405,0.06623322670595316,0.030070052965604385,-0.04230536679705807,-0.060460035507125004,0.057370295566808005,0.14654311246906898,0.008761323172407647,0.005076624024382548,0.06184100778481779,0.017604671887933174,-0.02494901210156356,-0.04094852349503863,-0.05316926592069573,0.08191715362804593,0.013753467149745492,-0.13288281890274542,0.043655643908765016,0.18220220935500406,0.2657209919598281,-0.04447712475262945,-0.1215470536694576,-0.10141184022003427,0.002591967706605684,-0.18041224871628306,-0.27678431590785857,-0.050338263356651224,0.20803453713754752,-0.015879801204958254,-0.06710011115131695,-0.09119418778856159,-0.07039155274263245,-0.10197569949260812,-0.2766266446606851,-0.24901686002179563,-0.035605270118931505,-0.16051180378810126,-0.1432309347066475,-0.17335439326527197,0.08843091175730342,0.001612886966134884,-0.16761252176101415,0.0297536194601761,-0.14022186006762052,-0.2150249178461748,-0.061950321747863676,-0.09253132822362646,0.10495916929482108,0.04214217159870304,0.033001062552168205,-0.027062272491326145,0.036211949070207576,0.032925021203738636,0.018477086920845584,-0.00022408279916255914,0.01781761806557259,-0.04774176865153183,-0.07427867077270296,0.05386976730691049,0.03204897375275259,-0.08732546967920243,0.007476819555286495,-0.05603947371996101,-0.03328287908084873,0.05132209055542671,0.03547455185987136,-0.014070154723932159,0.016809249160685366,-0.06847026128013213,-0.07614030182068837,-0.06789644308028248,0.060858628394297454,0.1155156968807006,0.06973445464525495,0.03639231178552103,-0.030297699043298577,-0.15378707192703633,-0.16523985192539892,-0.07987070643119407,0.015496072489711897,-0.05396026407854261,0.0804984261274313,0.3773563087439196,0.24663984468986552,0.17406889857943236,0.1251666039480905,0.09125578646716932,0.0681859671050422,0.11506767656018191,0.09161390373797823,0.25154957209062034,0.2433630619214627,0.2183026495191961,0.21082513151118154,-0.08296615822867506,0.2546825644143578,0.06141869973996844,0.16810116258011104,0.13087499364801136,0.20938900112573128,0.11299593100467833,-0.018223774364583837,-0.10972900123420959,0.3038495538578682,0.2698126253442226,0.27842770244741033,0.27397865857149273,0.2491230325631295,-0.0031010048051833944,-0.12367185369238161,0.04663794149873739,-0.048577878926412375,-0.1120335501537074,-0.17086238527466388,-0.0657025140868282,-0.0627917743949673,0.052487952498129944,0.12895754765177858,0.14172489754411513,-0.07875362713469737,-0.14263414852719522,-0.18512807670222217,-0.2173742356138209,-0.09186963196376967,-0.08580424185481816,0.11896585530340663,0.1792085528051808,-0.20611444379680466,-0.09510082508670817,-0.16667028232360623,-0.2985879560162889,-0.11549353391888478,-0.015659783388722537,0.1583220057971317,-0.03688534681108637,-0.22070951809407366,-0.04741688755375614,-0.09824077347544606,-0.14645236327805872,-0.060454414863699256,-0.13368745349144545,0.0964689237474141,0.09130492972999445,0.16679974903298303,0.05863298340464073,-0.0441415945420829,0.09852367039998684,0.0097181772281085,-0.0050963569843767865,0.06901702483514452,0.08947718289617625,0.04845037064718442,0.045991532731843796,-0.05851535067210571,-0.033581810373713473,-0.05735288899538961,-0.0038182357813694367,0.04728495001014469,0.10088123649837334,0.027040319672812417,-0.055639596046813816,-0.1252055154498847,-0.028012313316701905,0.08826419134244093,0.04131612494513428,0.07419792275680405,0.16981477532633613,0.10605623706429274,-0.018163802742945566,-0.15002614173270112,-0.1405572907327168,-0.04064048104064035,0.05186492013875405,0.10705777891035999,0.22531602453411229,0.18606014209668198,0.1820951366197259,0.14517672966952372,0.048151697440005636,-0.07970770817469772,0.010862929070679414,0.08533318295811065,0.1691624069700142,0.24224820748825018,0.24335597405478726,0.1444377259270079,-0.03921541875636968,-0.07942517393532404,-0.09976801532249578,0.04009780448878861,0.12467831320365719,0.08522735041230688,0.22073408938946673,0.1998125502869352,-0.04831601287429326,0.01921755443650795,-0.04060713522355266,0.015499591320725887,-0.0014156807121425438,0.12071304055283032,0.2085857204457148,0.12337703009515864,0.08529715151158826,0.00968916803838525,-0.12314444506510187,-0.028623248761515924,0.01823025147425126,0.05817864789869161,-0.027296342606569744,-0.18147987763054507,-0.2794482519230871,-0.18512233643840134,0.039920508094338024,0.03131106334103341,0.1084256560863384,0.13085942926225486,0.17569721174391836,-0.05083354556315903,-0.033439358126207325,-0.05120615973098802,0.0324531901203603,-0.0420975377649303,0.07699968063309352,0.20189236269182065,0.06994972965944035,-0.09037671257248509,-0.18615493445510298,-0.08270374654175372,0.08186860002327179,0.037536732334787895,0.05766725610572626,0.18555932907748632,0.09787612850820412,-0.2298113900223619,-0.36220667484588287,-0.08586953676536845,-0.025829810157504445,0.029264521077151048,0.15352708678212806,0.14472940744243196,0.17612981467738667,0.1867795795855099,0.17872260848940597,0.17860876902150666,0.21819392272995675,0.281734161534748,0.3089285085763273,0.177996299842381,0.24312445417130782,0.25318304367482514,0.11234260932760004,0.2159944371694186,0.23316033230651056,0.2995449452456042,0.33909902085396126,0.08891366662744982,0.26160864786343785,0.3081484725498342,0.19193666433588666,0.2628438826077547,0.11865950888891945,0.22399607096655633,0.15500277698289644,0.19307108908452006,0.3479045519244897,0.3607859079098737,0.2640735566334548,0.262525024931665,0.12138687791331423,0.2260697661621323,0.15364421988152072,0.05704348202471895,-0.12988956103825133,-0.23630051966513327,-0.24086432049211784,-0.10194512781955518,0.06271995573696967,0.171934691843436,0.17232193150545724,0.04520935343137188,-0.005272345061791773,-0.08904712885573947,0.0346228077092058,-0.1467263026961312,-0.1958316055021742,-0.1046522332728857,0.08459209214920652,0.0950804785722948,-0.10892754480969213,-0.23099970667718922,-0.11614514892672237,-0.10673708916675781,-0.03722760833119031,0.0020994024478717998,0.03835262437606921,0.045993001578034556,-0.1512733681769106,-0.44802934102107067,-0.2750274533601589,0.00933763593254217,0.008888460595112715,0.061138051887045415,0.004801592490075041
0.04524905355162733,-0.03101063945413863,-0.03918261074708723,0.0257452370170135,0.1607028164347337,0.113939895372456,0.05959763221285479,0.008686923766142733,0.16335161918785704,0.08637498118943172,0.03738564849349303,0.07996343726561327,-0.05131038963453895,0.004500769619120871,0.06603435629335372,-0.03650502050902492,0.13741649258741662,0.12212412776459444,0.07302188267838058,0.016451640648976962,0.013072325183633611,0.06248148234629889,0.01702360085318967,0.03473613489122429,0.2089757058899961,0.17492192868014023,0.13158390040071732,0.009671189675840047,-0.04697689585211039,-0.019998448366921533,0.03349663738607016,-0.020561140810780445,-0.12103811127823029,-0.16590489717341167,-0.04681140320677021,0.036347723347467574,0.10136306087692994,0.1299672411674585,0.13772689830744542,0.04443720280344015,-0.07153468879552212,-0.2140365778885375,-0.04164923487728872,0.10687999401401957,0.1069559944225718,0.09037698338776427,0.09964533925760334,0.006147824667906565,-0.09617760734832685,-0.059526841548329205,-0.03491508279558781,-0.04161032237483004,0.01570639962211908,0.05710567535031103,0.08477515035080951,0.07997896475965854,-0.012761517797042892,0.022367735849683358,0.07047956820511246,0.11112731191224492,0.07720707115023173,0.07822346831639644,0.0509873839384359,0.1312820210539904,0.03286736834884885,-0.07252078222780002,-0.057803202502081936,0.014959702897512053,-0.003246424968014775,0.052163780574187114,0.09094577936783603,0.10840708294847251,0.05083232730293997,-0.09059841228297687,-0.10429757050827577,0.009251711837413397,0.03989163208053985,-0.0012791088297552404,0.0989942383819377,0.12495511442051391,0.023693475983449095,0.004146982180690774,-0.016145030032522302,0.06570459674238865,0.13304207524969883,0.16869856849641954,0.12624960110010783,0.16351065921568023,0.10575067070812423,0.0977412469679401,0.041319260131610004,-0.0043303825469289325,0.052970197136834714,0.1441528959269631,0.12138094035290943,0.12679859286059814,0.10004302379881476,0.030854777505414176,-0.08904751627230509,-0.1715536850370594,-0.18918669614411057,-0.11095830291217045,-0.127761409276007,-0.11736982236625013,-0.025622642934986003,-0.11872548663774754,-0.16879370951513362,0.020250544593994693,0.0690358708095411,0.10564502890454715,0.06477845454290712,0.056580099079933645,0.0587436375886772,0.03310591811129622,0.07172933148286462,0.17964302631002937,0.14311144227571065,0.16620735556896074,0.10244253731042355,0.07543630411623903,0.11109929619184779,0.09052949815348828,0.1830331740439943,0.3182302386970497,0.12880235740229817,0.21076254804782063,0.19264432003853582,0.04273832882416823,0.002392494906060693,-0.06060287505647318,-0.07001500727060385,-0.09273738576850177,0.01584531938157869,0.0013258895569114289,-0.03932889197007477,-0.29279609523016564,-0.019372474216277996,-0.06265108777208009,-0.10737941376298363,0.03807526840565864,0.01812702781162122,-0.011432176787882754,-0.06636373229058662,-0.08835060118763022,0.08333572698961908,-0.02170401775534177,0.008029792830559247,0.06600713754226355,0.04674160300244506,-0.09693333637198341,-0.16498398497360373,-0.1430985093756031,0.022415438410757504,-0.006181589267861592,0.026858400117060723,0.08387894827386623,0.04278887267380909,-0.028524332392364297,-0.10698438974202316,-0.14176403599535553,-0.03684670738518894,-0.012437964157884864,-0.0245632317812226,-0.15904397594575095,-0.10336691065029452,-0.03454878718543052,0.014228608419031081,-0.04218526432108183,0.0012995458582263503,-0.007927924422585471,-0.02353130112066215,-0.05721248038956992,-0.06460144415659888,0.03311113772226359,0.1456910502735574,0.11489622555165499,-0.11874240440084496,0.04120575577530884,0.07902076536273293,0.0056581372194925905,-0.14150590999219123,-0.06197392653380491,0.05897388021885029,0.1162316784873721,0.0614370825039252,0.19331522682577984,0.1759582250825119,-0.039222257599577065,-0.14231597726263073,-0.1534456224352277,-0.035629789386224915,0.03272522310300091,0.057357725437028606,0.018265556751420796,-0.024190578944221514,-0.05116757922530805,-0.0026517358369142355,0.04233762502809878,-0.011503169850839951,-0.09096232219577263,0.03767788216328105,0.02001262782498692,0.010261359649638035,-0.12590642083835282,-0.0702142318250035,0.02787166662484095,0.0160090726192033,-0.026418091347262147,0.06285481397832926,0.06430130626770314,0.06366834588704101,-0.09564541539656278,0.003337630236457624,-0.005211896805995473,0.04404164024961127,0.0910620333120388,-0.010634692494443682,0.028244348283307647,0.06892449940496116,0.0754671758919282,0.09167419953960149,0.15357131102555643,0.12022120332009821,0.09502233804047269,0.06511408897917426,0.19421871250331976,0.36282356754450784,0.25735469784317555,-0.07592864713176865,-0.034068492539041394,-0.04519628507309508,-0.03789626561820919,-0.003084322204423555,0.12389454808999248,0.46220890290617694,0.3581161602449203,0.01869185075049682,0.022035743017659717,-0.0824267607432863,-0.1294753178622313,-0.06510029184464494,0.1426687966663832,0.4792231031360021,0.356561013105382,0.03827901375087362,-0.07011875328481235,-0.07611586111087766,-0.1054411557193326,-0.026737573966920117,0.24148698978622238,0.5031083859012737,0.27527998220702965,-0.06426795057471461,-0.12936396725894544,-0.1331551826537543,-0.03915209466484323,-0.05659199567241431,-0.05962224774061625,-0.04481178006607687,-0.08464182030547107,0.0013069888174840356,-0.037509859928354525,0.022386314857044308,0.07270609770585404,0.07336623180966367,-0.016212797512223587,-0.0869302174877454,-0.060781905959519905,-0.09904221657492308,-0.01336744293687674,-0.08358495425854977,-0.026155238496375768,-0.0032239420444326993,-0.019596065522646762,-0.018321006776704306,-0.10447987068382479,-0.11910696586088944,-0.22652128536609467,-0.11913356051808448,0.02070662747027263,-0.006267958792214506,-0.032687028228391805,-0.05195280024352558,-0.04545097908100303,-0.09302249391780051,-0.10263737501280924,-0.18588598388828284,-0.10972277555920963,-0.18039537378134438,-0.17996265193091568,0.04575418711805132,0.11953020669522982,0.04202622875635594,0.04930003851285641,0.06937296135596067,0.06896107105160258,-0.20973484894075806,-0.1551393095404517,-0.034751899214900704,0.13567252181419193,-0.01008528277577232,0.05324784620235711,0.02365790051504903,0.09838476079625041,-0.17774789940015698,-0.13825346934318644,-0.07006178632815412,-0.10491740640254203,-0.13782005283059773,-0.0026522123383366848,0.04707646089960243,0.09618734062985089,-0.17526306874041203,-0.2426206348179387,-0.16190050744174916,-0.07309476766173137,-0.16042888724563054,-0.07465397651166011,-0.003638978784137702,-0.01898325135039115,0.06696961035106122,0.05350433389330166,-0.044134820816559374,-0.06338817817002607,0.057428107000005744,-0.04406598191748276,0.022725001435938624,-0.026146301033306618,0.09681691806150326,0.08750965847031679,-0.06521048482478231,-0.15034501397269814,-0.1146181024804188,-0.07569968948035431,-0.05682661296412347,-0.05915145886976302,0.09634999937676894,-0.019944895557591574,-0.11158124269355207,-0.06415077716652066,-0.1775234611640012,-0.05677878883260927,-0.11021740125501625,0.11212718498491918,0.055683763433521244,-0.06796543707519022,-0.1357482213739836,-0.1132378255656632,-0.16435636369597467,-0.11734027283356382,-0.16357472423161093,-0.09393136918286873,-0.22457238375125832,-0.06984354542243469,-0.002265167245670228,-0.12044334349716,-0.12335651891481599,0.012781789523735706,0.13085291650725794,0.2038581623688312,-0.13312823158993461,-0.04673270801152775,-0.09840215420269306,-0.010221042470961348,0.07286613958906317,0.09368928217567801,0.20388174069283785,0.16405584948519428,-0.16786148488759065,-0.13546946690256592,0.02319127072713389,-0.13074881077826833,-0.0517839487120071,0.0917985273104552,0.13705763222188871,0.05002818907741212,-0.18713695858986418,-0.049553877323449354,0.03899699660800173,-0.05866397656179466,-0.035779297098570355,0.056687329820832966,0.0443403035239269,-0.08107270824586969,-0.12634285466258158,-0.010220142933503007,-0.013811173597644034,-0.09817817519437977,-0.018074765885184415,-0.021105183240454857,0.026000547345555573,0.02587906689842674,-0.051891009910983305,-0.04887632922131719,-0.04789978742839142,-0.06821458446431143,-0.07950770571302013,-0.026105681528169014,0.030149883640335138,0.0012064501185903769,-0.06530306708364865,-0.017401213738153794,-0.04908132909879991,-0.03532757726344842,-0.08136544467398543,-0.07519418264700664,-0.00897894992449707,-0.026596283635988177,-0.07986191031428498,-0.0752580411453454,-0.09774793910032333,-0.09906239658741678,-0.12868193101227748,-0.06494744893776237,-0.07017880003715404,-0.16210132850497816,-0.07857392430644723,0.08692378821566027,0.13520650045310315,0.2474229219894221,0.11196318230561303,0.12468554668848085,0.012546704182342121,-0.029359727562590428,-0.018613616615382897,0.19145542007812372,0.3960911383002446,0.5343730689951914,0.3588296865060719,0.23921796775427165,0.15810845435478924,0.08115460891118029,0.013383016847172148,0.2202822292294399,0.4127135800147215,0.2991227726679404,0.19642112314965257,0.2057162762054896,0.2179398408461756,0.17391705504702976,0.021485918447562806,0.10578963654348059,0.4570404771813242,0.367998187474734,0.09666803461455507,0.1979986433372484,0.21223827632117376,0.21315548562271103,-0.0391730613839222,-0.09756754887038582,-0.12010540734234262,-0.08113050384619372,-0.06746226413114768,-0.005177314439651688,0.0428549053776839,-0.054044866630103404,0.10067897144754999,-0.01460914495504345,-0.06912658840151424,-0.06341723434509458,-0.02173764414632052,-0.11650364452086161,-0.03806231549402293,-0.08553196675067426,0.08663739164472067,-0.011856288366800423,-0.05245049257608461,-0.12388548634096579,-0.13529503364778225,-0.11342965664699331,-0.04997085089271102,-0.13479116454326603,0.04684486472239567,-0.10672506508463497,-0.08832824856079444,-0.088674853795905,-0.0764250925547753,-0.019924115048227015,0.05312993984807978,-0.13566996166848946,0.07310225425185306,-0.04758151106059068,-0.11642511476596971,-0.1877921613009371,-0.22326567024738372,0.08673875556709357,0.13625831509578398,-0.011961735746006652,0.09733589973717928,-0.05721154261832381,-0.09916507312975376,-0.17830947420306048,-0.18049213731417085,0.1602248986257442,0.16419460313995143,0.11617130748766615,-0.029297699911222348,0.05670750027758522,-0.14152159806384643,-0.3524396541765626,-0.20312476804556973,-0.008364059194400753,0.046554560281065874,0.06731557920409759,0.041834031172097046,-0.037835993006846334,-0.27657744820146457,-0.4606494815578111,-0.1771454179642941,-0.10536764763642152,-0.12027934206687453,-0.04426047213468533,-0.023390454610016733,0.04162017762347781,0.08092019849996612,-0.005437348707056321,0.057290227572619055,-0.030816513687698444,0.015589329469633024,0.061585070619236924,-0.052457072956023885,0.045770628773246946,0.04398220841017635,-0.0040906807915029935,-0.06994352307098484,-0.09323936914850092,0.022787902019476353,0.0817981427045758,-0.04428211406769846,-0.01666750839989279,0.13615784669223138,-0.042132508000975365,-0.09139009321123792,-0.13083073816577753,-0.02750234585108804,0.08271754870603033,0.026478023046657785,-0.037723627038985505,-0.008802660164235978,-0.10854341613738949,-0.16294737901534773,-0.060483254869891125,-0.03721196304112621,0.0580062721727118,-0.012897772829929401,0.05090055278077806,0.11224155679226826,0.008262109552026218,-0.21076464893335659,-0.09825081910061098,0.03154515230407857,-0.053926702476721516,0.02133408247480399,0.20010289572222054,0.2143637132595447,-0.005897761910610363,-0.040671287754028854,0.06014075770734553,0.015042070411370043,-0.005058642082756731,0.001961992018704925,0.040321702630983135,0.04127325744076938,0.17845418465367877,0.04867759370423042,0.13319818044122175,0.15252498666449332,0.0965994416428736,0.027289605381619047,0.0023835207552244165,0.07069919934924712,0.16678924991079527,0.04378785333637344,0.12014406005662402,0.26767061459596175,0.15772620197350684,-0.1305343216553655,-0.09167905526719167,-0.11293805086759283,-0.027851647137466677,0.047025726583588646,-0.04336206451918644,-0.06772926968045749,-0.11633605303017837,-0.06689772536882725,-0.08212554242667977,-0.047927783682828115,0.028078098192601708,0.07020943066513705,-0.006847557116508717,-0.05325600857030871,-0.14476524305679692,-0.15014247216772686,-0.0753969780547587,-0.013813029864675561,0.03198710271866353,0.04577127776689568,0.00410380568401071,-0.06824998812565371,-0.09845832027874968,-0.13744526706943097,-0.0517108912861101,0.06237165406184901,-0.01417663198535612,-0.0347371653437439,-0.016134351561409934,-0.03877766973359556,-0.10402732807628216,-0.2430031025579591,-0.06736092580522365,0.06587211320072489,-0.05561940855066396,-0.10987099141588441,-0.09618935658793251,-0.02509369369782512,-0.1240330612410235,-0.10392106319300053,0.03972817538834177,0.21620731145256802,0.20735772127095226,0.06417359713766847,-0.013357034719223367,-0.09750009362720956,-0.10319942571682761,-0.12402912453879579,0.19062628884257443,0.22451314997529007,0.1945671043207095,0.08365745037079647,-0.03140137639664246,-0.11753630817659606,-0.08487955510410547,0.048970027415957434,0.15922283517695413,0.3549599366164124,0.3366575262552295,0.09542533056014851,-0.05247924224538827,-0.11282400064067986,-0.10224156708774092,0.07181104153696112,0.017501772677455445,-0.11166027137786665,-0.141355462788155,-0.120969960255479,0.011281928682316466,0.06025851147676346,0.023437222435484364,0.12040529601539346,-0.006990428440290574,-0.2054522793241671,-0.16188880034368985,-0.11775199684880273,-0.02677396914748591,0.06007117067008082,-0.007805599971036282,-0.009248626646813722,-0.04236065627893707,-0.15870194841637308,-0.1694071170943151,-0.03101330949827949,0.0077428947825182864,0.09031724272495938,-0.03897818326535562,-0.07422113162125843,-0.06292824950989291,-0.21189902570475821,-0.07883067068867658,-0.057450476248886946,0.025710287622059534,0.07805386821982715,0.0032832690738846377,0.053867697231221236,0.029878427231939255,-0.03202916921518296,0.11383078937339755,0.07576920201357114,0.13738719403305918,0.12801510847162134,0.14982142005352364,0.07147999222761627,0.12309154434575303,0.12359372703536341,0.03002872034704011,0.07725132414574098,0.20869703131289308,0.26452605324189826,0.19079148837795035,0.24643798444857473,0.22805542350819902,0.2138152925892994,0.1841564396513886,0.07621957373920059,0.2123843892110505,0.19366500337952333,0.2156625566234194,0.2713737474651861,0.2361843131759721,0.20672560203097004,0.06331135243198968,-0.06883618459456212,-0.027632707923524735,-0.025956824602559665,0.032278764174488266,-0.13087061830571048,-0.15154642343757635,-0.23295921769325623,-0.18653234052906,-0.10965928112814866,-0.011606258318107753,-0.005355829318661729,-0.1469695369918872,-0.19549752496167702,-0.2600316353337259,-0.17808284648933095,-0.16952703676837358,-0.09043557869797003,-0.009074915487337168,-0.03949534638668253,-0.0013646414711665751,-0.24056546740752,-0.19069290845497458,-0.09200690196035456,-0.01018396686744038,-0.09736515472525094,0.05662604822587173,-0.011024540716263444,0.17707786511721055,0.030020122653469265,-0.12313597870478901,-0.09723992746472018,-0.1074936100860669,-0.10379651769094458,-0.14626249121702617,-0.16154476426676234,-0.05697247132647919,-0.06754761950282644,0.024985085064231846,-0.03442397338632141,0.0022051037815845552,-0.11346733786783574,-0.0588225096793021,0.0014332251685306116,-0.05042587887643695,-0.18762789975485397,-0.010318496867121085,0.14849876480436636,0.09357634307590884,0.0285592366383444,-0.027623480094439542,-0.020468656719162936,-0.06259130006064442,-0.16979659717768308,0.00211806095123299,0.03064453342149413,-0.07135020981123805,-0.03706506833996509,-0.02614462932515946,-0.0042442356891621335,-0.14966234505137782,-0.2121221018581377,-0.20430431251328562,-0.2486724582392965,-0.14366613628535885,-0.026117737049424463,-0.004079522393032974,-0.05636721585132242,-0.12371753542811005,0.16589555842899323,0.22587101192169837,0.23154653995006563,0.11927474383137288,-0.012791183890374397,-0.029433365713068198,-0.013213112084232015,0.03586082949901206,0.13116930221384393,0.23005803813681439,0.18809337294833528,0.11650244578848062,0.12090238218365708,0.024364731985679663,0.06490879968928655,0.09394569152195015,0.11865488429620333,0.12933154787884268,0.16077530025201558,0.02672859939846041,0.1168677120348478,0.07978294461756555,0.0397525403161346,0.06957179121387462,0.18888284249648557,0.17780917659453224,0.09451324181601588,0.1418519599390422,0.11516370487744422,0.013363526810563565,0.003535874466404482,-0.006210266564713992,0.019003388142279372,0.08609218362826782,-0.045582227078065966,-0.048497135782562276,-0.11466310948777993,-0.10244861496488197,-0.026893302398622313,0.06171315137864233,0.09480562288939398,-0.07575483964972993,-0.0897266248001532,-0.20071447476621326,-0.2889258103555313,-0.1795289329385772,-0.03825682252674359,0.10216340505311246,0.025363335048467762,0.069810237279822,-0.025743082295922745,-0.2698195360668819,-0.36029027606998126,-0.169001210066442,0.05486441118059935,0.13996384297836828,-0.002121171188870774,-0.010545610134793586,0.03389628840224318,-0.21064562796348096,-0.1274597276902877,-0.08842314856690911,-0.03722969539064945,0.08461809610253077,0.20149619990164563,0.15833161596965944,0.14322145958140356,0.08467021825524301,0.0366985570860693,0.1793878248042069,0.13016285859617405,0.12896308660906175,0.17469147002434735,0.12469884885584133,0.19185431977388537,0.19426000200928456,0.19591365628538712,0.11462926611403226,0.12910071117703695,0.05916603084225648,0.10311721983759112,0.1494041562991726,0.2116263349197348,0.15141611103109848,0.16010188690112467,0.14562184622666036,0.14960978493552882,0.05245279423941453,0.09942334529390527,0.16851419112787602,0.2571735598968955,0.194644225458875,0.19719840352460447,0.018714977726025785,0.10454813159762397,0.03795724576536837,-0.129395293215803,-0.01762658852533161,0.11021288628975572,-0.012947557946739584,-0.2232299305624294,-0.1573943373490472,-0.07867633765443083,-0.08910000747117432,-0.01952469528971075,0.08623489968337043,0.2247435972885682,0.12717140095228963,0.01199042542072063,-0.05036183352210533,-0.060119654794726717,-0.05117923926979897,0.009301513506427009,0.11038664174809272,0.12986656666408666,0.09578639588904682,-0.02786083997599361,-0.050914156035171125,-0.12451030562182507,-0.07514411830717616,0.03414536927711552,-0.06113979832557978,0.08495882348598685,-0.052701999363574704,-0.14946541037948166,-0.13428252294768825,-0.1918236662657583,-0.08088723431800447,-0.02872253634526266,0.13266734863931565,0.15828328842178696,0.06287202569151847,0.060806138934242464,0.06673836652485712,0.15909034326547883,0.1909205961530015,0.008893579469956048,0.0705982585692523,0.02198023749004551,-0.02038937024437879,-0.04193302532666818,0.05935936727181678,0.18244946525481318,0.20342563466265315,0.03165710093978361,0.018622397003654374,0.11729161981439869,0.008698732537915152,-0.009798277214063117,0.06219822860467532,0.05550413260817058,0.22091613973129823,-0.0988337066050495,0.04097248005883284,0.17172479160662832,0.024064021356585284,-0.000626139732204387,-0.016896726444373938,-0.010336141750294915,0.09899117473401411,-0.1659271738101957,-0.14106520117509622,-0.25584042350875214,-0.41723811895584184,-0.36726297671438374,-0.22144008672686102,-0.19434753186543682,-0.17861034338954546,-0.2691500572641349,-0.18787741284699816,-0.1476176682307843,-0.2562732456813211,-0.34101553923194605,-0.4399151339428712,-0.3354147822630311,-0.13260884902223755,-0.3804606173720463,-0.1384847578104549,-0.025812901796361646,-0.23175029856597557,-0.3579781238326298,-0.4134891923694994,-0.32510887028006374,-0.16230867816015038,-0.31492162793998085,-0.2231591780082043,-0.2569991179319867,-0.3297536018889848,-0.3683757564898325,-0.3837038618099108,-0.3952173566911932,-0.2832084336859736,-0.14879687146556908,-0.17502739140282186,-0.12853880558640188,-0.1007102615728883,-0.16204368402447106,-0.1945194277089302,-0.2767300088956811,-0.1723969575256473,-0.11487549030937415,-0.09538945909991522,-0.06240323210934267,0.009531574822353794,0.0034192792948299516,-0.08419454266350383,-0.17291749798586947,-0.1626921876955022,-0.17322543260105633,-0.07368462146986349,0.02449307235084435,-0.028051390431469325,0.028100310812695692,0.036468172458824485,-0.03822132106967317,-0.02396161063571163,-0.024458290827288988,0.009325810580827818,0.05578294367343413,0.042943810101934675,0.15651959049569145,0.07754865324981347,0.15628585212673604,-0.005369171067302723,-0.08135763388340138,-0.02579983756748721,0.012726456112435962,-0.13930822847619262,-0.16559721104709524,0.07528161783806876,0.1050007497099869,0.010789741651639111,-0.011512775868943913,-0.0647471041297231,-0.15424858715355114,-0.3023716562375771,-0.27592095124169075,-0.06962167657511045,-0.00512063739062043,-0.04348981050256786,-0.07653763379599743,-0.16815879231954123,-0.13797156844229577,-0.18976816803812852,-0.24544238875288255,-0.12815647034763253,-0.028346234454780447,-0.04752864447079018,-0.07575624981713248,-0.20695390436913627,-0.26120288633555233,-0.1468588669833587,-0.13841582270130506,-0.14197242569261598,-0.07261679218671818,-0.0646423440576515,0.06012588306425913,0.09620968791781755,0.10417632872159711,0.034228141434585524,0.08658166114307173,-0.03671600133212894,-0.027196425936898305,-0.013155547069685738,0.10108200135492201,0.15754743385727402,0.03076219355897013,-0.02202213461581503,-0.03531112624458857,-0.017250077474074157,-0.0208329205549944,0.04036739625964551,0.0683435769213239,0.09363562539993793,0.014770368333019751,0.07351328111437358,-0.02070929787589341,0.12207385972284414,0.02693104676350629,0.03746678107159583,0.07075661159780579,0.038149851805817814,-0.02486372166352605,0.01782209473844344,0.027169575088215363,0.002407132627478269,0.12542770454650365,0.16288320825079664,-0.06255599546023081,0.11153737572742303,0.016242850528041166,-0.13290211151761316,-0.10429307501883509,-0.17105432161185233,-0.05437005217288114,-0.02577281650116673,-0.1940740723726753,-0.2772646775872301,-0.08069666189267434,-0.037089884160754476,-0.0750458688363197,-0.12957662717079732,0.03965649758843266,0.07067471475877322,-0.14127346371225621,-0.14280534189153357,-0.14675989364203468,-0.11682913946806538,0.022848672995450556,-0.020546903372775753,-0.04297831662956164,0.03518331304481844,0.06689149768473221,0.04192897050860134,-0.10141675090360462,-0.1590391418553972,0.10429441567813033,0.07771510828745455,-0.01307948194044851,-0.019390746940882737,-0.2128910618259162,-0.268316728027843,-0.24700920940751714,-0.2710368715121457,-0.12170235692839745,-0.18511587365252957,-0.10092228233168482,-0.08664168073582046,-0.2098244469636359,-0.15674588041790435,-0.1374954821647945,-0.1461115392167765,-0.18713702877926205,-0.15721954716591052,-0.09976003228109223,-0.05499173196123017,-0.23102762137852778,-0.11889141987231895,0.0020550027698853306,-0.07469236559519078,-0.1227520630639582,-0.15156193509816765,-0.06620776924243935,-0.11094879621722407,-0.20517833530663,-0.06447420508511537,-0.0076199033976343785,-0.06199601644066824,-0.16358722310419718,-0.11891965000423141,-0.11076950652173437,0.045259290491237746,-0.02176840765196517,-0.05025615155007627,-0.1178030616398582,-0.20002074522834581,-0.09765359733843666,0.06989119634744133,0.22423205409083036,0.05935760161925475,-0.060468826982672766,-0.06581890653082637,0.015616878712172103,-0.09508012169428233,-0.13753431253945658,0.08184692367281758,0.21658687807302923,0.03449477432243758,0.0176274414416036,-0.057734025797562497,0.02181341403863529,-0.03258113934749,0.020417325328098094,0.0773401936617871,0.07803947094240353,0.028287935010174233,-0.04198326321620417,0.0012920723387931919,-0.136466316339663,-0.14233704298317612,0.1480227336541155,0.13933665792553473,0.10373555430222228,-0.03769250889028256,0.0014083942989548692,-0.009664098193307092,0.008799606578022022,-0.04961944274485519,-0.1537476222304088,-0.22512621549065623,-0.11751406923039373,-0.03697037668937723,-0.0726679268944783,-0.025241559941942666,0.13208872494537557,-0.08675667942376801,-0.14676070256319668,-0.1000319680828496,-0.03462181505864051,0.06192964143377439,-0.04063424537186454,-0.004364058362696928,0.04052362182144879,-0.06847174194396301,-0.12395082325335118,-0.14639668843488304,-0.10092032759713698,0.08679172595687908,0.04736972293604041,0.024273774598829876,0.026728880007079896,-0.07304708453940352,-0.050580221066848355,-0.09944240825635371,-0.12101425095227095,-0.025670968714750886,-0.04630618602989155,-0.050507606374995594,-0.11695475503680544,-0.02449426237831657,-0.016120667759118575,0.1338352523288012,0.12429044026920807,0.0688329345151973,-0.13291958637432344,-0.05283989859859419,-0.010688633069358404,0.040274182712887,0.010178558814818977,0.08071775949453751,0.10151860588300428,0.11320535421450849,-0.29131284050684786,-0.04252466613080297,0.06777413331129213,0.01359522704238859,-0.10534558138505423,0.013399156481361725,0.11711877960485204,0.11538908629064495,-0.18935250540609783,0.06312826081094361,-0.09658224023375746,-0.2500310497211067,-0.059416111882021304,0.05338746332177435,0.20455285945618457,-0.007119179679851473,0.04841183864577953,-0.12319075426664301,-0.05781715247653677,-0.04078219979876636,-0.058588430249412876,-0.07121626013864216,-0.11297066359139896,-0.07439603895179876,0.003958312048539678,-0.15716131908481773,-0.08409578561411908,-0.10690576846543227,-0.07968209891719372,-0.09877031314596058,-0.08631806938851071,-0.034717763510799554,-0.062495678366208146,-0.0789847152671707,-0.11461892286930694,-0.07699825402732542,-0.05971111107094394,-0.13038812316460724,-0.04461586037374692,0.009979623342604027,0.006611544810810055,-0.04022267748335213,-0.0856169287028502,-0.03887979449185481,-0.01766156151731209,-0.011991697725008183,-0.11028044012855996,-0.07523961212440854,-0.10203199025525936,-0.11856524427689906,-0.3147570005695362,-0.31672597699910127,-0.1547516598893412,-0.01992391668316112,-0.07030025819764554,-0.09950306169612097,-0.23286404623491713,-0.24014430219856195,-0.394046914088507,-0.38605968718351663,-0.11503434422167864,-0.028256774006401728,-0.045671473898763845,0.046940946845405666,-0.5439518598752417,-0.37662769766622184,-0.3002729898251406,-0.24872274490902646,-0.19373985295377424,0.056155655946169745,0.11644614142197558,0.18594023398242943,-0.2619325374095744,-0.248654942936974,-0.17252067138630928,-0.13592396239743865,-0.10319514610375265,0.085237199923539,0.17075368052672993,0.014661017099428506,-0.11339524434531993,0.010673259309840942,0.024141941367070433,-0.042144790197686556,0.01771471563525738,0.031190470947417864,0.09356451194851015,0.16079772334647083,-0.1440899023577684,-0.02916173526635044,-0.04774229964653321,0.0742953762880872,-0.05669548385575377,-0.04770376608826863,0.0716389087408855,0.1011770052412743,0.03237508608374087,0.0003831084253554464,-0.07371492277137902,0.114723669895099,0.04110170082276778,0.176194004265358,-0.011606413403259304,0.052620468152302036,-0.12181270240831084,-0.02348422904158352,-0.09618774522649534,-0.003187850648093596,0.00015619522935860226,0.06811956482869354,0.013427206487721543,0.06194020007332769,0.2091193815038437,0.08528699695422944,-0.02015860816876955,-0.07474561826856664,-0.054093025651909925,-0.03775706504696655,-0.004387849855412365,0.04214939082787303,0.36363233343150514,0.1154872121991222,-0.06899125062236634,-0.1923145922349786,-0.11501530311264976,-0.03322376763757186,-0.03861785047000163,-0.022602297546917068,0.16201096498833412,0.14036789546510334,-0.002365554083221156,-0.10965304329610964,-0.010262346179995684,0.021711094668383196,-0.10371862876588778,-0.09080285653328757,0.28052473209569767,0.019647719145577048,-0.06848936854516298,0.14245992644841987,0.06339071363039259,-0.040893455347966866,-0.09968482226027917,0.05141592764248784,-0.024050982739285413,0.04650398817727417,0.06971967317490786,0.19013700028379302,0.15407113463055883,0.15363435882241616,0.13935423724396143,0.1188875456912985,0.010570966375679417,0.07566108602076904,0.06909806255192018,0.10333412950215383,0.15755831031399545,0.17358591913607074,0.13043705592047963,0.11413668257199724,0.2532803378115037,0.08428844840636,0.1221056154279344,0.30465145404985655,0.08034721521390926,0.08317966484964046,0.07647179447311131,0.21858377198038026,0.20060810986282182,0.15589513952306733,0.17798018668262336,0.10840073990805375,0.05527554501895993,0.18073513855896464,0.02429686375799205,0.06798597086881605,0.18008648744158343,0.226398287461355,0.1325164479210196,0.01849561225959436,-0.041089181343360384,0.08283450198640709,0.12921542584062595,0.11199227449790337,0.20856319296953113,0.1772454352385052,0.11262470293938084,-0.21371110808386465,-0.08859587580415712,0.186875625248316,0.301136770421189,0.13952761889515272,-0.02894540782869913,0.13114694346579248,0.1746641099953468,0.08451096242442745,-0.09835769386319052,0.04235099013712412,0.17370698717921096,0.10813719014729027,0.2576419872705453,0.14518388801850896,0.15570701031479023,0.06265038546898297,-0.003798681779385543,0.016898688948838052,0.09998155599337676,-0.00010816276658689716,-0.06386699434498577,-0.15163812249661496,-0.16339997295158762,-0.27497164508128535,-0.22895124593050492,-0.08342641617393728,-0.0144353640961091,0.10458976927921945,-0.059373325305636104,-0.026703223515887088,-0.036705562177079876,-0.11466396245200959,-0.0616407281246905,0.014912506428988635,0.1102493225202608,0.1605921068491348,0.04582843076807596,0.07502998626070352,0.009076706391935937,0.04492466406725889,0.06042223572982554,-0.03968976525726599,0.09883722437176347,0.2079311522185087,-0.05413920623253712,0.04270649962026373,0.07325034874509039,0.10183582240580054,0.12955420997815126,0.1113135252686885,0.16130395403970388,0.171817208775009,0.2719546139358239,0.4108554746152779,0.1588975910015579,0.20423808933958365,0.08420492286689585,0.1418068596222174,0.16456970248473107,0.00625096026184824,0.11949808050023814,-0.13163940626686418,-0.17634051732132652,-0.17058298280632792,0.005271093159945215,0.012980723662402388,0.09159946176315921,0.1941718185925243,-0.21511279236686964,-0.2349141891912595,-0.12099662093220095,-0.015413923752092837,0.03277836293255985,0.05965295037624552,0.12472338815175271,0.2016066671491436,-0.18170921427999545,-0.2620652137190683,-0.24406331299413936,0.002411734637598374,0.2368416716248227,0.21550987409809635,0.11442147308311662,0.2606943186004377,-0.07933190595704788,-0.1305386730942643,-0.039143856124266484,0.0953986592457231,0.11684806550907012,0.08234805260275094,0.08541122060618875,0.08032351371866318,-0.07524316003798656,-0.007610836780868161,-0.02316586281423791,-0.03241371181620163,-0.08973073088575213,-0.06814781153376531,-0.029722665755791973,0.036280803106454894,0.0545185336940765,-0.022851078377148833,-0.06936686828721442,-0.14433978738587547,-0.17308931936860214,-0.22863929073599795,-0.12083463212038542,0.05028937596543109,0.11834213113510038,-0.016799626606434984,-0.1440638977083474,-0.151044185840709,-0.13049981207698896,-0.09301768597068043,-0.04776271691666039,-0.051178952190600153,0.20166398858326426,0.32256935763664757,0.3167686466895957,-0.0642045330400584,-0.10320323691200192,0.022176771439974385,0.03807988919804358,0.015337806677441477,0.15310879696434537,0.274733663717,0.1987168531183643,-0.016430294548383528,-0.14063378874472768,-0.1081126624482977,0.06094174008139778,0.07833426409303898,-0.04150279094414419,0.33915400809744317,0.2823258133191039,-0.01546735506307451,-0.26459086308626983,-0.11938337521583328,0.025305480055555368,0.1300323356503833,0.0956693806195509,0.37008167124153074,0.10184897108862793,0.08980548283289558,0.05327673382624288,0.0018787197615314527,0.16777549131915384,0.14893596193078626,0.11083990024329399,0.1673529809876076,0.12614144657626958,0.12324942202437181,0.0036916623343513063,-0.05064014979118481,-0.027776751933649365,-0.00882438258154186,0.2249299394253245,0.20706206436247318,0.14759584274956708,0.23297167651060732,0.08750923461493439,0.0693337264502089,-0.009819611678411232,0.010290000229861316,0.28974748238628384,0.16290941466014724,0.19889268494559167,0.13829272538896087,-0.0016806630261238917,-0.045721059013338484,-0.04629759660964347,0.014318790283821669,0.3270523443630725,0.16848074543949096,0.1832256910345226,0.023678240032590916,-0.08284370104165363,0.02623000564864511,-0.06093240847297196,0.0023346715586067797,0.21231801239279874,0.22297199239093565,-0.024372752885586824,-0.2019074583999172,-0.32898129348500293,-0.23516098226781482,-0.02465162774229984,-0.06062253525822976,0.1312381958644937,0.10116956924915076,0.0070218322644327825,-0.02737426233647076,-0.18138268948070918,-0.24827406474959104,0.021613537731140022,-0.0858502274358297,0.07805269462066591,0.11921557801554579,-0.025303375572796313,-0.04731252782645536,-0.1140074819248207,-0.10699185638336228,-0.12073972154704264,-0.039593075824308314,0.10756639960208866,0.21338244660396186,-0.18075758201608388,-0.18265091588056886,2.1069199719244697e-05,0.005368462939415896,7.054925146648439e-05,0.05274612869379332,0.01186381831351369,-0.06910009288289552,-0.08264721050812394,-0.0014413154098168808,0.18512307060746977,0.22156731481007672,0.14206310926028992,0.1429252873870975,0.07887369300340456,-0.024647681188749784,-0.045374617229475535,0.08801671844259563,0.050504066349492546,0.04794673187792772,0.05773888433867951,0.0796928851262594,0.10154601575678575,0.013145218872493024,-0.01432949903148992,0.09386563252578066,0.007287599654830018,-0.047716273748396376,-0.0393939846223746,0.10201567616605438,0.11307576729590117,0.01911407212764399,-0.05785083263581394,0.0009424554132201277,-0.010044555706851222,-0.1134320527027066,-0.03675789795404976,0.061126077021494446,0.28634872556800894,0.3141155635771751,0.04912995496785257,0.12222059803062518,0.13371533912259218,0.0547068662753966,-0.023344471112818066,-0.16997239331820535,0.1388464755024206,0.047873324263838946,-0.06464545950124966,-0.16501234190506928,-0.0499772181713478,-0.01758721157102505,0.05072092128036263,-0.19680427126218944,0.08694821388461192,0.03189799749056017,-0.11202995169474222,-0.14829616810469246,-0.006115267334437643,0.004466011760995707,0.004721925900225706,-0.0062919116838275726,0.09708930317526294,0.023100617481607556,0.05281189769824152,-0.0372516019411605,-0.06536498266801945,-0.006169589157050237,0.06810158538783148,0.09222083555483813,0.09094185058416113,-0.038143867735142625,-0.04683419982101023,0.06723214503970903,0.0222629926313157,-0.02596724993877239,-0.01888498645839985,-0.07114462867035173,0.12508348808612738,0.021517274150547744,0.07479685080048472,0.06499415520978857,0.014870811399939407,-0.01379638031827997,-0.07624992148186317,-0.06232687790923195,0.07818226187886493,0.05107097088426687,0.09334933490027297,0.05626225889323922,0.046062146699255554,-0.10269790450408665,-0.18664369710459555,-0.25353775217616276,0.08590426958614272,0.15325078357408756,0.29580633710177145,0.11148267616838646,0.032863454246782046,0.008331817854513947,-0.13341893074866232,-0.11965332194482797,-0.2035225267762503,-0.16949358220589672,-0.15804509539597683,-0.13252060475753014,-0.18090858887435934,-0.16193087889111157,-0.23729660028228483,-0.1640958545624981,-0.2820999024718677,-0.27125093540790435,-0.24110362620204331,-0.3372826982504579,-0.07639977093014799,-0.20118480561006633,-0.19480775901225297,-0.09946904672443944,-0.6380023671463002,-0.30122728341674804,-0.31914424421480864,-0.1382645527497519,-0.25844059183791324,-0.22956339523615488,-0.14067018267699677,-0.05849942236898961,-0.41229415618748677,-0.20813008822884593,-0.1079160113452306,-0.14371625048411854,-0.22275168311454038,-0.26988210109315125,-0.1475699534656382,-0.0249336592584379,-0.20002783685308564,-0.20310847247196792,-0.1311814062947253,-0.1255300697783433,-0.04043995614616888,-0.036248183326707005,-0.028568097384572645,-0.22810952181022157,-0.3146460493076086,-0.22471830505509932,-0.11377313882896957,-0.12293397031206335,-0.10164272016086492,-0.10208769854417862,-0.06416940226278411,-0.09586321448331958,-0.21054116606421677,-0.19497377786920406,-0.09199117193857732,-0.05601902427182239,-0.12295062630368027,-0.2159823008917117,-0.01657660524293824,0.09082314940323485,-0.10605127265570291,-0.17286787122013836,-0.0985702608851691,-0.12273179267787149,-0.06615313105541087,-0.12460418012180487,-0.05289255878615554,-0.08369342971608945,0.16706757318143273,0.1415385608318694,-0.019821985374367086,-0.07186662325798963,-0.029155535512240843,-0.06482513524756287,0.014143170571540643,0.06863435766806049,0.17931244272762234,0.1680693933614487,0.02488594809860206,-0.021760926807580967,0.21953276545052336,0.10955457691008737,0.1288667450654293,0.07092206132946659,0.06644901592887348,0.1041802515214549,-0.053825903520587,-0.13386821089530873,0.054481412065519035,0.1640957373191089,0.031069962213809182,0.021896551102909615,0.07534189369627754,0.3206836109616311,-0.022457728051391394,0.13349394246513155,0.0003689942871409097,-0.07628704445827651,0.03624319630447163,0.006212389885485168,-0.008435198075502297,0.012279930701090914,-0.026568304703294226,0.08860096422394201,0.0901464511170668,0.03048831485366664,0.18687801565459172,0.16155280672590855,-0.01683106330096333,-0.11992089389522419,0.01954501355315737,-0.06543206656987224,0.010221810470482564,0.0007268667797928165,0.09864663700264141,0.08625454283667595,0.058875245962501994,-0.08908143357727333,-0.04686485142876927,-0.04915933135197602,-0.11033901433129063,0.04615859284648714,0.049858561769750245,0.12532527906883545,0.01809566376572818,0.007514233569796976,-0.02785829529080478,-0.10894233344570362,-0.11940345357325809,-0.002872440866805359,0.010533258568607231,0.029093726940170612,-0.09455695700155545,0.01574524333987451,0.09478640831436641,-0.1107746400545692,-0.0376508650650587,0.12736524979830077,0.10632574405156263,0.08911869329837666,-0.08490835668365905,-0.013061572541336924,0.08311987406661628,0.025039357129596467,0.011108288064523594,0.032109569660170534,0.08407687072947752,0.027205961664960313,0.06097154909354209,-0.11678093355998846,-0.25521591302257257,-0.17181780808221933,-0.21661087429575349,-0.08927234931631059,0.03676989548084422,0.01420429510553548,-0.09242502974576787,-0.06681030060827053,-0.36402857169090896,-0.2457574714041357,-0.0076539393214377395,0.05491791627070896,0.10995992914332242,0.12193641712240066,0.07666482966954102,0.14709871446968417,0.06936190498723109,0.051175343185933524,0.11092843909581758,0.1489821954874225,0.010309657993848009,-0.06418734130061966,0.28449454855417616,0.2371441412684193,0.02794680384778197,0.08428707493864289,0.024762145590837368,-0.061854389987393205,-0.028868175963940455,-0.11829861839221072,0.1670135833864986,0.21649437158592327,0.11079059315441515,0.07149452694667331,-0.04863382513387907,-0.10208360160134827,-0.05901127310295328,-0.10146207331599005,0.1533836013002626,0.11124995090876147,0.02368821329170181,-0.004028445039715636,-0.08401653745346607,-0.25402139679366303,-0.1458707460802688,-0.02977878518451536,0.06673976600962667,0.11281993692042026,-0.04906768784769414,-0.3012190487154592,-0.47041006767277305,-0.2998561681379195,-0.09837871357539653,-0.0676824270231413,0.1147888024883797,0.180027569810992,-0.006346496558554608,-0.3287548585697067,-0.3291496041106227,-0.12790219900259278,0.1099237978101845,0.13640809483850053,0.11953005630852052,0.05912793908671274,-0.10838099883378428,-0.33130226451166966,-0.3492082535306676,-0.19101403734618888,-0.05719757888123767,0.0995162845880949,-0.14529302804228475,-0.0315194493055878,-0.16643833016735185,-0.15330490844745523,-0.25221546375156584,-0.156783137182628,-0.1281359941818762,0.0727756620180117,0.22409559714397242,0.015839599531616084,-0.11088742211743709,-0.001317311551889042,0.03581991278228954,0.05445961742086058,0.08863337511339148,0.07193554001740603,0.24197707771926788,0.11850221624878667,-0.038305111654274804,0.0017709682876377948,0.003512773290929093,0.09466454308632513,0.11606748614564737,0.09827805051327175,0.2330326571574821,0.06148509051447792,-0.017610771788251045,0.07494488121116866,0.03845364194449718,0.12287681550846008,0.21560049934032496,0.21348022205280243,0.37586445174931193,0.10909319919070773,0.06842301303340985,0.09858510704603037,0.10743807101451851,0.010839032222280408,0.11698600266291379,0.09632071036818468,0.14281210581269632,0.13407453675672604,-0.13654502658539303,-0.13691796519546495,-0.09587001205418572,0.016137525065500667,0.011579623911593027,0.034310945147716064,0.3277408521515264,0.39544762483823204,0.15083949961549997,0.0011584373991988463,-0.051374216062144,-0.026527015751547905,-0.02378955999900279,0.13367149015028118,0.3621813579410605,0.5241650320718371,0.1627053674099984,0.12166739824967679,-0.008898706578972087,0.06278734823101914,0.11976254850936023,0.20931940053966944,0.26861031745569763,0.39197980030255136,0.3524590818943218,0.08153704769433877,0.11117953555319454,0.19606083895886098,0.14950138616226066,0.17194232693123201,0.04416327455180401,0.06275570992766431,-0.1693961685636491,-0.07285290466906942,0.023479428900558843,0.05159047995344754,-0.038857573600626104,0.00353742101962614,0.06426490644832247,0.0945724694405319,-0.04541021109844368,-0.10368551602524886,-0.09316193859107168,-0.154456855252334,-0.04854268901863013,-0.027104021205823593,0.026257694948485098,-0.03816555955092733,-0.1170165891544212,-0.1868171876419867,-0.22285486530558166,-0.07538175754090627,-0.08239683278564813,0.030257599999811712,-0.06501082322038215,-0.1552657297841232,-0.19856545396634154,-0.15641354170502164,-0.10057079466179848,-0.08923203658168076,-0.09236239198512916,0.017092119098833174,0.03366719525001282,0.18047227343733316,0.029923244326273093,-0.036907841302199006,-0.021196968268462117,0.03331419801252529,-0.002504167623679517,-0.10388126273887557,0.15262951772911876,0.25670573912786093,0.2389297853130133,-0.041382415588235126,-0.0992084984022044,0.03608432672135746,-0.04304062275579511,-0.21181350044563546,-0.03748189586501437,0.25261923517356993,0.12363964563655057,-0.3024209284081876,-0.35310027705976094,-0.12118881358308436,0.01680302967921132,-0.0731143174467519,0.09489300276100571,0.2973465757444682,0.22529073322733478,-0.0962454735125003,-0.23927032244682506,-0.14674635632427455,-0.027803530248386193,-0.022324189629120538,-0.008298514508122072,0.06341849728443309,0.13787153825570056,0.18953298598947352,0.23783275141659505,0.22838051565787668,0.2605035928440632,0.15771469105839678,-0.0912158641502111,0.07639448541134491,0.23132154611819145,0.15251866384341015,0.19337407431236206,0.18515112260903574,0.15725982415253761,0.1893670532469468,-0.12322642595231137,0.05209623954392244,0.17600844256618026,0.05625455730680227,0.10641663322567825,0.16282302084555728,0.08271561478628905,0.045691065318907535,-0.0007767518946799874,0.026322605415634175,0.08761137646324602,-0.007835302293816538,0.03985392105453238,0.0771953502265036,0.1143173657574991,0.021813579605824095,-0.09858310847270305,-0.03502599155471488,-0.17218240920283842,0.02373461219914864,0.17719108152317087,0.39214939175878777,0.3665340260276172,0.4357529134250887,0.03081804910827845,0.14292967588941202,0.029257444797587552,-0.09281746616071904,0.01791126504512914,0.205117451004126,0.32437511945042874,0.2966397919451643,-0.07228786485667817,0.13522766276840548,0.22128032707377926,0.2587811079798131,0.14084579312820733,0.1989060606566645,0.2407009988569765,0.15905709773305665,0.1496335531757632,0.2645729660462349,0.2927255184869583,0.19513716912324466,0.1688550338588085,0.09150487001426877,0.13899461371181565,0.08731335341498637,0.08846409281512152,0.13553295791700112,0.07484648233814171,0.018344667081476123,0.01388768726182734,0.0032534668560588974,0.11612971435054646,0.05419973077387837,-0.03866755956530826,-0.07411353329398758,-0.021974533669405678,0.046908216013362716,0.08497787577386261,0.18732700436048907,0.1644679888218162,0.09581189392218384,-0.02491324562392103,-0.13547604800503482,-0.12686374795063593,0.0055839133673391056,0.0652349612658501,0.09401773940340567,0.16057371365322196,0.1555449413990095,0.07818437789073279,-0.06889052712765227,-0.09203297527408995,-0.05723919577756584,0.06040034863838231,0.018910054441113548,0.08169657635537167,0.009195549225174402,0.11364162422957115,0.3298402498700203,0.26994429015992877,0.13664959735210236,-0.09013044861801814,-0.017463804490512918,-0.014939907907549793,-0.23046663327836395,0.014862645735905088,0.1296836810519713,0.16153016087119543,0.1346051008879837,-0.034668788573772376,0.09365199362878977,0.021059935686441347,0.009148971034779367,-0.35299345992299846,0.11936283621696564,0.29982989613285144,0.3307549635478781,0.1549991541836,0.17250129215237708,0.1682807006021265,0.09690658555287206,-0.12636646488707182,-0.09320963762798144,0.2963296130130008,0.195592010999096,0.2374145926747169,0.18703580671145303,0.15029672719712905,0.006042011782779513,0.1563334697957849,0.13031227385294294,0.17349822753568087,0.11555780668215596,-0.03344290600607145,-0.03626091261051488,0.07171872409141639,0.0582464816900845,0.06076721345766995,0.14054217042679204,0.18594955179798342,0.1647807361689886,0.04195226916229734,0.030417776529095112,0.12828729622633905,0.060232095138888886,0.024298686265486726,0.06431880864345502,0.19570755856329405,0.07609617913927313,0.10711870831154609,0.12657402465149736,0.09602057849045129,0.14408914578026816,0.12041536291012545,0.0806807846833629,0.13471532359973812,0.10125731298270726,0.06993044079594245,0.1180432723453419,0.18013527844717528,0.06875666796028772,-0.3026825467511049,-0.15772846028309162,-0.3299218998531346,-0.26704709230173557,-0.16071264608561553,0.041587136218174454,0.03542520768763146,0.014232430047466578,-0.3102732301259702,-0.2612950742407578,-0.2502832099758502,-0.3747175076864948,-0.1264536241359966,-0.02481466345414708,0.008563753410807,0.05156159673092232,-0.4515644056896504,-0.07453585889780903,-0.10008377516575162,0.04496846816464731,-0.015443102539599123,-0.028377089964797885,0.09114966880067048,0.0766956186474673,-0.15007807529148134,-0.0339646722806228,0.044995058693141285,0.23692422209141084,-0.12145048524994574,-0.13725416856931175,0.03339484319362359,0.05514809176094589,0.15725338996299276,0.06725675379079936,0.0321944141995992,-0.007300494520364934,-0.05102938108694789,0.0878479109157455,-0.026402534295209033,-0.15603289000036752,0.15922594934333892,0.1399423373248207,-0.1466765688248294,-0.10061247243504194,-0.11930040986904424,-0.1509171971124208,-0.012271010467718512,-0.13065775244024247,0.006648334498175676,0.1796758549011688,0.016483784242028607,-0.10266573690585022,0.05157259231799043,-0.025435481973055507,0.026657919107117328,-0.1250752270772274,-0.002520144622807156,0.13456605070278002,0.015203355334485592,0.0007630929556897133,0.04679458335583292,-0.06977769857343515,-8.096399458258181e-05,-0.061575781214836145,0.16242201237342388,0.20507621035907306,-0.05453429991709069,-0.11193397079139197,-0.1489868354576791,0.15945111396075837,0.3166495290110318,0.18743760002282694,0.25263708547304903,0.24161234796178033,0.26048443013889355,-0.031792857831508384,-0.06109064299688885,0.16183606164541178,0.26610864742599744,0.20863859547466626,0.13429270127975657,0.24447329515450258,0.29049022381465345,0.23673046054801788,0.21999569002817942,0.33919658371865813,0.3513387299151573,0.35202045209434735,0.1533824714299894,-0.02665411064439093,0.2586595226692745,-0.03229364320788416,0.19042757731301205,0.4533583303334784,0.3803556621966264,0.321375524379943,-0.03292890896561224,0.05553883404221733,0.1653000434849663,0.06087186887364879,0.10132758831069676,0.05527473173403433,0.06399031094477173,