-0.08444336875218292,-0.08068015254023403,-0.07373835986267853,-0.12321486187218843,-0.23510168067141035,-0.2138803300713756,-0.21859543112836177,-0.2253406494618402,-0.03768596017655543,-0.03593883124007368,-0.06053213182304546,-0.08110592596313736,-0.0715911789765328,-0.13529780525869387,-0.13979730476828436,-0.15256962776127997,0.016636038010588036,-0.01075361844426897,-0.061678161575848975,-0.058969011001397356,-0.06014400969895649,-0.04737838896432251,-0.07159487058312736,-0.09954250131597396,0.021511328407966747,0.016766309394936355,0.009950394555515376,-0.03700682542555837,-0.0302470568786481,-0.03867778893391134,-0.030940816644764686,-0.08067793711589671,-0.024617849483399377,0.04185803008924619,0.07372024155763625,-0.14544496652442146,-0.13733748019258907,-0.1280434753025961,-0.13842946258145056,-0.11140389536353525,-0.05449658470479876,0.008413809322574881,-0.04131361410592488,-0.12515377043899312,-0.1529916961713385,-0.11352943280428354,-0.11816448749427517,-0.12048308905988751,-0.07957582104496375,-0.11235404299118064,-0.1442927801069595,-0.1432758983552706,-0.09230562854334379,-0.1763874483454323,-0.13740461144902097,-0.12277217901892448,-0.1552097508321144,-0.10414807859930228,-0.07153320729348907,-0.1751274740977922,-0.12427041606306313,-0.11129574492611802,-0.13847421541144878,-0.06381157414439863,0.03404879173552093,0.037470631810859724,0.03252497736055591,0.05201153688832001,0.06115555564001329,0.02405342427803929,0.008585233130688293,0.019666948410920766,0.010434575632371252,0.01932319140417583,-0.009817040091222874,0.005149988943317708,-0.0018579749680095934,-0.008795817822218192,0.026703544985466777,0.04607470253847398,0.011341055978732762,-0.02715945536921722,-0.027963169216616336,-0.03159286313350182,-0.03673499086959391,0.0015965849231087065,-0.01847507321461602,0.0834683000727665,0.027564362656229437,-0.048435522621251836,-0.06727710149868082,-0.041838080450922334,-0.05464926231314633,-0.07697788368228663,-0.023023766014283166,0.02530443201290781,0.09303750359074932,0.17477897615751156,0.33012174765225394,0.1794392196874421,0.011711269735914171,-0.0018550242147632153,0.011610857206171452,0.01603539779888359,0.17606416041249717,0.3287355279890753,0.40273189507113,0.20137619138983015,-0.0050570163386945725,-0.03885731805785241,-0.033761907639758656,-0.03136732057261937,0.16685988104420368,0.14801781259568425,0.14077260406507083,-0.01583792471576859,-0.0781735317412685,-0.06597658408314734,-0.05983569716091486,-0.03556877515347564,0.031168424669380274,0.0013552437676655727,-0.02285483410632439,-0.044377923692205494,-0.08125522785451797,-0.05749148592842492,-0.03305903908780552,-0.016909867246008077,0.02143105412582307,-0.02786264504964449,-0.008036258673961455,0.03395233675270911,0.010277375064864633,-0.010015168745406648,-0.045460459629132546,-0.011883142828094623,0.028048783145008277,-0.017356473445644845,-0.010430709711573312,-0.026286727239659784,-0.028777839884413993,-0.046350482968429224,-0.02410711975429729,0.004775184428018442,-0.010871820214199022,-0.036072302012610837,-0.04255447840675662,-0.022132320779689827,-0.013044323743666673,-0.02635153779410771,0.015470602390828198,0.026747989734523824,-0.018654629408131052,-0.03029262316702707,-0.022574867296309073,-0.003006876400115739,-0.004844449615920795,0.0016221132214428288,0.014063875341799854,0.031440476558533055,0.005888251571675229,0.05378539500345583,0.019731254521880695,-0.12210187912945435,-0.09040565008815,-0.099718970781498,-0.0076211924446203325,-0.018572026075694966,-0.015701128790837186,0.03405149472546107,-0.024953290605787076,-0.039606776748694006,-0.024052300917576267,0.0012564290198435666,0.01551982294876618,0.004923059600119335,-0.07843028749105989,-0.04006041899092768,-0.029831864521151438,-0.011133016845577427,0.04533142185968814,0.07244303386851021,0.05744726728556941,-0.0037264768888089065,-0.06917913415877494,-0.08634397959482049,-0.0830381887780707,-0.09210449791113468,-0.0899416358272784,-0.014128969310236002,0.03697718784461872,-0.024732696818601983,0.057237454837141134,0.049104538099481565,0.03663324436851595,0.06795578740979685,0.09567822803446162,0.12345169228001165,0.11110531612220001,0.06847259830525922,0.04469511076369198,0.060392028309060354,0.07379536443672165,0.06427199175047275,0.10816726347366461,0.15753203025780563,0.1415024853558542,0.11366021625015486,0.07018099027779086,0.06738386821941193,0.0669197730087445,0.09588870352631446,0.132469891453724,0.1287236776174221,0.1377017569255055,0.08037566027366408,0.07059687366041446,0.07622282460267783,0.10134887155147065,0.10873904699561034,0.12840758239753053,0.06576205060611802,0.10662270865139839,0.06034873393831966,0.087439139969443,0.007586148430351512,-0.13716954462837844,-0.13505164561744934,-0.20992234642414626,-0.1114589994633209,-0.0989022708850528,-0.09621146898995053,0.10244670514790163,-0.06934679047476612,-0.17539020882855072,-0.20051115051050342,-0.1944213131634039,-0.10624648496220565,-0.07321079952032093,0.004298804271936212,0.07043608395659767,0.09475599589036508,-0.09707590754221272,-0.1851867984605499,-0.14509826630566813,-0.038075019542700865,-0.007697582654994193,0.014469515149663388,0.13111980556795752,0.11696153165143859,0.021845134673307662,-0.08336995584727742,-0.08166278143693428,-0.06495159443177335,-0.05872255542549521,0.030269387743648284,0.02926683467650151,0.010507696290979657,0.038052349228897504,0.06901970552336761,0.07004128465495431,0.11461504192110736,0.12459878297645416,0.11541712516148717,0.00832270356806117,0.007054005357859476,0.023721457626959562,0.0444109024302079,0.075554034981736,0.08423456154473573,0.20044303471064345,0.158134725676992,-0.03259689681899859,0.02043428292991832,0.00987416363228673,0.08682281109230286,0.12496876661478189,0.13372973150578893,0.19861195029158069,0.12813288766123618,0.003331625256692642,0.039688677515007334,0.03234818862927028,0.07354461263597528,0.09674656030767165,0.05184971484319232,0.11608780630374757,0.11726106223237902,0.12528203385853642,-0.0015549628728582687,-0.039560076463244914,-0.051816554926049176,-0.14334889683037538,-0.008669498965689082,0.006220381898311041,-0.04049327836579318,0.06688554352201122,-0.09309720269667783,-0.09089803546838798,-0.05636156262854016,-0.000996418445416781,-0.009286118012169107,0.03100625303154949,0.022512265679400005,-0.067495455296857,-0.05469539878350541,-0.15127541765923894,-0.0827140603679182,-0.024141942996089513,0.05897475365892726,0.024649942031843855,0.028524333711611984,0.010789077835375069,-0.061271905473780995,-0.18154474766478038,-0.08487401411158814,0.01908018975957905,0.016436484541287828,0.01796684655473584,0.014436315795628162,-0.03253873278721359,-0.05520663034056991,-0.045734241161492585,-0.08997297141159342,-0.1578438155859988,-0.14109899838679235,-0.1473031390621316,-0.19252384213525062,-0.004454177508238034,-0.023143158431250522,-0.07440641630943994,-0.09275214244236189,-0.14181942924720173,-0.13971397454609918,-0.05800113385239576,-0.055499150854471595,-0.035591312870579185,0.015164679397527813,-0.08960183043754472,-0.08403672986756439,-0.08745671813194016,-0.06376249845581095,-0.025953228931550498,-0.04210957193525754,0.011132457557724311,0.04355411929924001,-0.0014576009400594267,0.012504822094531185,0.005555854547652065,-0.02799498880352775,0.021124623095469554,0.05314955270580709,0.08424600167611813,0.1102522156043526,0.03690797715694542,-0.02277877386060102,0.04790418077329573,0.024366208842658714,-0.07349911368155372,-0.07774026199193974,0.06609463987522225,0.03555354914156365,0.018246070807999795,-0.05892927008004022,0.01093127099988492,0.03845585244316532,-0.04010150496754958,-0.08991833526123166,-0.008244859773686957,0.03682763681520709,-0.059216086314385664,-0.032033725582364315,-0.04046451185536357,-0.031152210276384103,-0.013812221027996775,-0.018834192408905066,-0.0273957877286331,0.0008892729403312284,0.017042730339257284,0.04049137952916039,0.007289500185394381,-0.018890061933834135,-0.047587811211760554,-0.011524021124245803,-0.0608438832474844,-0.07302539802668674,-0.05475470551996411,-0.027098309618726602,-0.023898429973026693,-0.039262806181872646,-0.09806437986057878,-0.014906428508446676,-0.07467112344643358,-0.03402190039898365,-0.034676098876191074,-0.049098655040094245,-0.06218398028584668,-0.07851416623498161,-0.08717210719846284,-0.06496802237009289,-0.06971125928239329,-0.04957373309574896,-0.06220596521640148,-0.04045928015558256,-0.08551045207763576,-0.09157498198781591,-0.1005350451640204,-0.0743881399957003,-0.07448654967719881,-0.04783796944254238,-0.025614248076938892,-0.05195426589276513,-0.04845306284398453,-0.10126108959074971,-0.0961857878125327,-0.03691689089001857,0.04365940322607411,0.00807283493980677,-0.10842760130977001,-0.0382073918914344,-0.16243887262869808,-0.16171988376197452,-0.12169730121969542,-0.15800551223472484,0.03430497078890676,-0.13722944123679076,-0.16941440482000844,-0.15730548082148235,-0.17345786126122695,-0.1604034710676856,-0.21500889892778044,-0.10033283393978022,-0.12100279745295042,0.0062282888547542875,-0.15872627259438898,-0.16808866415683146,-0.1584366892521596,-0.11549276825959026,-0.12078631590775722,-0.11638898857542285,-0.03142897183520944,-0.09195766763868538,-0.2161752700906199,-0.19106953514020109,-0.1826371593979197,-0.18557900491420373,-0.07751170964930094,-0.10629275998435998,-0.028567809005168705,-0.04146080817214407,-0.06519668075542527,-0.1320278944598798,-0.17187427131047878,-0.1767104452782394,-0.12493669448145472,0.4766007474877366,-0.05048313891854545,-0.055412543023672996,-0.078145831293267,-0.10091657140720939,-0.1104665657170652,-0.12226161241906928,-0.07900495903335394,-0.08907553721815639,-0.07935191896088636,-0.057438706666402585,-0.07647209776607569,-0.08518921266557068,-0.0956317050886018,-0.08823414380665044,-0.05382113861184242,-0.06766432507442413,-0.06483025548526915,-0.04839110026786629,-0.05278945295168339,-0.04352355999000831,-0.031756523352373556,-0.08489722280161341,-0.045865813749177524,-0.041750766041757426,-0.030959168748996884,-0.06496993385544989,-0.063724576910912,0.0020998614272243446,-0.00605503402669856,-0.020150123086994813,-0.049628756507684876,-0.026098974168499194,-0.026314289902404888,-0.10879076058629433,-0.122968874117522,-0.12395429042790979,0.08986155907371893,0.005716367733868361,-0.03337045700959042,-0.0296387344685148,-0.24141210441038324,-0.18496636439980058,-0.25013213815177754,-0.12405058212043976,-0.052228494860020076,0.005560398657619735,0.010984602129960795,-0.04915375549621,-0.34653872044226425,-0.14877940367471965,-0.22068010225865187,-0.10115961591858637,-0.0663427957348777,-0.002660482261013126,0.11703977407066952,-0.03331902469621978,0.05730954099595522,0.03633011886142334,0.09792060258559868,0.10597791994166392,0.11909972685292142,0.09759097995683895,0.12196229183636349,0.19170417652452046,0.003327310072408782,0.02835951599768058,0.055646707019869124,0.10176262237717347,0.1380025347788321,0.1290337806757785,0.07213103427504731,0.07209911576699972,-0.058611977538295994,0.03222780394970813,0.06854533178354649,0.06447747094750642,0.11334729427594466,0.121947142575202,0.04913299584007576,-0.020065611962428433,-0.04142384338598921,0.046864621184684034,0.08269874499831373,0.1021233191839986,0.12309902640779215,0.053251098984060705,0.057265860789983455,-0.03017783677261877,-0.07415188681897208,-0.0355288495728054,-0.13914973928733396,-0.04047748181140924,0.1053005391325756,0.10860947215711439,0.08816905712617495,-0.00010552462700259363,0.0022578584455790547,-0.10298513375912802,-0.12533575790892743,-0.09452316992771856,0.047306605666365326,0.06788463614872065,-0.027937752174608563,0.04705348280009211,-0.3483292377672994,-0.039337418408512514,-0.198089796437194,-0.14645463260084385,-0.16141053954487009,0.020961250690367014,0.052323137960587164,0.018147788088475763,-0.11092217246886565,-0.146026977339066,-0.2398251706244089,-0.2760545050509923,-0.19949283838585358,-0.09596064582707023,0.0034188085524633595,-0.03305090950239687,0.09803358192447996,0.03929881990499708,0.041607692568337205,0.05204547573504121,0.09111238641366541,0.08324455760571345,0.0675545624878417,0.06989533808270623,0.023760459145723254,0.03451538778863341,0.05607649821596918,0.04880234433483026,0.12407729233031864,0.15696998679789378,0.12411195470231252,0.10514557095349743,0.10203340969316795,0.09282516161079717,0.06199722789822998,0.111505133298274,0.14524233540862055,0.16660234282724398,0.13445682927529162,0.0992193416122099,0.13627391719572107,0.11099113842776069,0.1097597396303705,0.13950143799375153,0.17159164528466644,0.14969847716592247,0.12155780177579174,0.10894474987592477,0.03945714354163898,0.013169081660350057,-0.07586199459800676,-0.02344155958959237,-0.06777710123030731,0.024397274864177667,0.05218241528146887,-0.01071997592010966,0.09587044535257815,-0.015263792708905063,-0.1414558888715844,-0.1512598510307886,-0.06825877938857293,-0.06854303015898966,-0.10309130541343589,0.07138180823557708,-0.20146733656640228,0.0493536122910705,-0.03995079432252129,-0.10296812378009133,-0.09660560334571008,0.005780841592917186,0.007955618887019034,0.013783341641145664,-0.11218844027804883,-0.09675044677656022,-0.06396538558395803,-0.15238220644504757,-0.09618177045602125,-0.08511851690072623,-0.01796907533378221,0.011298611805050256,0.0509232109209352,0.0620635408856379,0.09234611807068054,0.09962531443475703,0.0834611951983977,0.12115773863484448,0.11919537090565561,0.12828655608820547,0.033849539889876865,0.060688667091305694,0.09079088398685338,0.10443222573698778,0.11371600881801382,0.15567145674119273,0.14954887985145351,0.09451890048664646,0.08522075202818694,0.0936166956998089,0.07207441611038908,0.06973040736195157,0.1320343317092603,0.13705186651856202,0.14198978014129912,0.09758272700025644,0.11494024868842243,0.08676975034303783,0.09600447872884252,0.16344834092581298,0.13416282687998696,0.08337029101456558,0.09705047660875359,0.06966088907574125,0.2050910911882985,0.13485442534319528,-0.015186458699569035,-0.011785438294193196,-0.016964540767276135,0.042497797506155725,0.018934453438200032,-0.004813865521996223,0.17217067706801747,0.004512776994637844,-0.12593024583337498,-0.10612968033349585,0.0013138293765010934,-0.017109508604619718,-0.031215972052551867,0.022255627590797553,0.028509809225049292,-0.016683386972579546,-0.1574822280091058,-0.035952184065414027,-0.040644839454564284,0.05013406437133478,0.007522055404581924,0.03828925906526854,0.007397254090547988,-0.03659649259710456,-0.11750553541840848,-0.09720100898013685,-0.018677573619985354,-0.028688923735722346,0.004310515118455928,0.02950763900954706,0.003759033205234827,-0.010332265211753705,0.006738718316985553,0.02435976035650955,-0.013634454984815069,0.1044321824790685,0.10645389802518325,-0.07566119980389725,-0.009754937124159587,-0.019293336786142957,-0.016413944225540752,0.044418515739090315,0.0742369507988797,0.13306745784791338,0.1124239970158066,0.06257014847242372,-0.026972012714179757,-0.048633008029071036,-0.004358500199917497,-0.026146472369749332,0.0670942180643039,0.11064763718907757,0.1317236202371508,0.021587065826390837,0.00597141740328234,-0.04168337523639582,-0.02051582427065728,0.013163605760047744,0.03898860315549837,0.05576944233304577,0.11843356825839639,0.06717766636310984,0.10966072977351628,0.13483537317152935,-0.025605487644938835,-0.029631713307071,0.011347072988950787,0.030961013229687216,-0.002366322334322091,-0.030436562085989636,-0.05321464623400996,0.005147340718536298,-0.05491107952273099,-0.07834248844862143,0.01531562860474331,0.04713291035980978,-0.0001933206168979473,0.05544090935794922,-0.3155856786832651,-0.1060706117794118,-0.11743651168455085,-0.08926493793657961,-0.0061806356219377195,0.022710951917392447,0.03160579219840995,0.0691441490807854,-0.19439348956502642,-0.0970384054451466,-0.09180322773939015,0.03225079617314808,0.011803095207974556,0.025052523051924055,0.09600384786368514,0.02551090462480323,0.04746129640206055,0.023990949767022245,0.02667724329375532,0.053900809333908624,0.08700479299654508,0.017464304191208927,-0.012051555136057351,-0.013846365977880802,0.08238141533028503,0.050080256836796344,0.027742386584472655,0.03774251971936537,0.045696767279428556,0.04538351212766186,0.03268075641446894,-0.03191494309151078,0.05884534065187373,0.01710111833443465,0.02522493907075806,0.09046767165987052,0.08322140939329993,0.10369190110870577,0.023042995532937222,0.0014843697969735457,0.0471702134428687,0.047810607566107555,0.029635599453048726,0.06229970285072678,0.09057190574690595,0.052672841319228156,0.0036268486040348952,0.019049634391427813,0.053934954892579524,0.024981269923547732,0.004226920629247643,-0.050776923687236464,0.0626064667004124,0.06018096805171318,0.032888395484673705,0.017770494660794132,0.06922060480936,0.06254935747486678,-0.039138012393685986,0.024299264825132765,0.08357486354858486,0.03779527718876211,0.05241024289499815,0.08365573187976982,0.039746650831305595,0.11644324489776847,-0.010064502154728755,0.038159720203188904,0.004574617677929187,-0.009941315075946958,0.0382943641133246,0.05955824796305531,0.1655249558897037,0.09718106931547481,0.010190443795942791,0.04309069069696833,0.04137790100564743,0.026649731916881636,0.05916266880380232,0.056866307463751056,-0.07491081356763346,-0.07350610345586715,-0.07139338065445165,-0.1177160706539034,-0.12980862980492028,-0.18511909498035511,-0.19738628400259983,-0.13849373775907964,-0.041291457958236265,-0.05193157715916043,-0.06637797520359213,-0.05726583978310953,-0.08645209613332916,-0.09128784172489712,-0.15048605831514342,-0.19831635952313148,-0.02029418294778369,-0.037128847415988854,-0.052208724899952166,0.051827264686381595,-0.0013598653977882954,0.0014571780518478808,-0.04989611622980089,-0.10637981412483548,-0.03310879315028565,-0.02124896869559212,0.0016938038531763067,0.059499713102577866,0.1325406380953646,0.05036817796229829,-0.0066647908297338436,-0.03387349385529698,-0.06605750431153032,-0.001117016648036088,-0.021386908351317038,-0.10738603895229835,-0.08224893296813104,-0.1815728783643587,-0.18511044602436266,-0.19218168206261158,-0.152773959287888,-0.1473660756169034,-0.11780097945870331,-0.21079099495956163,-0.1540763253193623,-0.12228377838986579,-0.1917711091248301,-0.17628459509440164,-0.1484979158791413,-0.10059207241377198,-0.17356149210657854,-0.09186792283298946,-0.14801610800205683,-0.11066206252399369,-0.12457761514365645,-0.12413206926194086,-0.10295234056556377,-0.18477618932674258,-0.17765065450895293,-0.23644270934794984,-0.13410507596903473,-0.12679450754581398,-0.13709492421423275,-0.12317557909555081,-0.05208168074675622,-0.05874422177142938,-0.07687533829533048,-0.058651127095823014,-0.04107988398329502,-0.09379209498041378,-0.07247744006211963,-0.08912683122466472,-0.08243605487668072,-0.0915603335192646,-0.10904976849224414,-0.03107325285889859,-0.011518590338602993,-0.0746207352375229,-0.04032318863191884,-0.07562830339466547,-0.06733335664391342,-0.06950222763252138,-0.055198829218277116,-0.015445120143301698,-0.009251180771326936,-0.0007398937317166996,0.017902467852669378,0.009697249435445449,-0.12826796641458552,-0.0927794893850454,-0.049596610968934335,0.008325988659973095,0.13716912356823371,0.04421669477399875,-0.044746154901149186,-0.00760557597855938,0.06867664077199277,0.02508026427163023,-0.11606417459337098,-0.08716653173165273,-0.07789874974028749,-0.05326927604642164,-0.07907741534857864,-0.07126799479647104,0.05555117405460745,0.0003915236274084164,-0.1750833366961585,-0.10263939360994719,-0.043738150084103984,0.006636042434590443,-0.06433621167816399,-0.07343378616199663,-0.21341236841939912,-0.06616419036552271,-0.2192285996850162,-0.12343442867460294,-0.06364601135438808,-0.030150301484605496,-0.08757725848449313,-0.07518162204724964,-0.19872341451494108,-0.2507256927790575,-0.262458675641656,-0.27321162104121044,-0.15165869029808873,-0.16747387826769342,-0.11984575906821004,-0.12114033214957433,0.15229744203125653,0.12053932912272579,0.1627898139536488,0.2333808763835326,0.2172334598290617,0.14298114805074869,0.13476441966867544,0.09078037324285443,0.1538775654464046,0.13635166214647557,0.15851613477320614,0.20777601258353073,0.28130470158186976,0.19784905313800835,0.15657314633682698,0.11682478715430492,0.11746585609549008,0.13564296112633695,0.09574278053605335,0.18110906448471803,0.16094956334003968,0.20287483102509105,0.18030280161760848,0.17788725566786115,0.16134949572678142,0.12154168452543426,0.15521113846800147,0.16306467093956412,0.1368052961826431,0.09905980635706196,0.11830893264443373,0.1681907648132744,0.21044975041163014,0.09542987094214891,0.028864864641468976,0.05663010345821077,0.0028804670405306074,0.020754249672687172,0.04386544470964118,0.03043216082445713,0.24199861926743663,0.02838729559966087,0.0012539043998815711,0.06485312480857625,0.025676137339152205,-0.031348248247029975,-0.0385169894148546,0.06505325628823767,0.04310648061233148,0.12169950042113009,0.024190319561180364,-0.034689663271104954,-0.11205950276294663,0.03278215484268221,0.05332271118268192,0.09506707865760226,0.12703658381976962,0.08917346597669445,0.045382202217358864,0.018536199405291314,0.05456414504897142,0.06399415383214727,0.1832916596239226,0.1323068475261442,-0.15869118853334035,-0.17061121385172237,-0.1846605753403681,-0.14448836815972396,-0.16466178537145038,-0.1851528986051648,-0.2120507248696895,-0.20239170687035832,-0.1730361496860944,-0.17754768107325525,-0.20908898808478882,-0.20068469416847823,-0.1287259526055264,-0.10858395262324037,-0.1049021310209069,-0.15935536845698037,-0.17851135555352257,-0.16549679687460792,-0.20751603090168072,-0.1656464692762903,-0.1762925358762291,-0.11030206300034497,-0.1320428292299653,-0.12674739835935298,-0.12705455020901316,-0.18067092581390512,-0.17237639711837013,-0.18333202055035017,-0.1785458975016503,-0.28341326867051153,-0.175347654753793,-0.19020173795414652,-0.002026852272703982,-0.024177203164450448,-0.09408164851969722,-0.20493592489930826,-0.30800298977920754,-0.223472233100971,-0.1748792415890902,-0.24369393308790413,-0.039588855418696944,-0.07716233971821311,-0.09201101474824389,-0.06278268661646359,-0.1325993820614883,-0.16051851987168406,-0.203646304128411,-0.21193087225630478,-0.2920385811977377,-0.17642633351830198,-0.07032244740328125,0.031713519932243195,-0.04658145202164168,-0.12793096403990956,-0.18366090980534808,-0.22732397572552243,-0.2023647978358032,-0.1821152365041674,-0.16241032766488922,-0.1278543432072488,-0.04115562674486989,-0.08192890376290254,-0.07158948661486582,-0.06642007675048325,0.0780298903158012,0.042073897085480254,0.044297019893957686,-8.76957849821569e-05,-0.049927535375940815,0.025127904699877062,0.0038909011909929667,0.03743443545027529,0.08095950003161351,0.06805000669298271,0.03060630828121338,-0.08444219202324743,-0.0668414465628415,-0.031244390062198753,-0.02437836808220671,0.016788453126392586,0.04671779213064606,0.08960399836290965,0.041906294257098006,0.06891719826899863,0.07654824114854693,0.07660387824171878,0.04003104787537403,0.023753367478383344,0.07735499889784782,0.08708696226309842,0.14583683203881434,0.10740648416959961,0.09574489912810644,-0.012520639607843777,0.11767842982362524,0.1042863130217032,0.23257823937764524,0.24314653261678318,0.1371247556643298,-0.043825734975613935,-0.06612187111495117,-0.004320749933429884,0.025729935756131018,0.04184681131866069,0.25624918438850003,0.16312000320023254,-0.0106168103638925,-0.0883351685349355,-0.10288690103689743,-0.061043511658426926,-0.0694969931423203,-0.03223014105252677,0.11458321765949002,0.06914238563746504,0.06023586485737453,0.06778774664502955,-0.008215820184442025,-0.05607413105330376,-0.10310223115602411,-0.031112246245738655,0.04734501550017105,0.11759166562320762,0.10311795993341319,0.12076822754385551,0.001078788716764994,-0.03704663594064785,-0.04823774923326371,-0.021065474049304932,0.1160710304975758,0.06313843310438978,0.04869866245544495,0.04555886157756963,0.053147184938779755,0.018397554271809002,0.08350308967124866,0.06266193453531146,0.008582455986871207,-0.002501480762805267,-0.010398012583697578,0.013476177286746625,0.0926944714410411,0.10841603592766336,0.1230420907085873,0.10676030428447038,-0.04526933238555833,0.02230697494571156,-0.020447143406341118,-0.04960103254251301,0.02599614577334567,0.05176441736950993,0.1484598182609372,0.023952437720590733,-0.041107982208383125,0.009308654588766082,-0.041568994555300366,-0.011998842923523273,-0.019093332958088512,-0.09186408672309929,0.11188006881186367,0.11833820863581215,0.22616319838885293,0.2597977018813199,0.28526269464405146,0.1283853182202939,0.02658409792833011,0.02875537808036508,0.014012565208459348,0.08779215815178805,0.21539031830288188,0.2260921177448045,0.1367709033678032,0.1236988831383939,0.10765245156508724,0.08280029660001846,0.07035338954554136,0.13238662209245736,0.16253778124558718,0.10108543207994099,0.06822484817793743,0.06613827545592932,0.06638460413740943,0.09239452042084374,0.1037373590626257,0.07747708620977775,0.04294623137686388,0.05527311486366628,0.12645617612475457,0.13282500641938869,0.11850166741439438,0.08481052137987202,0.06559377762870483,0.0952188211054919,0.07820807398522603,0.08871527067120719,0.1500291450379222,0.13543815085471603,0.020899691356726677,0.062056269176751576,0.08880560416889108,0.09626027997922755,0.10342201636931153,0.044250390546430464,0.09352890744666599,0.05221895388442323,0.04338828135138081,0.064139709624948,0.10218776662097792,0.08920385909089956,-0.03367088116136128,0.02580428680305114,0.04341656651656982,0.014176191538590573,0.023261835632218626,0.05077978747141556,0.07911978643460972,0.06289074081469667,-0.05839379003294696,-0.01681233903815183,0.08139387978635251,0.12324470964562576,0.06587063962980606,0.057895546514422254,0.12798414046020948,0.12110483721099366,0.3264638902766605,0.36535894876160624,0.3267268079513229,0.17502245562085958,0.15116179008455186,0.17342505373262315,0.16241787340762254,0.13526221453725584,0.3726117516878514,0.30450299922231266,0.14278332608451777,0.1862213520275303,0.0628042379246805,0.13858901292296963,0.144294373925778,0.09291472093709303,0.19868892341536176,0.2815011337970644,0.09952658589317892,-0.06676892273630858,0.053405169781120344,0.1545499212657571,0.15055852423180027,0.055846135434281345,0.11940776348714413,0.0809635978980879,0.12471069835083938,0.09082449985730301,0.042710866457893217,0.07169148049887257,0.010547026241082447,0.032241137580901795,-0.027230125259689937,-0.02847079140061152,-0.018156444715312046,0.022839530996569404,0.025823589560506382,-0.05041112704587647,-0.03735247483368279,0.023168428856649884,0.007589776174038502,-0.027326858643311924,-0.0793910921441495,-0.09591461474483667,-0.07339086994248749,-0.051205175389972275,-0.04335249651681288,0.009469529524500258,-0.02419118977097874,-0.0652411814379233,-0.07725285491680907,-0.1081694644046654,-0.08579564789369792,-0.02101639126693108,0.028139192519980774,0.08165487781449435,0.008455430833663513,-0.01507450415614245,-0.04184046355698453,-0.015396301774762046,0.02798925903881922,0.009410677841357951,0.10380389937258709,0.09240881094685185,0.3421952005910136,0.2914687842974766,0.2091412601081435,0.17012127045850922,0.09371199931471176,0.07639861208205735,0.07955110146894977,0.03565682295790459,0.26487116282880396,0.23457672572445828,0.11658992192473464,0.15206751644933578,0.12509246381182407,0.09341498281810111,0.07783013767338919,0.06094443917476941,0.0058475533025552084,0.11637430416965387,0.12814109122361284,0.15130001494630027,0.12820098851226666,0.17733621690738502,0.10418300768254052,0.06705125296111582,0.044791817459312606,0.09207446399711346,0.10186347258363962,0.1025367084512012,0.1761517041584079,0.11627749297461525,0.06435218595102465,0.05944431717863281,0.10095404482028024,0.083329218228237,0.09097862841921302,0.0741985254010163,0.05196996818831821,0.12159685690212751,0.031272410636368056,0.060144262842237096,0.09867765903066414,0.09557817485402878,0.04554019709695458,0.041027973005123126,0.07473927929173936,0.12274061090325983,0.055895929459116214,0.004779150489417605,0.09574110221553295,0.0915329162836244,0.07091341491959055,0.08156455534884466,0.11248318435408762,0.07297992186485927,0.0706447866441617,0.04748546834874223,0.03958642584876993,0.09038882957276874,0.09041090993195705,0.1063013352892527,0.11061448291724635,-0.025511615458936085,0.013836525208529436,-0.010117703823510989,0.31349875554567086,0.1527005039199313,0.05717931083756312,0.06208985929254109,0.03366722761592627,0.044579975563707366,0.014394599099431082,0.04406894140721759,0.3162758477134276,0.12760825901843384,-0.02136805164547483,0.015402620390241005,-0.02234876625704558,0.05176785924548659,0.044127109412431004,0.04439448820629547,0.19804483594704422,0.09173022126157332,-0.09143539538958563,-0.10394156796868995,-0.07304653991376084,-0.062281938177028796,-0.02687169459068299,0.017573747490608003,0.18475188592989855,0.005049164364727746,-0.048704320930326554,-0.17375276092267483,-0.09369572539021107,-0.05023221499270783,-0.03274115915008271,0.021381803196594256,-0.01208123501780542,0.019646184873164572,0.03740556765980836,0.02128615946455392,0.020593691421225406,-0.045783968761699115,-0.12899946042291371,-0.12497053670121373,0.01619691372700175,0.023346654935683914,-0.008611453874468716,-0.004619453504359928,-0.059439903583062635,-0.13984981115161663,-0.09749459365756308,-0.13948873046869903,-0.016363418911677682,-0.030555565641156808,-0.006046517991681747,-0.0020475602685268383,-0.016573822254000174,-0.11955721477756624,-0.12165956176974986,-0.07397976597879122,-0.0703673560483029,-0.01774317168422019,-0.03986405015770495,-0.010929482531882306,-0.04630654998649875,-0.15942684028642234,-0.12381518778114638,-0.10863029117089008,-0.0054362593771708064,-0.010275327184044728,-0.0003641593423754432,-0.01657716562951059,-0.05679296447186908,0.0027801245877197974,-0.020114440113487175,-0.025423840075865466,0.07820781780162613,-0.028551752634200178,-0.030889827125096646,-0.047494305953984274,-0.03530581522405352,0.02471499275951595,0.037878316708322424,-0.0007356113484090131,0.02365342794175197,0.05399396552175135,0.037649490425746696,0.06423056027339075,0.04561723920418172,0.07801456826213715,0.01279999199677593,0.014202698902101456,0.09496986542000001,0.009513502654635575,0.12602655863765336,0.09143665185236409,0.05835549701384719,0.09115240786889213,-0.0006822615594130874,0.028655729515889548,-0.1154822595611132,-0.11374204949003754,-0.10326209600477147,0.0006967310524211756,0.07322763159360628,0.03505941956617298,0.006106594692879352,-0.0004949728669317551,-0.10538254724776744,-0.11657060721856434,-0.0727329014944009,-0.04660352988079072,-0.019852883022200046,0.01755530843164975,0.05209687548131195,0.004949979033670895,-0.1610864339733778,-0.143909721757202,-0.1331070497545316,-0.10722629129048099,-0.09382379469616688,-0.06339272974239177,0.0113837520615781,-0.021994787770097213,-0.11372275997777512,-0.12469192211260695,-0.09188701260224798,-0.013248705937510243,0.02055160044849161,-0.06248041350449733,-0.023921539459411296,-0.08613929428773426,0.23420790366234956,0.25220683767224894,0.18194465534489024,0.09901799097236444,-0.02078760166302848,-0.0879484291242888,-0.11087242841492446,-0.029353161687215128,0.213287981396902,0.229181809295711,0.12507907845552127,0.0021224537315079153,-0.1430117954243023,-0.158234535827493,-0.1129275579463494,-0.027050008305223826,0.059635323181844294,0.10754950930467969,0.06518824779993529,-0.009756397369736694,-0.12109661378226583,-0.019756642642384723,-0.0733200440417427,-0.07483502170758435,0.0965478232224061,-0.056042206791918917,-0.008764293114784367,-0.013544799681590294,-0.11658484824641312,-0.1420881883390121,-0.1806506729567228,-0.027155624362067032,-0.14084099295610453,-0.08752775305908707,-0.028326478473257328,-0.002382670461798044,-0.03551392154516804,0.055918966736420224,0.010071463705775625,0.08018243342086757,-0.11787848980570793,-0.0520836555721728,0.006810641705201595,0.07298166535256731,0.07751619667492743,0.052229196547945674,0.04756010883641155,0.08369952197193496,-0.15183537792276863,-0.034677088646257376,0.03393919843437968,0.068223278553112,0.15922474055305397,0.08820863495671295,0.1069104264939898,0.06366719933863361,-0.06454882795377902,0.020669414139048804,0.06882431939948849,0.09885668341276396,0.1194056309974612,0.05868490510486855,0.11203015921817457,0.0869626733122069,-0.016218694460545875,-0.12297819675273253,-0.29258246086954387,-0.18868702261020262,-0.1966088171573749,-0.17926982306228534,-0.13030502012286443,-0.11541504141472463,-0.039842876610778136,-0.18108514008347532,-0.1998358279657971,-0.1390082533772371,-0.20022868767470642,-0.1737736756889242,-0.14773422147127638,-0.13722162338696617,-0.18546964904615623,-0.06920175828878096,-0.16465480603185956,-0.15407611918370098,-0.10362329474660305,-0.06712671684540802,-0.13525508897908192,-0.12930675312694415,-0.1011177271797735,-0.1908256278081293,-0.31463640269383913,-0.32861781155422826,-0.16540568606899625,-0.10849727973587403,-0.17010943864410843,-0.16765375218133552,-0.005025298779263848,-0.0016446495593374143,0.0375790025083922,0.07300644039133337,0.07742898137252037,0.1682185159246873,0.1373249074618755,0.04995345450522085,-0.07109594198032244,-0.024632179551993868,0.04133189011422488,0.07936146967580014,0.1526921955427887,0.17844662915696233,0.1589979075996651,0.05897219951749378,-0.0756305542029531,-0.046542500772660665,-0.008344362854079159,-0.03513624931269315,0.028936970303399548,0.0949924712926487,0.08351083590237005,0.012722133735914238,-0.030356071598013176,-0.05667283971033801,-0.0685361397037865,-0.10955832171879051,-0.13622951891039461,-0.07847387419234864,0.04021250433428029,0.033052200448938564,0.02439123014447797,0.0832480440784794,0.08847149629113418,-0.03232487645179988,-0.1197231071367531,-0.06645695370949375,-0.020791969006090177,0.06927978346458219,-0.04239198156834504,-0.03646377518295876,-0.028840242709624674,-0.10818153626421037,-0.21202356360119418,-0.11721615324026531,-0.0444605315342657,-0.002086509223715861,-0.09100266590143131,-0.20842952727173253,-0.2545147457936105,-0.1650382006683033,-0.1439612416489713,-0.06396179022677279,-0.07764810564012788,-0.03815925825385432,-0.05095890475461242,-0.1085324396829168,-0.18565942774245203,-0.16013642383804466,-0.055808389883850534,-0.04311909911443075,-0.047544532520927905,-0.03986803583562186,0.02384295210976046,0.05750668490043766,0.06423286578952174,0.043998563235605824,0.08430297390120621,0.08921474690750279,0.10998800311224216,0.14812954852012228,0.0221076600859739,0.0432131811297704,0.10674127793329412,0.14160615371709756,0.13572123636097527,0.11758311052890548,0.12094553513843455,0.0909094771875646,-0.002060809908063735,0.09040227448748359,0.16837124498093375,0.27204139064384086,0.23270424184547844,0.2476900965074166,0.15191951585310406,0.12983219377311767,0.06289945764167584,0.0952389375432489,0.1770686866090942,0.18494260529263024,0.15032151417930475,0.14699546780058698,0.12485801441648103,0.15151905517752798,0.15351278433832394,0.09708928787434057,0.05930840915476547,0.04152338337522694,0.1258576341239912,0.11257078403481682,0.04545247577651172,0.04148193753947066,0.15670996791766434,0.09064771952224007,0.0009581607595700722,-0.03411156447974305,0.034922305517178134,0.037552809180052264,0.01583040123252313,0.0364832356226239,0.1308493495299022,0.08735679479428228,0.043615675271262255,-0.0505069797828769,-0.043560837683633176,0.028728106752743992,-0.014444328623148435,-0.02025719953649896,0.09472276524698792,0.06493680173342042,0.07884416439824563,0.01791692215488945,-0.007042508966562042,-0.019645054687400982,-0.029905538390921117,-0.10592296686136654,-0.036529842052288215,0.024028337363952018,0.0880840467961764,0.09779467127052674,0.10582161838487854,0.1431591955025593,0.10427188680631923,0.14098543254372967,-0.07395783631441583,-0.05983956477957151,-0.020423677781958256,-0.012451087743985477,0.019659668240184797,0.04677692721183748,0.11889734877366935,0.15405039295250167,-0.1337785033824252,-0.0931731010286968,-0.020239045893394307,-0.03810493428644172,-0.03511502619350142,-0.0015906370437615708,0.02940496857289061,0.05388737012970916,-0.08787474770182964,-0.09481287589228934,-0.04918179985095115,-0.02940690106951089,-0.061692586855565015,-0.046409786119117745,-0.03540183902549236,-0.04950111175337696,0.20620935085608472,0.07938163990061038,-0.11662534374643067,-0.21663718875046542,-0.14212697185829726,-0.038134211105723556,-0.048311981138578736,-0.042722487424967474,0.09780175565929104,-0.04841851022723923,-0.19231366067555253,-0.19437559744341942,-0.09355403849110577,-0.1114378129233397,-0.10160541199032595,-0.03547432682519466,0.08020908316137366,-0.05833509658826562,-0.2034694609953218,-0.16472985284688096,-0.10061606016687868,-0.09767851802817319,-0.08781466294577112,-0.06477771717800808,-0.00056774068514192,-0.0880739249782644,-0.08084762669200356,-0.17502770589358033,-0.12400813944297041,-0.10187489900907518,-0.08643084378802045,-0.060893483036491,0.05601338269136488,0.11089827756073752,0.10880678418026851,0.027048702086358335,0.029081482662169665,0.1409855752432652,0.07201354459001143,0.08875203520927312,0.02976294591729628,0.07926708262026622,0.06755900443182009,0.09526498432133718,0.15071418566104147,0.15232872565638553,0.10294936017338892,0.04143798797371206,0.017735398463328236,0.025811043085673956,0.061638060389915324,0.10564291876402639,0.1134060060034304,0.09613181630722592,0.07461725900154059,0.024665511583178812,-0.05933200073645464,-0.017993204326996973,0.022152548093266177,0.10633401173624,0.13439929308521972,0.09202032718913412,0.07662933396056877,0.054879061721638034,0.10492184337189488,0.04830664675957398,0.042033986808789586,-0.02393169967587073,-0.0380838195439848,0.036006230587296364,0.08161352323360624,0.09030056719718137,0.1144889267742928,0.10453689208521913,0.0034613381771585084,0.06783560822227458,-0.0010919451700386084,-0.003950435503937707,0.01944843843993503,-0.006319266487231371,0.1094997387840385,0.10265199983625338,0.016977833177127095,-0.014378162450657924,-0.007536926703183814,-0.02848707888205137,-0.02467152670563311,-0.04862102580751179,0.09107457156310018,0.13493470190089632,0.114591388097204,-0.035932294759183664,-0.016103828933635614,-0.0646819587202605,-0.07999450632941621,-0.07701758781523159,0.015940489325238533,0.04571842498665966,0.08978813314668589,0.12360357759893816,0.1493833890541318,0.18189649524017956,0.15777850678812785,0.13415592059059508,-0.059355406332285435,0.008933127546604695,0.04493019701090506,0.08640852233341886,0.08564155010010761,0.14481994413552066,0.1647608563482972,0.1486321680594791,-0.11051228868764214,-0.0030168442075005765,0.01710246988842572,0.03482525326351766,0.0437448666403728,0.08450722471021987,0.12223186974928917,0.0905392631819253,-0.011530679065545764,-0.011326131003817706,-0.016616090963140748,0.009824990860925371,0.021836194355387965,0.0021489122217783485,0.05448363736174052,0.05383942324011089,0.3321011596903105,0.12362219692183055,-0.05511327784780474,0.05694423026342209,0.006228784670966622,-0.0326783588206366,-0.08253231081647656,-0.0762761409810439,0.32828967896166666,0.10607898414708965,-0.0741695367134373,0.02308233373970239,-0.019111774504047573,-0.04697575937198973,-0.06083333031676333,-0.061451697013686454,0.33079012092111454,0.12887492109370913,-0.036560581080450544,-0.013700094285287128,-0.045537886445462056,-0.0630704525791805,-0.09335409898049515,-0.10017066254442021,0.20208508650830903,0.16756570327233056,-0.004942862317678518,-0.008067460076003419,-0.0405074086159032,-0.0957485345053233,-0.11109031364762495,-0.14561651344337137,0.13956037365161325,0.16884631841597927,0.20197909138231082,0.2556677312906099,0.1450933099233211,0.12268273115135038,0.11382894029406944,0.07976698859009625,0.15263559813638972,0.12509824218202986,0.1559577716158921,0.1342190584157475,0.13442585519493636,0.15994756845767472,0.17203110167831084,0.09144296555490716,0.08382272006206189,0.07641788906421267,0.12826015491514364,0.17057136965385897,0.20291159050808713,0.17393784740503426,0.19949793318130957,0.1598947141001664,0.029228088162546143,0.06864305277205926,0.11847396671075834,0.1423607740836398,0.13122714455610776,0.12338128322098996,0.14537607410468575,0.14212369195114244,0.3840821796666287,0.30464934122826315,0.28213720281945986,0.20836805834769095,0.07517490002512406,0.13581932349698006,0.17148778750474186,0.1830914920010943,0.3652313419106561,0.3344305063204284,0.2772777142975539,0.3226352606082106,0.07652637861721714,0.11865503022011681,0.1537507999780029,0.20101732685462004,0.17803495970101804,0.15260795711562655,0.27410107027291103,0.25948522275379904,0.18277188081852744,0.20550491847577237,0.22959103400633477,0.20118301239528044,0.02843797554603224,0.00027757722720365307,0.11291259772536258,0.24616946217272906,0.18353909381050415,0.18967854186681612,0.18346137718890443,0.20276924107589064,0.09056812922392382,0.09201923529354308,0.09334137982110945,0.151045378037396,0.17444439442576906,0.1539875350746501,0.07037536730706266,0.20092893328478723,0.12336626570166077,0.07588627367132039,0.1423589441809637,0.10316916993378156,0.12424894040251347,0.12933246480168062,0.11220212480945914,0.12239149863821543,0.09997790618738324,0.08662173953722098,0.08106039283822387,0.053660245042738294,0.08793473846865844,0.10908912818654216,0.08003012504287546,0.044637096795904246,0.08030616192007453,0.07213802902285424,0.0879044541875472,0.07101185243996422,0.014708510988272862,0.05324480265552565,0.06178975610531363,0.02568454276031701,0.27052524110756343,0.3190522203942873,0.2037977382281666,0.0665296041509224,0.06638719689397606,0.031692701536672786,-0.007359244635579319,-0.07531009488346636,0.23994347985766254,0.20735664313594615,0.1315243525168551,0.11234938642911708,0.09248488964015703,0.07117734964063069,0.029606898858637674,0.0009787469021848385,0.14613786587817518,0.15954573987247533,0.1783546358052268,0.20406231680483264,0.053308820435887506,0.08561614348348287,0.08780143573432919,0.03581033155739622,0.11656543483936549,0.1754185656001839,0.21342542681871335,0.17817788674724644,0.12496739618824176,0.08624947284313172,0.04694455511203436,0.018590502801086744,-0.03127154506860757,-0.02598925489992249,-0.04945139272918959,-0.016869593381127132,0.013989325110974381,-0.02334913416695703,-0.08003142145757326,-0.04480114408108374,-0.08649285071471831,-0.03882727208063844,-0.07786059276600295,-0.03526314014838836,-0.016797021796661912,-0.10927389120181301,-0.1011186911314818,-0.13778183281629452,-0.1258311183081826,-0.061878595427787356,-0.07140164135942989,-0.062448751398232576,-0.028627400698736764,-0.1282907176796844,-0.1476972451660609,-0.1999461279226709,-0.0925665347834101,-0.03346654131244593,-0.06310936900329531,-0.0463586814601703,0.01671187227063999,0.015174497466645653,-0.07617748372559038,-0.18954537377856054,0.2435935844903966,0.15637981723888034,0.07515304834329593,0.029137827639573954,0.07824479771340832,-0.011048947598394223,-0.006991589707241302,-0.02586864361219318,0.06841789958686181,0.014443309124329486,0.008615274492075805,0.07740553571423477,-0.01483621329388121,-0.0487226074652649,-0.04595573326137813,0.030306036359789873,0.046805519914900964,0.07723355446900579,0.013977335835157005,0.06844140285215958,0.024408982510701123,-0.009593193619285692,-0.04647415416263829,-0.03201468212998337,0.007227457591863303,0.15370202801806748,0.16047003793845904,0.06189507507663826,-0.06878316624513596,-0.07870801456954826,-0.12099080228581681,-0.14784195651302615,-0.1036902580696857,-0.07824643405366977,-0.08487477073349833,0.01624308713506415,-0.05305121617458119,-0.12138872835006861,-0.07174524453074721,0.02158959050226743,-0.12364112621095537,-0.15001238499259983,-0.12221329132596599,-0.15208852096799208,-0.1385018320369787,-0.16226764360959023,-0.11762589046239456,-0.03187811495563444,-0.1735566803497596,-0.13916033731242983,-0.1844203357722759,-0.1954477094878278,-0.2494661442839644,-0.26074826635925297,-0.16572018286458295,-0.0794985230417964,-0.1319948990267262,-0.14018923614165138,-0.12284775917451836,-0.14116604155559867,-0.16761877074323395,-0.2109420559560091,-0.21950741829718473,-0.16462677382502267,0.18587482638632752,0.10764225131374344,0.02942662310851743,0.13003350785292692,0.0045857429248198495,-0.01583423650239125,-0.05875499432791201,-0.12141541069416165,0.14074174402042092,0.003775587054141559,-0.030019965975514856,-0.008800314749227413,-0.07219901154566995,-0.07524844424770705,-0.07553069624038486,-0.12884161447875322,0.01550835938938925,0.06707035081735102,0.05731747218562313,-0.018050593386306928,-0.1120275292511595,-0.12011188546747073,-0.17815463379037583,-0.1478481470244112,0.014930633073962007,0.003102770888290568,-0.010234866128336616,-0.05411953642786659,-0.0139804496749952,-0.049556119412839876,-0.10582970938156433,-0.19224545541069613,-0.005403355679132186,0.00020383321205057358,0.019441282303169948,0.09029663883127946,0.10059787722053884,0.09612671969993819,0.07375385206445016,0.06998161597227945,-0.05525440916501372,-0.042805016931223544,-0.012012289160436932,0.06108161481586318,0.03658455618983545,0.013049347527982558,0.042446271818756216,0.03484275660449354,-0.10896540979908399,-0.055067743999513676,-0.042521453315999255,-0.08697776633807938,-0.08495067098435077,-0.0448347402592752,-0.03395247739108635,0.03991912859626541,-0.0671106088778937,-0.1027045777985582,-0.1147971197630164,-0.0815078245867981,-0.13614132852682434,-0.15720356029848317,-0.08875934746269697,-0.060118681944573316,0.199058471466491,0.1259357536810371,0.01767097922374457,-0.021590697324926855,-0.09130596385036852,-0.09269449675954283,-0.0031134210655852437,0.03521895773246732,0.17817847139155293,0.1575242106548197,-0.007965987195564548,-0.005864420955915613,-0.02639541571492352,0.004253126387264412,-0.06127375041432058,-0.049757827004122256,0.10013138925575198,0.05034192037413579,-0.07598181224059826,0.022932906390055765,0.02301232940374986,-0.04492718056179731,-0.06692630388463668,-0.05007928211437301,0.037412854040262344,-0.005896583173744321,-0.12038515148098082,-0.11341195584022844,-0.007843963258912979,-0.0767798551115162,-0.049271049126619185,0.010984712773865006,0.06916422237243805,0.07822941781923193,0.11306237906507588,0.12075851813600974,0.08504015435217592,0.05427237013750343,0.06407122046737138,-0.006743400672490206,0.02323293147113112,0.07481778534175788,0.05121656772973415,0.07392069813958467,0.11266300036869484,0.07506121820481032,0.0519964762204925,0.01611227334206457,0.04695387406120949,0.09673471604057042,0.050850469799468556,0.027053964612416128,0.08526721165446591,0.07182441039958272,-0.0068562336587897855,-0.0295495295432046,0.11637266139260674,0.08712694582260205,0.0586872299389942,0.04943166379721138,0.050829076361511884,0.045644134812669664,0.011169354576023343,-0.01802548210174003,0.15535874157877652,0.16433701996345063,0.011753123020501804,0.015972566690589093,0.05799023611058556,0.08541950729423321,0.0810101812745458,0.03145408279912292,0.0657286691018489,-0.08008065565112987,-0.12462222677428268,-0.026339314737740517,-0.05870770041539074,-0.011141972339204598,0.1106555454168984,0.07498936307770028,0.09993486549144118,0.0276461088348935,-0.1877130218839104,-0.1326838386260741,-0.019338320979178623,0.02283845694415425,0.08415176916409235,0.08378655488810868,0.08914975964325655,0.050457970960477265,-0.17401820777405377,-0.1983816647068976,-0.09153196532686773,0.04263125237449543,0.031030543821841724,0.12376850194658227,-0.0008242334366508276,-0.019370521073677923,-0.010629468786078629,2.6319337177818228e-05,-0.0541039671893872,-0.0349443879006149,-0.044363041813330145,-0.05402991386097282,0.01529607177220503,-0.0030259406674186832,0.0846815928374509,0.054859888737434526,0.09158056608865935,0.06265206524989357,-0.021889318313754257,-0.0073154171827617,-0.027198878272859967,-0.014895219131601621,0.05730848786891205,0.14725771501036833,0.1967997516887082,0.13718065736525153,0.009774831723371763,0.02994888067269019,0.030902650492191458,0.03022936651639134,0.10868035953122428,0.24041794195390515,0.21284109774463406,0.12862642198092905,0.12457905087934285,0.028856785885506282,0.2986786296855439,0.15484726379687294,0.08321534243946045,-0.005069005748614693,-0.10005895384920453,-0.001608762748121632,0.01321186280298902,-0.011036145070084272,0.334935861955597,0.3235518516838293,0.09167242936005172,-0.0480150331099733,-0.12364973042536088,-0.07181386827549519,0.00638413577446298,0.03283380213285812,0.3128566618061817,0.21969712209604267,-0.005936873154242118,-0.04689687140343065,-0.08977961760610169,-0.012433972259093826,0.08296904579551785,0.09212500668809757,0.24488375259633252,0.1472424311839989,0.140359124466847,0.08218422847171683,-0.04171744251946498,0.006166761783805758,0.05120535006737416,0.1082913691730225,0.03010852210707836,0.049905014561395476,0.12170910609861182,0.16031871919088625,0.1712170825603041,0.17697867115167903,0.09151509632355341,-0.02284247338712426,0.0025892880777614426,0.05860130122698725,0.08304793807648789,0.1403418195813382,0.11353425647912126,0.16742789935311736,0.07336464519430197,-0.0251205967361685,0.08034633857844796,0.07848298026793674,0.06782086247738117,0.12747237577507595,0.18485756093809455,0.1465876331902283,0.07301365501001894,-0.009752297906720523,0.08774675677289465,0.0882419287372705,0.1390582650139068,0.18810073758237034,0.20297394881402872,0.15870858349766306,0.027557558979259607,-0.10187335037709555,0.20024008497523088,0.10582765318909967,0.04936849984374257,0.10625764627546741,0.0027951810279743102,0.052393625016062706,0.04593533117916359,0.02886414526631185,0.22157247099531183,0.14710453256409387,0.08391720833613449,0.08482779460317998,0.04808566562079841,0.052505752863005094,0.048652340229713716,0.06933177167212509,0.06434498553342774,0.15046091705274506,0.07244776862244298,0.17774015941843477,0.10807857709641111,0.042180572068711675,0.010156860384072916,-0.007453493333720864,0.04436946715847974,0.09706354404462542,0.06822015155298566,0.07578879466920013,0.008501124943635476,-0.014914135242671177,0.00794735473193362,-0.09524692653482757,-0.12408257255296326,-0.12036479724323161,-0.12223223752415752,-0.20208393597143695,-0.18333022383491956,-0.212109660733645,-0.24806720722951864,-0.46297803221281847,-0.13236348064246484,-0.11900506534338909,-0.11717975680739376,-0.13943441317127778,-0.16049385614879724,-0.20144841619978923,-0.22184675178115296,-0.20791737139941113,-0.09387359260912718,-0.10053393027512471,-0.13253746474329328,-0.10310031725230843,-0.0875609755334133,-0.16620679155467488,-0.16154012316034488,-0.18591283053767033,-0.106947940819608,-0.10357096571948159,-0.07838955204921538,-0.05751784530952227,-0.05769991541594805,-0.13414413224915936,-0.1306019809215101,-0.09420894297197918,0.06473419438770137,0.043885184752078706,-0.10682867128078305,-0.16149888893939765,-0.09740803972803495,-0.15237385942694806,-0.1903320677385793,-0.13139256956529935,0.02463191491712787,0.0802713136386827,-0.06902901488042337,-0.17374278635486445,-0.13213131541581954,-0.09723749546090404,-0.16781907954388314,-0.15153213943902685,0.10866892226770425,-0.09140057130489344,-0.1479067940905093,-0.06987694548587386,-0.07174295573948335,-0.1201525248729842,-0.11226672606360945,-0.10197768264424241,0.1390253786136751,-0.19762107838387152,-0.2661602999632523,-0.09617591069714011,-0.06327054712306648,-0.05892099576459146,-0.05621210592733187,-0.037524699756473365,-0.10708261793739668,-0.07562272823675592,-0.027554567891418344,-0.00659046205695117,-0.006800382741868921,0.006185225327452579,-0.07224073929827507,-0.12854520673265502,-0.09619324261067888,-0.0880013170932663,-0.027469179973853917,0.031314705411692144,0.044974748379086306,0.029049086229486522,-0.08081427184585675,-0.10052847265072967,-0.15602126318643997,-0.08613400062677827,-0.08746471286009919,-0.07252323010216083,-0.01313797275988374,-0.015943785958702845,-0.05628595638867761,-0.09055042286113964,-0.13646294867517475,-0.12411370584533744,-0.08641783649991658,-0.07024336957741117,-0.09153615625081594,-0.12076791338734344,-0.06258223919684257,-0.0883548292231842,0.08950947353639918,0.14714373300582442,0.07742070384536406,0.056840223094288614,0.047486888209127734,-0.0037397984372483047,-0.02935484680102425,-0.07175547640742898,-0.012873747673323036,-0.015866837057563695,0.033764874615318886,0.07920889054761576,0.06710910370623964,-0.038768218087952104,-0.03622531020587953,-0.08043422777946566,-0.05579843268990167,-0.026973246341411763,0.032134203831930976,0.02598858711029901,0.16133224050028788,0.06895276494583227,-0.05446489430051332,-0.10623633536751857,-0.050090470782901034,-0.10613656020019664,0.06370450749005127,0.12239875232208992,0.017757541942648874,-0.08306447414831279,-0.12324102733419774,-0.13865646737208773
0.056262651927613094,0.05042245911749513,0.10265906619050852,0.15513994061869626,0.2516705569889968,0.26019371362406074,0.24300228714817457,0.16991615588809017,0.03481698298033109,0.059171164737796586,0.07637582559780237,0.1031672546942407,0.14101703393982248,0.1704803203058049,0.17237012751395192,0.12550192538032828,0.01052182252141777,0.03686652365769377,0.09201174575692858,0.0990476107677639,0.12221049258310518,0.1029676487952711,0.1011674784400122,0.09355527614129976,-0.0018388137985053405,0.015746210268103744,0.019815495422490486,0.04448576348606919,0.0437922468508608,0.0575156148833829,0.07304916508039894,0.11778109227459133,0.03126259167276346,0.04533416901493509,0.09110983502007945,0.15790512669515566,0.0805796220093628,0.06268974333453314,0.04736709713995209,0.03269438023172509,0.03148221579387362,0.0564630056922522,0.08302536935341034,0.1398165521302508,0.14327294480569047,0.06476874046697852,0.05750137682785396,0.043132123706453133,0.07493461471100626,0.052428307276805225,0.048550677682085146,0.09559407924504779,0.07152471765111078,0.08064803454928113,0.07204089669375217,0.06433327613989792,0.16952052164623108,0.13031824696482647,0.11296161394492808,0.1852676199472188,0.07112666523144108,0.07874419538189713,0.0849025773973627,0.011861235454701163,-0.014411776324735108,-0.03580910464623657,-0.017659029097834802,-0.03508849185383764,-0.04457461431648657,-0.010270322577398561,0.015446420475828566,-0.019360234390839896,-0.04221871909572616,-0.05662885497363125,-0.018749829925133105,-0.06003424233868462,-0.009565305752817449,-0.00938451074364452,0.0035893623603518586,0.030195654545218324,-0.032394736581242034,-0.033313709111165,-0.044176822030869846,-0.03688403268712583,0.00874010398731465,0.018850340075302303,0.06687933828655736,0.012568701324620143,-0.011508869153492913,0.010018605119817647,-0.008746500906374972,-0.007689491120142694,0.007560493720106888,0.04134477439947235,0.0836750102174268,0.07801912421069397,-0.09415264936899098,-0.09033984447211692,-0.1141260359727795,0.013975135585855225,0.08938538660906507,0.058938257552451606,0.05208736464664831,0.023963984813099214,-0.17260341152993341,-0.17912374767643743,-0.13091192161557616,-0.036575176849545775,0.03585083137578756,0.0286507366028805,0.050286720305134744,0.03327871231395619,-0.17012749174870156,-0.16579450408333557,-0.10335213311731847,0.0811432633403886,0.11393665899127324,0.07971503901269131,0.05932216395159033,0.0028216221993348535,-0.05828262822293072,-0.10881650765703622,-0.055454881915201204,0.044229917222865865,0.11529898915387395,0.08450020785735658,0.06921079170365378,0.03801451713079038,-0.06717552062278301,-0.007356750557102861,0.004361554491617737,0.01068343379366327,0.021334917573670537,0.05295956489996323,0.09091407046960533,0.08528739178128258,-0.06821955818602801,-0.030035618534323513,-0.022266427044543357,0.006110301713273308,0.020780710543301616,0.058225034395011116,0.0787476204786998,0.07519927352039216,-0.05342496476949362,-0.011263501456964245,0.02730760867226836,0.024418329595164587,0.027550432678585743,0.0526245921538536,0.0703834173731283,0.08154875738617344,-0.016666841551310107,0.008442912444218877,0.03748775776327353,0.0547954648089679,0.06755466952570496,0.027885063622654933,0.06455144180432207,0.08290345094848806,0.04730830364702118,0.09042886693902737,0.10695539243437352,0.1985999248242201,0.13028924179773405,0.10098200484386681,0.04062591026166349,0.048651206465809865,0.043650165324800504,-3.935505703665448e-05,0.07836522917588949,0.12573900791335976,0.1083225792266974,0.0828976334273438,0.06434894895909778,0.027244071081455514,0.05829320178218692,0.035530615023266106,0.09704188894915915,0.13222235741371474,0.08042545261671416,0.053923463742382986,0.04248473483949871,-0.0036079858178710857,0.051829139814973224,0.0559464546650304,0.12984297702827352,0.16315795633161398,0.1457671215690425,0.1027348743127858,0.038519178594419216,0.017117617749800352,-0.03663275686747441,-0.029747040852423738,-0.010051210789835665,-0.026552013469413594,-0.015234558274306859,-0.03474488541205326,-0.03023761381666731,0.052554414927050166,-0.038222731787226516,-0.026905858739846977,-0.03761640787204913,-0.034774292290471444,-0.04657921369137446,-0.062475733677156794,-0.04862296438804306,-0.0005759362199469346,-0.00010006413702456766,0.004182745060789274,-0.023630637539439902,-0.05240113560814618,-0.056951660411458556,-0.05105960027981491,-0.021459902593393164,0.019810775279761272,-0.003769678928732609,-0.008677264274587553,-0.031098826666329814,-0.054147106597479636,-0.08456799550674787,-0.033989712226305493,-0.005829577808765319,0.03568646795655079,-0.02091905153705463,0.11941860996700887,0.2427921755309308,0.23906572542531096,0.18725323794341886,0.14018753151319774,0.06995261083829668,0.08876438086830775,-0.08740574514699091,0.07460191421028485,0.2536712306219185,0.32449296788144316,0.21485402996386918,0.13435145048590166,0.02333900225941673,-0.016798224251129378,-0.009058221900591256,-0.028179451680716276,0.13962861554491063,0.33471313950869236,0.1912947534116765,0.13023372427521532,0.0541596249348735,0.00021093341251848127,-0.0793088163405578,-0.1343392634548267,-0.018821088982269755,0.15377904831129174,0.24077268876495578,0.17462846767780618,0.12342227254148516,0.03809495380583063,-0.06953958645846388,-0.05075876906554404,-0.06987837948506642,-0.12156560984272671,-0.1149211599165932,-0.11884313199804913,-0.11799720923776133,-0.06694394314837024,-0.03667490233305041,-0.06660814252020422,-0.115066776488537,-0.11060735024575388,-0.14846871799384542,-0.15697194809840376,-0.20330103874119348,-0.14318084594523142,-0.04264231884370582,-0.08995042178435934,-0.13725651844048073,-0.16036533218900187,-0.18472037168440653,-0.21372566144446262,-0.19845754551678366,-0.1268883866360621,-0.1015209355482778,-0.1187563262132364,-0.10305051715708513,-0.1327315920314166,-0.16671880525689942,-0.18221034522239496,-0.17967903030116053,-0.12848586787941393,0.03574753889433903,0.06551260716468604,0.12760543150979986,0.2253856847984463,0.04857836589059986,0.06879862943785968,0.026314959195169373,0.024437012616269734,0.03864439309147716,0.124284144053571,0.13186055866865662,0.07270542014954287,0.08630323960697027,0.0407730522828412,-0.00010687652300811869,0.01698190310340152,0.15801005522778833,0.0076876655908007276,0.0645129604016806,0.09294299430973875,0.0034638791572167466,-0.04259466595569861,-0.00736211180947226,0.015996964420856786,0.06513754513390713,-0.021555590257441547,-0.12458695373269038,0.0690779690375404,0.00957268116536781,-0.01790389331309789,-0.020300134254289077,-0.0019530673552009914,0.04861792819748669,0.06817444284598168,0.09517043059741176,0.1806059524450611,0.25094656953015915,0.23596614851410821,0.19019670353116114,0.27234625999097084,-0.009171017225130147,0.013471366299635204,0.0652015017484891,0.16058810057347564,0.23859013205577864,0.21795790618311456,0.13528468469856514,0.11159634917755758,-0.03165082056001604,-0.0013861649698152314,0.08199183812226662,0.1446367182791077,0.10893467452335989,0.12950980634582424,0.09420192403260433,0.036879630559656845,-0.013616186268065936,-0.0026370325105344915,0.037953652173909794,0.019130279032651566,0.03292626013944354,0.04230963527488488,0.04073148935870139,0.025963159095029296,-0.020797631553212934,-0.09265560130950995,-0.08880883956309041,0.004790536635399499,0.02710309358340198,0.04600631668397379,0.11890628632360223,0.14509214008452817,-0.07720976862215344,-0.11076316697034339,-0.0023701320088661323,0.07698376296174923,-0.021137109949260893,-0.011300988534588404,0.05814328042733059,0.10894925415782002,0.03439409058145539,-0.0850345545785975,0.01758825756606673,0.11138435000470424,0.03545643292562781,0.051784208504078263,0.04048728351913211,0.05131184492275386,0.06677555224303458,0.05954309682532474,0.09166098687081968,0.07285885074016639,0.059628707633153144,0.04103092404597943,0.04342466009102227,0.014105317181986817,0.01907308462266776,0.038311983563435674,0.04082228936519685,0.020953995643913672,0.04730392157961409,0.05280269045036555,0.08977487477795754,0.025754513504191803,0.018885070619196594,0.022779634301722446,0.04839936677989272,0.06072177684036473,0.08299833847136714,0.07693299236703323,0.11135460507679112,0.09596819156600989,0.01761276327477351,0.010902186544756965,0.05757632307275426,0.06076170060154857,0.06545414365171853,0.09771851946579577,0.12433498880953237,0.11147502702691758,0.05855694177642631,0.010505550841406095,-0.013456472407847005,0.044690855511377664,0.046992865931211984,0.08620800712521258,0.09857508417106228,0.08657572977708794,-0.0493275044046473,0.06430487954838739,0.08187723874094824,0.10207189842638302,0.11076793064024758,0.06943818376285672,0.012706320011153861,0.038620390640549646,-0.06700764159479426,0.06276499093116447,0.108054855040152,0.04088819193188088,0.10228373891265195,0.08825311310141296,0.0919906173850774,0.005491097969881478,-0.06873118814037467,-0.1056870320397109,0.027562574600015072,0.05639030879015411,0.019720232251991075,0.032460332022982125,0.04108506203896014,0.01914019628503067,-0.06826884533831477,-0.09431058232835818,0.03990342800159895,0.07915984419642678,0.06588982520818437,0.058078587647523126,0.0005095365513948869,0.020160312264286082,-0.10405717774240422,-0.08737256722759237,-0.00829924121990407,0.08440201606045374,0.17669855925901795,0.22257104116680618,0.1408477253349013,-0.6460367724973892,-0.09210807248744741,-0.06384860113030989,-0.010940243181505781,0.013787481631231812,0.09550833182350821,0.13818286027156831,0.12092960304962173,0.12215112661869527,-0.07093783268486001,-0.06030105932405691,-0.021897514545372834,0.0228398534954965,0.06764013009314082,0.0925541185386509,0.09262982306974328,0.07994467600884127,-0.06708774595201683,-0.04565054702819576,-0.022418116291992744,-0.006775835129438418,0.03330825586545544,0.0549644739559134,0.07222310116958391,0.04926962795808707,0.006205260688751061,0.04127880137471023,0.027950704951933768,-0.004137238885177757,-0.12941090537636069,-0.09012230420712895,-0.02602926060895347,0.0050955449471418645,-0.0033786705436039425,0.08683150519349399,0.1313963024233957,0.0845850504393348,-0.1605081693866945,-0.04671221938698869,-0.00416084191423222,-0.037031053408736934,0.06187812173662806,0.09207434354332882,0.16632325573712464,0.07373967649758457,0.011319228171944841,-0.03257950137181395,0.007806024563806225,-0.02036475565582907,0.2311504362462128,0.04072061553172311,0.11162762591000074,0.13491387521932627,0.0660333555745826,0.0050561491252626,-0.04700857405880697,-0.013143052811032015,-0.09522127411278156,-0.05662882401068765,-0.05244536776296429,-0.01087268361037948,0.005006475936270436,0.0269977747180647,-0.007619045572003799,-0.07689089630167743,-0.07682046113644168,-0.07529351001533303,-0.05745039840725407,-0.056264838588311626,-0.00511488379246785,-0.02218672910665014,0.03548671151509347,0.02751076430671607,-0.10143680124626805,-0.1105979355551109,-0.11291485004305823,-0.09074781674384333,-0.06269763067042462,-0.00027417103002976364,0.040305556261516495,0.10104500490880496,-0.038090718816423556,-0.10974504631085767,-0.16446401821948162,-0.15239220094453138,-0.12034898430569417,-0.09841275730426163,-0.01269368027140456,0.05750209804664298,0.08533833148691315,0.0786650500217633,0.1898834230020369,0.19363592564438625,0.10335973530769944,0.08123615775727616,0.09443159095488655,0.10733056413009044,0.02566273821892615,0.17617384123147214,0.24767895092566455,0.24490963821176054,0.17183099952241312,0.1511074717277261,0.13207479135321845,0.02577596237988869,-0.03349347204545523,0.08851888516728827,0.1904113684137368,0.16757543219821236,0.2243720197257646,0.07953254928113028,0.038354228958890735,0.024160987647585983,0.13227891976291206,0.14123911361451114,0.23646184457461425,0.26481856663114683,0.22242261675477745,0.09768214543065336,0.03333121669753239,0.014770943272819194,-0.16314924201008912,-0.12302874314275646,-0.10057574141726114,-0.10560615888591618,-0.06644264205816555,-0.03541028895991772,-0.02880436964416801,-0.02488536063365148,-0.1331995537277823,-0.13141270767231022,-0.12463807407877746,-0.08162001336633738,-0.10241821180827133,-0.10770637140140052,-0.08402177319000323,-0.10429707905237426,-0.18532266344329454,-0.14850152600838223,-0.1263161948418893,-0.14021948703563458,-0.12947384551845095,-0.15129191296226907,-0.106882063957159,-0.09223809593970556,-0.1860308909943841,-0.15038271532611186,-0.15566246808577822,-0.1597978628631099,-0.1803654393673762,-0.1598938018197729,-0.09973265476723785,-0.05461177485606084,-0.06879648784041285,-0.03701259334504104,0.04144834228427876,0.0385078738621866,-0.004909003482286297,-0.03701152479425555,-0.04427818728623494,0.005780345542736207,-0.12320092193982161,-0.003015120912142201,0.14213059627276475,0.13480163975287632,0.05780651321459946,-0.003848026999387627,0.01829659684752618,-0.07936572029415653,0.06012640096856917,-0.008700107380836895,0.057738908921490105,0.03551332107230338,-0.008838570953291321,-0.04784024785447655,-0.0655465551386077,-0.06843829416569257,0.14783946287985048,0.06320465351154268,0.035857082245103575,0.047071540722619314,0.021755833242964876,-0.004762710098236257,-0.07800668543622002,-0.11968476119269622,-0.013094837807658855,0.010662320606810627,-0.0050289949169027145,-0.0631203545162257,-0.06508695517236827,-0.07635858441943733,-0.09852141889515885,-0.11122723710943007,-0.008944081492950636,-0.0062303709473089525,-0.05282811504876977,-0.07437568607575949,-0.0836196775104485,-0.1328805932102789,-0.10797229189762983,-0.07293629821818089,-0.05884154550061083,-0.05422669429867553,-0.07436801862326867,-0.08549371632373418,-0.11056131116731609,-0.13778206133961995,-0.09848529941811011,-0.03442066785858352,-0.09434813429814266,-0.07845427160577684,-0.05799511957699085,-0.13720154253991043,-0.12789956474238676,-0.10067360825611087,-0.029564740475063606,-0.010005537516978115,-0.13030849331872335,-0.11497322058461928,-0.02604259150737097,0.016026986799735993,0.04234695096700123,-5.1952773949865086e-05,-0.028870857427711318,-0.020839173683245702,-0.04478114848460021,-0.015418199731169676,0.0428034412603128,0.11071090331264798,-0.010198268796479138,-0.0031255388674063427,0.03285058589614842,0.004372008304836679,0.0032350571125632052,0.08142148682130276,0.12851051836033953,0.06210791856635583,-0.009576747693606152,-0.04956896318669623,0.020676470249438583,0.03288770892427474,0.10675119511992662,0.10236126705233907,0.08554906375631664,0.08427608943991029,0.05972798642750751,0.00899602009082297,-0.022020365994479228,-0.015273439662924338,0.010228272149445225,0.023654814613833005,0.005341875835728975,-0.013466239365425375,-0.04363375079701984,-0.10524021519537727,-0.060470200387865006,0.16487897537098864,0.04213150526407661,0.0483199967923397,0.008187172744727298,-0.04191689647188859,-0.045834325313981426,-0.11577893384000068,-0.060631854117390895,-0.032110503932066194,0.04868119885153978,0.06941556891959007,0.01717748939696718,0.04328024309648712,0.005092037753795178,-0.011319753128259407,-0.03430556235011688,0.0194365608818081,0.06529918878230967,0.06300649745400415,0.04865415364026097,0.08328438566504473,0.05893498541097916,0.01883585532513147,-0.026127403486808337,0.012930292103596103,0.08109298841882155,0.1045603198960541,0.21726918655266314,0.2122891123278062,0.041618655561235285,0.00882202761763315,0.02679781511658713,0.057886878280228204,0.14299087003678693,0.1102663706241934,0.2595386015603324,0.2339119310433154,0.0424606117662712,-0.04604309701619013,0.018240354231401502,0.008741849086952193,0.29847563197363974,0.17485434304544312,0.18303856610817917,0.15532949908571408,0.023458452721046793,0.025322045862140548,-0.008516802848918328,0.0063070867443160185,0.18447879139499457,0.06380719456072909,0.03317662697055223,-0.03564539549938254,-0.0320872286134555,-0.029022617709443144,-0.05346420810852807,-0.03431270968998944,0.08329792073671832,0.09736410345633452,0.05309823203394018,0.022601491624443543,-0.0359705819697348,-0.023944981747324193,-0.03116928820641188,-0.009827933603892813,0.1058099459909145,0.08216521578378957,0.098851930078123,0.04294273774505579,0.019097985421817166,-0.017362561874213,-0.030911735917489823,0.022473669609859102,0.030263432189172233,0.06975209632052747,0.0538740500123226,0.04089826484293763,0.04692690930061348,-0.00020304309661779872,0.003342721701248337,0.04190675115389153,0.06828531809833452,0.05088007486275192,0.09750246372323831,0.06959920646451274,0.05037377795207177,0.06371993361810756,0.07661459040296639,0.059117542305451715,0.01699421986505414,0.11616082836529369,0.14259136155712818,0.16000672019347087,-0.04044451048577766,-0.045946642866072446,-0.04395672285537189,0.016164390272036543,-0.047570325986066156,0.06054575159572947,0.1338269078510261,0.02805881501495698,-0.06901381293514201,-0.06256776792346255,-0.019155169376987226,-0.027560312623680385,0.010604716360364301,-0.05826083302698928,-0.011107614267421927,-0.015048869359474706,-0.01823459199409667,-0.008130423846329676,-0.00775622696378235,-0.031940104259966254,0.004442750021789182,-0.07317990215800561,-0.06798270356884341,-0.03438825223059085,0.023861755795389322,-0.009120680642153458,-0.05901545864723415,-0.01852547746415918,0.05424412311404418,0.06876339034530442,0.036028319890851694,0.081889771023999,0.06399675116071599,0.09547584421942118,0.12507384619876133,0.12931509483556147,0.02711603997625873,0.022676743816006487,0.007749455429117446,0.006786565778952316,0.05392808964389942,0.09490207895568718,0.12670212517445037,0.19307856984037658,0.027207798212705837,0.015696518556794423,0.02760340019234153,-0.05082136511732523,0.06433067003929448,0.08557828217054081,0.1414116176377488,0.19779974940112505,0.07397709486826697,0.026451486094788278,-0.0028211421342551482,-0.03133846302399957,-0.024959244341129335,0.07066489834288311,0.14949668177060213,0.13932314589729605,0.11350690942874685,0.11258416552807188,-0.014699824229451425,0.0698025593642838,0.0773948547183752,0.1694340905529592,0.09685798993707503,0.08516951086237336,0.19736782546112328,0.17063120346038066,0.08137731868210378,0.15529703112357612,0.07191081901294127,0.08688818289401576,0.11294813881959713,0.08815328223891454,0.19508046222144676,0.07638264824186686,0.03226856285197765,-0.025098614163594515,0.02167579134730128,-0.006836890759492292,0.07876821478612198,0.07327262300056848,0.2720357956593895,0.1865046190850524,0.12203605923286641,0.07884614675426967,0.02191203277129104,0.0245230783522605,0.060554056206646084,0.0889977370989514,-0.10210592624044779,-0.03427162435325052,-0.002772863496402625,0.005581878664226737,-0.009541066121824763,-0.011419702334733646,-0.0774776733920752,-0.10360054074140257,-0.10229898264914912,-0.05105539002134282,0.016159110418575966,-0.02297368142559563,-0.03544622496774465,-0.03386184558683781,-0.0806328590529806,-0.049585243374113595,-0.08401691752802998,-0.06651288190341426,-0.02551494770036595,-0.06696920045776675,-0.07498334575379888,-0.12337242881451008,-0.11294987984368665,-0.08605896257400111,-0.05257376874927577,-0.07333548372166043,-0.09193472405713396,-0.14058527231747478,-0.18684970942080947,-0.15581259784041931,-0.08339469218918238,-0.07642054313687034,-0.16980083412457064,-0.0946742162203457,-0.006690871995239862,0.0008232719445157773,-0.10979078236077622,-0.07427688515238719,-0.09736068839025849,-0.09814123704931832,-0.1508544520677529,-0.03277374144372509,0.00978774017641216,-0.10514980307848082,-0.1787476038775987,-0.18836814352388537,-0.08185501505384464,-0.1468094426361557,-0.22841261112036956,-0.0926555503222796,-0.09162369732318508,-0.1679098040718648,-0.14616067711890326,-0.13889869471209274,-0.11842781482858976,-0.16176077021496704,0.05454198491680172,0.02902142586792779,-0.05108038191660056,-0.0989176356725985,-0.07568011795707755,-0.09390682432751414,-0.10621684064471754,-0.12546355390771016,-0.07876707401078373,-0.08482627253076601,-0.1255960590663457,-0.12241217154047376,-0.1418957807135143,-0.156670092468689,-0.11630223942400733,-0.038843902184830685,-0.02597062165191543,-0.0333231500242169,-0.05160857719296934,-0.09653915451836886,-0.14002806404788626,-0.10685666502078209,-0.12191271348049,-0.03166929462698213,-0.0061051548715250255,0.0020596474424583876,0.04040665235007322,-0.04781888938141025,-0.04640645457645463,-0.10383505670126933,-0.0948943943068988,-0.07490001766843056,-0.01410457066818021,-0.027160631113993784,-0.05271967783600552,-0.06213321680675025,-0.06270141610536907,-0.07924505824874341,-0.07065954200727602,-0.049593957588859525,-0.0765348930386379,-0.007534056024762158,0.03128766259882045,0.07521625043764156,0.055319953259753404,0.03170392600815864,0.028544842576597045,0.06051156124126613,-0.14606471807012827,-0.06013755874500382,-0.03938652571960413,0.007740084769692636,-0.05954832816377854,0.00573993271421205,0.047377006466343775,0.08281705760600416,0.0413376470527886,-0.14742661636126006,-0.21017845703838167,-0.21458400856095847,-0.08435690997182577,-0.06069299912664263,-0.027433304392326906,-0.00024320339691603077,0.01644203947850566,-0.10910902599198048,-0.2666384902442714,-0.3063738654503878,-0.2037943254264985,-0.1498681731599299,-0.15936701819561613,-0.06252655187103877,0.1550121193959976,0.15190438504989537,0.14072742962294324,0.13921361096496584,0.19190667348256554,0.14499801602962148,0.10967792817623254,0.1519457598394004,0.17782019613589153,0.13606999504269923,0.17086203716501563,0.18324853495665752,0.18668730913125606,0.16371810886082774,0.08772715357800832,0.10774444213466194,0.14196494844922913,0.10374646315552599,0.1491634554206345,0.1655639693492354,0.20438276725383092,0.18443667027585997,0.12031113939441199,0.14635110286844985,0.18648371320073442,0.12600961610592248,0.1334524919342074,0.17242671104019452,0.17841977103225615,0.23466751883966525,0.12190822635511908,0.13481785724771003,0.027493435576024055,-0.05452276190122564,-0.07864605373553071,-0.02616480691110345,-0.046875889222720894,-0.010946450703434444,0.03037962045881844,0.15264826818457394,0.051954917260708694,-0.06816915175899584,-0.07884115976155455,-0.11220413212356407,-0.03265867508856902,0.009271814210190514,0.12060386708856406,0.15307060532291883,0.22672201721778032,0.04372458520263866,-0.034475913861890806,-0.12137082066086778,-0.06068130955664431,0.02374500876936081,0.11162860134311882,0.1811393530236551,0.36821701268721335,0.2178897265315985,0.07485440412414004,0.03757073744529712,-0.03147960588898635,-0.013129776248286418,0.0454332576001476,0.05799263379776974,0.018319103222255134,0.031245096360936326,0.040514781318735225,0.09698811985395228,0.15678821591025885,0.08860407116524482,0.1104652673283291,0.06949453731306533,0.032793881791977036,0.013582236917008628,0.03244309042269079,0.09381645950224722,0.12832680642317715,0.11301908961350504,0.10352299451544641,0.07364573641763456,0.013005390054024001,-0.013083043892259715,0.021176313252271286,-0.01641546413837142,0.010924042520371912,-0.015429431234541572,0.01149838458269084,0.04703131068493529,-0.028778149176518112,-0.01001398615057391,-0.10164189221627566,-0.08318744632741185,-0.10928604590139009,-0.021730233659224094,-0.0553382009840247,0.0005515828849122814,-0.03579423840957986,0.005376379010329276,0.0918697260206023,0.14843954951897265,0.10595330206360885,0.04229165675480616,0.023036458368548486,0.037759361288051276,-0.054755594985393986,-0.02930144003303627,0.03614476850638037,0.11832250334171222,0.11742535158533506,-0.026131587527059918,0.03299634808090146,0.05380330594535734,-0.0011749661504214315,-0.013935264401991432,-0.052169326949143884,-0.08672259622259555,0.026421009271974463,-0.018997802806237238,0.04030438125178678,0.059379788413207985,0.049829452503741954,-0.04786350081460507,-0.08081583803635965,-0.1445956452936478,-0.003415342507191792,-0.025659014396566465,0.023137311152430264,0.08696162167341003,-0.1265924171268229,-0.046514436283942744,-0.037247205994183887,-0.019854415840425334,0.019280546400362156,0.03552436125476906,-0.015043264858664033,-0.03652744714789896,0.0047063491528555965,0.051664645157589485,0.10284502315284001,0.01067038247620995,0.022880449383010915,-0.0020480009211254215,-0.06512011492618792,-0.07455251662200962,0.12535244077529267,0.08623828309618774,0.1270280673123993,0.11128165880354121,0.06256339199615821,0.04950145610847214,-0.05635346207130287,0.05696430123299145,0.16961613706392945,0.08748553121988357,0.12932175178213187,0.12258326625763848,0.11594706259310027,0.10051830403719296,-0.03292601326438124,-0.042179560107835065,-0.10150491829763225,-0.12603123705158722,-0.11500432627092087,-0.09030120748144298,-0.09628986659582082,-0.07441632219574534,-0.10026682665842264,-0.1097321096997205,-0.17782357473486404,-0.22961933937533735,-0.10023824890792053,-0.10813511441113711,-0.13532279730632987,-0.18361442542468753,-0.1137080653207554,-0.10813003203351769,-0.15715827199837887,-0.1679398300218073,-0.16937273278256157,-0.14791306883964916,-0.16401993551322996,-0.1846741546464602,-0.14298072252429125,-0.11371904426586907,0.037748667836080226,-0.13722004680360433,-0.21602916748739126,-0.26234010554385134,-0.20129256450314234,-0.18811020544206064,-0.13776140899881664,-0.12467142566540546,0.059236419487925074,0.048648977509918985,0.014327115154664795,-0.019577497151934298,-0.014094564316264534,-0.049062473506363294,-0.03291967570068994,-0.045010484340965495,0.06580006526908123,0.08714201856167701,0.031518461788652447,0.027017391651849083,0.04928526215031172,-0.0001457903319405578,-0.008969232638510755,-0.017803602534159173,0.12193992612708332,0.09960816800799914,0.08940439537884727,0.09500959445897955,0.08677108949333621,0.06973426465237403,0.05626660324197176,0.05578301351321473,0.15326482232723107,0.1210948725177876,0.0877115148487287,0.10552643620196309,0.13632051829430764,0.09917849478019158,-0.00814804259512976,-0.003704135755633863,-0.1628797783860784,-0.16162162706636168,-0.021007968732119877,0.09809792151571502,0.08248023949722727,0.020721556068972472,-0.017099755728710395,-0.024121620314753813,-0.24842307937025057,-0.16420988605240452,0.04423266743930821,0.017951213827264292,0.02936305585868881,0.0006702501324762195,-0.0407889174252352,0.029972656453888295,-0.0711694486265305,-0.2202176937762185,-0.060954731827603394,0.05412892777099588,-0.0038613754303817144,-0.07277475178406681,-0.08087430040225776,0.019845410682018866,-0.02902099475572062,-0.1143244893720914,-0.12581776504587444,-0.021394710871594468,-0.023834304009944556,-0.049163089652616294,0.013691875144731754,-0.027477695294127226,0.0028951192183613627,0.06368763296467285,0.08232674316617829,0.12384014436960307,0.105643019775344,0.13826493477221358,0.0524304665580722,-0.05366875370152568,-0.01969242386677023,0.032615339780478994,0.1050280542998261,0.16319527389551416,0.18003557601378586,0.16537198911615078,0.10363094694506521,0.015479823823391522,-0.021361550175769312,0.0150359089075657,0.08175307408489672,0.13520331108572015,0.13912588192865036,0.07745620374461228,0.005507655740303756,-0.05276454066143265,-0.10269133549501189,0.001075153069900542,0.006918194531589764,0.003451714386338199,0.015006549205729474,0.02705231838794558,-0.06428847815481789,-0.07195648146300714,-0.2220643775941858,-0.17730984088151386,-0.10550360118974145,-0.03826587419826196,-0.051015964996722736,-0.000663424713915357,0.019716437686567733,0.05899260368357959,-0.19504284641872463,-0.18604857581618636,-0.07033542568903595,-0.07182108161411228,-0.02543548931596197,0.0017220871981160552,-0.016573531224354364,-0.003044146356342824,-0.018244911567597864,-0.14433167587231857,-0.14583116032688273,-0.15477727087163848,-0.0595594105467764,-0.075710886172594,-0.020911464803787687,0.005020578445791273,-0.023572065322650274,-0.09502276298896212,-0.08776221775380268,-0.06304150578796629,-0.10271202765779885,-0.1003267314142513,-0.06301423128388155,-0.019446729574954108,-0.13974350932171462,-0.16407499036501963,-0.17308707514509242,-0.08777975568575229,-0.0249623077319546,-0.05806037515917735,-0.053021122756882845,-0.07348776872609761,-0.1385292542327039,-0.16385315317820243,-0.13069681798175958,-0.15008044370328508,-0.04774355015464442,-0.05650622589583312,-0.032347634057207315,-0.026105084197721166,-0.18368629792550523,-0.18475078013357246,-0.1558513635144093,-0.1310721869967208,-0.11333418548152002,-0.022006731225436414,-0.0863600144507136,-0.046212944294165205,-0.14881964311260648,-0.18006527367333708,-0.16560049663627416,-0.1775446099870816,-0.08387633108900644,-0.036144161182167255,-0.01213249920150059,0.01316141993309423,-0.25750130145102407,-0.223415008212685,-0.15694564423645682,-0.2378825821679865,-0.18697506766339342,-0.15488118328378997,-0.142758814301309,-0.07620951281418979,-0.2767440319561969,-0.12941290494536367,-0.033681948092731825,-0.037109043906663815,-0.009286007528317076,-0.13145841865013433,-0.12049517174993576,-0.024862323385094885,-0.21484643740098547,-0.10198476332684794,0.014422402927747836,0.05060228281321361,-0.015820116241873128,-0.052724937400143675,-0.0817594043002157,-0.05247970031206528,-0.17861652429713565,-0.01987369504900223,0.04589545814267262,0.09177579144275509,-0.02324288590953384,-0.09202336096364544,-0.06304778803467628,-0.12151674275496838,-0.00658796813956003,-0.034907182631213896,-0.057154800434130106,-0.10879382896320615,-0.11797766615848604,-0.03909496459489842,0.04578426628398012,0.02902748955596263,-0.07181601225121328,-0.03984737207925468,-0.08669892327495866,-0.05537272240327659,-0.05098552915495537,0.043450251133103454,0.049699509954473066,0.055189048605652206,-0.06858502879054713,-0.032935925234757316,-0.022902493553459465,-0.07157833173729093,-0.061385932878227585,-0.04187183694426452,0.024226524909531418,0.010241711687064505,-0.0012044255953678673,-0.006675301589799,-0.052209389891593766,-0.07276564121124439,-0.08840747793008535,0.053530111295414365,0.025865352937915462,-0.019231199009888362,-0.21886057798421157,-0.0126115736154342,0.024115842085660293,0.0569380707329431,0.057803557183959034,-0.007081554261245696,-0.025193519381264698,-0.022750627482017248,-0.2346097776519624,-0.013605251412273223,0.0060188477094165835,0.015238530982036421,0.06718599475707047,-0.021486897925741683,-0.02259025101660131,0.0168274786021285,-0.15076544809367065,-0.13151079937452803,-0.1726684357200211,-0.21863540767084624,-0.07948935332060116,-0.01042837362309313,0.027521731992156042,0.02203188198292134,-0.14558738952102077,-0.05707844953679548,-0.17755267227098603,-0.09914556230889322,-0.06843543761926,-0.06292203678052186,0.03567085166846533,-0.04028932394238567,0.027215965714005443,-0.0006931741925710985,-0.005870182906634345,-0.08881777885487252,-0.13693892384822048,-0.1589041700039623,-0.09293993664892487,-0.12270661043199621,0.016504188447507947,0.03847086899767343,-0.012909639357303852,-0.030231260440981848,-0.08173148096819184,-0.1223531927143021,-0.12639123225611434,-0.08159896326982745,0.08985163575388828,0.08202454261937407,0.046720993579563525,0.06298012830742002,-0.0016770137063407194,-0.044876395191263456,-0.07469643054622192,-0.014215030746718397,0.08512543889201175,0.09009819321780176,0.031242214806361513,-0.022713646043842906,-0.10135739788161655,0.033628207261341754,-0.01210259824590023,0.02084371499374305,-0.30789817248982393,-0.2447132763011943,-0.13809410789622367,-0.09540636069043718,0.05410457929820316,0.09206023045349371,0.10177109314455579,0.06207068234855538,-0.2660002992312367,-0.266753956909749,-0.15652454319224213,-0.0376054456762987,0.13036676181064943,0.15636277427616435,0.08079916514551748,0.027069747888733266,-0.1811747527488615,-0.1709140052515467,-0.16486417074185922,-0.10795966916398501,0.039763691541738554,-0.04165028818225292,0.007696805112616242,0.008023765858856115,-0.09046518564046896,0.0372884666350128,-0.08341582305908345,-0.11458711028286885,0.0146892073668341,0.05342650756728245,0.12396651575354463,-0.05544889468383745,0.04646975684859493,0.05842768100775847,0.07429108784201173,0.08014111735997409,0.10652645236836161,0.02480677096385246,-0.029448840435672974,0.04060149709144744,0.08140846040602193,0.07590981187952445,0.024522466450839723,-0.0067294788227530685,0.025893017177184143,0.0377473970569646,0.07104467368449949,0.03401214769304239,0.08326697009621235,0.07915905362901465,0.04857948380899896,0.07776175719139462,-0.0027293878809301086,0.03264895891239027,0.03527671936417732,0.04074654787452172,0.09302498343893542,0.0758066391460163,0.013635913650987314,0.023033240482601674,0.0232747251516516,0.14062820587463332,-0.0022004699015628613,0.03956918904838484,0.08924766902399184,0.2352740570587771,0.36343544237516956,0.22889511876285576,0.09401023685269128,0.11370789514539874,0.05628591215364194,0.03106803723112388,0.11614652557638806,0.16113678481946964,0.13665692967188195,0.14753615899585681,0.1152087621379247,0.04494181197621476,0.02051197391886249,0.04661306669627602,0.05015308938973688,0.008422503469158897,0.08013569846030709,0.11266432543767577,-0.053489631506799,0.006631671707524615,0.05860162740368282,0.1010816488256028,0.07242446205220275,0.016737221752369837,0.1995563794448465,0.10341203008387725,0.01497901334604505,-0.03908442187079896,0.04543544404551835,0.10923658889891223,-0.035898838057585286,-0.0277406925171086,-0.03688451352587344,-0.06014850640720413,-0.08538710814941927,-0.17886129109770169,-0.13470540011962637,-0.12925096262345995,0.03205253871122293,-0.004840147257516706,-0.05436467999925508,-0.07266584956005995,-0.12545089490284306,-0.14182024691674192,-0.1314389941356656,-0.05713767159829233,0.014030813768008665,0.016914854484571817,-0.01070907364144885,-0.06812092245361238,-0.10008377723756275,-0.12722955337866945,-0.0749206512412853,-0.057370460911836,0.012424165584603209,0.0017912100389230502,0.012718738457475324,0.05382232166066127,0.0528179408354391,-0.0050033358832230045,-0.03485362717406733,-0.06022645721335852,-0.19774484984425234,-0.1815065314946756,-0.08318008133338967,0.06670382759666023,-0.03264864991523031,-0.0015357639163165596,-0.06850286296069678,-0.12206136028997291,-0.1139322997897012,-0.028861577383303964,0.03917301183330416,0.08941526799819434,0.17951844186100074,0.12449430236828826,0.0015364932323721427,-0.039182410700237376,-0.11179381367767638,0.14358419785367124,0.19934384388342485,0.08006101335688731,0.11505716272316668,0.06262865963718318,0.04700061151974136,0.0052006738068319435,-0.03031948493173466,0.01437204498812093,0.15162469048496643,0.055933720937861364,0.006206174249009657,-0.004791397820934554,0.015004718887791367,0.02147157962841206,0.011059787823798883,-0.032023491830865745,-0.010204264957460234,-0.0008004102132949007,-0.03212141255997656,-0.06549100570017873,-0.11399334648842505,-0.0855377020069039,-0.06980776589658577,-0.04436476707940384,-0.04485525600805383,-0.06726825444661151,-0.13209914344046386,-0.14034283202142234,-0.08779824251996528,-0.07113143263313063,-0.027354324641546596,-0.08583933181640484,-0.10449976861879631,-0.1667914621489783,-0.14976969990560032,-0.19917925841118805,-0.11584600132667593,-0.05534242571539435,-0.039058389038516377,-0.06675351434930771,-0.1349529995442594,-0.14732011997249927,-0.14003115804596672,-0.10505943414263486,-0.08828070872467941,-0.08990318872304916,-0.19163620583403917,-0.16027301232815588,0.012931426916529392,0.04786827169887699,-0.04534978313691274,-0.11611180714204564,-0.10941726367144897,-0.08798618313336494,-0.26298362548655635,-0.15520566690968632,0.021588589856752202,0.0883078396041478,0.04143091395671975,-0.025560747021093108,-0.04019300747110259,-0.023109692672766302,-0.2517436396090069,-0.18773332795627246,-0.07490206500052068,-0.014528836657782622,0.027916643648307215,-0.00794895941227121,-0.02182320732909224,-0.022138836464116993,-0.11542677208095072,-0.08492923094334395,-0.1559522201831537,-0.03003055961895623,-0.03308178543001447,-0.003705535836353847,-0.029658655007250387,0.010394000889552663,0.08221464650163443,-0.006251598025104158,0.01982054766440694,0.07503937999075229,0.0806024562243266,0.058367726244647346,-0.018034414867654065,-0.01690505700862543,0.05481294275846701,0.05735315609672594,0.03103598813815574,0.04733571924593307,0.05589779054357721,0.06472488513986512,-0.023118986427048353,-0.05436466059202481,0.10652932734115024,0.05828321491320544,0.018921571792954492,0.007139438537616194,0.07665801502954886,0.04484098724064823,0.02221698646462127,0.03178474606363881,0.06766785428002697,0.0521421132260132,0.03630625491752157,0.060278235690416224,0.09459313575685843,0.08175584763375057,0.057326889236812985,0.06741883079689519,-0.18512348004922102,-0.11092444710519846,0.08568824671281695,0.1665681137992444,0.0675777429935337,0.030634037826591822,0.03764935324353108,0.08905496092517023,-0.1611021653132189,-0.02076678349356228,0.11860967550120835,0.10264658705213359,-0.03716767187153472,0.03603209313478901,0.09495239863991317,0.0433505171886312,-0.2299193265859222,-0.01174814810067384,0.1471261543090372,0.04359021978841847,-0.05847828807060418,0.009495052787229258,0.06094373624926435,-0.0036199714785261085,-0.1720347645655429,-0.1308176546057355,-0.009063770836699602,0.11405660962835779,0.06555065747005231,-0.00982568590332816,0.011230173932244897,0.004393997694782888,0.01776415130834248,-0.034307234674948554,0.017737814969854798,0.14801943506433565,0.16193754605550265,0.05359377005124862,0.0631710413862197,0.046088741326630225,0.05314911442997124,-0.00179279772424864,0.008588001865511646,0.02670531801316724,0.018942712861024922,0.0008399061360925485,0.04336528372041663,0.09936977477825751,0.05041416600541003,0.012017117660137383,0.028868177856770982,0.028645269839338454,0.043171797589676895,0.05334517467274965,0.052627002295057686,0.11853502979977922,0.07808047521816966,0.06296166393841444,0.05544178824537863,0.07676613080983039,0.06919841230663162,0.08558305519635864,0.08380996273146604,0.09688796095072497,-0.10369418633990787,-0.09894931627965832,-0.01039277016511828,-0.035569765122885295,-0.05674453257473841,-0.0683244859545963,-0.08875224833337228,-0.0578302318811421,-0.12178671156020857,-0.11042951670440065,-0.03152634773560512,-0.08012957914173428,-0.07883505181984178,-0.06342792741287755,0.009201595535734524,-0.0003417981467589331,-0.16238620599536435,-0.16861150068800068,-0.07694531193975743,-0.06320987289558375,-0.0546371992696172,-0.05805117946693105,-0.011921847423748213,0.004273273470723206,-0.19722671450066062,-0.17446093039058866,-0.17005642888094208,-0.17659892184462128,-0.1147208083409849,-0.036015196110381696,0.025715284779631736,0.019889376484242844,0.11329068967627684,0.06857521402347135,0.046947597423109465,0.046705300372509743,0.020366361935468525,-0.01268475927668396,-0.03659221508691775,-0.04408806536431347,0.15812014764906585,0.10629370662766785,0.04714463242136091,0.019646312904911627,0.04690922728573469,-0.025275971793981312,-0.04798996407124906,-0.0910459239638538,0.1691201175933827,0.1026517129938781,0.08302581191359396,0.058346939261071915,0.11571217511095339,0.051661203794044146,0.0021601336745863415,-0.04401274053713863,0.10037505362940079,0.08043954323825164,0.0790692215080173,0.08885595619903451,0.06769621575763625,0.05127025120063849,0.06584441233486368,0.041118151723100765,-0.03069180142169528,0.1296220934002708,0.291863394442276,0.11703816855919949,0.07962828207128102,0.11806972209211758,0.12067131405090678,0.13642144427956554,-0.1444782888036237,0.09852319069051131,0.19800907542481272,0.10918907336251304,0.10972643845425185,0.1328223794008761,0.17744198624699775,0.18124889571006256,-0.1779847049786179,0.015423856353513583,0.1485558801717438,0.14112313740934512,0.16239302226769578,0.1664001261448386,0.1728467336359505,0.1789917401654802,-0.1892328907142685,-0.14135498880806552,0.07991727089213735,0.17949139060425176,0.18150270698413346,0.1880046097646126,0.20155460948695275,0.2533406495355343,-0.02393383551327097,-0.04696614485789406,-0.057907266688080807,-0.03482590476692068,0.008367737719420634,0.06970053667619211,0.07859618473136364,0.04880351806271442,-0.06707167906798416,-0.04748276671315509,-0.06116996495448851,-0.034152935524194294,-0.009659926712768769,-0.014255164255596833,0.004751235693620311,-0.006573124895263974,-0.05102415016320595,-0.04502550868278808,-0.07038097460615426,-0.10506894122244027,-0.059702155072834155,-0.03881368623875158,-0.025741086373492473,-0.07355816824081733,-0.014548023266204286,-0.054760626130302394,-0.09653256934296921,-0.11187592104205953,-0.05887424875112755,-0.05229823664257196,-0.004823447496131707,-0.014020401606394953,-0.059353345498528554,0.0475301768245182,0.113578646933508,0.20819348659049544,0.1717167456238138,0.11429250481881585,0.03828990376004731,-0.02048809838114045,-0.0445392143610109,-0.06556822891237282,-0.003500837535381885,-0.05004000025445505,0.10965374713410644,0.08126993997046371,0.07955762616236621,-0.06048798955312222,0.033504131369742195,0.02979899309604363,-0.022493227309546285,-0.06680844267691297,-0.03533191288197946,-0.0015811718168651685,-0.013222077226236889,-0.10589405865184497,0.13512387851461105,0.05166298909028862,-0.07458386535297697,-0.12596525964136052,-0.07650523311836076,-0.03747130652091088,0.0011560622044089158,-0.08544742231120167,0.03190589756219433,0.03429628775901507,0.03800801134293307,-0.004507601434304638,-0.03561973191098475,-0.06172253113896114,-0.06958138865168058,-0.11806597122769516,0.016337501819068963,0.0478684084336682,0.016225944197739765,0.05292012529881453,0.02267713876796813,0.024489310030082367,0.025280358514409015,0.008982984972128657,-0.00801775605675535,0.020091451448423194,0.04020364563664905,0.06197567667272316,0.05590017269352441,0.005327034412616685,0.055763693265849054,0.09702792671207865,0.004090776872255988,0.042285561947558274,0.04852742429418105,0.0451167941464823,0.08379761498359607,0.06097857148120376,0.055466122057373016,0.08665331437174596,-0.06659133347487256,-0.10443443307074704,-0.07263569857862034,0.00408743823359512,0.0678719890763755,0.1476519448738165,0.15867156009127606,0.22297099698270328,-0.08831838996908871,-0.09433729798722698,-0.02042698453771404,0.020388262780431217,0.061634405479874595,0.12322039542332235,0.14438519730020025,0.1501568025458718,0.01384716325774247,-0.1063690889176269,-0.13306590283099112,-0.08091135584579204,0.0686179285170973,0.07718497038852581,0.10517599956937725,0.11862280426300777,0.12783625225056428,0.040356479189386826,0.0592064692940314,0.08579435784716243,0.07963573254970503,0.05366727875584483,0.06402223525674325,0.06774800057646167,-0.022631477586174543,-0.011329339721376256,0.010211300682066172,0.028887774770514563,0.014600187581884546,0.031087293040750877,-0.003586871660290513,-0.045355179426017585,0.019832813590629293,0.02738153635560782,0.052361907525123236,0.032085337945129175,0.009231854380972874,0.0457506434360234,0.03301876292153746,0.016826167050864423,0.0687351626867588,0.03224663110433336,0.0651531130459154,0.025982857216297162,0.027746414018778368,0.01125710291581596,0.020092122339901416,0.07039548553003912,0.08202917800642055,0.04540022226587304,0.04729809682662457,0.02956301251075365,0.025008134698644446,0.004148091834542415,0.00039200525155554333,0.09478816148787178,-0.28154770317805883,-0.23695039571773902,-0.06265098129516145,0.10758398265097541,-0.005924903002379372,0.06766748616508672,0.0354622276972031,-0.01644136747351515,-0.13480801178700513,-0.14168725766541299,-0.008815208014320314,0.017126502617784728,0.09833781365814594,0.09057399822288177,0.036554933384939425,-0.05945397720634671,-0.06142036473767933,-0.15114728399677532,-0.06985968552314321,-0.03360738205901125,-0.02481433011522321,-0.0011102714520584787,-0.008425068769451476,-0.046975971783179374,0.04827254814542449,-0.1725673192131238,-0.2647247355575011,-0.14729258976505388,-0.021430010554517792,-0.02707560709998746,0.02937829387168665,0.05173907047016163,0.0011404114519356495,-0.011918920701506122,-0.0024082143450338336,0.034532436382362725,0.02979153569058952,0.1322968409366235,0.11567061719546665,-0.020501512310309312,-0.014574377346427903,-0.0031984024685718193,0.0027464784226971265,0.002697902242330384,0.06676900507260884,0.1288595248692808,0.07886998991804492,0.018163262212421677,-0.04738999133894055,-0.03850952681309613,0.03140915217696869,0.0054217433114563075,0.10898721395207568,0.1471669005412466,0.07633876772903704,0.05856120616344459,-0.03432126035740881,-0.02993233468312994,-0.06409799907864915,-0.05492211744643236,-0.01724544175623626,0.05365728569795414,0.14084752814183152,0.08041049429033116,-0.12275335416959239,0.040669730541902725,0.09278653815997497,-0.08223372658000014,-0.013735781799413125,0.06192708692680012,0.08045850724961223,0.1463293337491823,-0.14993055209176298,-0.024132108810288874,0.16678180185708424,0.044924946197046324,0.04583223212454493,0.06680764512731477,0.04677112009210792,0.12183411198440869,-0.16766345675264985,-0.05659516118844486,-0.02020248426157285,0.0406825917130381,0.07875927711229483,0.006433481373069022,0.07581624721965385,0.06003617443557833,-0.0242050292021291,0.029930154814755482,0.0011486013832381497,-0.011482068332401747,-0.05064369063146151,-0.043865200229810504,-0.019461832494717675,-0.019854808182314748,0.10380356378423497,0.13184403605902137,0.13250198996914217,0.13033314206790936,0.09213397703715138,0.16685813463413252,0.13337189155181325,0.10280510341835442,0.12389414342462049,0.11370202933460657,0.10132597661841235,0.05736650854154145,0.05477822256566363,0.13111643336554382,0.11101192619782826,0.10094845950432607,0.14108592927798816,0.10958184177521411,0.10141591814794403,0.08379566747237426,0.057453106648786736,0.07419603422187995,0.1160406775980622,0.10051622460971331,0.07161623458570619,0.09169948537428738,0.10265253529112575,0.10412581741957332,0.1766367709913935,0.1956710802808992,0.14885770454509292,0.1457912976175784,-0.23634252347657536,-0.11466351245182634,0.0453107347668031,0.1464446920620325,0.20016865476018353,0.15111781041503658,0.07656441859031858,0.05569438417074233,-0.3341589428461702,-0.1705032475906408,0.07796615095806517,0.13320841833322167,0.15950051926285622,0.10457529664604849,0.14622209914490325,0.12351840315591311,-0.30451751842370467,-0.19461131817910074,0.0267875528261392,0.10769280472482344,0.10801506121063681,0.1416658974816342,0.16101573333290986,0.15464823196750588,-0.17691764757267428,-0.06653542526718037,0.06800070571249855,0.20015694904740133,0.11216082250203745,0.14789581903239757,0.1637050479897273,0.10637138411640218,-0.10286278745800062,-0.08469209233416498,-0.09527442337599172,-0.11887530172233657,-0.16509934587385686,-0.10084954537275378,-0.06394815225498487,-0.0859804195681174,-0.03771134946803656,-0.10305089582699237,-0.08221664863639803,-0.09583543936366766,-0.13398837091894614,-0.09460389065282325,-0.08809136624081684,-0.044589922500694795,-0.09326152569822801,-0.09913091229032457,-0.05088768578820694,-0.06885911852735531,-0.10956720452860924,-0.07019159459702776,-0.005082920149914126,-0.01583732217446357,-0.18516276425058073,-0.1371694112416963,-0.09577848058371058,-0.0636104039839817,-0.07373862078635057,-0.08443116981192943,-0.03718854341738991,-0.016970759499179203,-0.21365279709325874,-0.05204072459368995,0.10344693984796482,0.03647555130094698,-0.09023284901278929,-0.09870528272750173,-0.14408574362402318,-0.12061042972603433,-0.22275981412923118,-0.031731529702591375,0.1413994423920923,0.039926562206390945,-0.028206198963005247,-0.03411742256812251,-0.1038506536702741,-0.12614784591296377,-0.2994223328827583,-0.12060253739089664,0.09152915162454275,0.06086521816793546,